SVM-light Version V6.02
0 # kernel type
3 # kernel parameter -d 
1 # kernel parameter -g 
1 # kernel parameter -s 
1 # kernel parameter -r 
empty# kernel parameter -u 
14598 # highest feature index 
2865 # number of training documents 
481 # number of support vectors plus 1 
1.0201835 # threshold b, each following line is a SV (starting with alpha*y)
-0.018500785264148403297390643729159 3:0.077910997 10:0.038864002 11:0.056189001 16:0.080154002 23:0.084408 26:0.075145997 32:0.23225001 33:0.205283 35:0.018242 76:0.039632 83:0.063359998 84:0.106631 99:0.048836 112:0.028728999 121:0.055236999 126:0.047826 142:0.073384002 145:0.101791 169:0.063911997 170:0.141348 208:0.088422999 232:0.059785999 241:0.042925999 258:0.067016996 292:0.065691002 310:0.181319 316:0.23395 336:0.222739 385:0.109669 410:0.077335998 426:0.078327999 452:0.056380998 478:0.11298 504:0.139669 516:0.146302 588:0.226024 627:0.090806 631:0.20499 699:0.080063999 750:0.25925699 840:0.177553 846:0.100146 856:0.103204 1345:0.15242299 1462:0.28268301 1466:0.26647401 1902:0.098389 2306:0.184558 3539:0.16695701 7739:0.188642 10188:0.24400701 #
-0.029835942099083453959984524317406 6:0.043159001 15:0.046503 23:0.143114 35:0.020302 36:0.040863998 37:0.060571 48:0.080444999 58:0.094051003 69:0.057126001 75:0.056090999 76:0.092561997 87:0.038663 108:0.074709997 116:0.228257 119:0.138165 122:0.091628999 156:0.097254999 181:0.136078 232:0.066536002 239:0.041246001 240:0.091406003 258:0.12628201 272:0.058687001 276:0.044638999 297:0.275004 340:0.082076997 385:0.122051 427:0.1066 434:0.078038998 470:0.073108003 497:0.046659 530:0.078321002 627:0.101059 653:0.195628 656:0.150529 707:0.107124 803:0.20939399 933:0.17374399 1007:0.19446801 1149:0.230593 1549:0.115081 1653:0.15721799 2022:0.135701 2184:0.105412 3666:0.155551 3950:0.175153 4568:0.47777 10827:0.249608 #
-0.035581742001125127305982687175856 10:0.039337002 23:0.068926997 87:0.059535999 94:0.071359999 116:0.119312 126:0.048407 197:0.113135 198:0.172985 216:0.068351999 226:0.100076 232:0.035739999 240:0.049098998 272:0.053374 273:0.092849001 276:0.040598001 370:0.046445999 387:0.078358002 617:0.092041999 622:0.112674 627:0.091909997 633:0.096019998 637:0.093539998 654:0.092174999 691:0.15101101 723:0.091738999 775:0.114642 787:0.083296001 825:0.26218 837:0.072956003 974:0.164417 1137:0.122637 1167:0.38402 1170:0.205109 1217:0.075906999 1435:0.105924 2029:0.15101101 2231:0.167127 6829:0.24697199 6830:0.43451601 6831:0.207049 6832:0.227011 6833:0.24697199 #
-0.041194146203301230946269839705565 9:0.115773 11:0.067716002 15:0.047722001 16:0.091541998 18:0.067910001 41:0.057167999 44:0.042025 51:0.154994 65:0.076930001 76:0.045263 85:0.079092003 87:0.067179002 98:0.064839996 105:0.096665002 146:0.144877 155:0.081036001 196:0.200758 202:0.093442 208:0.16651399 211:0.112174 213:0.111221 221:0.088166997 232:0.040328 239:0.024999 240:0.116267 241:0.049024999 244:0.054145001 312:0.093010001 346:0.134314 352:0.054113001 385:0.059682999 396:0.104008 404:0.089458004 410:0.088324003 415:0.098361 426:0.089458004 497:0.047882002 518:0.110663 529:0.138381 555:0.120258 570:0.114583 573:0.20385499 579:0.101967 588:0.108176 634:0.105079 649:0.118567 682:0.147388 822:0.13209701 824:0.13628399 851:0.130022 858:0.070432998 951:0.108347 977:0.099781998 1122:0.111599 1305:0.111034 1309:0.14729901 1353:0.097733997 1439:0.19792999 1804:0.195329 4796:0.22637901 8327:0.23363 11308:0.23363 12554:0.24297801 12555:0.25615299 #
-0.067461660818881066803420765154442 2:0.101596 10:0.044833001 38:0.068047002 44:0.042447001 63:0.055822998 69:0.059214 76:0.045717999 127:0.098343998 138:0.077114999 149:0.091848001 158:0.14709701 212:0.086254999 214:0.121005 232:0.040732998 236:0.098774001 290:0.066462003 367:0.315853 370:0.052935999 391:0.188489 393:0.069712996 434:0.16975901 479:0.139338 506:0.140213 508:0.157616 858:0.071140997 896:0.095046997 929:0.107254 1112:0.242924 1364:0.128418 1450:0.10661 2007:0.338496 2274:0.155112 2275:0.209364 2344:0.209364 2551:0.13133 5299:0.47986001 8364:0.25872999 #
0.10000000000000000555111512312578 11:0.089181997 35:0.047741 123:0.17703301 131:0.169826 247:0.200707 326:0.24594399 405:0.21639299 568:0.438247 723:0.140095 1120:0.691504 1121:0.303516 #
0.10000000000000000555111512312578 1:0.073807999 11:0.036223002 23:0.042753 35:0.019391 36:0.066083997 41:0.053206999 45:0.067455001 76:0.042126998 85:0.124637 109:0.064765997 116:0.074005 126:0.078349002 137:0.052845001 155:0.1277 203:0.119494 221:0.048464999 224:0.224213 238:0.1464 239:0.023267001 257:0.084540002 273:0.28725699 276:0.089477003 321:0.092868999 338:0.25127301 341:0.082993001 387:0.082291998 392:0.074739002 404:0.245277 409:0.186849 434:0.20809001 458:0.137318 565:0.13987 596:0.17143799 597:0.073940001 676:0.072715998 740:0.100364 828:0.099740997 896:0.087581001 914:0.088312 992:0.13554201 993:0.067936003 1013:0.14673799 1268:0.083985001 1317:0.279964 1348:0.082993001 1427:0.099434003 1428:0.159692 1429:0.13045099 1430:0.226144 1431:0.395852 #
0.10000000000000000555111512312578 12:0.097235002 15:0.032283999 38:0.045575 69:0.039659001 86:0.062490001 116:0.053791001 131:0.050136998 142:0.056697 143:0.044202 156:0.028294001 160:0.070157997 165:0.092752002 179:0.063809 212:0.057769999 232:0.027282 236:0.031523 241:0.033165 267:0.052444 300:0.049107 315:0.051431999 325:0.078821003 338:0.061997 351:0.046794999 370:0.074405 383:0.043263 387:0.101274 390:0.109076 397:0.057884999 402:0.093323 414:0.066885002 434:0.091730997 458:0.058949001 539:0.067060001 541:0.079426996 651:0.14357699 655:0.075755 719:0.105925 783:0.094204001 807:0.037987001 818:0.071833998 896:0.063658997 933:0.050547 965:0.101665 1011:0.119597 1021:0.14913601 1101:0.099265002 1121:0.089606002 1126:0.092734002 1140:0.067501999 1154:0.154284 1260:0.10436 1466:0.205882 1542:0.086009003 1753:0.24359199 1754:0.44987401 1755:0.205882 1756:0.072835997 1757:0.21901201 1758:0.18852399 1759:0.18852399 1760:0.24202999 1761:0.21374699 1762:0.27830899 1763:0.116902 1764:0.109749 #
0.10000000000000000555111512312578 6:0.033732999 10:0.070946001 11:0.029642999 16:0.069721997 22:0.057567999 56:0.060346 64:0.075599 70:0.05336 85:0.06024 105:0.028214 108:0.058394 116:0.102539 126:0.024571 142:0.037701 151:0.076609001 155:0.061719999 156:0.031854998 178:0.082261004 213:0.143427 224:0.148031 226:0.050797001 232:0.030715 240:0.042196002 241:0.03734 276:0.034890998 293:0.063965999 297:0.069799997 370:0.039917 397:0.065171003 404:0.177793 434:0.15916599 458:0.066367999 567:0.093558997 568:0.086033002 588:0.13950001 596:0.17444199 600:0.100072 710:0.111335 719:0.070435002 724:0.179584 828:0.081620999 969:0.122883 1012:0.065829001 1013:0.148837 1169:0.110919 1326:0.109711 1419:0.34436399 1427:0.137771 1609:0.099030003 1655:0.132586 1825:0.123561 2014:0.145229 2015:0.44543299 2016:0.12978099 2017:0.138109 2018:0.119746 2019:0.167906 2020:0.21225099 2021:0.17794099 2022:0.106065 2023:0.172419 2024:0.118595 #
0.10000000000000000555111512312578 7:0.176313 10:0.066912003 11:0.020466 12:0.075581998 19:0.077985004 35:0.018549999 44:0.037416 48:0.15425301 49:0.066633999 62:0.066853002 69:0.052195001 75:0.05125 76:0.040298998 88:0.13520899 89:0.072481997 94:0.071690999 98:0.05773 99:0.049658999 116:0.240554 134:0.075581998 142:0.092490003 149:0.080962002 169:0.064989001 202:0.083195001 205:0.053902 224:0.28532901 232:0.035905 238:0.082716003 240:0.083517 244:0.048207998 248:0.059126999 275:0.094829999 293:0.074776001 300:0.109429 350:0.082561001 353:0.083880998 356:0.076566003 426:0.079648003 434:0.18606301 452:0.057331 470:0.066798002 493:0.111996 516:0.14876799 579:0.090786003 592:0.070418999 596:0.078147002 722:0.079223998 731:0.206071 805:0.343555 906:0.12924799 933:0.20486 1017:0.110589 1019:0.117296 1142:0.084080003 1146:0.079562999 1164:0.14444201 1312:0.108428 1340:0.093007997 1427:0.19962101 1450:0.093974002 1540:0.154791 1618:0.117932 1669:0.22129799 1731:0.099192999 2670:0.28428501 #
-0.10000000000000000555111512312578 9:0.091522001 10:0.073637001 19:0.37918299 53:0.200339 85:0.13121501 87:0.065825 99:0.092531003 116:0.131915 121:0.104659 137:0.094196998 155:0.35081199 194:0.16424 224:0.32244301 248:0.110174 370:0.086947002 404:0.31145799 434:0.31705001 453:0.132505 465:0.15894701 588:0.179464 656:0.151362 699:0.1517 799:0.176699 882:0.210925 1133:0.157986 1555:0.205143 #
-0.10000000000000000555111512312578 10:0.044163 35:0.02073 60:0.065981999 62:0.12649401 75:0.096970998 88:0.071998999 108:0.076283999 112:0.032646 116:0.243628 123:0.076870002 124:0.078625001 126:0.054347001 142:0.083388999 156:0.041614 212:0.14386199 239:0.024874 240:0.055123001 241:0.048779 276:0.04558 300:0.122289 315:0.075645 370:0.052145001 393:0.068671003 434:0.167224 435:0.111998 447:0.225629 458:0.086700998 559:0.095210001 592:0.219696 597:0.079043999 699:0.090980001 719:0.21957 723:0.060830999 731:0.149423 761:0.12472 780:0.071829997 926:0.122221 947:0.165223 978:0.113188 993:0.072626002 1012:0.085996002 1013:0.194435 1019:0.36594301 1305:0.110476 1370:0.11161 1669:0.103635 2171:0.13725699 2316:0.183826 2492:0.20283 5576:0.189721 6790:0.381365 #
-0.10000000000000000555111512312578 23:0.100001 35:0.021612 44:0.121703 50:0.068839997 56:0.082190998 95:0.086207002 105:0.038426999 114:0.057156999 116:0.13965601 138:0.079196997 142:0.086939998 208:0.061872002 217:0.070394002 224:0.36669299 226:0.069185004 236:0.048337001 239:0.025932999 241:0.106727 247:0.090860002 248:0.068889 337:0.204613 352:0.056134 385:0.14773899 434:0.25582701 441:0.137779 450:0.095174 457:0.091049001 614:0.13252801 623:0.098194003 676:0.081046 685:0.24721099 699:0.094853997 721:0.286134 723:0.063421004 731:0.092009 828:0.111167 852:0.122269 889:0.12605999 891:0.215018 974:0.27123699 1014:0.123239 1119:0.111862 1340:0.108363 1398:0.145873 1540:0.106515 1665:0.139329 1932:0.137779 2430:0.135579 7742:0.28908199 #
-0.10000000000000000555111512312578 10:0.061427001 16:0.074823 59:0.054827001 85:0.064646997 88:0.14114 98:0.052997999 116:0.110041 126:0.055337001 134:0.069386996 142:0.105575 155:0.066235997 156:0.034185 184:0.082773 248:0.054281 275:0.087056004 337:0.076823004 363:0.110097 370:0.042837001 404:0.1908 410:0.201544 415:0.080395997 434:0.137372 435:0.092005 654:0.143938 671:0.067097999 676:0.13401499 685:0.092817001 731:0.223253 737:0.15577801 760:0.061882999 780:0.059007 794:0.090301 828:0.148307 858:0.057569001 929:0.086792 965:0.122834 978:0.092983 986:0.099327996 1012:0.119612 1013:0.076109998 1164:0.13260099 1338:0.088001996 1374:0.090451002 1429:0.19397099 1433:0.16186 1601:0.093826003 2165:0.097104996 2414:0.12496 3357:0.134119 3955:0.123876 5509:0.155853 5954:0.19859999 6174:0.149575 6518:0.18019 7670:0.19095901 10954:0.47802001 #
-0.10000000000000000555111512312578 1:0.089564003 10:0.050129998 26:0.096928999 35:0.023530001 36:0.047362 56:0.089484997 60:0.074896 62:0.084803 69:0.066210002 76:0.051120002 113:0.114317 116:0.15205 122:0.149676 156:0.112719 195:0.29114801 202:0.105533 221:0.058811001 236:0.052627001 238:0.177652 248:0.075002998 276:0.051738001 300:0.081983998 312:0.105045 341:0.100709 348:0.252601 352:0.061115 365:0.15301199 434:0.090448998 453:0.152731 539:0.111955 570:0.129409 596:0.167841 682:0.098314002 731:0.23904701 792:0.14157 933:0.26980299 951:0.122367 993:0.13958099 1012:0.097615004 1013:0.105167 1014:0.134176 1057:0.267728 1110:0.125826 1142:0.106655 1146:0.100925 1450:0.119206 1475:0.13610099 1542:0.143591 2304:0.134445 2443:0.19966599 6515:0.27441901 #
0.10000000000000000555111512312578 13:0.115138 15:0.049235001 26:0.088545002 35:0.021495 43:0.157667 56:0.081744999 87:0.069309004 98:0.066895999 101:0.133461 105:0.038219001 115:0.064044997 127:0.100452 142:0.051068999 145:0.148663 198:0.201381 204:0.099949002 208:0.061535999 232:0.041606002 240:0.159573 241:0.050579999 244:0.055861998 245:0.132791 249:0.126505 250:0.100579 258:0.20605899 271:0.088192001 290:0.067887001 342:0.142325 353:0.097199 414:0.102005 435:0.116133 452:0.066434003 464:0.091220997 491:0.169229 497:0.049400002 533:0.117789 570:0.248089 572:0.110563 578:0.148086 668:0.079640001 761:0.129325 776:0.148086 778:0.160597 787:0.096969999 837:0.084932998 838:0.11143 856:0.121605 977:0.102946 1004:0.080816001 1420:0.115731 1518:0.12902699 2171:0.142325 2273:0.199039 2338:0.160648 3066:0.172388 8092:0.264276 9113:0.233557 12330:0.287514 #
0.10000000000000000555111512312578 6:0.045717999 11:0.040174 15:0.117549 35:0.036412001 37:0.064162999 98:0.113322 104:0.059716001 107:0.106897 109:0.071829997 111:0.21708301 119:0.086441003 122:0.057326999 137:0.099233001 142:0.142645 156:0.090602003 208:0.061567001 212:0.149248 237:0.134912 242:0.128213 244:0.055890001 276:0.047286998 322:0.083801001 350:0.11864 352:0.13329101 369:0.267196 392:0.082891002 435:0.196729 497:0.083683997 517:0.142396 539:0.214736 560:0.091945998 578:0.14816099 716:0.102726 728:0.127076 760:0.078151003 764:0.11442 771:0.103272 777:0.098775998 837:0.084974997 874:0.082443997 899:0.140259 910:0.091170996 975:0.104963 981:0.123626 1131:0.112196 1334:0.129691 1540:0.105991 1645:0.16150001 2009:0.13386901 2197:0.164775 2788:0.16654 6808:0.21790899 8323:0.44768301 #
0.10000000000000000555111512312578 5:0.130695 9:0.041889999 11:0.036630001 48:0.062687002 60:0.050354999 63:0.041965999 100:0.082402997 108:0.058217999 114:0.041839 136:0.152437 147:0.082534 181:0.062628001 232:0.030622 234:0.083067998 236:0.035383001 237:0.208276 272:0.045731999 275:0.080876 280:0.094316997 291:0.148954 292:0.056968998 293:0.063772999 304:0.102876 307:0.325544 352:0.069571003 405:0.121412 483:0.127114 491:0.073563002 512:0.091316 530:0.15925901 556:0.103796 568:0.085772999 570:0.087007001 585:0.14446899 665:0.075075999 682:0.15773401 738:0.059689 739:0.083751999 812:0.083203003 874:0.060648002 976:0.14251401 1001:0.097979002 1217:0.065039001 1316:0.106085 1424:0.177839 1549:0.089676999 2268:0.126094 2304:0.153047 2551:0.098731004 2914:0.15244301 3073:0.113645 3516:0.141701 3824:0.194507 6978:0.141701 9717:0.30037001 12558:0.21161 12559:0.329328 12560:0.21161 #
0.10000000000000000555111512312578 44:0.024940001 59:0.067400999 65:0.045655001 70:0.041577999 76:0.026861001 93:0.080908 109:0.132036 122:0.032958999 136:0.14766701 145:0.068991996 164:0.038995001 209:0.057782002 216:0.045770999 226:0.039579999 243:0.053610001 271:0.085892998 325:0.117074 368:0.084013 374:0.081615999 426:0.089887999 460:0.069278002 464:0.052471999 530:0.047699001 544:0.126416 701:0.059374001 707:0.065240003 723:0.036283001 731:0.12561101 853:0.088458002 855:0.12778901 1107:0.090332001 1217:0.050831001 1234:0.064505003 1297:0.085794002 1500:0.085182004 1778:0.091135003 1798:0.081868 2334:0.120979 8628:0.227468 10410:0.257386 12889:0.280018 12890:0.165383 12891:0.431557 12892:0.152016 12893:0.165383 12894:0.165383 12895:0.280018 12896:0.280018 12897:0.165383 12898:0.280018 #
0.10000000000000000555111512312578 70:0.098701 82:0.39268601 114:0.077624999 128:0.116414 138:0.107558 232:0.056814 290:0.092699997 393:0.097234003 508:0.12984 523:0.12630101 546:0.15288299 1014:0.167371 1090:0.27178901 1156:0.31257999 1219:0.16703799 1470:0.30352101 1497:0.195567 1924:0.22041801 2711:0.497127 3685:0.27178901 #
-0.10000000000000000555111512312578 11:0.038929999 35:0.035285 39:0.099284001 42:0.082037002 100:0.227801 126:0.032269001 147:0.108722 149:0.090957001 151:0.100611 208:0.059659999 240:0.055417001 247:0.087613001 313:0.073894002 340:0.14265101 353:0.094237 560:0.089098997 567:0.122871 568:0.23711701 578:0.30130401 669:0.135123 670:0.115888 928:0.098768003 952:0.118363 977:0.099808 993:0.153226 1026:0.155036 1142:0.094460003 1155:0.21550199 1217:0.085675001 1269:0.134734 1431:0.17828099 1468:0.15936799 1665:0.134349 1706:0.18137901 1978:0.38510901 2169:0.152924 2508:0.145671 2597:0.21550199 3491:0.138418 5302:0.200811 12006:0.27875099 #
-0.06511222808852334953400031736237 35:0.017309999 38:0.055973999 75:0.047825001 81:0.073771998 100:0.215156 102:0.169173 114:0.045779999 123:0.06419 126:0.026803 131:0.061577 136:0.27501801 137:0.047175001 164:0.054593001 194:0.082253002 210:0.076834999 212:0.070951 219:0.054021999 239:0.020771001 248:0.055176001 249:0.060169 292:0.130816 299:0.098904997 307:0.127591 340:0.069982 356:0.071448997 405:0.078460999 426:0.074326001 544:0.074166 568:0.158903 650:0.078368001 655:0.15752999 682:0.072324999 743:0.092252001 770:0.090163 825:0.070532002 894:0.060984999 976:0.092097998 980:0.137969 1005:0.13555001 1006:0.129371 1017:0.103199 1120:0.148085 1221:0.118019 1334:0.104389 1412:0.124861 1429:0.116453 1484:0.124347 1485:0.179002 1486:0.140627 1487:0.148085 1488:0.26898199 1489:0.13127799 1490:0.103669 1491:0.232227 1492:0.231538 1493:0.150658 1494:0.121913 1495:0.152043 1496:0.140627 1497:0.115336 1498:0.172217 1499:0.231538 1500:0.119255 #
-0.023868959678086009573716452791814 1:0.061870001 9:0.04304 11:0.030363999 14:0.18573999 15:0.063037999 91:0.092059001 93:0.062820002 100:0.084664002 102:0.15885501 107:0.080794998 109:0.151565 126:0.052818999 145:0.053568002 174:0.089887001 204:0.075580999 237:0.101968 241:0.038247999 244:0.071523003 249:0.056499999 272:0.046987001 295:0.25762701 306:0.104492 350:0.042727999 433:0.059967998 440:0.119328 442:0.085348003 556:0.314163 568:0.18494301 578:0.189602 579:0.079552002 722:0.069420002 752:0.239489 760:0.10001 792:0.097795002 837:0.064226002 1219:0.092502996 1484:0.116763 1977:0.108996 1978:0.125874 2024:0.28988999 2326:0.110445 6178:0.52921999 13522:0.217417 #
-0.016668514873341946230800303396791 11:0.036318 35:0.032917 36:0.066256002 65:0.121545 70:0.110691 98:0.102444 109:0.186151 134:0.134124 151:0.15891799 156:0.066079997 180:0.137675 204:0.153061 249:0.193728 322:0.21717601 570:0.37992099 668:0.206495 733:0.225197 910:0.13954701 931:0.19668899 988:0.53790802 992:0.23009001 1146:0.141187 1374:0.174841 1427:0.16879401 2184:0.170912 #
-0.073662639855470113392499342808151 5:0.056848001 11:0.033436999 18:0.047070999 55:0.121189 59:0.078722 60:0.045965001 70:0.048560999 114:0.038192 205:0.041963 212:0.141248 216:0.053459 231:0.057383999 232:0.027953001 261:0.078022003 290:0.045609001 347:0.12354 350:0.079666004 352:0.037508 370:0.036325999 405:0.110827 415:0.068177 417:0.117318 454:0.080758996 465:0.112438 509:0.33205801 561:0.072301 568:0.078295 638:0.098457001 651:0.086883999 670:0.080305003 964:0.080305003 1054:0.188648 1069:0.124429 1120:0.209172 1257:0.110075 1403:0.091810003 1485:0.313391 1491:0.092316002 1640:0.106927 1711:0.16841599 1817:0.12684201 2184:0.074979998 2298:0.118927 2475:0.300616 2656:0.16841599 3385:0.124588 3512:0.118108 3633:0.209172 3859:0.32738101 5727:0.32704899 #
0.10000000000000000555111512312578 10:0.093617998 35:0.020939 36:0.042146001 38:0.067708001 64:0.099756002 85:0.134588 104:0.058141999 116:0.190698 142:0.049748 143:0.065668002 155:0.137895 184:0.101777 199:0.097852997 221:0.052333999 224:0.195335 232:0.04053 236:0.079292998 256:0.071273997 276:0.046039999 313:0.074244998 320:0.158012 350:0.055043001 354:0.067757003 371:0.20995 404:0.152226 434:0.273489 459:0.107871 475:0.116222 493:0.126422 504:0.16031501 518:0.111219 928:0.099238001 993:0.073360004 1150:0.220686 1209:0.10438 1425:0.180649 1426:0.2174 1555:0.39733601 1868:0.26250699 1897:0.15504099 2004:0.15649199 2693:0.16689301 2731:0.149804 3063:0.185683 4078:0.201766 #
0.10000000000000000555111512312578 7:0.103933 10:0.039443001 11:0.020427 15:0.042406999 44:0.063229002 60:0.058929998 76:0.040222 88:0.064304002 113:0.089947 114:0.082901999 115:0.055163 116:0.20815501 142:0.043986998 150:0.085874997 187:0.12375 240:0.083356999 248:0.059014 256:0.063019998 276:0.040708002 300:0.064506002 317:0.101454 325:0.103538 350:0.048668001 363:0.119697 370:0.046572 375:0.131925 382:0.113254 393:0.061331999 464:0.078570001 491:0.086088002 499:0.10892 592:0.119001 640:0.21299601 719:0.082179002 739:0.098012 780:0.15308701 894:0.065227002 929:0.094360001 930:0.120747 935:0.144151 947:0.14756501 978:0.171161 993:0.136125 1012:0.161184 1013:0.082746997 1019:0.27936399 1268:0.080187 1329:0.24837901 1374:0.098338 1494:0.130392 1618:0.19929101 1650:0.154493 1658:0.20761099 1662:0.118027 2165:0.105572 2738:0.18759499 3057:0.114953 3097:0.16757999 3385:0.27044201 4661:0.171436 6256:0.181152 #
0.10000000000000000555111512312578 16:0.12519 35:0.028492 44:0.057471 50:0.090755001 75:0.078718998 88:0.098959997 115:0.084893003 142:0.067694001 162:0.135919 169:0.099822998 199:0.31773999 221:0.071212001 224:0.374612 236:0.063725002 256:0.096984997 393:0.094387002 404:0.207138 434:0.261352 588:0.25047901 592:0.108164 699:0.262431 828:0.38242701 951:0.25087601 1450:0.144344 2346:0.40307999 #
0.10000000000000000555111512312578 1:0.058857001 2:0.074652001 10:0.032942999 41:0.042429 44:0.03119 56:0.058805 75:0.089656003 76:0.056878 81:0.065899998 87:0.029448001 91:0.051724002 95:0.061678 114:0.069239996 116:0.123848 122:0.086502001 138:0.095939003 156:0.099246003 160:0.076971002 208:0.074951001 224:0.281369 272:0.044698998 275:0.165894 276:0.057565998 317:0.084734 327:0.080472998 370:0.081629999 382:0.094589002 385:0.141624 386:0.171772 418:0.147827 419:0.045049999 427:0.081192002 434:0.1963 440:0.067045003 443:0.051724002 444:0.072353996 596:0.110297 661:0.080286004 701:0.074253999 716:0.073861003 719:0.068636 731:0.06583 737:0.17532501 771:0.074253999 780:0.053580001 789:0.087140001 926:0.091169 945:0.082408004 947:0.123246 1012:0.13462099 1013:0.117014 1032:0.09482 1126:0.060089 1344:0.103356 1424:0.082827002 1450:0.078336 1469:0.090191998 1542:0.159767 1618:0.098306999 1630:0.13712201 1650:0.076209001 1760:0.101758 1933:0.216216 2171:0.102385 2271:0.127344 2282:0.108086 2577:0.380611 3077:0.180335 7316:0.19011299 7317:0.20682999 7318:0.163618 #
0.10000000000000000555111512312578 2:0.098622002 10:0.091332003 13:0.109422 15:0.046790998 35:0.020428 83:0.070950001 89:0.079820998 114:0.054025002 115:0.060865 116:0.132002 121:0.061854001 122:0.15202001 134:0.083235003 143:0.064064004 222:0.093823999 224:0.29369599 238:0.091090001 239:0.024511 240:0.091972999 241:0.048069 258:0.127064 261:0.110367 270:0.120972 275:0.104431 276:0.094261996 321:0.097834997 386:0.13402499 404:0.209307 419:0.059514001 434:0.23132101 572:0.105074 588:0.179583 698:0.184902 731:0.086966999 828:0.17790601 869:0.125884 914:0.093034998 974:0.107435 1040:0.124658 1142:0.156772 1198:0.18987501 1275:0.1499 1348:0.14803299 1432:0.119661 8136:0.40336999 8494:0.25115499 14598:0.27323899 #
-0.10000000000000000555111512312578 11:0.023355 13:0.113386 15:0.048486002 44:0.042697001 85:0.080357999 88:0.073521003 91:0.070807002 114:0.055982001 134:0.181006 142:0.050292 155:0.082332999 156:0.110885 184:0.102889 199:0.098922998 203:0.13044401 220:0.159739 240:0.134321 272:0.061190002 275:0.227099 276:0.078805 317:0.196399 350:0.055644002 352:0.054979 402:0.140159 404:0.15389 434:0.137767 592:0.080357999 597:0.16938999 600:0.226025 640:0.143831 730:0.103456 765:0.114766 780:0.124189 792:0.12735701 794:0.112247 797:0.094066001 837:0.083640002 857:0.251463 991:0.087196998 993:0.074161999 1012:0.148683 1168:0.140159 1172:0.157461 1219:0.120464 1285:0.16053399 1353:0.099298999 1520:0.120705 1534:0.14635199 1618:0.32113901 1736:0.108546 2088:0.185927 2104:0.165758 3669:0.18959901 3715:0.16053399 #
-0.10000000000000000555111512312578 15:0.044369001 23:0.125816 31:0.100948 41:0.053151999 61:0.15898301 75:0.053518001 83:0.067279004 87:0.03689 97:0.093897998 112:0.030506 116:0.176414 124:0.073471002 126:0.029994 137:0.052790001 143:0.060749002 184:0.159417 224:0.106727 226:0.104991 232:0.037494998 233:0.105957 244:0.050340999 257:0.084450997 258:0.169815 297:0.25101101 313:0.144142 341:0.082906 404:0.174548 413:0.117364 434:0.074459001 448:0.062008999 452:0.059868999 458:0.081017002 474:0.078312002 497:0.044518001 597:0.073862001 828:0.099637002 945:0.103234 993:0.067864999 1012:0.136059 1040:0.118207 1164:0.15083399 1368:0.103234 1549:0.109802 1569:0.29963699 1609:0.120888 1723:0.138584 1868:0.301 2693:0.36842501 2864:0.15736599 5010:0.17014199 10112:0.225908 10792:0.238158 #
-0.10000000000000000555111512312578 9:0.054131001 11:0.022554999 15:0.079282999 76:0.044413 119:0.139126 122:0.054494001 124:0.077538997 126:0.031654999 142:0.149569 143:0.064112999 162:0.097521998 206:0.18470401 221:0.051095001 223:0.080701001 224:0.112636 239:0.024529999 256:0.069586001 267:0.076067999 272:0.059094999 276:0.117294 290:0.064565003 317:0.112025 326:0.105316 327:0.062835999 387:0.086756997 414:0.097014003 419:0.059558999 434:0.13305099 518:0.18385001 596:0.18074 670:0.19248 799:0.17694899 828:0.105153 837:0.136767 908:0.120269 954:0.132551 1013:0.218033 1033:0.107692 1136:0.248643 1450:0.103566 1640:0.25628999 1681:0.26927501 1693:0.115429 1764:0.26952299 1888:0.13179199 2150:0.28920901 3491:0.135782 3516:0.183108 10414:0.25134301 #
-0.10000000000000000555111512312578 23:0.041738 35:0.018929999 36:0.038102999 53:0.230266 70:0.063657999 87:0.036051001 104:0.052565001 113:0.043823998 114:0.050065 121:0.057321001 126:0.049630001 142:0.044976 156:0.079751998 198:0.084510997 219:0.14098001 224:0.104302 238:0.084412999 239:0.022715 240:0.050338998 247:0.079585999 248:0.060341001 272:0.054722 273:0.16117901 276:0.099326998 290:0.059788 317:0.17564 392:0.072963998 394:0.09127 404:0.137624 413:0.114697 434:0.072766997 450:0.083364002 470:0.143061 482:0.10055 544:0.19355001 665:0.188529 719:0.084027 720:0.12383 738:0.071424 761:0.113895 783:0.074730001 800:0.127354 828:0.164866 837:0.126647 946:0.195757 976:0.100718 1004:0.071174003 1013:0.084608003 1149:0.173473 1171:0.102277 1292:0.14580999 1353:0.088803001 1520:0.182769 1555:0.112354 1682:0.138303 1972:0.137707 2073:0.132324 2122:0.146597 2191:0.12996 2658:0.126533 3063:0.28423101 4611:0.195757 7952:0.25321099 7953:0.22077399 #
-0.10000000000000000555111512312578 5:0.078837998 11:0.052728001 16:0.087995999 21:0.110144 85:0.076029003 116:0.076434001 134:0.081602998 142:0.047582 150:0.092894003 155:0.077896997 190:0.110345 216:0.074138999 241:0.098899998 256:0.068171002 262:0.14159299 276:0.044036001 313:0.071013004 327:0.061558001 337:0.090349004 352:0.052017 368:0.230405 392:0.077192001 404:0.14559799 498:0.098982997 565:0.14446101 588:0.103985 595:0.106913 596:0.28668699 632:0.153447 685:0.109159 785:0.103496 793:0.138467 828:0.26880899 837:0.079134002 838:0.103821 933:0.071823999 956:0.10746 993:0.070165999 1012:0.083082996 1013:0.187848 1126:0.131771 1268:0.086741 1285:0.151885 1307:0.14631701 1321:0.28755799 1397:0.100124 1428:0.164933 1450:0.171786 1549:0.113524 1671:0.142709 2721:0.190263 3397:0.14828999 4356:0.34358799 #
0.10000000000000000555111512312578 10:0.044611 35:0.035454001 38:0.067711003 60:0.066651002 67:0.147477 76:0.045492001 83:0.123141 100:0.109069 104:0.058143999 109:0.118418 112:0.032977 156:0.071172997 190:0.115373 204:0.097368002 227:0.102201 243:0.090792 248:0.113011 249:0.123238 256:0.071277 290:0.066133998 327:0.064363003 350:0.093199 401:0.103057 454:0.117104 530:0.080782004 541:0.199799 552:0.098732002 568:0.11353 572:0.107708 661:0.108724 722:0.151421 760:0.076094002 778:0.17789599 811:0.086606003 993:0.073362999 1004:0.078729004 1069:0.106562 1146:0.089814998 1176:0.17768499 1344:0.139965 1427:0.107377 1447:0.14180499 1724:0.119644 1767:0.14583001 1805:0.13136099 1978:0.45270601 2081:0.16492 2452:0.17913701 8466:0.221571 8467:0.28008899 8468:0.28008899 #
0.10000000000000000555111512312578 1:0.074846998 2:0.094934002 15:0.045040999 45:0.068405002 52:0.107561 55:0.097462997 100:0.26726601 108:0.072361998 113:0.045522001 147:0.173694 148:0.121784 156:0.082842 170:0.089988001 216:0.072792999 219:0.061368 221:0.049146999 226:0.062948003 239:0.023595 276:0.043235999 396:0.098164998 419:0.096997999 433:0.072545998 497:0.045192 556:0.218438 563:0.28251401 568:0.31406799 578:0.39908499 701:0.094426997 723:0.057703 760:0.120987 785:0.17205399 807:0.052997001 825:0.080122001 837:0.163057 1026:0.086398996 1142:0.21269 1146:0.084342003 1424:0.178339 1549:0.111464 1654:0.159748 1736:0.100833 1740:0.123681 2211:0.160825 2358:0.166858 4325:0.13796601 11902:0.26302099 #
0.10000000000000000555111512312578 9:0.049462002 11:0.020609999 56:0.071038999 60:0.100671 100:0.31108299 102:0.257296 108:0.068741001 139:0.122557 144:0.079864003 182:0.094775997 202:0.083779 232:0.061220001 248:0.059542 275:0.095495 284:0.100059 307:0.137687 393:0.061880998 405:0.08467 415:0.088188998 428:0.096684001 452:0.057734001 492:0.153732 499:0.109896 568:0.241676 571:0.16565 648:0.25023699 710:0.131062 725:0.113447 734:0.137687 846:0.173628 919:0.138954 1134:0.107601 1142:0.08467 1297:0.12961701 1805:0.117184 2075:0.28160599 2081:0.24909601 2463:0.153837 2508:0.13057201 3105:0.17297199 3397:0.13831399 6262:0.17513099 6770:0.20947 7162:0.24986 #
0.10000000000000000555111512312578 6:0.036371998 10:0.036451001 14:0.074924998 35:0.028968999 36:0.034437999 41:0.046948001 65:0.063175999 76:0.037170999 85:0.064952001 100:0.248798 102:0.098759003 113:0.039609 115:0.050979 121:0.087716997 126:0.044856001 145:0.056387 156:0.072081 206:0.064781003 212:0.070129 217:0.055729002 239:0.02053 276:0.037620001 327:0.052590001 330:0.093422003 354:0.055365998 370:0.04304 389:0.073464997 465:0.078680001 559:0.078584 568:0.27327201 572:0.088007003 578:0.28128201 623:0.077737004 631:0.136415 655:0.091962002 682:0.071487002 738:0.064553998 764:0.154129 771:0.082161002 776:0.117874 837:0.067605004 899:0.111588 1004:0.064328 1142:0.077551998 1447:0.115867 1475:0.236155 1501:0.093589999 1669:0.085538 1788:0.098353997 2024:0.127873 2379:0.14090499 3150:0.14636999 3227:0.13398001 3516:0.15324999 3585:0.16741 3631:0.41875499 4083:0.191862 4711:0.15843099 5105:0.162545 5232:0.148913 9974:0.228856 #
0.10000000000000000555111512312578 5:0.21271101 9:0.044751 11:0.018646 44:0.034090001 48:0.066968001 70:0.056832001 75:0.046693999 85:0.064158998 87:0.054494999 89:0.111813 94:0.065318003 100:0.088030003 121:0.051174 147:0.088170998 151:0.081592999 155:0.065736003 194:0.080306999 202:0.075799003 208:0.048383001 216:0.105931 232:0.032713 241:0.039769001 280:0.170598 287:0.094695002 304:0.186079 383:0.051876001 385:0.048413999 405:0.16076399 428:0.087475002 452:0.088440999 465:0.077719003 492:0.082148001 568:0.091629997 589:0.32984599 634:0.085239001 638:0.115227 725:0.102642 783:0.066716999 846:0.15708999 881:0.103134 887:0.088030003 893:0.14017899 915:0.13234299 976:0.089919001 1057:0.091629997 1075:0.111904 1206:0.128823 1276:0.112253 1342:0.085620001 1423:0.108646 1485:0.174767 1495:0.14844599 1640:0.211879 1669:0.084492996 1700:0.126311 1815:0.15297601 2253:0.133894 2330:0.124017 3073:0.205557 3880:0.133894 4362:0.154678 4405:0.17124701 4748:0.144582 5436:0.17124701 7667:0.20779 9113:0.18363699 #
-0.10000000000000000555111512312578 11:0.018338 41:0.045607001 60:0.052903999 63:0.044089999 75:0.045921002 76:0.036109 83:0.057728 85:0.063097 100:0.206588 102:0.201335 104:0.046151999 109:0.14486 145:0.054776002 150:0.077092998 155:0.064646997 156:0.033365998 239:0.019943001 256:0.095790997 270:0.098428003 276:0.036545999 317:0.091078997 327:0.051088002 341:0.071137004 353:0.075158 393:0.055059999 404:0.120833 430:0.092426002 433:0.061319001 523:0.071520001 559:0.076338999 567:0.20565499 568:0.152575 572:0.085492 578:0.29879799 616:0.084582999 650:0.075246997 668:0.061581001 719:0.073775001 785:0.085891999 833:0.099090002 993:0.058231 1004:0.062491 1127:0.132688 1131:0.086710997 1142:0.127556 1468:0.075070001 1681:0.091743998 1992:0.160157 1994:0.096946001 2008:0.153905 2385:0.113709 3093:0.152117 3460:0.33137399 3461:0.371847 3585:0.162628 3666:0.12734701 5121:0.193838 8167:0.204349 8442:0.22231799 #
-0.10000000000000000555111512312578 9:0.047993001 35:0.018124999 36:0.036481999 50:0.057732999 58:0.083966002 85:0.068806998 87:0.058442999 98:0.095508002 100:0.26356399 105:0.032226998 119:0.072852999 122:0.115294 126:0.028065 139:0.118917 155:0.070497997 202:0.081290998 221:0.045301002 239:0.021748999 244:0.112405 276:0.039852999 324:0.076920003 327:0.055711001 350:0.047646001 357:0.094407998 404:0.077825002 426:0.077825002 465:0.083350003 544:0.077657998 568:0.25642601 578:0.12487 617:0.090352997 797:0.080544002 837:0.071617 843:0.19956 1012:0.17942899 1142:0.214378 1299:0.271882 1358:0.123575 1520:0.103354 1533:0.111145 1595:0.164059 1609:0.113115 1977:0.12154 2535:0.11619 3150:0.26253399 3151:0.222844 3152:0.164059 3153:0.183654 3154:0.242439 3155:0.196941 3156:0.174652 3157:0.159201 3158:0.242439 #
-0.025587842385634430170116004887859 6:0.070710003 9:0.088073999 10:0.041852999 11:0.045487002 15:0.076188996 23:0.043313999 35:0.019645 38:0.063524999 41:0.113126 44:0.039625999 48:0.077843003 57:0.107076 76:0.042679001 82:0.125239 87:0.078515001 100:0.102326 105:0.034929998 109:0.183183 112:0.030937999 123:0.072848998 126:0.030418999 143:0.061609998 172:0.28634501 197:0.071093999 202:0.088109002 204:0.091348 212:0.080522001 221:0.049100999 237:0.12324 239:0.023573 242:0.117121 246:0.105051 247:0.082590997 284:0.10523 325:0.109864 354:0.063570999 410:0.083283 497:0.076444 568:0.106511 572:0.101049 635:0.1118 655:0.10559 780:0.068071999 859:0.122602 869:0.20497499 894:0.069211997 906:0.080844 1142:0.089045003 1151:0.120763 1225:0.16393299 1398:0.132597 1432:0.115077 1630:0.29496399 1806:0.132597 1945:0.16414499 2022:0.131311 2063:0.186634 2247:0.16670001 2497:0.15052 5131:0.172554 8728:0.44491199 #
-0.10000000000000000555111512312578 5:0.068571001 6:0.077711999 15:0.039898999 16:0.076536 42:0.163629 45:0.127166 60:0.093874998 75:0.081483997 76:0.037843 88:0.0605 94:0.067321002 108:0.064101003 123:0.064593002 143:0.054629002 145:0.057406001 169:0.061028 178:0.090300001 181:0.068957001 203:0.107342 240:0.097207002 258:0.134296 338:0.076622002 397:0.071539998 411:0.217448 413:0.105539 523:0.074954003 543:0.103155 546:0.090729997 568:0.225363 676:0.065320998 785:0.090016998 1041:0.14447799 1217:0.071611002 1348:0.19454201 1420:0.158793 1426:0.106815 1433:0.097786002 1435:0.099928997 1459:0.108429 1524:0.122215 1671:0.21015801 1956:0.13800099 2220:0.139699 2243:0.17649999 2260:0.128977 3585:0.28857499 4152:0.40671301 5295:0.15160599 6005:0.17043699 11672:0.23299401 11673:0.23299401 #
-0.10000000000000000555111512312578 33:0.270879 232:0.137261 236:0.158601 588:0.77269 722:0.302858 3057:0.440292 #
0.10000000000000000555111512312578 6:0.043945 8:0.072481997 31:0.063626997 35:0.020671999 39:0.098484002 50:0.111485 63:0.054836001 65:0.076329 76:0.044909999 112:0.032554999 119:0.083089001 122:0.16233 124:0.21889099 126:0.054195002 138:0.075750999 219:0.15394799 225:0.111108 228:0.16906799 238:0.15607101 240:0.05497 244:0.090961002 257:0.090124004 267:0.076918997 268:0.12967999 272:0.101176 276:0.076958001 349:0.153062 350:0.054340001 370:0.052000001 404:0.15028401 482:0.18590701 592:0.078474998 600:0.130366 775:0.217316 828:0.106329 838:0.107163 843:0.134424 977:0.099004 978:0.112872 1012:0.17997 1013:0.156432 1110:0.110541 1133:0.094485998 1368:0.110168 1496:0.167937 1535:0.271043 1601:0.113896 1606:0.142923 1613:0.241129 1825:0.16096599 1906:0.127388 1944:0.185156 2011:0.16096599 3152:0.18711101 14031:0.276503 #
0.10000000000000000555111512312578 1:0.070791997 15:0.042601001 23:0.086056001 35:0.018599 36:0.063382998 37:0.055489 38:0.060139999 44:0.063518003 59:0.101386 64:0.088606 76:0.040405001 84:0.108713 102:0.225292 113:0.072899997 114:0.049187001 119:0.074755996 124:0.119438 126:0.060435999 129:0.118242 138:0.068153001 143:0.058327999 150:0.086266004 169:0.065159999 175:0.127682 182:0.094362997 184:0.090401001 197:0.067305997 221:0.046484001 240:0.083737001 241:0.043763999 248:0.059282999 272:0.150093 350:0.082777999 404:0.24591701 544:0.16723099 570:0.26690999 594:0.105014 625:0.159107 670:0.103424 676:0.069743998 720:0.35839501 759:0.085527003 799:0.160983 855:0.080553003 859:0.30287501 895:0.100137 896:0.084002003 941:0.111131 993:0.110326 1014:0.106054 1101:0.130987 1137:0.123531 1146:0.079772003 2718:0.15211099 3062:0.141765 3063:0.164928 3064:0.248771 3065:0.15426099 3066:0.149159 #
0.10000000000000000555111512312578 1:0.067985997 2:0.086230002 6:0.037969999 23:0.102761 31:0.115372 32:0.077189997 35:0.017860999 36:0.085789002 41:0.049010001 70:0.060061999 88:0.062036 98:0.055587001 113:0.041349001 116:0.19030599 119:0.071791999 122:0.099918 125:0.097525999 126:0.05804 132:0.12349 137:0.048675999 156:0.093562998 203:0.18636 206:0.067625999 240:0.047495998 257:0.203197 261:0.096500002 313:0.063331999 324:0.075799003 340:0.122261 350:0.046952002 404:0.200122 448:0.057177 474:0.072209001 730:0.087295003 838:0.194315 857:0.12531701 910:0.128205 933:0.064055003 941:0.223975 976:0.095028996 1127:0.084215 1398:0.120555 1533:0.109526 1555:0.27662101 1825:0.139079 3450:0.14814501 4686:0.200289 4832:0.256614 9348:0.35268801 10075:0.23890799 10076:0.219598 10077:0.219598 #
0.10000000000000000555111512312578 5:0.058091 6:0.031371001 10:0.031438001 12:0.060128 19:0.105041 24:0.077109002 31:0.045419998 37:0.044027001 42:0.058091 44:0.029766001 60:0.046969999 88:0.051254001 105:0.026238 114:0.039027002 169:0.051701002 172:0.069848001 178:0.12952401 197:0.053403001 203:0.090937003 205:0.042879999 219:0.046053998 238:0.065802 239:0.017707 240:0.039239999 244:0.064933002 246:0.078910001 258:0.054212 276:0.054937001 285:0.087582998 313:0.052324001 327:0.045357998 337:0.112716 341:0.063158996 351:0.048994001 352:0.038327999 354:0.047752 392:0.056876998 394:0.071147002 404:0.16534001 413:0.24960899 439:0.107346 450:0.064984001 470:0.05314 527:0.10433 545:0.072222002 570:0.137412 588:0.129729 624:0.131835 635:0.14218999 676:0.055337999 699:0.064765997 792:0.150325 825:0.060128 830:0.16977 835:0.086442001 869:0.153969 874:0.056570999 1040:0.090052001 1075:0.097709 1122:0.079044998 1353:0.069224 1517:0.097709 1670:0.21555801 1866:0.180981 1989:0.125218 2893:0.14438801 3348:0.127312 3509:0.119883 4295:0.14438801 4848:0.320243 7616:0.16547801 7924:0.27148199 13257:0.181431 13562:0.197384 13563:0.197384 13564:0.197384 #
0.10000000000000000555111512312578 30:0.157931 31:0.168864 36:0.065220997 45:0.11272 64:0.15437201 71:0.181209 72:0.23372801 143:0.10162 308:0.222451 338:0.14253201 340:0.130999 350:0.144219 410:0.137367 453:0.124219 723:0.095086001 731:0.13794801 1012:0.134423 3832:0.386392 4690:0.307834 9355:0.43341601 9356:0.43341601 #
-0.055509430997835562671127718203934 18:0.19549499 19:0.085593 30:0.31726301 31:0.1061 35:0.020359 43:0.071160004 69:0.057287 88:0.070712 94:0.078685001 113:0.047132 150:0.094433002 156:0.097529002 204:0.16028801 205:0.059160002 216:0.127609 238:0.153712 244:0.052910998 342:0.22824501 356:0.084035002 375:0.14507399 404:0.148012 436:0.106728 458:0.085152 523:0.087606996 541:0.114733 722:0.086952001 778:0.072481997 855:0.149299 889:0.20106401 915:0.159426 1026:0.24973699 1032:0.124845 1133:0.15756001 1149:0.110189 1427:0.104399 1540:0.169891 1647:0.31053501 1662:0.21975499 2440:0.20255201 2487:0.30002001 2577:0.170111 4648:0.167667 #
-0.10000000000000000555111512312578 11:0.018407 31:0.051350001 39:0.079480998 82:0.106356 106:0.109457 112:0.044484999 114:0.044121999 122:0.044472001 124:0.063277997 143:0.052320998 197:0.060375001 203:0.268273 205:0.048478 219:0.052065998 234:0.087599002 240:0.044362999 243:0.072336003 244:0.043357 267:0.062077999 276:0.036683001 393:0.055266999 404:0.17094 410:0.070726 441:0.22319999 470:0.060077 539:0.079378001 595:0.089060999 668:0.061811998 740:0.146203 851:0.176284 859:0.24845199 941:0.099687003 1004:0.106203 1014:0.161073 1140:0.190668 1307:0.121886 1338:0.086214997 1348:0.071404003 1512:0.125284 1555:0.16765 1605:0.12589701 1618:0.106065 1731:0.089212 1950:0.132973 3647:0.53250802 3648:0.316755 3649:0.194566 #
-0.021137181910456537964337897506084 45:0.043529999 50:0.039857998 65:0.046204999 85:0.047504 86:0.055481002 98:0.038943999 137:0.034102 160:0.062289 203:0.077111997 270:0.176834 276:0.057742 370:0.031477999 393:0.041453 397:0.087015003 530:0.048273999 544:0.053615 645:0.201281 668:0.046363 722:0.090487003 922:0.10891 1011:0.106182 1067:0.113265 1069:0.063680001 1121:0.079554997 1250:0.101658 1374:0.066466004 1399:0.083113998 1457:0.198636 1469:0.072988003 1577:0.113265 1706:0.10891 1824:0.070518002 2039:0.081611998 2057:0.124495 2088:0.109911 2117:0.182789 2143:0.158346 2346:0.104555 2464:0.210788 2663:0.122438 2905:0.10705 3078:0.115871 3244:0.140321 3369:0.117318 4088:0.129399 4169:0.126793 4170:0.124495 4171:0.15384901 4172:0.112082 4173:0.16737799 4174:0.16737799 4175:0.15384901 4176:0.16737799 4177:0.135966 4178:0.15384901 4179:0.140321 4180:0.16737799 4181:0.16737799 4182:0.16737799 4183:0.28339499 4184:0.13240799 4185:0.16737799 4186:0.16737799 4187:0.140321 #
-0.032078012413930365176462089493725 5:0.119723 6:0.030808 10:0.030874999 15:0.056203999 35:0.034582 50:0.046161 60:0.046128001 63:0.038442999 104:0.040240999 112:0.022823 114:0.038327001 126:0.047093 139:0.19954 142:0.058297999 144:0.172977 156:0.029092001 175:0.099491 182:0.073527999 210:0.064327002 231:0.057587001 239:0.017388999 256:0.04933 290:0.077495001 300:0.050492998 327:0.044544999 350:0.064502001 405:0.111219 424:0.200756 427:0.076094002 575:0.117829 677:0.068683997 725:0.149021 775:0.089980997 846:0.079558 885:0.065843999 931:0.086594999 1004:0.054487001 1105:0.19214299 1329:0.092643 1601:0.079847999 1842:0.135869 2165:0.082638003 2253:0.114813 2894:0.15746599 3073:0.176263 3074:0.178177 3076:0.221238 3234:0.195573 4083:0.16250999 4251:0.13117599 4691:0.308166 4789:0.14986099 4793:0.14986099 5716:0.42518401 6880:0.178177 7630:0.16250999 12806:0.193845 #
-0.021674892365337292826632520359453 1:0.086731002 10:0.082193002 11:0.070184 31:0.147184 35:0.022786001 38:0.124752 56:0.086654 63:0.060444001 70:0.19994301 87:0.043393999 99:0.128014 104:0.063271001 112:0.035884 119:0.15507001 137:0.062098 160:0.113423 181:0.090203002 209:0.106485 226:0.072942004 227:0.111211 239:0.027341001 244:0.059216999 299:0.130192 351:0.075652003 383:0.223618 389:0.097837999 474:0.240381 497:0.052367002 677:0.107992 767:0.35655099 894:0.080277003 928:0.2577 1397:0.113916 1475:0.131796 1604:0.129162 1627:0.42538601 2022:0.15230399 2250:0.285662 2316:0.202062 7059:0.24110501 #
0.10000000000000000555111512312578 15:0.060153998 35:0.026262 102:0.151586 109:0.087715 112:0.041358002 179:0.118895 210:0.116569 232:0.050833002 240:0.069834001 300:0.19202501 321:0.12577599 341:0.19031 413:0.159117 445:0.123984 452:0.081166998 546:0.13679001 588:0.136356 743:0.13995899 792:0.158005 1142:0.119036 1168:0.173888 1172:0.195354 1450:0.133045 1609:0.163894 1910:0.158372 2574:0.246214 7273:0.49861801 7274:0.49861801 #
0.10000000000000000555111512312578 6:0.072839998 9:0.043232001 14:0.071497999 44:0.032933 59:0.089002997 63:0.043311 73:0.093474999 100:0.085042 113:0.037797 123:0.10251 137:0.044495001 139:0.10712 169:0.057202 208:0.046741001 239:0.019591 241:0.080627002 292:0.099546999 315:0.059579 327:0.050184 328:0.084374003 395:0.083981 410:0.069215998 418:0.092188001 460:0.091480002 475:0.153438 523:0.070254996 535:0.12509499 544:0.069954 559:0.074988998 561:0.081743002 565:0.117769 568:0.088519998 575:0.078403004 666:0.168835 699:0.121327 723:0.047911 817:0.088058002 852:0.092367999 903:0.097337998 977:0.078194998 1004:0.061386 1122:0.087456003 1133:0.074626997 1142:0.15530699 1151:0.100365 1219:0.092914999 1268:0.070713997 1440:0.130133 1468:0.073743001 1609:0.101893 1671:0.244155 1765:0.115882 1824:0.092009 2401:0.114553 3104:0.44585499 3638:0.15118399 3727:0.27502701 4452:0.369762 4453:0.142101 4454:0.168835 4455:0.17275999 #
0.10000000000000000555111512312578 11:0.029960001 15:0.050182 23:0.028529 32:0.055920001 35:0.012939 36:0.026044 42:0.050935999 43:0.045226 44:0.044190999 45:0.045012001 61:0.062723003 87:0.024642 93:0.119335 105:0.023007 122:0.034492001 144:0.055321001 145:0.072200999 164:0.040809002 169:0.045333002 172:0.12853099 197:0.079283997 202:0.058033001 208:0.037043002 219:0.040382002 279:0.152574 282:0.099675 298:0.16076399 300:0.045083001 301:0.172547 313:0.045880001 351:0.042959999 370:0.055110998 382:0.079153001 385:0.037067 387:0.054912999 399:0.079540998 404:0.15510701 410:0.054855 413:0.078397997 419:0.063827999 426:0.055558998 428:0.066972002 448:0.041421 457:0.054512002 470:0.046595 474:0.052312002 497:0.087605 504:0.058511 518:0.068728 545:0.063327998 567:0.076289997 588:0.113752 611:0.061484002 668:0.047940999 676:0.082156003 678:0.118424 681:0.17079701 713:0.150443 750:0.087626003 766:0.105827 767:0.16525 840:0.074382 851:0.080752 858:0.043742999 874:0.049603999 892:0.086488001 978:0.070652001 1064:0.085152 1126:0.050282001 1348:0.055380002 1374:0.068728 1423:0.083181001 1432:0.075796001 1491:0.082717001 1500:0.089143999 1574:0.096252002 2089:0.094949998 2306:0.077316999 4006:0.114744 5907:0.136916 6132:0.124683 7721:0.150904 9423:0.57892698 9925:0.159087 13031:0.173076 13032:0.173076 #
0.10000000000000000555111512312578 11:0.016695 12:0.061657 18:0.1177 35:0.015132 44:0.030523 95:0.060359001 99:0.040509 109:0.15564001 114:0.040019002 144:0.154384 169:0.053015999 170:0.069248997 205:0.074449003 315:0.055218998 560:0.064695999 625:0.129453 632:0.11594 670:0.084147997 716:0.072281003 722:0.064626999 789:0.085276 803:0.074368998 820:0.117183 837:0.059790999 894:0.053312 901:0.26339599 928:0.071717001 993:0.053015999 1004:0.096329004 1057:0.138909 1097:0.119178 1484:0.30346701 1497:0.170709 1824:0.085276 1932:0.096468002 1978:0.117183 1995:0.186046 2017:0.13170201 2494:0.29879999 2672:0.124619 3157:0.13291299 3371:0.102819 3584:0.345054 3723:0.115343 4315:0.153328 4325:0.253353 5901:0.176476 6193:0.29879999 6194:0.169687 #
0.10000000000000000555111512312578 10:0.033961002 35:0.015941 69:0.044854999 85:0.060516 100:0.17425101 104:0.074945003 112:0.025103999 120:0.108315 122:0.071947001 123:0.059112001 126:0.024683001 133:0.136372 155:0.062003002 156:0.054182 165:0.104904 205:0.078428 221:0.039841998 240:0.042389002 241:0.037510999 325:0.089148 327:0.082960002 370:0.040100001 383:0.048930999 392:0.061441999 393:0.052808002 397:0.065468997 404:0.068447001 410:0.067579001 411:0.160549 465:0.17492899 468:0.13128 552:0.075162001 560:0.068154 568:0.18137699 590:0.168676 611:0.075746998 668:0.140939 700:0.093579002 726:0.1008 773:0.101346 906:0.0656 941:0.095252 974:0.083838001 1103:0.107242 1130:0.212686 1142:0.072255 1267:0.135267 1399:0.105879 1429:0.107242 1540:0.078564003 1583:0.15239701 1659:0.120894 1671:0.11359 1703:0.108683 1863:0.097990997 2695:0.28995401 2758:0.147609 3209:0.16484299 3377:0.215124 3635:0.140017 4152:0.155975 4154:0.144289 5105:0.256414 8008:0.168676 8870:0.19599 9733:0.158595 13518:0.21322399 #
-0.10000000000000000555111512312578 9:0.052046999 10:0.041875999 11:0.036719002 35:0.019656001 36:0.066987 37:0.13994201 38:0.063560002 49:0.070607997 76:0.089616999 89:0.076805003 111:0.374668 112:0.030955 113:0.045504 119:0.079006001 126:0.030436 156:0.039459001 208:0.056272 219:0.061344001 223:0.16283999 224:0.183367 225:0.275684 239:0.023585999 248:0.062654004 341:0.084128 351:0.065260999 371:0.116403 429:0.102058 445:0.24214999 483:0.093278997 493:0.118676 516:0.15764099 682:0.172352 723:0.057681002 733:0.13447399 767:0.096201003 771:0.094388999 794:0.104231 811:0.081295997 837:0.077666998 855:0.085133001 1016:0.148331 1217:0.080807999 1650:0.096874997 1724:0.190155 1930:0.257725 1953:0.159685 1954:0.123632 2423:0.189404 2426:0.19232599 2439:0.14119899 4325:0.13791101 4853:0.207987 11243:0.26291701 #
-0.09868806695748019719438559604896 9:0.048861999 12:0.127306 17:0.153056 21:0.101487 24:0.096423998 32:0.167363 35:0.018453 38:0.059670001 41:0.050634 48:0.073119998 60:0.058736 65:0.115366 67:0.129963 75:0.050983001 85:0.070052996 116:0.070427001 144:0.25224501 169:0.064650998 180:0.077179998 190:0.101672 219:0.05759 233:0.100939 291:0.102616 321:0.088377997 323:0.091462001 350:0.048508 353:0.083443999 354:0.059712999 370:0.046418998 374:0.121808 404:0.166281 453:0.070742004 465:0.143677 477:0.312336 543:0.109279 567:0.108799 624:0.27182901 661:0.095812 671:0.072709002 699:0.080989003 705:0.089208998 764:0.098178998 773:0.117318 840:0.222616 858:0.130917 874:0.14846 1054:0.114867 1142:0.083641998 1150:0.114867 1449:0.126684 1501:0.100939 1579:0.117 1670:0.334104 2330:0.13541 2867:0.15920199 4567:0.16888601 5443:0.226877 #
-0.025124441700450042547210216525855 1:0.101517 11:0.029425999 42:0.062008001 55:0.078074001 76:0.034221001 95:0.062830999 104:0.043738998 109:0.052611999 116:0.060118001 126:0.041297 138:0.057723001 160:0.07841 202:0.070648 213:0.084090002 234:0.082709998 238:0.147407 273:0.079212002 276:0.034635 280:0.093910001 313:0.055853002 338:0.145411 341:0.067419 351:0.052299 434:0.102519 499:0.092670999 558:0.132618 596:0.066361003 616:0.080160998 624:0.140727 670:0.087595001 671:0.062066 685:0.145367 719:0.069918998 723:0.046224002 797:0.069999002 807:0.042454001 823:0.12069 852:0.089115001 894:0.055496 933:0.056492001 967:0.086162999 993:0.055188 996:0.129724 1006:0.117726 1012:0.065347001 1013:0.119202 1033:0.082979999 1040:0.096124999 1041:0.130652 1119:0.081529997 1122:0.084376 1125:0.070813 1131:0.082177997 1136:0.191587 1317:0.16201399 1348:0.067419 1353:0.073893003 1450:0.079801001 1468:0.071145996 1650:0.077633001 1765:0.111802 1788:0.15331499 2116:0.14416499 2651:0.138358 2788:0.121983 3509:0.21667001 3575:0.19366799 4036:0.151785 4352:0.29907501 4354:0.183706 4355:0.137097 4356:0.159609 4433:0.16289 5077:0.128831 5289:0.154127 10088:0.210697 10089:0.19366799 #
-0.020113893559632819996174646348663 1:0.12908 8:0.070226997 88:0.069564998 102:0.24261799 113:0.046367001 114:0.05297 116:0.12942401 126:0.031013001 127:0.15847901 128:0.079438001 131:0.185917 137:0.092418 143:0.062812999 160:0.099698998 190:0.231589 192:0.094924003 201:0.182585 204:0.093131997 210:0.088903002 219:0.105833 232:0.038768001 239:0.024033001 241:0.04713 354:0.064811997 383:0.061478 418:0.11309 445:0.094558001 454:0.112009 464:0.084999003 465:0.092104003 497:0.046030998 559:0.091991998 676:0.127169 723:0.058773998 730:0.097889997 791:0.164162 797:0.089004003 804:0.101926 825:0.081609003 933:0.221195 977:0.095923997 986:0.116824 1077:0.198222 1331:0.12803701 1547:0.215013 2265:0.19027799 3021:0.181291 3928:0.32677099 4012:0.161654 4098:0.267903 4099:0.192996 4100:0.202944 #
-0.029452901050097263224714083662548 16:0.081964999 19:0.078426003 23:0.069638997 41:0.086667001 42:0.073435001 45:0.064893998 83:0.064792 87:0.035526 88:0.064792 91:0.062401 98:0.058056001 110:0.167766 112:0.029378001 115:0.055582002 116:0.071195997 142:0.044321001 192:0.088412002 232:0.075778 239:0.022383999 247:0.078426003 248:0.100678 256:0.063499004 276:0.041017 315:0.068072997 322:0.072691001 324:0.13404199 370:0.046925999 390:0.085266002 393:0.061797999 397:0.076614998 419:0.054347999 596:0.219402 607:0.233869 670:0.103736 719:0.082803003 820:0.14446101 823:0.242001 933:0.066900998 935:0.085785002 986:0.32054201 1004:0.070138 1019:0.117959 1060:0.194159 1125:0.083861001 1136:0.134005 1217:0.076691002 1340:0.093534 1341:0.33385301 1606:0.128976 1650:0.15566599 2144:0.113294 4880:0.29247099 4881:0.249522 4882:0.19290499 4883:0.249522 #
0.10000000000000000555111512312578 2:0.095835 10:0.042291 36:0.039955001 41:0.054469001 45:0.14491799 56:0.075491004 85:0.17982601 99:0.053141002 112:0.031261001 114:0.052498002 142:0.047162998 152:0.167124 155:0.18424501 184:0.096487001 209:0.092767 221:0.049614001 239:0.023819 240:0.052786 248:0.063274004 272:0.097157001 275:0.10148 276:0.104155 357:0.103396 370:0.049934 397:0.171092 402:0.131437 404:0.23795301 414:0.15949801 415:0.093716003 436:0.104061 457:0.083627999 559:0.091173001 570:0.109172 588:0.103068 617:0.098954 719:0.149186 734:0.14631601 787:0.089552 799:0.17182 801:0.17603099 889:0.115785 958:0.12908401 986:0.115785 1004:0.074634001 1012:0.17282 1014:0.191653 1015:0.141449 1026:0.087219998 1104:0.130633 1142:0.089975998 1269:0.12833799 1285:0.150544 1340:0.099529997 1540:0.097833 1570:0.119709 1647:0.116031 1650:0.165646 3628:0.197492 3716:0.172769 4304:0.23150501 4305:0.26551899 #
0.10000000000000000555111512312578 35:0.022023 41:0.060428999 113:0.106993 116:0.08405 126:0.057737 169:0.077156998 184:0.107045 204:0.102403 216:0.081525996 272:0.1336 276:0.081987001 315:0.080362998 354:0.071263999 370:0.055397999 371:0.130417 385:0.063087001 458:0.25714701 470:0.079304002 475:0.122237 592:0.199503 595:0.117565 596:0.157087 637:0.18890201 676:0.082585 731:0.15874401 770:0.114709 828:0.31624401 909:0.157557 933:0.18847001 1012:0.218013 1234:0.241115 1268:0.095383003 1338:0.192693 1665:0.141975 1788:0.126597 1906:0.135712 2711:0.156308 3357:0.173448 5170:0.45980799 #
0.10000000000000000555111512312578 10:0.043196999 19:0.085243002 44:0.069247998 63:0.091068998 70:0.068182997 83:0.119238 85:0.076973997 91:0.114837 94:0.078364 104:0.056302 116:0.077384003 143:0.063588999 155:0.078864999 213:0.258297 221:0.050678 224:0.111717 243:0.148853 276:0.075484999 312:0.15326101 314:0.121432 370:0.051004998 382:0.124033 393:0.113728 397:0.083273999 404:0.227182 426:0.14740799 429:0.105278 434:0.131964 465:0.093241997 470:0.123626 588:0.27471599 596:0.14463 670:0.190908 719:0.090001002 723:0.059500001 759:0.093241997 799:0.31920201 936:0.143353 986:0.118267 993:0.071038 1012:0.14241999 1331:0.129619 1427:0.103974 1515:0.098962002 1540:0.099931002 1868:0.150133 1932:0.129261 1956:0.16063701 2164:0.153772 3063:0.17980599 3071:0.178096 3357:0.159693 8739:0.249292 #
0.10000000000000000555111512312578 23:0.037058 35:0.016807999 43:0.123285 77:0.104623 108:0.061850999 110:0.15115499 112:0.026469 131:0.059788998 203:0.103575 222:0.077197 232:0.055084001 239:0.020168001 248:0.053574 256:0.096867003 258:0.061747 276:0.096435003 326:0.086586997 397:0.14486399 413:0.17242099 475:0.093291 579:0.13927799 670:0.15825 697:0.087406002 705:0.137574 719:0.074605003 741:0.081363 797:0.074689999 807:0.045299001 825:0.068484001 828:0.086452998 894:0.059215002 921:0.113444 993:0.123578 1012:0.069725998 1013:0.179259 1121:0.106856 1125:0.127931 1217:0.069098003 1342:0.085148998 1374:0.089275002 1420:0.090493999 1549:0.161312 1617:0.304014 1650:0.082836002 2022:0.19021501 2430:0.105439 2719:0.22968499 2767:0.130876 2910:0.177846 3078:0.155634 3377:0.133964 3731:0.188475 4430:0.173805 5848:0.177846 5849:0.206645 5850:0.38064599 #
0.10000000000000000555111512312578 10:0.033762999 11:0.017485 18:0.051656 22:0.137197 35:0.015848 39:0.075501002 42:0.062385 43:0.055390999 44:0.031966001 48:0.062795997 69:0.044592999 70:0.053291 75:0.043784998 76:0.034428999 81:0.067539997 85:0.060162 97:0.076820999 113:0.036688 122:0.110234 126:0.024538999 137:0.043189 142:0.037652001 155:0.061640002 160:0.078886002 239:0.019016 250:0.074153997 256:0.053943999 267:0.058968998 276:0.058998998 290:0.050051 300:0.093488999 310:0.093032002 314:0.094911002 404:0.115213 449:0.106965 457:0.066763997 485:0.098149002 565:0.114313 596:0.159319 607:0.117343 615:0.112481 676:0.059429001 688:0.106965 707:0.083621003 859:0.098902002 993:0.116521 1007:0.188154 1012:0.111314 1013:0.070830002 1014:0.090368003 1178:0.098649003 1209:0.079000004 1217:0.065151997 1338:0.081896998 1450:0.080286004 1561:0.086531997 1650:0.078105003 1659:0.120187 1732:0.115781 1863:0.097419001 2354:0.12790801 2403:0.112926 3234:0.126313 3621:0.157667 3622:0.177711 3915:0.29155299 4685:0.152707 6097:0.157667 8723:0.40890199 9241:0.18482199 12956:0.21197701 12957:0.21197701 12958:0.21197701 #
-0.10000000000000000555111512312578 10:0.047922 35:0.022493999 36:0.045276001 69:0.063293003 73:0.12878101 105:0.039995 116:0.239666 126:0.03483 162:0.107304 184:0.185119 202:0.100884 236:0.085179999 238:0.21049599 240:0.101275 257:0.166042 258:0.139915 276:0.103795 413:0.230753 458:0.094080001 475:0.124852 546:0.117163 585:0.25459999 719:0.099844001 807:0.060624 858:0.076041996 980:0.179285 993:0.078806996 1013:0.170219 1225:0.23265199 1374:0.119477 1617:0.30366999 1948:0.27824599 2711:0.15965199 3377:0.37624899 14023:0.30087301 #
-0.048848178477223599958101374340913 11:0.021035001 44:0.038456999 76:0.041420002 88:0.06622 104:0.052940998 116:0.072764002 122:0.050822001 179:0.086315997 194:0.153391 209:0.089098997 213:0.10178 221:0.047651999 222:0.087568 232:0.062484 233:0.104289 248:0.060772002 263:0.170771 267:0.070942998 271:0.078225002 275:0.232586 276:0.109391 293:0.130128 315:0.117798 324:0.080912001 327:0.058603 370:0.047959998 415:0.090011001 458:0.079742 465:0.087674998 512:0.11005 523:0.082039997 562:0.13990501 630:0.40971899 740:0.098681003 770:0.16814201 780:0.066064 811:0.078854002 933:0.068375997 1012:0.165987 1013:0.222358 1459:0.20094299 1540:0.093965001 1647:0.111444 1650:0.22422799 1825:0.35426801 1863:0.1172 3233:0.29891601 10470:0.234409 #
-0.10000000000000000555111512312578 10:0.076888002 15:0.048824001 36:0.042904001 37:0.063594997 69:0.059978001 76:0.046308 85:0.137008 106:0.13984901 109:0.169891 112:0.033567999 114:0.1471 116:0.137739 126:0.033004999 137:0.058090001 138:0.078110002 155:0.140375 181:0.084381998 184:0.103607 190:0.117443 192:0.101022 204:0.167816 213:0.11379 221:0.053275 224:0.117443 236:0.080718003 238:0.095048003 239:0.025576999 240:0.056681 276:0.046868 310:0.12513 313:0.127969 317:0.116805 325:0.119204 350:0.056031998 357:0.111026 404:0.192073 415:0.100632 434:0.17195 457:0.089799002 572:0.10964 616:0.108474 682:0.089060001 701:0.102358 723:0.105906 780:0.073859997 799:0.108969 837:0.084224001 964:0.118533 993:0.074679002 1012:0.29203701 1119:0.110326 1168:0.14113601 1269:0.28920799 1342:0.107986 1427:0.109303 1647:0.21095601 2089:0.156414 3516:0.19092201 4004:0.225545 12979:0.28511301 #
-0.10000000000000000555111512312578 19:0.108408 23:0.119314 35:0.025785999 36:0.051902 38:0.083382003 43:0.090127997 44:0.052012999 45:0.234073 49:0.092629001 56:0.098063998 59:0.083021998 69:0.072557002 95:0.102855 126:0.039928 137:0.070274003 142:0.10373 155:0.100297 169:0.090342999 219:0.080475003 232:0.084509999 236:0.057673 240:0.068570003 276:0.056697998 315:0.094097003 370:0.064865999 404:0.11072 458:0.10785 596:0.227979 597:0.16648 699:0.19161899 731:0.26196599 778:0.19265801 811:0.10665 1012:0.106973 1013:0.115249 1026:0.1133 1032:0.158123 1146:0.110601 1456:0.21235999 1650:0.127087 1767:0.179581 1906:0.26904899 2038:0.17828301 2516:0.192719 2577:0.364797 6981:0.28915799 #
-0.0074688459922214222100333991249954 10:0.042084001 11:0.021794001 23:0.073740996 36:0.083440997 44:0.039843999 55:0.097906999 62:0.071191996 69:0.055582002 76:0.090061001 91:0.111877 95:0.078791998 104:0.092868999 112:0.031109 116:0.075388998 131:0.070267998 198:0.14930999 221:0.049371 229:0.093138002 232:0.038235001 239:0.023701999 240:0.052528001 247:0.083045997 249:0.068662003 257:0.086120002 276:0.073538996 300:0.068824999 311:0.095366001 315:0.072082996 317:0.33333701 419:0.057549998 434:0.075930998 458:0.082617998 519:0.119684 596:0.083218999 777:0.153615 785:0.102081 837:0.078051999 956:0.10599 974:0.103889 986:0.19508199 1012:0.13874801 1060:0.25483 1063:0.302733 1075:0.130794 1146:0.084725998 1168:0.221453 1299:0.113553 1307:0.144316 1348:0.084545001 1468:0.089218996 1579:0.12524401 1618:0.125585 1698:0.135611 1769:0.123919 1933:0.131615 2104:0.15468299 2150:0.165049 2385:0.13514 3226:0.165049 3343:0.185196 5259:0.17693099 5260:0.214635 #
0.10000000000000000555111512312578 5:0.056506999 11:0.015837001 19:0.060346998 31:0.044181999 75:0.039659001 89:0.056088999 95:0.057255998 112:0.022606 114:0.037962001 121:0.043464001 124:0.054444999 126:0.053038999 144:0.128794 195:0.084633 205:0.041710999 231:0.057039998 239:0.017224001 280:0.144895 300:0.050012998 313:0.050898001 340:0.121787 360:0.246263 386:0.159457 389:0.061634 405:0.065063 415:0.067768 498:0.070945002 550:0.077962004 585:0.077418998 650:0.064985998 705:0.069394 761:0.086363003 769:0.115121 807:0.065503001 810:0.089125 935:0.066009998 941:0.085771002 962:0.077825002 1220:0.119059 1640:0.33981901 1832:0.15597001 1842:0.39645299 2039:0.093617998 2080:0.152069 2253:0.113721 2803:0.115855 3022:0.120851 4257:0.215524 5336:0.15597001 5729:0.14843699 5730:0.50101697 #
0.10000000000000000555111512312578 9:0.048521999 10:0.081931002 23:0.084790997 33:0.07 35:0.018324999 44:0.036963001 55:0.090827003 69:0.051562998 76:0.039811 83:0.063647002 93:0.119914 97:0.088829003 108:0.067434996 112:0.028859001 116:0.19524901 126:0.028375 138:0.067151003 149:0.079980999 155:0.071276002 202:0.082188003 208:0.052460998 217:0.059687 223:0.072339997 232:0.035471 240:0.048728999 244:0.047623999 248:0.058410998 260:0.108044 264:0.139681 265:0.121336 272:0.052972 290:0.057875 297:0.13648 352:0.047596 353:0.082865 385:0.052494999 387:0.077767998 440:0.079455003 443:0.061298002 481:0.21936101 499:0.107808 522:0.123281 579:0.089685999 656:0.080247998 661:0.095146999 668:0.067895003 669:0.118817 686:0.226742 693:0.149875 812:0.096376002 837:0.072407 850:0.141147 933:0.111272 972:0.28084099 1142:0.083061002 1149:0.099179 1152:0.10925 1196:0.109004 1313:0.147903 1427:0.093967997 1481:0.13507099 1517:0.205439 1549:0.103875 1666:0.118817 1932:0.116823 2042:0.13057899 2444:0.148872 2736:0.145179 3013:0.176578 3108:0.17930201 4362:0.167714 4563:0.16095699 5259:0.16413601 7735:0.245113 #
0.10000000000000000555111512312578 23:0.102777 27:0.087182999 35:0.026791001 50:0.050402001 60:0.050365999 63:0.041974999 64:0.075386003 65:0.058428001 107:0.078653 115:0.079825997 122:0.042180002 127:0.073946998 139:0.103817 147:0.082551003 182:0.080283001 209:0.073946998 210:0.070235997 219:0.049383 221:0.039549001 241:0.037234001 256:0.053862002 287:0.088660002 327:0.048636999 399:0.097269997 427:0.083085001 474:0.063971996 499:0.093092002 530:0.12810799 570:0.087025002 660:0.113207 671:0.062348001 677:0.074993998 723:0.046434 739:0.083769001 791:0.0766 807:0.072208002 843:0.102897 1142:0.071722999 1217:0.065052003 1303:0.120004 1427:0.081141002 1433:0.088829003 1681:0.087343 1682:0.115605 1868:0.117164 1930:0.20747299 1977:0.106107 1992:0.152474 2088:0.13898601 2184:0.082158998 2555:0.14482 2595:0.132213 2731:0.113207 2788:0.122537 2903:0.14482 2920:0.148351 3063:0.14032 3152:0.39985499 3153:0.16033299 4190:0.14173099 6251:0.14482 6277:0.18454 7712:0.150327 8206:0.44417799 #
0.10000000000000000555111512312578 11:0.019083999 14:0.128252 35:0.017297 36:0.034816001 41:0.080362 45:0.060173001 105:0.052074 108:0.063653998 113:0.040043999 123:0.064143002 134:0.070479997 145:0.057006001 239:0.043558002 244:0.044953998 273:0.086983003 276:0.038033001 295:0.114889 322:0.067403004 337:0.078033999 393:0.057301998 419:0.050393999 470:0.062289 497:0.039754 508:0.076517001 552:0.138089 568:0.158786 596:0.072871998 611:0.139164 631:0.081453003 638:0.117932 665:0.138983 685:0.094279997 697:0.188778 700:0.101543 723:0.050758999 771:0.083062999 777:0.079447001 778:0.104266 780:0.059937 806:0.19452401 1015:0.123257 1092:0.193322 1169:0.120909 1289:0.115251 1601:0.095303997 1615:0.104556 1706:0.150548 1736:0.088698998 1971:0.242916 2385:0.118338 2639:0.27813101 4046:0.278234 4167:0.136232 4377:0.31822401 4578:0.166677 5150:0.15493301 6144:0.166677 6336:0.23136801 6337:0.23136801 #
0.10000000000000000555111512312578 10:0.041939002 35:0.019686 44:0.039708 48:0.132072 61:0.095426001 69:0.055392001 74:0.119274 75:0.054389 76:0.089752004 81:0.083897002 92:0.098993003 95:0.078521997 102:0.238463 108:0.072443001 112:0.031002 113:0.045573 114:0.052062001 116:0.075130999 126:0.030482 138:0.072137997 142:0.098154001 164:0.10512 180:0.082335003 190:0.108463 199:0.091996998 209:0.091996998 217:0.064120002 232:0.038104001 239:0.023621 241:0.046323001 256:0.067009002 276:0.090838 300:0.068589002 350:0.1086 410:0.083454996 453:0.075466998 477:0.104215 482:0.219436 577:0.136106 635:0.26733699 686:0.116067 707:0.103872 723:0.057767998 780:0.068213001 811:0.081418999 813:0.106544 823:0.25537801 830:0.133761 831:0.162121 835:0.115315 840:0.113163 902:0.15787899 906:0.081010997 907:0.12727299 908:0.115814 974:0.103533 977:0.094281003 1037:0.114581 1126:0.076499 1133:0.089979 1491:0.125844 1779:0.125844 2039:0.128389 2335:0.287559 2508:0.137604 3129:0.180168 9733:0.195852 10890:0.26331499 #
-0.10000000000000000555111512312578 12:0.062297001 15:0.035021 41:0.041951999 50:0.048698999 51:0.067178003 71:0.085502997 85:0.098272003 88:0.089910999 105:0.027185 126:0.023674 142:0.061503999 145:0.050386999 155:0.100688 202:0.068572 214:0.051922999 221:0.038213 239:0.018346 256:0.088115998 266:0.106871 272:0.044195998 313:0.054212 402:0.101234 404:0.156656 426:0.111152 572:0.078643002 579:0.074827999 580:0.13839 611:0.07265 616:0.077806003 686:0.21511 765:0.082892999 787:0.068974003 793:0.105707 812:0.080410004 813:0.082748003 822:0.096938998 823:0.117143 837:0.060412001 912:0.146166 914:0.069632001 1019:0.096678004 1126:0.059413001 1142:0.117336 1151:0.093984999 1152:0.091150001 1169:0.106871 1317:0.126871 1321:0.074519001 1348:0.065436997 1353:0.071722001 1446:0.099715002 1468:0.069054998 1617:0.086496003 1666:0.099133 1765:0.108516 1932:0.097469002 1971:0.126812 2892:0.122618 4046:0.42789301 4225:0.14732499 5481:0.154919 6144:0.14732499 6203:0.158103 6348:0.178308 6557:0.17144699 6758:0.149597 11251:0.39449 #
-0.076172059172540315663546550695173 23:0.12838601 31:0.12767901 55:0.097971 59:0.063639998 63:0.052434001 89:0.077235997 91:0.066119 94:0.076393001 97:0.162231 114:0.052274998 116:0.075438 155:0.076881997 182:0.100288 216:0.073173001 219:0.061687998 229:0.093199 236:0.044209 239:0.023717999 256:0.067282997 276:0.073587 297:0.182468 340:0.223095 350:0.051959999 397:0.081179999 404:0.143701 418:0.111608 433:0.072924003 448:0.132791 498:0.097693004 572:0.101672 579:0.09674 616:0.10059 739:0.104642 751:0.169098 760:0.121618 811:0.081752002 933:0.120024 952:0.112266 1014:0.31466699 1131:0.103121 1142:0.089593999 1217:0.081261002 2018:0.14916299 2718:0.161663 3685:0.18303201 3804:0.16641501 4293:0.137657 4563:0.45304301 6320:0.34608099 #
-0.097499513913381005703051584987406 5:0.094311997 35:0.023957999 45:0.083342999 116:0.191889 121:0.122828 122:0.15239701 315:0.087425999 383:0.073538996 414:0.113694 719:0.106344 858:0.080992997 933:0.085920997 1012:0.09939 1198:0.131523 1217:0.098494001 1419:0.247747 1533:0.14691301 2328:0.22461601 3022:0.20170601 3152:0.455098 3985:0.210435 12631:0.294559 13756:0.32045999 13757:0.32045999 13758:0.32045999 #
-0.10000000000000000555111512312578 6:0.035340998 23:0.036653999 30:0.081028 35:0.028147999 42:0.065444 68:0.103222 71:0.092970997 99:0.044505 112:0.026180999 142:0.039498001 197:0.060162999 198:0.177104 199:0.077692002 203:0.102448 209:0.077692002 216:0.061542999 217:0.054149002 229:0.078386001 232:0.032179002 236:0.037182 239:0.019948 272:0.081367999 310:0.097593002 313:0.058947999 314:0.099564001 315:0.060665 370:0.041820001 393:0.055073 404:0.23574699 410:0.070478 419:0.048434 452:0.051382001 453:0.063731998 470:0.059866 482:0.088303 539:0.079099 555:0.095959999 588:0.14614999 597:0.063391998 600:0.177514 760:0.060412999 778:0.059186 780:0.057606 797:0.073876999 799:0.20280699 811:0.068758003 828:0.144785 858:0.056201998 859:0.103751 909:0.118938 935:0.076449998 941:0.099336997 974:0.087434001 993:0.098617002 995:0.092275001 1140:0.079621002 1555:0.31546801 1632:0.132506 1808:0.142221 1868:0.123096 1924:0.124845 1950:0.132506 2165:0.094797999 2197:0.12737601 2928:0.165397 4084:0.20439699 7860:0.186424 7913:0.222369 7914:0.222369 7915:0.20439699 7916:0.20439699 7917:0.20439699 #
-0.019714837455871502686077789689989 35:0.015612 38:0.050484002 41:0.042838998 44:0.031491 60:0.049694002 61:0.12813701 63:0.041414998 89:0.061005 105:0.027759001 112:0.024587 113:0.061195001 138:0.057211 150:0.072416 192:0.073992997 219:0.082497001 221:0.039021 232:0.063419998 236:0.059122 241:0.036736999 249:0.113888 267:0.058093 350:0.041041002 397:0.064120002 434:0.101611 452:0.081698999 464:0.066256002 561:0.078166001 575:0.074970998 676:0.058545999 760:0.056733999 761:0.093932003 778:0.055582002 803:0.076729998 806:0.103697 824:0.102125 837:0.061689001 894:0.055004001 953:0.091257997 1105:0.122255 1133:0.071359999 1234:0.08145 1275:0.114564 1326:0.107942 1645:0.117243 1693:0.088152997 1779:0.168984 1913:0.099528998 2210:0.209951 2212:0.123688 2485:0.11081 2841:0.10954 3213:0.120253 3458:0.13983899 4837:0.244773 4838:0.18207701 4839:0.450717 4840:0.43825099 4841:0.16144501 4842:0.175072 4843:0.208829 #
0.10000000000000000555111512312578 6:0.043806002 11:0.022735 16:0.090539999 35:0.034889001 41:0.095734 45:0.071682997 49:0.074020997 59:0.066344 65:0.076087996 83:0.071570002 87:0.039243001 112:0.032451998 115:0.146511 123:0.076412 126:0.076140001 131:0.073302001 155:0.080149002 184:0.10016 205:0.059877999 219:0.064309001 238:0.15557601 239:0.024726 248:0.065683 256:0.070142001 276:0.076714002 313:0.073066004 337:0.092960998 338:0.26702201 401:0.101415 413:0.12485 419:0.060033999 428:0.106655 434:0.079209 440:0.089345999 458:0.086185001 470:0.074203998 494:0.096786998 498:0.101844 539:0.098043002 544:0.088289 616:0.104864 671:0.137472 716:0.166655 765:0.111721 786:0.14049099 818:0.105023 828:0.105992 852:0.197383 887:0.107332 1013:0.24032401 1121:0.131006 1217:0.084714003 1468:0.157582 1681:0.19258399 1976:0.156275 1994:0.120192 2026:0.151886 2073:0.14403801 2668:0.17348599 4299:0.179346 5079:0.218041 5232:0.179346 6319:0.22390001 7574:0.275626 #
0.10000000000000000555111512312578 35:0.018405 36:0.037046 38:0.059514001 59:0.100331 69:0.051787999 85:0.1183 87:0.035050999 116:0.118931 119:0.073977999 124:0.166583 126:0.028499 127:0.086011998 137:0.084926002 145:0.060656 155:0.121208 202:0.082546003 209:0.086011998 210:0.081694998 213:0.098252997 219:0.120543 221:0.046000998 225:0.098924004 226:0.058917999 239:0.022084 244:0.080986999 248:0.058665998 257:0.080241002 276:0.084927998 350:0.048381999 404:0.165847 434:0.070748001 440:0.079801999 450:0.081050001 498:0.090965003 554:0.112587 596:0.077537 631:0.086668998 738:0.117574 739:0.097434998 797:0.081788003 825:0.074992999 858:0.06222 992:0.12865099 993:0.064482003 1012:0.160235 1016:0.331431 1317:0.090203002 1511:0.143315 1549:0.104328 1609:0.24105 1806:0.124226 1868:0.230739 1910:0.110991 2026:0.13566101 2067:0.13889 2262:0.13690899 2330:0.135056 2436:0.128176 3943:0.363428 7351:0.28855699 7352:0.194749 #
0.10000000000000000555111512312578 11:0.042050999 12:0.065079004 23:0.035215002 32:0.069026001 33:0.061011001 69:0.044941999 75:0.044128001 76:0.034699 81:0.068069004 115:0.080574997 123:0.059227001 162:0.129005 190:0.088000998 199:0.074640997 216:0.059126001 217:0.052023001 232:0.030916 239:0.019165 240:0.042472001 248:0.050911002 271:0.065531 276:0.073701002 322:0.062238 352:0.041483998 370:0.040176999 385:0.077468 399:0.098182 444:0.074735001 458:0.113106 494:0.07502 530:0.061616998 624:0.084275998 627:0.079504997 665:0.075795002 723:0.046868999 780:0.055344 831:0.13153499 914:0.072741002 933:0.05728 947:0.127303 956:0.085699998 1004:0.060051002 1012:0.139052 1013:0.17034601 1338:0.082539 1342:0.080914997 1405:0.084554002 1459:0.099422 1555:0.094795004 1564:0.14306 2034:0.10965 2191:0.10965 2215:0.37918901 2668:0.134469 3985:0.14028899 4012:0.128911 5080:0.179104 5304:0.196371 6213:0.165163 12963:0.21363799 12964:0.55747497 #
0.10000000000000000555111512312578 10:0.063570999 36:0.074444003 38:0.056988001 44:0.060189001 87:0.033562999 91:0.099813998 94:0.068112001 104:0.048935998 112:0.027753999 116:0.067261003 137:0.048029002 138:0.18029501 169:0.104543 170:0.136554 205:0.107472 216:0.065241002 224:0.097102001 232:0.057758 236:0.110041 239:0.021147 248:0.056175999 266:0.293966 299:0.100696 315:0.13496301 317:0.096574999 327:0.054170001 354:0.057029001 418:0.099509001 434:0.142168 597:0.067201003 760:0.064043 807:0.047499001 937:0.079134002 1019:0.11144 1171:0.095216997 1353:0.082672998 1417:0.141341 1520:0.100495 1609:0.109985 1753:0.145138 1757:0.130493 2122:0.13647699 2659:0.121415 4837:0.27630699 8275:0.21667901 8699:0.191493 13903:0.235732 13904:0.56252497 #
0.10000000000000000555111512312578 2:0.099367 10:0.074243002 15:0.047143999 23:0.095234998 30:0.26177201 31:0.132948 35:0.020582 36:0.041428 43:0.071938999 45:0.150259 59:0.066266999 75:0.056864999 81:0.087716997 89:0.080424003 99:0.055100001 113:0.080674998 114:0.054432999 126:0.066881999 142:0.048900999 155:0.080054998 179:0.093181998 219:0.108757 232:0.039840002 272:0.059496999 276:0.045256 324:0.087347001 350:0.054104999 370:0.051775001 404:0.14963201 419:0.12584101 588:0.180941 594:0.116214 596:0.14681201 676:0.077183001 721:0.104427 731:0.087623999 737:0.111201 778:0.17485701 874:0.078904003 895:0.110817 993:0.122093 1012:0.085385002 1013:0.091990001 1026:0.215803 1032:0.126212 1146:0.08828 1403:0.130853 1428:0.169503 1647:0.20369899 1650:0.101439 1656:0.188372 1740:0.129457 1888:0.132688 1906:0.126835 2703:0.208551 3727:0.42973301 4333:0.25305301 #
-0.02372500136071789209046833946104 10:0.033712 11:0.02956 13:0.084761001 14:0.14542399 15:0.036246002 35:0.015823999 59:0.050946999 62:0.05703 70:0.053211998 81:0.067438997 88:0.054960001 105:0.028136 110:0.08405 138:0.057985999 142:0.078899004 150:0.073397003 238:0.070560999 241:0.037234999 276:0.058910001 321:0.075786002 387:0.067153998 392:0.060991 413:0.095875002 420:0.076292999 428:0.081903003 434:0.060826 451:0.119412 608:0.15483101 611:0.075190999 616:0.080527999 677:0.074996002 688:0.106805 697:0.139331 806:0.105102 807:0.042647999 828:0.137812 896:0.071470998 900:0.15743101 921:0.106805 947:0.12612399 958:0.1029 1012:0.111147 1013:0.19744501 1104:0.104134 1125:0.071135998 1138:0.11321 1146:0.067872003 1250:0.128553 1317:0.131309 1338:0.081773996 1342:0.080165997 1420:0.085198 1617:0.18787301 1650:0.077987999 1769:0.099267997 1814:0.121883 3078:0.248091 3575:0.194552 3576:0.160338 3577:0.194552 3578:0.44419101 3579:0.171938 3580:0.133224 3581:0.143231 3582:0.21166 3583:0.124628 #
-0.0092555705171402415099013438748443 18:0.060722999 23:0.041074 31:0.097084999 35:0.018629 45:0.136002 56:0.070846997 60:0.059296999 69:0.052418999 81:0.134427 83:0.064704001 104:0.108559 105:0.033124 114:0.083419003 115:0.055507001 122:0.104215 127:0.087059997 146:0.076511003 147:0.097189002 149:0.081308998 157:0.10302 187:0.124521 209:0.087059997 219:0.122012 225:0.10013 239:0.022353999 267:0.117367 271:0.076435 389:0.07999 397:0.129544 415:0.087950997 432:0.143491 444:0.087169997 458:0.077917002 459:0.095972002 481:0.13170899 596:0.231203 615:0.13222399 671:0.124283 710:0.130707 738:0.183411 807:0.050209001 888:0.1056 1004:0.070041999 1093:0.092600003 1169:0.130219 1297:0.12926599 1338:0.096271999 1515:0.090924002 1518:0.111825 2009:0.24336299 2436:0.129739 2572:0.135517 2705:0.192644 2724:0.333758 3518:0.31380999 4512:0.174657 8217:0.192644 10173:0.249184 #
-0.098495565889035865958511806184106 6:0.065596998 11:0.020106999 14:0.079807997 15:0.041745 36:0.036683001 62:0.111209 69:0.051281001 104:0.171951 108:0.067065999 119:0.073252998 123:0.067580998 126:0.04778 145:0.060061 169:0.063850999 181:0.072145998 209:0.085169002 224:0.100413 227:0.15060399 232:0.035275999 239:0.021868 280:0.108652 282:0.066895999 311:0.087985002 312:0.13775399 322:0.071015999 330:0.099510998 352:0.047334999 354:0.058974002 415:0.086039998 453:0.069866002 464:0.130952 492:0.088583998 497:0.116932 504:0.082410999 508:0.080619 662:0.150088 665:0.086485997 738:0.068760999 740:0.094328001 760:0.066226996 776:0.12555601 787:0.082217 811:0.075375997 894:0.108713 977:0.087283999 993:0.063850999 1093:0.090588003 1134:0.104979 1146:0.078169003 1220:0.151161 1260:0.13494299 1398:0.123009 1502:0.164961 1515:0.088949002 1540:0.089819998 1655:0.152275 1723:0.220762 3672:0.15464599 6140:0.15464599 9137:0.58170903 9138:0.243771 #
-0.10000000000000000555111512312578 11:0.039694 30:0.083557002 31:0.052767001 35:0.017143 36:0.034506999 37:0.086600997 48:0.115016 50:0.054606002 69:0.081675 76:0.037244 85:0.110192 94:0.066256002 114:0.045338999 122:0.045697998 144:0.1241 155:0.1129 164:0.054067001 178:0.186507 221:0.042847998 238:0.076444998 239:0.020571001 244:0.044553999 249:0.059590001 276:0.098361999 300:0.059730999 340:0.069307998 349:0.126937 383:0.052622002 385:0.049109999 392:0.066077001 404:0.154479 410:0.189647 430:0.095333003 434:0.065898001 440:0.125855 448:0.054880001 457:0.072223 470:0.061733998 493:0.061131999 499:0.100857 518:0.154176 557:0.139273 638:0.116882 783:0.067675002 869:0.105645 906:0.070548996 910:0.072678 933:0.061482001 993:0.060063001 1012:0.071119003 1170:0.236046 1298:0.098549001 1353:0.080421001 1426:0.105126 1427:0.087908998 1668:0.16072699 1868:0.126937 2297:0.132759 2304:0.097952999 2323:0.124708 2438:0.12216 2448:0.14547101 2596:0.143242 2777:0.12216 3481:0.32927299 4490:0.15355401 4832:0.24630401 5058:0.170559 7150:0.19993401 7534:0.19993401 7535:0.22930899 #
-0.10000000000000000555111512312578 10:0.077257 18:0.069811001 23:0.047222 35:0.036263 44:0.043200999 63:0.056814 97:0.103821 112:0.033728998 113:0.049582001 114:0.056642 115:0.063813999 116:0.138399 142:0.121428 206:0.081092 208:0.128675 214:0.072736003 222:0.098370001 227:0.104533 244:0.094242997 290:0.067643002 326:0.110336 327:0.065831997 352:0.055628002 392:0.082551003 396:0.10692 397:0.14893299 419:0.062398002 434:0.214829 448:0.143885 470:0.184044 530:0.139897 532:0.117577 561:0.107231 623:0.097309999 690:0.113572 723:0.062849998 783:0.201756 807:0.057723999 818:0.109158 933:0.183292 1130:0.230547 1146:0.091863997 1220:0.177644 1468:0.096735001 1571:0.31814101 1681:0.118222 2164:0.162429 2282:0.149709 2437:0.161624 3061:0.29460099 3840:0.209562 3958:0.24978 6353:0.22662599 #
0.10000000000000000555111512312578 8:0.149297 11:0.033333 35:0.017843001 38:0.057698 42:0.070240997 57:0.097254999 104:0.083889 112:0.047578 122:0.080532998 234:0.093690999 236:0.039907999 239:0.02141 248:0.056876 276:0.082336001 282:0.065497003 291:0.099225 293:0.187693 309:0.144959 313:0.063268997 354:0.057739999 387:0.075723998 392:0.068774998 420:0.086029001 422:0.099977002 452:0.055148002 497:0.139342 504:0.192542 669:0.115695 887:0.092941001 1225:0.087940998 1237:0.29439101 1558:0.124265 1601:0.098311998 1632:0.14221901 1641:0.19367 1731:0.095416002 2022:0.119267 4095:0.165226 4103:0.15141 6046:0.20009001 7093:0.66631198 #
0.10000000000000000555111512312578 9:0.058072001 10:0.046723999 11:0.050781 76:0.047646999 88:0.076173998 91:0.073362 99:0.099408001 104:0.060897999 109:0.215794 113:0.085964002 121:0.139364 123:0.081326999 126:0.071267001 150:0.17223801 165:0.144327 180:0.091728002 182:0.23352 223:0.086576998 240:0.12239 247:0.092202999 276:0.081648 307:0.16165499 313:0.077765003 314:0.131346 315:0.13550401 321:0.105037 350:0.057652 370:0.055169001 539:0.104349 559:0.100731 570:0.31474301 579:0.107338 640:0.14902 650:0.099290997 665:0.104077 710:0.153877 743:0.116882 759:0.100854 760:0.079697996 792:0.131952 837:0.086658001 851:0.231741 858:0.074142002 889:0.127923 931:0.13104799 974:0.115344 986:0.127923 993:0.130098 1140:0.105037 1268:0.094989002 1342:0.111107 1449:0.150564 1475:0.126854 1540:0.108089 1879:0.17589 2024:0.163911 2304:0.12531 2344:0.21819501 2430:0.137583 2579:0.167171 #
0.10000000000000000555111512312578 2:0.069237001 6:0.030486999 36:0.028866 50:0.045680001 55:0.071082003 74:0.086891003 81:0.061119001 86:0.063584 87:0.027310999 94:0.055426002 122:0.064727001 129:0.091176003 142:0.034072999 182:0.072761998 206:0.054299001 208:0.041056 224:0.079016 226:0.045908999 229:0.14190599 238:0.063948996 284:0.076819003 316:0.070482001 340:0.121676 434:0.055126999 517:0.247786 611:0.11538 624:0.128123 628:0.084740996 630:0.118106 677:0.067969002 738:0.054109 787:0.064696997 838:0.074345 843:0.15789901 858:0.048482001 962:0.077753998 976:0.076301999 1012:0.155246 1133:0.065549999 1176:0.121692 1217:0.058958001 1544:0.111671 1561:0.078305997 1600:0.090683997 1641:0.15565801 2140:0.115749 3152:0.27241999 3153:0.304957 3769:0.136244 4931:0.28592399 5328:0.128454 8868:0.191826 8869:0.50055802 8870:0.176322 #
0.10000000000000000555111512312578 8:0.053211998 10:0.032331999 11:0.028349999 18:0.083755001 23:0.033459999 31:0.098027997 35:0.015176 75:0.041928999 94:0.058653001 107:0.075434998 112:0.040465999 113:0.059485 116:0.098066002 119:0.060998999 138:0.094159 156:0.030464999 209:0.070922002 221:0.037930999 276:0.070028 297:0.113027 311:0.073266998 324:0.064405002 340:0.061354 341:0.064952999 354:0.049109001 404:0.155497 437:0.288279 448:0.048581 450:0.066831 452:0.046905 470:0.092529997 493:0.091627002 532:0.083313003 556:0.099569 638:0.103469 686:0.089478001 723:0.044534001 729:0.17017999 730:0.12558401 751:0.129829 857:0.106479 858:0.051304001 887:0.079048 933:0.054426 991:0.062514998 1012:0.062958002 1065:0.099871002 1149:0.082135998 1200:0.125875 1340:0.076091997 1396:0.101765 1398:0.102432 1426:0.157566 1431:0.129829 1557:0.098687001 1897:0.11237 2080:0.094956003 2179:0.150985 2693:0.12096 3152:0.288279 3666:0.19687501 3941:0.113422 5209:0.27919701 5945:0.18658701 6176:0.13889401 7053:0.34369701 7054:0.20299301 7055:0.18658701 #
0.10000000000000000555111512312578 10:0.050239999 35:0.023582 85:0.089523003 97:0.114312 99:0.063129999 104:0.15625601 108:0.086779997 113:0.092432998 116:0.152384 126:0.036515001 135:0.181637 143:0.073955998 150:0.109381 155:0.091723002 199:0.186592 232:0.077284999 236:0.110686 238:0.105155 240:0.106174 257:0.102811 271:0.096754 356:0.097337 370:0.059319999 397:0.096850999 404:0.101255 588:0.122441 656:0.21672 676:0.088431999 723:0.069201 780:0.13835201 820:0.18261801 858:0.079720996 978:0.12876201 986:0.32823101 1012:0.205305 1198:0.129458 1217:0.16414601 1456:0.32881999 1558:0.16422901 1599:0.15662999 8106:0.46565101 #
-0.055056525588272758886532187716512 9:0.047612999 11:0.019839 35:0.017982 58:0.083301999 69:0.050597001 76:0.039065 108:0.066170998 112:0.028317999 122:0.081156999 199:0.084032997 232:0.034805998 238:0.13576099 240:0.080959998 242:0.107203 248:0.097046003 275:0.091925003 276:0.082974002 307:0.27814999 338:0.079097003 350:0.047269002 352:0.046704002 353:0.13767301 483:0.085332997 494:0.177248 530:0.14558101 655:0.096648999 671:0.070850998 682:0.075130999 703:0.116931 722:0.076797001 731:0.076553002 759:0.082690001 825:0.15376 986:0.104883 993:0.062999003 1012:0.126303 1142:0.081505001 1168:0.119062 1169:0.125692 1196:0.106962 1209:0.089636996 1349:0.104442 1863:0.110536 1896:0.1134 2006:0.31492099 2177:0.17889699 2304:0.102742 2937:0.147066 4228:0.147066 6108:0.195382 9418:0.42316499 9545:0.195382 9716:0.24052 9717:0.20163999 #
-0.0069111544112680257934133720709724 10:0.038176998 49:0.064369999 56:0.143015 70:0.102026 76:0.038929999 84:0.104744 86:0.079449996 106:0.117569 142:0.089346997 150:0.140729 179:0.13736001 236:0.040077999 239:0.021501999 272:0.051800001 285:0.106355 293:0.17237499 328:0.092603996 337:0.080839999 338:0.232207 352:0.046542 356:0.073964998 370:0.045077 415:0.084599003 482:0.161155 512:0.103434 538:0.113925 588:0.093041003 596:0.075492002 671:0.119548 780:0.130308 874:0.068696 887:0.158034 935:0.139523 993:0.062781997 1012:0.15600801 1127:0.084491 1130:0.113925 1217:0.073669001 1312:0.104744 1321:0.25729501 1338:0.092603996 1348:0.129857 1423:0.115196 1574:0.225693 1706:0.15596201 2062:0.112121 2403:0.127689 3630:0.194708 4758:0.30185401 5272:0.18157201 5273:0.23968901 5274:0.23968901 5275:0.23968901 #
-0.10000000000000000555111512312578 1:0.075331002 11:0.056977998 23:0.043635 32:0.144815 35:0.019791 36:0.083598003 45:0.068846002 64:0.094286002 71:0.110678 88:0.068737999 104:0.054954 122:0.089322001 149:0.086378001 156:0.103671 205:0.057507999 216:0.073262997 224:0.109042 238:0.185202 239:0.023747001 240:0.15503401 248:0.10681 254:0.146539 276:0.139129 297:0.087054998 317:0.10845 321:0.094783999 350:0.088085003 351:0.065707996 392:0.076281004 434:0.076075003 474:0.080011003 485:0.12257 560:0.084614001 697:0.268565 738:0.074670002 780:0.068576999 1013:0.26057601 1142:0.089704998 1225:0.097539 1342:0.100262 1449:0.135867 1944:0.177266 2003:0.172249 2837:0.172249 3152:0.303305 3377:0.411616 10415:0.26471999 10416:0.26471999 #
-0.10000000000000000555111512312578 10:0.042116001 18:0.064436004 36:0.039790001 37:0.058979001 50:0.062967002 60:0.062922999 63:0.052439999 83:0.068660997 99:0.052921001 107:0.098261997 115:0.099728003 205:0.057443 220:0.149179 221:0.049408998 238:0.088150002 239:0.02372 240:0.052568 248:0.063011996 258:0.072623998 267:0.073558003 280:0.117856 303:0.130092 315:0.12214 354:0.063969001 392:0.076194003 393:0.065488003 394:0.095311001 404:0.27138501 434:0.21214201 448:0.063282996 738:0.156526 804:0.100601 858:0.066830002 936:0.139763 958:0.12855101 978:0.10794 993:0.165273 1004:0.074325003 1012:0.138854 1026:0.26747799 1340:0.099119 1569:0.145711 1647:0.242498 2117:0.170551 3450:0.163965 3628:0.196675 3727:0.333 5897:0.37533301 8437:0.243049 #
-0.10000000000000000555111512312578 11:0.015141 14:0.060095001 16:0.060297001 19:0.057693001 31:0.042238999 49:0.049295999 59:0.044183001 63:0.036403 81:0.122737 85:0.10933 100:0.071479 114:0.036293 115:0.040888 145:0.045226 150:0.063652001 155:0.112016 175:0.159513 178:0.071139999 197:0.049662001 214:0.046604998 221:0.07198 236:0.030693 239:0.016465999 341:0.058735002 351:0.045561999 404:0.164501 413:0.083145998 445:0.064787999 453:0.052609 470:0.128951 568:0.074401997 570:0.075473003 581:0.190033 588:0.120641 967:0.075065002 976:0.123621 993:0.048078999 1012:0.119474 1040:0.14179 1041:0.113823 1127:0.064704001 1250:0.188761 1364:0.083742999 1609:0.085642003 1623:0.21032 1670:0.118394 1866:0.099403001 2273:0.12707201 2304:0.078409001 2675:0.13905001 3218:0.125596 3412:0.117398 4195:0.160044 4583:0.36721799 4848:0.240272 5263:0.183558 5264:0.14911 5265:0.183558 5266:0.183558 5267:0.183558 5268:0.183558 5269:0.183558 5270:0.145208 5271:0.183558 #
0.10000000000000000555111512312578 23:0.082057998 35:0.017734 42:0.069812 45:0.061693002 69:0.049901001 83:0.061595999 84:0.103662 97:0.085966997 99:0.080384001 114:0.046902001 162:0.084600002 209:0.082878001 212:0.152549 219:0.093709998 233:0.164248 236:0.083240002 239:0.02128 324:0.075262003 329:0.15577 393:0.058749001 453:0.067987002 508:0.078450002 535:0.135879 596:0.178286 662:0.14605001 668:0.065706998 719:0.078717999 789:0.099941 799:0.23657601 818:0.189686 859:0.110677 895:0.095484003 945:0.094513997 1012:0.17556199 1032:0.25950801 1108:0.08585 1340:0.088919997 1366:0.16626699 1367:0.135179 1450:0.152119 1542:0.183236 1650:0.087403998 1678:0.245671 1941:0.131313 1949:0.12845901 2187:0.137335 2450:0.160523 2850:0.16626699 3147:0.32424799 6721:0.206826 7653:0.19269601 7654:0.19269601 #
0.10000000000000000555111512312578 7:0.082561001 9:0.065934002 11:0.045299001 35:0.024901001 41:0.040355001 45:0.051160999 56:0.05593 85:0.055831 87:0.047421001 88:0.05108 121:0.044532001 155:0.057202999 208:0.10047 238:0.065580003 239:0.017647 240:0.039108001 244:0.064714 249:0.051120002 315:0.053667001 352:0.038198002 385:0.042130001 386:0.096491002 402:0.164876 404:0.063147999 410:0.162692 430:0.081782997 457:0.061958 492:0.071484998 530:0.056736 568:0.079736002 616:0.074842997 636:0.136182 677:0.069701999 682:0.104041 695:0.121983 837:0.058111001 907:0.095082998 908:0.086521998 961:0.111535 986:0.085781999 1019:0.092996001 1074:0.14390001 1136:0.105646 1138:0.105218 1142:0.173948 1289:0.097989999 1305:0.078378998 1534:0.101682 1600:0.092996001 1669:0.073524997 1900:0.100965 1998:0.095357999 1999:0.1187 2026:0.108402 2574:0.13788199 3618:0.124795 4293:0.102422 4588:0.16491801 4892:0.13172901 5155:0.16491801 5340:0.14631701 5541:0.130418 5936:0.139718 6114:0.16491801 7454:0.155618 9333:0.379466 10607:0.19671699 10608:0.19671699 10609:0.33307099 10610:0.155618 #
0.10000000000000000555111512312578 3:0.085063003 11:0.021974999 18:0.064920001 30:0.097075 35:0.019917 44:0.040174 48:0.078919999 69:0.094888002 70:0.066974998 75:0.093169004 88:0.069176003 109:0.15874401 112:0.031366002 113:0.110027 116:0.128701 126:0.03084 151:0.096156001 169:0.069779001 221:0.04978 232:0.065274 240:0.052962001 275:0.24297 276:0.043793 292:0.071722001 330:0.108751 350:0.088647 368:0.135331 392:0.076766998 397:0.081799001 404:0.085519001 427:0.104579 436:0.17678 452:0.061556999 532:0.109339 539:0.094763003 596:0.247183 676:0.074688002 701:0.095642 778:0.148807 797:0.088506997 806:0.34519699 874:0.076352999 896:0.089956999 933:0.210421 1012:0.173398 1013:0.089016996 1014:0.192294 1134:0.114727 1196:0.118474 1338:0.102926 1618:0.214393 1693:0.29345301 1695:0.31226099 1924:0.14956801 4638:0.158747 #
0.10000000000000000555111512312578 3:0.066160999 6:0.055757999 10:0.055879001 35:0.026229 38:0.050092001 49:0.055647001 68:0.096184 85:0.058807999 105:0.057804 126:0.040612999 128:0.061441001 142:0.036805 143:0.048583001 147:0.080817997 162:0.073899001 206:0.099307999 214:0.052609999 217:0.050457001 223:0.061152998 232:0.071553998 236:0.034646999 239:0.018588001 292:0.164335 346:0.099868 350:0.040722001 370:0.038968001 389:0.066515997 397:0.063621998 433:0.057151999 443:0.087737001 479:0.102572 517:0.102572 592:0.058807999 611:0.07361 627:0.077111997 734:0.114183 736:0.219154 811:0.064070001 885:0.070384003 1069:0.078833997 1098:0.12503099 1198:0.085042 1284:0.19332901 1364:0.16005901 1450:0.13287701 1669:0.077445999 1935:0.11808 2165:0.088335 2198:0.32781199 2328:0.145235 2380:0.121306 2661:0.116332 3104:0.232592 5299:0.168322 5737:0.15412 5973:0.54069602 5974:0.19046099 5975:0.160192 #
0.10000000000000000555111512312578 2:0.089096002 10:0.039317001 36:0.037145998 50:0.058782998 55:0.091470003 70:0.130236 87:0.035145 88:0.064098001 112:0.029062999 113:0.042723 126:0.028576 131:0.065647997 137:0.050294001 209:0.086244002 232:0.060481999 236:0.086621001 266:0.336613 283:0.13424601 294:0.118303 370:0.046422999 383:0.135175 397:0.12832899 429:0.095820002 532:0.101311 576:0.145347 728:0.109047 778:0.19355001 817:0.099533997 896:0.083352998 1026:0.081087001 1146:0.079154998 1156:0.19653299 1268:0.07993 1292:0.14214499 1370:0.25927901 1450:0.093493 1618:0.117327 2077:0.20143799 2396:0.124561 2572:0.22729801 2711:0.221775 3830:0.15419701 4150:0.180571 4228:0.15093499 5680:0.177828 7232:0.206945 7233:0.215225 7234:0.246847 7235:0.226896 #
-0.10000000000000000555111512312578 8:0.10179 35:0.017146001 37:0.051155001 38:0.055443 43:0.059928 60:0.054575 63:0.045483001 91:0.057353999 98:0.053360999 100:0.233043 109:0.19459 112:0.027001999 113:0.039693002 131:0.060991999 142:0.097208999 156:0.089815997 169:0.060070999 171:0.089737996 239:0.020574 240:0.1088 249:0.059599001 250:0.080228001 266:0.35306701 327:0.089231998 336:0.080228001 395:0.088192999 401:0.084385 404:0.073620997 410:0.072687998 497:0.066719003 539:0.081579 568:0.24257299 650:0.077624001 668:0.10756 778:0.128103 792:0.103159 794:0.090920001 797:0.076192997 825:0.069862001 856:0.203567 858:0.057964001 896:0.077440999 977:0.082116999 993:0.060070999 1121:0.109007 1133:0.078369997 1344:0.114605 1353:0.080431998 1579:0.28367499 1681:0.094642997 1989:0.145492 2080:0.107281 2176:0.14792401 2592:0.150601 2890:0.143262 3378:0.19996201 3666:0.40454599 4135:0.177304 #
-0.01230206728449497778632437672286 12:0.080509998 19:0.083070002 22:0.071684003 41:0.054218002 44:0.039856002 45:0.068736002 48:0.078295 76:0.072682001 81:0.142579 83:0.068627998 91:0.066095002 105:0.035131998 121:0.059829999 126:0.051803 138:0.072407 151:0.095394 154:0.18604 162:0.094259001 205:0.057415999 214:0.067103997 217:0.064359002 236:0.074824996 239:0.023708999 256:0.067258 257:0.086144999 276:0.043446001 286:0.198561 293:0.079650998 338:0.182402 401:0.164652 433:0.072898 447:0.127022 482:0.104952 493:0.14786699 579:0.096704997 585:0.10657 588:0.173705 596:0.083241999 657:0.138117 722:0.23559301 735:0.13564999 874:0.075747997 896:0.089244999 906:0.170645 993:0.069227003 1004:0.07429 1012:0.172024 1032:0.121165 1130:0.12562101 1341:0.30226201 1348:0.084569 1547:0.12527999 1663:0.16388801 1757:0.14630499 1805:0.123955 1826:0.27002001 1955:0.18296599 2056:0.248863 2184:0.102593 2868:0.139697 3685:0.18296599 #
-0.021107829765922511006115414033957 2:0.145704 10:0.037974998 11:0.041271999 22:0.064667001 62:0.064241 76:0.038725 87:0.033946 105:0.053661 108:0.065594003 113:0.069867 138:0.065318003 142:0.042349 170:0.081572004 174:0.206862 180:0.074552 198:0.079575002 214:0.060534999 221:0.044551 232:0.072407 236:0.067500003 271:0.123826 327:0.054788001 350:0.079334997 370:0.044838998 385:0.086455002 392:0.068703003 397:0.073206 433:0.065761 434:0.11601 435:0.096303999 443:0.14228199 452:0.13146301 472:0.138035 508:0.078850001 510:0.089373 588:0.092550002 594:0.100645 616:0.153585 623:0.080986001 804:0.090709999 807:0.048041001 824:0.116597 1014:0.101642 1110:0.095316999 1196:0.106029 1284:0.131384 1364:0.18416999 1371:0.174408 1523:0.126513 1615:0.107744 1618:0.237821 1768:0.127524 2022:0.119143 2077:0.114912 2079:0.174408 2535:0.114265 3626:0.31934401 3830:0.25216699 4717:0.14295401 4718:0.23842201 4719:0.184324 4720:0.19367801 4721:0.23842201 #
-0.038085192849005203297174659837765 18:0.11739 23:0.037836999 36:0.058485001 37:0.051199999 63:0.045522999 76:0.037283 85:0.065148003 93:0.066324003 112:0.045759 121:0.051963001 124:0.136599 126:0.026573 142:0.106393 143:0.091124997 155:0.066748999 160:0.085423999 181:0.115025 198:0.160778 202:0.076967001 212:0.07034 216:0.063529 221:0.042892002 223:0.067745 232:0.092735998 239:0.034864999 248:0.054701 287:0.16280299 352:0.075467996 399:0.105492 404:0.073686004 452:0.138403 584:0.155334 592:0.110305 597:0.137327 731:0.073059998 750:0.116215 797:0.076260999 807:0.046252001 839:0.121803 920:0.113983 945:0.091458 1016:0.30903101 1491:0.109705 1609:0.107099 1708:0.104977 2535:0.110011 2695:0.27451599 2936:0.21099199 3057:0.106552 3666:0.27593899 4759:0.35723999 4760:0.229544 4761:0.21099199 4762:0.21099199 4763:0.181587 #
-0.011003178392882362671145735077971 9:0.076085001 10:0.061216999 15:0.038872998 35:0.028734 43:0.059317 44:0.05796 56:0.064539999 64:0.080853 74:0.102825 98:0.089427002 104:0.047123998 113:0.039287999 115:0.050565999 142:0.105215 145:0.05593 179:0.130089 181:0.067183003 239:0.020364 244:0.044105001 275:0.182074 293:0.115831 315:0.104856 370:0.072282001 424:0.112024 435:0.091691002 458:0.070981003 474:0.068611003 491:0.078914002 575:0.081496 634:0.085593998 721:0.086106002 778:0.102299 789:0.16193099 850:0.221324 954:0.110038 993:0.059457999 1004:0.063807003 1037:0.098779999 1146:0.072792001 1176:0.144008 1198:0.157745 1338:0.087701999 1645:0.127446 1693:0.095825002 1767:0.11819 1876:0.15049601 2060:0.118628 2321:0.123453 2385:0.116105 2535:0.108792 2659:0.27900401 4257:0.15049601 5617:0.38434899 5618:0.497913 #
0.10000000000000000555111512312578 10:0.040522002 23:0.10943 39:0.090616003 45:0.066165999 56:0.072333999 60:0.060541 62:0.068549 63:0.050455 76:0.069963999 87:0.036222 91:0.063624002 94:0.073509999 95:0.075868003 115:0.056671999 121:0.057592999 126:0.049865998 137:0.051835001 143:0.059650999 169:0.066638 216:0.119216 224:0.17743701 232:0.036816001 236:0.072026998 239:0.022823 240:0.050577998 244:0.083694004 258:0.069876 272:0.115386 280:0.113395 317:0.104228 352:0.049401999 370:0.047846001 392:0.073311001 404:0.21311 434:0.123791 485:0.24721199 508:0.084138997 523:0.138576 533:0.104228 652:0.136078 721:0.163394 723:0.055815 778:0.14210799 813:0.102942 855:0.082379997 859:0.28325701 958:0.123685 1014:0.108459 1269:0.12297 1279:0.153515 1307:0.13896 1413:0.13777301 1822:0.178323 2006:0.20202599 2022:0.127134 2080:0.119009 2154:0.15663999 2191:0.130578 2330:0.13957199 2535:0.121929 2592:0.16706499 2689:0.22182199 3233:0.17612401 5952:0.21328799 7471:0.20126 #
0.10000000000000000555111512312578 11:0.059794001 13:0.11125 23:0.119491 35:0.020769 36:0.041804001 37:0.061965 41:0.056988999 61:0.100677 85:0.133495 86:0.092083 91:0.069472998 95:0.082842998 107:0.103235 112:0.032708 126:0.032159001 138:0.15972 143:0.065135002 155:0.080782004 203:0.127987 217:0.067648001 239:0.024921 276:0.045667 297:0.091357999 341:0.088891 348:0.13168301 383:0.063750997 402:0.137518 404:0.26270899 410:0.088048004 413:0.125837 419:0.060508002 434:0.13517199 452:0.064190999 458:0.086865999 470:0.074790001 482:0.110316 493:0.074060999 494:0.097552001 530:0.080123 583:0.104905 597:0.079195 616:0.105693 738:0.24130701 828:0.10683 858:0.070211999 994:0.143595 1142:0.159391 1149:0.112407 1374:0.110316 1435:0.119148 1516:0.165538 1609:0.219457 1698:0.142583 1713:0.133514 1806:0.140182 2262:0.154495 2736:0.16454101 10239:0.41010901 10240:0.27780399 #
0.10000000000000000555111512312578 10:0.047008999 35:0.022065001 37:0.20272601 91:0.073808998 104:0.061269 112:0.034749001 143:0.069200002 145:0.18975499 146:0.090622 179:0.099895999 203:0.135975 204:0.102602 212:0.090442002 232:0.042709999 240:0.099345997 244:0.120344 260:0.130096 273:0.232861 276:0.082145996 282:0.080994003 290:0.069688 321:0.105678 350:0.058003001 392:0.085046999 393:0.073096 397:0.090622 413:0.28056499 427:0.115859 434:0.23679 452:0.068196997 454:0.123398 465:0.171802 470:0.079457998 497:0.106423 738:0.21723901 786:0.254715 858:0.074593998 1013:0.166977 1170:0.144769 1198:0.121133 1223:0.138786 1344:0.147487 1979:0.18171699 2143:0.16491 2153:0.28624699 3509:0.179258 11099:0.29514301 #
0.10000000000000000555111512312578 35:0.018159 56:0.116923 85:0.068934999 88:0.063069001 98:0.095683999 112:0.028596999 155:0.070629001 221:0.045384999 393:0.060155001 404:0.163627 414:0.086172 458:0.075948 470:0.065389998 635:0.103339 676:0.068094999 682:0.07587 687:0.28480801 699:0.079696 777:0.083402 837:0.07175 1142:0.082307003 1555:0.107774 1670:0.37384 5303:0.21177299 5710:0.42732999 5880:0.35856199 6582:0.48590899 8412:0.20362499 #
0.10000000000000000555111512312578 1:0.069105998 11:0.033914998 16:0.079772003 23:0.040029 31:0.14581899 35:0.018154999 69:0.051086001 82:0.195967 85:0.068921998 104:0.050413001 112:0.028592 115:0.091590002 126:0.028112 137:0.083774 155:0.070615999 178:0.094117999 184:0.088247001 200:0.20048299 203:0.111881 204:0.084421001 217:0.059135001 227:0.088610999 231:0.072144002 232:0.035142001 236:0.040606 237:0.113894 238:0.080957003 247:0.076327004 257:0.079153001 272:0.052482001 273:0.091297999 276:0.039919998 312:0.081050999 354:0.05875 356:0.074937999 404:0.163598 410:0.076967001 458:0.159357 540:0.15058599 588:0.094265997 701:0.087182999 719:0.080587 720:0.11876 723:0.053277001 724:0.121353 730:0.088733003 740:0.159105 874:0.069600001 894:0.063963003 906:0.074712999 931:0.108484 1012:0.075317003 1108:0.087888002 1119:0.093970001 1196:0.107996 1217:0.12637401 1285:0.137688 1297:0.21329901 1307:0.132641 1533:0.111331 1540:0.089478999 1583:0.102512 1589:0.118061 1701:0.152853 1946:0.226579 2262:0.28342301 2780:0.141371 3788:0.242844 3789:0.20358901 3790:0.223217 3791:0.20358901 #
-0.10000000000000000555111512312578 10:0.047548 23:0.103268 31:0.068694003 57:0.205964 69:0.062798999 85:0.143453 124:0.143327 126:0.034557998 129:0.141891 138:0.138473 155:0.146979 184:0.227661 208:0.063892998 216:0.082620002 221:0.117064 241:0.052517001 276:0.144565 297:0.23426899 350:0.058667999 353:0.100922 393:0.073935002 404:0.228678 420:0.107604 453:0.085559003 465:0.17377201 498:0.110306 523:0.096036002 596:0.094024003 723:0.065493003 778:0.13453101 780:0.13093901 855:0.163666 859:0.29230201 937:0.100214 993:0.078193001 1026:0.098062001 1135:0.13857301 1137:0.148237 1218:0.121646 1305:0.249615 1555:0.13246199 1599:0.148237 2450:0.202014 2693:0.17788599 3227:0.174767 3230:0.209242 3645:0.212028 #
-0.056927787174753996524145804869477 6:0.029705999 11:0.026103999 15:0.032008 35:0.036463998 62:0.105689 65:0.051596999 93:0.054005999 105:0.052142002 112:0.022005999 116:0.090296999 126:0.036635 137:0.064478002 178:0.23923799 184:0.067920998 197:0.050569002 240:0.037158001 258:0.086919002 269:0.132753 276:0.030725 313:0.049548 337:0.063038997 338:0.061466999 350:0.036733001 392:0.053858999 413:0.084665 426:0.059999999 440:0.060587998 458:0.058444999 475:0.077560998 482:0.19367801 544:0.059870999 588:0.072554 592:0.053048 596:0.058869001 640:0.160761 679:0.133331 723:0.041005999 974:0.073491998 993:0.082892001 1012:0.13833299 1013:0.062454 1040:0.085272998 1135:0.146901 1305:0.074470997 1370:0.075236 1603:0.112068 1606:0.16358 1987:0.102539 1988:0.105975 2262:0.248046 2436:0.16477001 2496:0.132753 2767:0.18423 2797:0.13902301 4295:0.231498 9932:0.52905899 11698:0.18691 11699:0.18691 11700:0.18691 #
