SVM-light Version V6.02
0 # kernel type
3 # kernel parameter -d 
1 # kernel parameter -g 
1 # kernel parameter -s 
1 # kernel parameter -r 
empty# kernel parameter -u 
14598 # highest feature index 
2865 # number of training documents 
621 # number of support vectors plus 1 
1.0032956 # threshold b, each following line is a SV (starting with alpha*y)
-0.039283618758331917408810340930359 1:0.057250001 44:0.051367 48:0.059597 75:0.070358001 82:0.095884003 86:0.066684999 87:0.028643001 89:0.058770001 104:0.041763999 105:0.026743 113:0.058954 115:0.075875998 126:0.023289001 142:0.035734002 194:0.071469001 226:0.048147999 236:0.056956001 256:0.051197 323:0.074547999 326:0.077483997 327:0.04623 340:0.060805999 383:0.046167001 443:0.105584 448:0.081520997 493:0.053633001 513:0.096417002 532:0.082569003 572:0.077363998 671:0.059262998 699:0.066012003 731:0.064032003 791:0.17374501 811:0.062206 812:0.079102002 819:0.175409 837:0.059429999 896:0.067932002 1004:0.056549001 1138:0.182191 1353:0.070556 1420:0.080980003 1515:0.073408 1613:0.217457 2077:0.096963003 2128:0.115848 2191:0.103256 2325:0.134718 2711:0.106752 2903:0.13765401 3352:0.23875199 3491:0.099899001 3643:0.133377 3703:0.221642 4009:0.132108 5744:0.16866 6585:0.163425 9385:0.15914799 11423:0.36811501 14293:0.340628 14294:0.20118 14295:0.20118 14296:0.20118 #
-0.051479206250679789003132924563033 6:0.027096 16:0.056005001 25:0.091940999 41:0.059218001 65:0.047065001 87:0.024274001 88:0.044271 91:0.042637002 98:0.039669 112:0.020073 115:0.037978001 116:0.048645999 125:0.069596998 126:0.019737 142:0.030284001 164:0.040199 197:0.046126999 239:0.015294 240:0.071130998 257:0.055571001 258:0.079283997 273:0.064097002 315:0.046512999 324:0.054093 370:0.032063 382:0.077970996 392:0.049128 401:0.062730998 434:0.102823 475:0.168826 517:0.084397003 555:0.073573001 591:0.082886003 596:0.090919003 616:0.136127 671:0.050223 731:0.129491 794:0.067589998 851:0.079547003 892:0.085197002 933:0.045712002 1297:0.149749 1342:0.064574003 1486:0.17532501 1487:0.184624 1650:0.062820002 1701:0.107312 1733:0.27661201 1764:0.168047 1847:0.104971 2385:0.087201998 2929:0.172012 3350:0.134872 3664:0.211164 3912:0.107312 4086:0.191379 4087:0.142933 4088:0.131807 4089:0.17049199 4090:0.26533699 4091:0.148652 4092:0.50225502 4093:0.131807 #
-0.076184670119828712397946901546675 30:0.157931 31:0.168864 36:0.065220997 45:0.11272 64:0.15437201 71:0.181209 72:0.23372801 143:0.10162 308:0.222451 338:0.14253201 340:0.130999 350:0.144219 410:0.137367 453:0.124219 723:0.095086001 731:0.13794801 1012:0.134423 3832:0.386392 4690:0.307834 9355:0.43341601 9356:0.43341601 #
-0.034440831745438757471866608739219 10:0.061003 18:0.093332998 19:0.071098 23:0.037287001 33:0.064600997 69:0.080569997 83:0.058738001 98:0.052632 104:0.046959002 105:0.030068999 112:0.026633 114:0.044725999 127:0.079033002 216:0.105999 272:0.048886001 285:0.169945 286:0.26191601 351:0.095068 370:0.042541001 389:0.072614998 420:0.19457 450:0.074473001 457:0.071245998 465:0.077768996 492:0.082200997 637:0.085676 686:0.099710003 758:0.110296 759:0.131675 812:0.150593 835:0.20789699 840:0.097216003 863:0.095489003 874:0.064832002 903:0.170709 914:0.16163699 1196:0.100597 1209:0.084302999 1316:0.113403 1353:0.079333 1424:0.090586998 1669:0.084547997 1688:0.114526 1762:0.33393899 2034:0.243651 2037:0.1258 2080:0.105815 2535:0.108411 3340:0.115698 3400:0.19723 3404:0.25150499 3881:0.15855201 4158:0.165473 7228:0.20792399 8672:0.226207 8673:0.189641 #
-0.029371348585300788985863462698944 12:0.070061997 16:0.127919 36:0.03461 54:0.215133 93:0.13946301 99:0.077937998 105:0.030572999 113:0.039806001 126:0.026625 179:0.239722 180:0.121766 216:0.063653 217:0.094826996 236:0.091770999 239:0.020632001 241:0.096551999 272:0.049704999 293:0.145463 313:0.17961 340:0.069516003 369:0.126176 383:0.052779999 393:0.056961998 419:0.050094999 459:0.088582002 508:0.076063998 541:0.203356 567:0.10138 633:0.089419998 681:0.108152 731:0.073202997 760:0.105796 780:0.059581 791:0.083237998 807:0.046342999 858:0.058129001 874:0.111609 914:0.078310996 928:0.081492998 1032:0.10544 1110:0.091948003 1599:0.114207 1669:0.085964002 1731:0.091948003 1779:0.109921 1924:0.21863 2073:0.203502 2210:0.164066 2212:0.23064899 2306:0.21562 2607:0.28420299 2945:0.145907 2946:0.161208 3356:0.14367101 5853:0.229996 5854:0.229996 5855:0.200533 #
0.10000000000000000555111512312578 9:0.046889 11:0.041002002 35:0.029983001 59:0.057014 60:0.056364998 85:0.067225002 87:0.057099 89:0.069193996 94:0.068438999 103:0.101179 104:0.049171001 105:0.031486001 112:0.027888 114:0.046831999 156:0.035549 164:0.055849001 183:0.087521002 192:0.083926 199:0.140117 202:0.079420999 208:0.050694998 232:0.034277 240:0.079728998 241:0.041669 248:0.056444999 285:0.105101 340:0.071592003 383:0.092032 443:0.059234999 444:0.17389099 445:0.083601996 456:0.180811 457:0.156561 530:0.068314999 671:0.069774002 682:0.125273 697:0.092090003 699:0.077720001 701:0.085036002 707:0.093437999 709:0.126691 740:0.218716 765:0.096009001 780:0.061360002 783:0.069904998 803:0.087030001 805:0.125686 806:0.117618 807:0.047727 808:0.149088 809:0.39969599 810:0.186161 811:0.073239997 812:0.093133003 813:0.095840998 814:0.17617799 815:0.236863 816:0.20652001 817:0.161709 818:0.152812 819:0.34966901 820:0.137132 821:0.18737601 #
0.10000000000000000555111512312578 10:0.03726 35:0.017488999 56:0.066510998 61:0.084776998 65:0.064577997 75:0.048319999 108:0.064359002 112:0.027543001 113:0.084968001 137:0.047662001 142:0.041552 179:0.166164 232:0.057317 239:0.020985 276:0.065109 292:0.062978998 293:0.119367 324:0.074221 331:0.324972 336:0.138558 337:0.078897998 352:0.045423999 355:0.13197801 390:0.079939 397:0.071828 401:0.086074002 433:0.064522997 539:0.14089 582:0.141156 617:0.087182 783:0.116894 835:0.102447 856:0.098941997 933:0.062720999 993:0.061273001 1110:0.093520999 1146:0.075014003 1312:0.102228 1317:0.263951 1321:0.17888901 1335:0.27419701 1336:0.19002999 1337:0.27761999 1338:0.18967099 1339:0.21633901 1340:0.087690003 1341:0.112113 1342:0.150015 1343:0.163967 1344:0.116899 1345:0.146129 1346:0.139395 1347:0.112113 1348:0.074853003 1349:0.101581 1350:0.20396399 1351:0.126682 1352:0.185057 #
0.10000000000000000555111512312578 9:0.054421 63:0.05452 99:0.055020001 113:0.080559 122:0.114974 131:0.073110998 137:0.056010999 151:0.099224001 156:0.098454997 219:0.108601 232:0.067357004 239:0.024661001 248:0.065512002 271:0.084325001 312:0.15535 315:0.074998997 322:0.080086999 350:0.113381 370:0.0517 383:0.132393 385:0.058876 459:0.222201 508:0.090916999 596:0.086585 607:0.15218 615:0.14587399 622:0.12542 719:0.15446199 737:0.26497701 778:0.15355501 780:0.071216002 818:0.177356 887:0.107052 926:0.121177 991:0.084663004 1121:0.130665 1338:0.10621 1509:0.144749 1612:0.182256 1650:0.29840001 1693:0.196485 1731:0.109903 2501:0.223317 2502:0.23047 2503:0.217473 2504:0.322227 2505:0.23047 #
0.10000000000000000555111512312578 5:0.063110001 11:0.017688001 14:0.070205003 39:0.076378003 69:0.045109998 95:0.108272 104:0.044516001 113:0.037114002 126:0.042029999 147:0.083637998 155:0.062355999 243:0.069512002 267:0.101002 276:0.035250001 292:0.057730999 303:0.105502 350:0.071354002 385:0.077757999 393:0.053109001 464:0.068035997 474:0.109739 482:0.085153997 498:0.079235002 517:0.179729 518:0.272255 523:0.068985 559:0.073633 568:0.147167 575:0.076985002 615:0.19265801 628:0.226054 665:0.076079004 699:0.070362002 701:0.076985002 722:0.068470001 723:0.047045 799:0.13876601 858:0.054196998 906:0.111704 964:0.089149997 1028:0.103948 1217:0.13831501 1218:0.087380998 1338:0.082847998 1344:0.22488301 1353:0.075204998 1364:0.165644 1489:0.121583 1500:0.110448 1533:0.16644999 1701:0.134973 2026:0.118168 2167:0.15230501 2199:0.107853 2409:0.25389099 2616:0.111648 3377:0.37642801 3378:0.186968 3379:0.179775 3380:0.21443801 #
0.10000000000000000555111512312578 15:0.032173999 18:0.045784 35:0.023782 45:0.082731001 48:0.055656999 61:0.068088003 94:0.054285999 112:0.022120001 137:0.038279001 214:0.047702 221:0.035106 234:0.073752999 236:0.053190999 238:0.106048 276:0.030884 284:0.075237997 292:0.050581001 294:0.090043001 312:0.062706001 328:0.122901 336:0.111281 337:0.107289 338:0.147438 339:0.263069 343:0.115676 385:0.068127997 392:0.054138999 452:0.073503003 465:0.064591996 482:0.126321 510:0.070427001 591:0.091339 617:0.118553 654:0.070120998 697:0.073045999 737:0.075888999 782:0.071696997 811:0.058093999 846:0.161823 852:0.079464003 885:0.063818 910:0.100821 937:0.063069999 1125:0.063143998 1133:0.064202003 1135:0.208113 1399:0.093294002 1459:0.087434001 1478:0.094494998 1493:0.122251 1501:0.076831996 1526:0.14524999 1552:0.095765002 1615:0.14375401 1665:0.090552002 1994:0.081928998 2045:0.130064 2191:0.096428998 2577:0.34573799 3036:0.23791499 3377:0.38040799 3384:0.172695 3385:0.20517799 3386:0.163812 3387:0.095121004 3388:0.18787999 #
-0.032840586806692433075038906054033 11:0.037379999 15:0.03252 38:0.045908999 44:0.028638 63:0.037661999 105:0.042741999 113:0.032868002 118:0.307919 122:0.064078003 137:0.038692001 178:0.205474 205:0.041255001 207:0.083892003 236:0.031753998 261:0.076706998 267:0.052829001 311:0.068543002 314:0.085028 316:0.14643399 370:0.035714 394:0.068451002 415:0.067028001 438:0.120474 457:0.059811998 497:0.055245999 508:0.062804997 523:0.061092999 548:0.119531 552:0.066941999 611:0.114225 619:0.099613003 620:0.113864 679:0.080008999 937:0.063749999 979:0.13056 991:0.058485001 1073:0.103726 1085:0.15022901 1092:0.093717001 1142:0.064352997 1453:0.13680699 1469:0.082811996 1506:0.120474 1507:0.120474 1659:0.25693899 1788:0.081615001 2407:0.26956201 2409:0.22484399 2511:0.13488001 3134:0.127167 3377:0.113161 4029:0.13488001 4490:0.127167 5312:0.146815 5681:0.261195 5907:0.15022901 12157:0.189905 12158:0.189905 12159:0.189905 12160:0.189905 12161:0.189905 #
0.10000000000000000555111512312578 11:0.018849 12:0.069609001 15:0.039131001 21:0.159081 23:0.063775003 35:0.017084001 39:0.081390001 82:0.108909 87:0.032535002 94:0.066026002 99:0.077435002 108:0.062867001 128:0.067757003 206:0.109518 210:0.075829998 221:0.042699002 231:0.067884997 236:0.080186002 243:0.074073002 254:0.214175 337:0.077069998 465:0.078561001 474:0.180226 539:0.081283003 723:0.050131999 759:0.078561001 807:0.046043999 851:0.106616 888:0.096839003 914:0.131735 980:0.13616499 1020:0.11045 1064:0.112425 1317:0.141763 1321:0.274993 1617:0.31919301 1728:0.095178999 1739:0.156354 1837:0.15819199 2062:0.106892 2067:0.12891901 2144:0.103754 2891:0.229159 3701:0.153019 3832:0.33590099 3955:0.21041299 4576:0.14496399 7557:0.28777501 8079:0.176661 8080:0.191572 #
-0.064320993798904255167592225461703 6:0.028759999 23:0.029828001 32:0.058467001 54:0.080655001 59:0.043556999 80:0.081207998 87:0.025764 94:0.088528 121:0.040964 122:0.036063001 123:0.050167002 126:0.035468001 142:0.032141998 156:0.027158 164:0.042667001 180:0.095803998 181:0.127801 184:0.065757997 197:0.048958998 202:0.060676001 240:0.035975002 241:0.031835001 257:0.099864997 258:0.084151 282:0.118501 301:0.106551 313:0.047970001 327:0.041583002 351:0.076050997 354:0.074123003 385:0.065618001 403:0.21338899 410:0.14966001 427:0.071036004 432:0.104204 448:0.043308001 491:0.062907003 497:0.031091999 596:0.056993999 635:0.183723 685:0.073738001 705:0.065402001 706:0.21753301 707:0.149808 723:0.039700001 750:0.091617003 945:0.072099999 1040:0.082557999 1056:0.099717997 1152:0.080655001 1321:0.065939002 1539:0.19291399 2777:0.096401997 3172:0.20964099 3520:0.13237301 3899:0.13459601 4113:0.11997 4401:0.434035 6140:0.114798 6176:0.25984401 8074:0.143151 9531:0.157777 12247:0.157777 13331:0.180958 13332:0.180958 13333:0.180958 13334:0.180958 #
-0.041146160404424682310864369583214 9:0.086333998 11:0.050700001 15:0.044109002 21:0.105908 38:0.105432 70:0.064755999 87:0.062093999 99:0.051552001 113:0.044581 114:0.106879 126:0.050485998 142:0.045752998 226:0.061646 227:0.093988001 239:0.023107 240:0.051208001 276:0.071691997 281:0.107086 286:0.239857 293:0.077627003 351:0.108253 440:0.083495997 545:0.094247997 554:0.117799 561:0.096414 699:0.084518 705:0.195371 807:0.051901001 835:0.23673099 914:0.184055 916:0.13314199 937:0.086469002 964:0.342379 972:0.17430601 979:0.24958301 1134:0.110926 1147:0.205079 1150:0.20296 1341:0.322128 1491:0.123104 2616:0.134111 3701:0.17248499 6683:0.18054301 13982:0.236762 14410:0.257581 #
-0.007497542276697737907709129245859 11:0.019121001 35:0.01733 44:0.034956999 49:0.062254 64:0.082565002 99:0.046395 112:0.027293 125:0.094627999 126:0.026835 142:0.041175 169:0.060718 179:0.07846 231:0.1166 238:0.077279001 243:0.075143002 272:0.050097 273:0.087149002 299:0.099021003 313:0.061450001 317:0.094967999 328:0.089560002 336:0.081092 337:0.132375 338:0.212823 339:0.30759701 352:0.045012001 426:0.074413002 468:0.14272401 533:0.094967999 585:0.15826 594:0.097854003 597:0.111888 616:0.088193998 654:0.146485 731:0.073780999 791:0.083894998 829:0.123988 835:0.101518 846:0.16108599 858:0.058587998 885:0.078740001 895:0.093309 951:0.090126 954:0.112369 1321:0.084468998 1338:0.089560002 1344:0.115839 1397:0.086641997 1571:0.18265399 1606:0.202875 1607:0.117757 1608:0.144804 1717:0.197404 1730:0.13899 1808:0.148259 2147:0.15368301 2298:0.14272401 2486:0.14272401 3030:0.33823499 3036:0.13987599 3387:0.117362 5906:0.213075 8882:0.18337899 #
0.10000000000000000555111512312578 31:0.15752301 35:0.021446999 41:0.058848001 50:0.068313003 56:0.081560999 63:0.119393 64:0.102175 76:0.046592999 155:0.083417997 198:0.095743999 205:0.062320001 212:0.087906003 221:0.053603001 222:0.098503999 239:0.043572001 267:0.079801999 282:0.242422 389:0.092087001 399:0.131836 418:0.121096 561:0.107376 585:0.115671 611:0.101909 668:0.13453899 738:0.080917001 787:0.096752003 840:0.123286 885:0.097442001 1305:0.114298 1617:0.400709 1714:0.173098 1947:0.172001 2148:0.31230599 2163:0.143813 2247:0.181986 2960:0.22177701 3832:0.255743 4023:0.21731099 5105:0.203748 6036:0.21337099 8855:0.24049599 #
0.10000000000000000555111512312578 6:0.045706999 14:0.094154 15:0.083384 23:0.099483997 30:0.104793 31:0.13888 37:0.10861 55:0.18043301 76:0.111464 81:0.091631003 87:0.040945999 91:0.07192 98:0.066913001 105:0.038229 112:0.057330001 125:0.117397 126:0.033291999 145:0.119972 179:0.097338997 197:0.077808 210:0.161586 220:0.162249 221:0.053738002 232:0.041616999 236:0.081418999 239:0.043680999 250:0.100605 256:0.073186003 267:0.135456 272:0.105232 314:0.128765 321:0.102973 322:0.083780997 357:0.11199 427:0.112893 448:0.116535 552:0.101375 591:0.39032501 671:0.084716998 685:0.245933 738:0.081119999 764:0.114392 800:0.14464401 825:0.087605998 936:0.152009 956:0.115364 1004:0.136869 1015:0.15320601 1017:0.128181 1203:0.146091 1278:0.163057 1329:0.137445 1450:0.108923 1618:0.136692 1732:0.15707999 1956:0.17033599 2039:0.14022499 2358:0.18244299 3356:0.179646 4293:0.14973401 #
0.10000000000000000555111512312578 6:0.079304002 9:0.098778002 11:0.024309 27:0.121394 31:0.067814998 36:0.075087003 44:0.093266003 110:0.117028 194:0.104693 229:0.103885 271:0.090397999 282:0.23824801 286:0.22140799 327:0.067722 340:0.15081701 348:0.139696 393:0.12358 414:0.104557 473:0.229886 539:0.10483 661:0.114398 668:0.081632003 699:0.096699998 858:0.074483998 914:0.169898 952:0.125138 1142:0.169089 1199:0.155771 1219:0.263138 1353:0.103356 1422:0.106658 1617:0.21104699 1704:0.17062099 2038:0.15233199 2453:0.41832301 2485:0.15638 2784:0.17670099 3955:0.160274 9687:0.294707 #
0.10000000000000000555111512312578 10:0.061487999 16:0.074896999 22:0.12978099 26:0.070217997 35:0.017046001 36:0.058092002 42:0.067102 44:0.072157003 48:0.114362 56:0.064825997 75:0.047095001 76:0.037032999 83:0.059204999 93:0.065880001 104:0.080141 112:0.026845001 156:0.071813002 170:0.078008004 180:0.17013 188:0.131295 197:0.061687998 210:0.075663 217:0.055521999 232:0.032995 241:0.084178001 249:0.059250999 267:0.063427001 272:0.049275 282:0.13131 313:0.102337 352:0.044273999 396:0.085096002 443:0.057020001 460:0.095509 504:0.077081002 539:0.081104003 541:0.096060999 545:0.083426997 575:0.081855997 592:0.109565 731:0.072570004 738:0.108893 740:0.088228002 771:0.081855997 777:0.078291997 825:0.069456004 827:0.135864 888:0.096625 954:0.187134 1015:0.121465 1108:0.082517996 1146:0.073113002 1212:0.123999 1258:0.1268 1482:0.13670801 1488:0.12621599 1570:0.102796 1592:0.15268099 1729:0.107788 1779:0.108969 1900:0.117024 2841:0.202498 3004:0.169589 3751:0.17627101 5224:0.198797 6433:0.20957699 8174:0.191149 8611:0.191149 13628:0.22800501 13629:0.22800501 13630:0.22800501 13631:0.22800501 #
0.10000000000000000555111512312578 6:0.098111004 11:0.044780999 12:0.078803003 16:0.084977001 44:0.081868999 49:0.069472998 50:0.061602999 51:0.084977001 60:0.104229 76:0.088177003 83:0.067172997 99:0.108655 114:0.051148001 145:0.063738003 205:0.117939 208:0.093745001 216:0.071594998 221:0.048338 239:0.023207 240:0.087076001 256:0.065831997 272:0.055907 323:0.095858999 352:0.105418 394:0.093245998 395:0.099480003 402:0.128057 414:0.091779999 415:0.091306999 417:0.15711901 443:0.064694002 447:0.124329 463:0.133241 535:0.148182 560:0.082687996 568:0.104857 623:0.087871 676:0.072525002 713:0.255689 770:0.100737 771:0.092872001 829:0.361058 834:0.36354101 874:0.074142002 1134:0.111404 1285:0.14667401 1509:0.13621099 1540:0.161387 1713:0.124329 1817:0.169874 2658:0.218877 2750:0.164111 3142:0.17700499 3605:0.17322899 10391:0.258692 #
-0.029591505181417860487202986519151 9:0.111237 24:0.24961001 35:0.020018 38:0.064730003 55:0.099219002 75:0.055307001 80:0.120161 91:0.066960998 103:0.114377 112:0.031525001 113:0.097254001 121:0.060614001 126:0.030996 156:0.040185001 197:0.17287099 199:0.158393 204:0.093082003 232:0.038748 234:0.105109 236:0.093957998 240:0.053231001 241:0.047104999 292:0.072085999 293:0.080695003 295:0.13295899 340:0.16983999 350:0.052622002 352:0.088031001 370:0.050356001 397:0.082213998 422:0.112162 443:0.113375 448:0.064080998 456:0.204395 457:0.14278799 464:0.084953003 473:0.208865 498:0.098936997 543:0.200716 560:0.085585997 656:0.087661996 682:0.14161301 737:0.108153 778:0.071267001 783:0.079023004 885:0.090951003 929:0.102025 931:0.119613 1065:0.131734 1119:0.10361 1151:0.123054 1219:0.113921 1295:0.227277 1312:0.11701 1338:0.103448 1433:0.112376 1618:0.127267 1713:0.128686 1721:0.135562 1737:0.152585 2062:0.12525199 2163:0.134234 2739:0.18119299 4566:0.15418699 5293:0.217509 5294:0.22447599 #
-0.075913204378244211745219161002751 1:0.055751 10:0.031204 11:0.027361 15:0.033549 35:0.014647 36:0.061868999 41:0.04019 44:0.029544 104:0.068861 112:0.023065999 123:0.054313 126:0.022678999 179:0.066310003 186:0.083353996 213:0.078189999 239:0.017574999 258:0.091104999 270:0.086737998 275:0.074877001 315:0.053447999 318:0.174657 321:0.070147999 327:0.045019999 337:0.066076003 352:0.038042001 354:0.047396 392:0.056453999 397:0.060153998 441:0.093373999 474:0.059215002 491:0.142928 591:0.161264 685:0.135168 701:0.070334002 837:0.057874002 896:0.066154003 933:0.088936999 1013:0.192847 1026:0.064355001 1131:0.12937699 1289:0.097589999 1312:0.085614003 1363:0.123313 1535:0.113424 1701:0.123313 1948:0.107007 1967:0.12636299 2102:0.14841001 2711:0.17601401 3377:0.373247 3580:0.29426101 5576:0.13405 7170:0.164244 7513:0.170816 8916:0.154982 8917:0.27809 8918:0.289217 13321:0.180079 13953:0.180079 14411:0.195913 #
-0.052460992241817570869155673563 10:0.041216999 12:0.078829996 23:0.119085 36:0.038941 41:0.053086001 60:0.061579999 75:0.053452 121:0.099186003 126:0.029957 134:0.078829996 142:0.045965001 205:0.056217 232:0.063405 236:0.043269999 239:0.023213999 240:0.051445998 241:0.045524999 248:0.061668001 272:0.055925999 276:0.072025001 350:0.050857 352:0.050248999 385:0.055420998 394:0.093277 396:0.096580997 415:0.15464699 453:0.074166998 470:0.181794 518:0.102761 539:0.271171 714:0.14901599 740:0.169544 771:0.092903003 780:0.113505 783:0.076373003 822:0.20769 823:0.31108099 824:0.126552 825:0.078829996 826:0.237863 827:0.154201 828:0.237468 829:0.138412 830:0.343027 831:0.159328 832:0.143251 833:0.242055 834:0.293401 835:0.113328 836:0.159328 837:0.076444 #
-0.10000000000000000555111512312578 10:0.055373002 19:0.064535998 35:0.025991 49:0.055142999 56:0.058378998 63:0.040720999 87:0.029234 110:0.138054 112:0.057689 113:0.035537001 126:0.040245 142:0.036471002 179:0.069498003 192:0.072752997 195:0.090507999 214:0.109407 239:0.01842 254:0.113664 256:0.052253 272:0.044374999 276:0.033753 290:0.048482001 293:0.06188 313:0.054430999 332:0.13894799 342:0.101642 370:0.038615 389:0.065912999 436:0.080472 441:0.097861998 559:0.070505999 597:0.058534 616:0.078120001 699:0.14139 719:0.142996 784:0.120207 817:0.082794003 889:0.089538001 922:0.133605 993:0.091061004 1013:0.068608999 1026:0.067449003 1032:0.15938 1146:0.065842003 1260:0.113664 1331:0.098131999 1338:0.079328999 1341:0.098406002 1413:0.18826599 1534:0.106134 1617:0.25583801 1756:0.079328999 1863:0.15977199 1910:0.092573002 2297:0.118876 2403:0.109385 2929:0.122352 3377:0.20716099 3459:0.112151 3899:0.32050699 4169:0.155544 4976:0.319556 5407:0.147919 6971:0.17902701 14059:0.20533 14060:0.20533 14061:0.20533 #
-0.10000000000000000555111512312578 9:0.090021998 10:0.030353 24:0.074446 41:0.039092999 48:0.056453001 59:0.045869999 69:0.040088002 99:0.038139999 104:0.039560001 126:0.022061 137:0.065739997 199:0.066579998 205:0.041398998 221:0.060291 233:0.077931002 239:0.017095 241:0.033525001 340:0.057599001 350:0.037450999 354:0.046101999 448:0.07722 470:0.051304001 474:0.057599001 533:0.078071997 545:0.069728002 575:0.068415001 579:0.069728002 582:0.114989 652:0.101928 671:0.056136001 676:0.053426001 682:0.142049 716:0.068053998 740:0.073740996 765:0.162104 780:0.049366999 823:0.28484499 1020:0.092110001 1133:0.065119997 1146:0.061108001 1317:0.194934 1321:0.117572 1348:0.060977001 1669:0.071226999 2067:0.107513 2304:0.081403002 2453:0.38124001 2668:0.119948 2807:0.119948 3376:0.12761 3466:0.123999 3482:0.130392 3832:0.10034 3833:0.131925 4478:0.111564 4602:0.125139 5156:0.249446 5694:0.13535 6316:0.28132501 6317:0.175165 6318:0.25524601 6319:0.15480401 6320:0.249446 6321:0.166155 #
0.10000000000000000555111512312578 10:0.040771 15:0.043834999 21:0.105251 35:0.019138001 41:0.088910997 55:0.094853997 76:0.070395 87:0.036446001 88:0.066468999 99:0.051231999 102:0.110464 120:0.130035 126:0.029633 142:0.095420003 184:0.093020998 195:0.112834 199:0.089435004 238:0.17908899 239:0.022963 240:0.050889999 282:0.070247002 300:0.066679001 317:0.10487 324:0.081216 336:0.089547999 337:0.206021 339:0.33967 340:0.077370003 350:0.085176997 385:0.092822 387:0.081216 555:0.110464 575:0.091899 585:0.174761 597:0.123555 617:0.095399 723:0.056159001 726:0.121013 846:0.10506 914:0.087158002 979:0.10394 1054:0.119127 1142:0.086744003 1146:0.082084 1217:0.078676 1234:0.099840999 1321:0.19575 1368:0.24338099 1491:0.122339 1605:0.144417 1607:0.130035 1610:0.16809399 1617:0.28251901 2148:0.132792 2485:0.13583 3672:0.16239101 3833:0.177209 4230:0.16239101 5723:0.184407 6185:0.223189 #
0.10000000000000000555111512312578 13:0.100768 15:0.043090001 35:0.031851999 36:0.037865002 41:0.051619001 69:0.052933998 112:0.029626001 115:0.11763 126:0.029129 137:0.051268 142:0.075676002 146:0.077261999 162:0.089741997 182:0.095446996 212:0.077108003 221:0.079608999 239:0.022573 250:0.14904 275:0.096170999 315:0.068648003 326:0.096914001 338:0.197466 402:0.124561 419:0.054807 454:0.17812701 457:0.079253003 474:0.076054998 475:0.104417 482:0.099922001 535:0.30248699 546:0.097987004 574:0.12026 579:0.092070997 616:0.095734999 621:0.111653 785:0.097217001 786:0.217162 807:0.050701998 962:0.101994 986:0.185785 1033:0.099100001 1060:0.115642 1137:0.211558 1223:0.118324 1321:0.21879999 1334:0.113447 1397:0.094048999 1429:0.12655801 1451:0.190616 1587:0.153859 1682:0.137439 1730:0.15087301 2056:0.139938 2147:0.166823 2777:0.13405 3066:0.15087301 3912:0.158382 4012:0.15183499 4629:0.18406899 5415:0.25162899 #
0.10000000000000000555111512312578 1:0.092137001 10:0.051569998 11:0.026706999 23:0.139266 31:0.074505001 35:0.040984999 42:0.095288001 45:0.084206 51:0.106357 63:0.064212002 87:0.046099 104:0.067213997 112:0.064544 116:0.24106801 122:0.10925 126:0.037480999 145:0.079774 156:0.115957 208:0.117331 209:0.113122 210:0.107445 221:0.0605 238:0.107938 239:0.029045001 240:0.108984 242:0.244341 244:0.106513 276:0.053224001 321:0.115931 327:0.074403003 337:0.28495401 350:0.063630998 351:0.080366999 627:0.120493 648:0.135887 701:0.116239 738:0.091329001 791:0.117179 828:0.124509 933:0.086810999 1012:0.100419 1133:0.18733101 1136:0.173884 1146:0.103824 1217:0.099514 1317:0.39179999 1468:0.10933 1501:0.13240799 1788:0.139149 1798:0.160276 2116:0.22153901 2144:0.14701 4800:0.226942 5077:0.19797499 #
0.10000000000000000555111512312578 10:0.03176 11:0.016448 65:0.055046 83:0.051778 91:0.049867 99:0.039909001 112:0.023476999 115:0.044418 126:0.048443001 127:0.069666997 210:0.066170998 239:0.017888 248:0.047518 261:0.080542997 282:0.174954 311:0.071970999 338:0.193178 419:0.043432001 443:0.049867 454:0.083369002 479:0.098707996 544:0.063873 597:0.096245997 665:0.070744999 783:0.058848999 807:0.040178001 810:0.092560999 909:0.106654 1108:0.122188 1127:0.207068 1317:0.073062003 1321:0.123023 1368:0.189588 1429:0.169806 1501:0.081545003 1540:0.073472001 1571:0.092797004 1722:0.122771 1740:0.093765996 1798:0.098707996 1863:0.15515999 2056:0.232722 2147:0.13219801 2278:0.14586499 3828:0.25575501 5069:0.173859 6068:0.33351901 6469:0.161981 6470:0.16717 7657:0.15774199 12098:0.33761799 12099:0.33761799 #
0.10000000000000000555111512312578 1:0.067335002 10:0.037687998 12:0.072080001 15:0.040520001 18:0.057661999 35:0.017689999 45:0.12914599 51:0.077726997 65:0.110597 76:0.038431998 105:0.031454001 112:0.027859 123:0.065599002 126:0.027392 143:0.055479001 145:0.0583 154:0.16655999 156:0.035512 184:0.22437499 221:0.044213999 239:0.021227 241:0.041627001 273:0.088958003 276:0.065857999 336:0.173713 338:0.203052 364:0.384123 370:0.075345002 387:0.075074002 392:0.068184003 414:0.083949998 427:0.092886001 532:0.097115003 544:0.075795002 569:0.141874 576:0.13932601 583:0.089353003 597:0.067455001 671:0.14628001 699:0.077641003 723:0.051911999 764:0.094120003 810:0.109837 835:0.103625 910:0.074995004 929:0.090161003 1004:0.13958099 1118:0.24021401 1127:0.083410002 1146:0.075875998 1209:0.088184997 1321:0.22499 1326:0.122308 1932:0.112775 2060:0.123654 2278:0.17309099 2551:0.110401 4168:0.15396599 5335:0.175998 6068:0.39577201 #
-0.10000000000000000555111512312578 4:0.129908 6:0.039212 10:0.066535003 31:0.056774002 44:0.037206002 61:0.151389 63:0.048930001 87:0.035128001 107:0.091684997 170:0.084411003 198:0.082345001 214:0.062642001 219:0.097465999 221:0.046101999 239:0.022133 256:0.062785998 267:0.068634003 282:0.216472 286:0.229747 290:0.058256 300:0.064267002 317:0.101078 323:0.091424003 324:0.078279004 338:0.239021 356:0.076135002 370:0.046399999 444:0.086309001 464:0.078279004 491:0.085768998 512:0.106469 532:0.10126 533:0.21212301 583:0.093167998 611:0.087646998 760:0.067028999 807:0.049713001 811:0.076288998 813:0.099830002 838:0.095620997 964:0.102572 1032:0.113109 1126:0.150425 1127:0.226944 1146:0.079115003 1338:0.095321 1509:0.129908 1650:0.090907998 1665:0.118913 1863:0.295876 2039:0.203685 2056:0.35803899 2064:0.156518 4009:0.16201501 4748:0.15779699 6587:0.22678199 6725:0.172932 #
-0.019320386822623471234638969917796 10:0.028142 12:0.053823002 18:0.043056998 23:0.061121002 42:0.052000001 44:0.026644999 48:0.052342001 65:0.048774999 69:0.037168998 104:0.036679 112:0.020803001 114:0.034935001 127:0.061732002 142:0.053137999 164:0.041661002 198:0.058970999 209:0.061732002 210:0.058634002 219:0.069799997 293:0.053249002 387:0.056058999 525:0.091659002 526:0.093391001 585:0.071245 777:0.127325 829:0.094504997 906:0.11408 929:0.11399 1101:0.093033001 1118:0.222326 1127:0.062283002 1130:0.083981 1427:0.114688 1450:0.066919997 1576:0.114969 1654:0.107314 1678:0.087195002 1855:0.18292201 1897:0.097809002 2056:0.166371 2080:0.082650997 2128:0.24279299 2159:0.19133399 2456:0.123844 2613:0.108037 3034:0.111212 3724:0.188299 6083:0.16240799 6109:0.148127 10451:0.176689 10452:0.29916 10453:0.176689 10454:0.176689 10455:0.176689 10456:0.176689 10457:0.176689 10458:0.176689 10459:0.176689 10460:0.176689 10461:0.176689 10462:0.176689 10463:0.16240799 #
-0.10000000000000000555111512312578 3:0.081485003 10:0.068821996 11:0.044176001 16:0.141938 33:0.15294901 44:0.038484 50:0.060772002 81:0.081312001 97:0.156592 105:0.033923998 114:0.105892 149:0.083273001 154:0.179639 169:0.066845 194:0.090659 205:0.055440001 221:0.047685999 236:0.072250001 239:0.022893 272:0.055153001 282:0.18274701 315:0.069623001 325:0.106699 350:0.050154001 390:0.087206997 393:0.063203998 439:0.138789 450:0.084018998 457:0.080378003 464:0.080968998 477:0.211969 497:0.043848999 518:0.17158499 519:0.115599 536:0.14063101 560:0.081572004 592:0.07243 667:0.21394899 783:0.075317003 858:0.064499997 874:0.073142 910:0.136948 912:0.22608 930:0.124434 1035:0.15824901 1126:0.125533 1171:0.103081 1321:0.25961199 1346:0.25747699 1368:0.21338899 1374:0.101341 1398:0.128777 2539:0.161897 2665:0.1382 2687:0.18981799 3362:0.16322 3395:0.16460399 11613:0.255202 #
-0.10000000000000000555111512312578 10:0.037108999 16:0.160615 19:0.073229998 23:0.038405001 36:0.03506 42:0.068568997 75:0.048124999 112:0.027431 113:0.040323999 122:0.046432 190:0.095972002 195:0.102699 232:0.070757002 241:0.069398001 244:0.095000997 246:0.093144 282:0.108255 290:0.055013001 368:0.118355 370:0.043816999 415:0.139235 419:0.050747 443:0.122277 448:0.05576 452:0.053835001 458:0.20338801 497:0.067780003 504:0.205534 519:0.105537 527:0.123149 535:0.22596601 595:0.092987001 690:0.092366003 726:0.110143 741:0.142768 783:0.164085 792:0.104799 807:0.046946 840:0.10013 892:0.116428 894:0.061367001 956:0.093461998 1054:0.108427 1146:0.074711002 1163:0.1321 1209:0.147017 1217:0.071608998 1312:0.101816 1321:0.084898002 1342:0.14940999 1398:0.117568 1514:0.132771 1600:0.28741199 1601:0.095972002 2148:0.120865 3835:0.25230101 4413:0.167844 4520:0.25904399 6306:0.15601701 7797:0.34394899 #
-0.050538615117938702481215074158172 30:0.149009 31:0.094099998 41:0.049546 44:0.036421999 48:0.121141 50:0.057514001 55:0.15153 59:0.098430999 62:0.110183 63:0.047897998 75:0.084466003 76:0.039228 91:0.060400002 97:0.087527998 104:0.105221 105:0.032104999 134:0.12457 138:0.112031 147:0.094200999 154:0.170009 210:0.080147997 212:0.074010998 234:0.094810002 239:0.036683999 250:0.084489003 267:0.067186996 338:0.13448 383:0.055424001 390:0.082532004 393:0.059815999 422:0.101171 508:0.079875 552:0.085137002 585:0.16489001 677:0.085577004 723:0.052987002 737:0.097556002 894:0.063615002 1007:0.102153 1093:0.089752004 1108:0.14799701 1119:0.196132 1234:0.094200999 1422:0.087408997 1473:0.133698 1558:0.12574901 1589:0.117418 1741:0.105999 1906:0.188399 1932:0.115111 2056:0.39568499 2628:0.18295901 2695:0.13763399 3724:0.15202001 4146:0.153219 4359:0.30977699 9244:0.241522 9245:0.222001 #
0.10000000000000000555111512312578 6:0.038614001 9:0.100936 11:0.033932 15:0.041606002 23:0.067808002 35:0.018164 41:0.049841002 45:0.063188002 62:0.065463997 84:0.179768 94:0.070201002 105:0.032295998 112:0.068260998 170:0.083125003 213:0.096966997 236:0.068784997 241:0.072369002 272:0.088903002 297:0.079898998 313:0.064406 328:0.093868002 336:0.084992997 337:0.081944004 342:0.12027 410:0.183755 426:0.077992998 448:0.098451003 518:0.25175899 537:0.16441301 554:0.23318399 697:0.246491 721:0.092159003 723:0.053303 784:0.14223699 835:0.180153 837:0.071772002 880:0.24512701 914:0.082725003 970:0.172563 1013:0.137455 1040:0.187677 1151:0.189054 1258:0.13511799 1296:0.088532001 1348:0.077743001 1423:0.116768 1490:0.108784 1496:0.14756501 1618:0.11548 1623:0.099716 1728:0.26407 1900:0.1247 2086:0.19220001 2144:0.110315 2852:0.16819599 2937:0.148559 3512:0.148559 3736:0.156709 #
0.10000000000000000555111512312578 11:0.035760999 12:0.106551 15:0.035377 24:0.136645 26:0.063621998 38:0.049942002 44:0.031153001 57:0.084182002 59:0.118662 60:0.04916 85:0.099273004 86:0.115942 87:0.049800999 105:0.027461 108:0.056836002 156:0.031005001 214:0.052452002 219:0.048200998 232:0.050616998 239:0.018532 241:0.076269999 243:0.113384 258:0.096069001 270:0.191946 273:0.077666998 282:0.056692 287:0.146521 324:0.065545 396:0.077102996 397:0.107399 405:0.070005998 419:0.044996999 440:0.066965997 452:0.047734998 474:0.062440999 508:0.068322003 559:0.070937 570:0.084941998 583:0.078011997 631:0.072728999 668:0.096887998 782:0.133481 825:0.062931001 830:0.17768499 933:0.093782999 967:0.084482998 984:0.181453 1060:0.19924501 1065:0.101639 1116:0.175924 1317:0.15885399 1321:0.075277001 1338:0.079815 1342:0.078244001 1422:0.074766003 1478:0.103904 1514:0.117726 1591:0.131056 1630:0.136961 1760:0.101639 1941:0.114359 2297:0.119604 7715:0.153658 13527:0.206587 13528:0.206587 13529:0.49297699 13530:0.206587 #
0.10000000000000000555111512312578 6:0.032345001 11:0.016787 18:0.049594 32:0.065756001 59:0.102806 76:0.105685 87:0.049061 94:0.058804002 98:0.047352001 112:0.023962 125:0.083079003 126:0.023560001 137:0.041466001 150:0.070574 156:0.030544 194:0.072299004 205:0.044213001 208:0.043558002 214:0.051672999 236:0.034030002 240:0.068503998 241:0.110253 244:0.039542001 278:0.095701002 351:0.050517 352:0.039519001 354:0.083362997 365:0.098941997 374:0.17005099 410:0.16831601 439:0.1874 442:0.167661 450:0.067002997 456:0.091756001 485:0.094232 654:0.075957 675:0.137721 697:0.13397101 846:0.083527997 914:0.069294997 960:0.22076701 964:0.08461 1542:0.092849001 1569:0.11215 1621:0.165324 1662:0.096997999 1826:0.20792501 2075:0.109298 2235:0.113182 2304:0.086934999 2350:0.120542 2441:0.15733901 2958:0.27259201 3646:0.17744599 4943:0.203517 4944:0.317678 4945:0.392584 4946:0.13242599 4947:0.137721 4948:0.144548 #
0.10000000000000000555111512312578 6:0.044537999 9:0.093925998 35:0.043967001 38:0.067745999 60:0.139946 61:0.101557 87:0.039898999 89:0.081863999 91:0.070081003 114:0.093813002 115:0.062422998 156:0.138899 164:0.066073999 199:0.097907998 238:0.093420997 256:0.071314 272:0.060562 284:0.112222 297:0.27148399 326:0.182742 352:0.092133 441:0.226138 445:0.098908998 543:0.21006601 584:0.18963499 682:0.087536 690:0.18810099 701:0.100606 716:0.16944 731:0.187181 777:0.096225999 809:0.160521 937:0.094072998 1026:0.092053004 1268:0.090740003 1295:0.36659199 1317:0.102679 1424:0.112222 1549:0.118758 1587:0.17134801 1617:0.118525 1681:0.195802 3876:0.175052 4566:0.16136999 10102:0.244334 10103:0.244334 #
0.10000000000000000555111512312578 24:0.13868301 57:0.144658 70:0.089248002 99:0.071050003 100:0.13823999 115:0.079077996 149:0.115837 223:0.10477 311:0.128132 312:0.118483 326:0.13672701 337:0.119731 353:0.120014 389:0.113958 534:0.21856999 557:0.21561199 585:0.143143 656:0.19678301 671:0.104574 716:0.126775 780:0.091963999 830:0.37845501 874:0.101745 1317:0.272975 1524:0.186212 2063:0.25213799 2144:0.33826599 3397:0.19651499 5136:0.242902 9401:0.28083101 #
-0.10000000000000000555111512312578 6:0.070958003 9:0.109548 10:0.041999999 11:0.021751 24:0.174417 32:0.144254 35:0.019714 41:0.054094002 44:0.039765 56:0.074972004 59:0.133203 68:0.122404 76:0.072516002 85:0.074840002 88:0.068471998 98:0.128757 104:0.054740999 112:0.031047 113:0.045637999 134:0.080326997 145:0.110004 151:0.095175996 164:0.062174998 192:0.093433 197:0.120795 198:0.088009 199:0.092129 239:0.023654999 241:0.097352996 245:0.121789 292:0.120198 324:0.083663002 354:0.063793004 370:0.049591001 385:0.095619 410:0.083575003 452:0.060929999 457:0.083053 484:0.099428996 519:0.119445 543:0.116746 545:0.16336299 561:0.167117 635:0.112191 648:0.26409101 649:0.112191 682:0.082369 687:0.147338 1142:0.21323299 1146:0.143167 1258:0.14664701 1317:0.202765 1321:0.096086003 1432:0.195526 1533:0.120889 1617:0.23405901 1618:0.212209 1723:0.141041 1728:0.109833 1896:0.210502 2780:0.15350799 3832:0.235083 4211:0.189963 #
-0.066234344194554956031240067204635 11:0.020453 30:0.090355001 36:0.037314001 87:0.035305001 95:0.073945001 113:0.042916 114:0.049028002 116:0.119793 126:0.060240999 138:0.11502 208:0.089858003 210:0.082286999 238:0.139963 239:0.022244001 264:0.141306 297:0.081545003 315:0.067648999 321:0.088785999 337:0.083632 356:0.076518998 392:0.071452998 401:0.091237001 425:0.14686801 426:0.134773 429:0.162973 434:0.071259998 460:0.103871 470:0.066757001 523:0.079770997 539:0.088203996 685:0.101043 828:0.095354997 858:0.062670998 878:0.14686801 933:0.066483997 967:0.101404 991:0.076365001 1004:0.118012 1013:0.082855001 1014:0.178983 1027:0.358271 1317:0.37960199 1341:0.33177099 1349:0.18231 1426:0.23856799 1436:0.13921501 1534:0.128172 1772:0.13262901 2144:0.236277 10053:0.21620101 #
-0.10000000000000000555111512312578 23:0.038238999 35:0.017343 41:0.047589 45:0.060332 50:0.055243 76:0.09832 81:0.073913999 104:0.048158001 110:0.219827 115:0.108446 121:0.12531701 137:0.047265001 138:0.063553996 160:0.086332001 202:0.077785 239:0.020811001 243:0.127323 249:0.060284998 256:0.099955998 257:0.075612999 273:0.208119 282:0.063661002 327:0.053309001 338:0.129169 370:0.043628 392:0.066846997 393:0.057454001 414:0.082304001 419:0.085552 482:0.092120998 493:0.12978899 550:0.094195999 554:0.106093 585:0.15837801 596:0.073064998 697:0.18928 894:0.061103001 921:0.117061 983:0.22499099 986:0.17128 992:0.12123 993:0.102881 1060:0.106613 1133:0.079273 1317:0.221802 1420:0.093378998 1509:0.20681401 1518:0.104107 1617:0.30215001 1728:0.096625999 1819:0.22499099 3377:0.138234 5839:0.29214901 5840:0.361036 #
-0.098839695541630828712342804465152 6:0.052338 8:0.086324997 11:0.064819999 13:0.131878 15:0.095482998 36:0.049555 51:0.108176 63:0.065310001 76:0.149324 104:0.115749 105:0.074118003 112:0.038773 119:0.098958999 122:0.065628 123:0.091297001 126:0.038121998 128:0.097648002 132:0.170221 137:0.067096002 147:0.128443 156:0.049424 169:0.086257003 214:0.083612002 222:0.19146 272:0.1205 293:0.099246003 326:0.126835 327:0.12812901 354:0.079668999 383:0.075571001 419:0.121446 454:0.28894699 497:0.118745 550:0.133718 585:0.132787 592:0.093464002 623:0.11186 777:0.113079 986:0.143604 1008:0.14778601 1026:0.108176 1223:0.154855 1501:0.134672 1540:0.205446 1681:0.230096 2144:0.47806001 4012:0.19871099 5512:0.225327 #
-0.10000000000000000555111512312578 9:0.083460003 15:0.058249 21:0.082602002 27:0.082753003 35:0.015019 51:0.065991998 59:0.048356 72:0.108337 85:0.096538 87:0.048429001 114:0.039721001 115:0.044750001 126:0.023256 144:0.064213999 145:0.049497999 164:0.047368001 179:0.067997001 238:0.113395 241:0.035342 271:0.061623 313:0.111762 321:0.071932003 337:0.067757003 341:0.064282998 385:0.043024998 410:0.063671999 466:0.102752 568:0.081430003 579:0.124459 671:0.100199 685:0.081863001 686:0.088552997 697:0.078106999 740:0.077738002 765:0.170891 835:0.087980002 914:0.068402998 953:0.087791003 979:0.138116 1136:0.107891 1268:0.065050997 1295:0.170524 1317:0.216847 1348:0.064282998 1462:0.13745899 1518:0.090155996 1601:0.082753003 1617:0.084969997 1662:0.095748998 1763:0.32506901 1945:0.125493 2144:0.154442 2148:0.17645501 2184:0.132037 2282:0.104985 3832:0.22198901 4094:0.14081199 4211:0.14472499 4478:0.117611 4578:0.14472499 5234:0.184659 5681:0.27631301 5907:0.158924 6316:0.29657301 12096:0.20089599 #
0.10000000000000000555111512312578 6:0.059937 31:0.086781003 128:0.111825 142:0.066987 317:0.36868799 811:0.116611 833:0.28460199 1420:0.151804 2037:0.209732 2056:0.209732 2891:0.37819901 3459:0.20598701 3672:0.239246 3724:0.23737399 4748:0.57557601 #
0.10000000000000000555111512312578 10:0.044142 11:0.02286 12:0.17717101 33:0.220957 35:0.035080999 44:0.070761003 55:0.286699 60:0.065949 75:0.057243999 108:0.129096 112:0.03263 113:0.081212997 123:0.130088 126:0.076558001 149:0.090430997 150:0.096104003 232:0.040105 233:0.113335 239:0.024862001 256:0.070527002 272:0.059893999 282:0.181486 338:0.23782299 350:0.054466002 351:0.068791002 352:0.091116004 354:0.11352 415:0.097818002 418:0.116989 482:0.110052 523:0.089156002 807:0.094549 813:0.112138 837:0.081868 874:0.079429999 885:0.094137996 964:0.115218 979:0.190534 1127:0.205019 1268:0.089737996 1279:0.167228 1321:0.170984 1355:0.161336 1534:0.143252 1542:0.12643801 1728:0.115434 2056:0.43028101 2062:0.12964 2148:0.143769 2165:0.118148 2508:0.14482901 6725:0.194252 #
0.10000000000000000555111512312578 11:0.037700001 14:0.071303003 15:0.037296001 35:0.016282 91:0.054466002 95:0.064947002 105:0.028951 112:0.053812999 142:0.081184998 181:0.064457998 183:0.080475003 195:0.096000999 205:0.047313999 233:0.089065 236:0.036417 246:0.207772 247:0.068452999 251:0.102144 257:0.070987001 273:0.081878997 290:0.051424 313:0.057734001 323:0.080702998 329:0.14301699 338:0.170912 397:0.113224 426:0.069913 443:0.054466002 448:0.109386 449:0.1099 452:0.050324 529:0.282204 623:0.073978998 671:0.064156003 723:0.047781002 741:0.078821003 769:0.130584 858:0.055045001 956:0.087366 1108:0.078821003 1110:0.087068997 1127:0.129987 1130:0.17527001 1211:0.093409002 1268:0.070522003 1296:0.134369 1339:0.20141301 1341:0.104378 1416:0.138165 1589:0.105881 1788:0.093598999 2246:0.12112 2250:0.120562 2455:0.41572699 2623:0.182586 2682:0.182586 2715:0.164984 2821:0.154687 3030:0.133169 7445:0.18989199 13204:0.182586 13460:0.217792 #
0.10000000000000000555111512312578 3:0.064612001 6:0.032161001 16:0.066472001 23:0.08704 31:0.046565 33:0.05779 35:0.015129 44:0.064039998 49:0.092013001 69:0.042569 75:0.041797999 105:0.026899001 112:0.023824999 113:0.035023 114:0.040010002 116:0.097759001 138:0.093865 184:0.073535003 205:0.043961 208:0.043310001 215:0.112537 216:0.094824001 223:0.101117 236:0.033836 240:0.040229 241:0.035599001 244:0.039317001 256:0.051495999 272:0.043731999 276:0.056320999 283:0.110051 290:0.04778 300:0.052710999 315:0.115856 350:0.039769001 354:0.048955001 370:0.064434998 387:0.108705 393:0.050117001 434:0.098462 443:0.050606001 457:0.063734002 458:0.107134 463:0.104226 465:0.069569997 491:0.070345998 498:0.074772 530:0.058363002 568:0.082023002 572:0.077817 585:0.081595004 595:0.080761999 596:0.107912 670:0.084128 731:0.064406998 812:0.079565004 813:0.081878997 822:0.095921002 828:0.248798 837:0.059776999 840:0.086966 892:0.101121 895:0.081454001 914:0.068901002 1013:0.067616001 1112:0.103145 1119:0.078303002 1126:0.14028899 1133:0.069149002 1140:0.072454996 1146:0.064888999 1213:0.107802 1219:0.086096004 1221:0.103145 1321:0.19241101 1348:0.109632 1403:0.096182004 1469:0.088242002 1665:0.09753 1736:0.077577002 1797:0.091233 1977:0.171764 2039:0.098668002 2085:0.112537 2222:0.156443 2304:0.086439997 3466:0.27632701 3541:0.16964699 4400:0.156443 4697:0.13693701 4714:0.148027 5482:0.156443 5812:0.145778 7248:0.16964699 7249:0.16964699 7490:0.186003 7589:0.20235801 #
0.10000000000000000555111512312578 9:0.065205 35:0.024626 38:0.16711 70:0.082809001 73:0.140986 104:0.068378001 112:0.038780998 154:0.231858 156:0.083700001 172:0.116559 205:0.121156 292:0.088676997 327:0.075691998 340:0.099556997 370:0.061946001 393:0.081577003 411:0.14648201 491:0.114506 508:0.108934 510:0.123471 579:0.120522 581:0.20140401 627:0.207546 641:0.26056901 676:0.092344999 777:0.113104 833:0.14681201 1293:0.198754 1473:0.182337 1737:0.187705 2004:0.184044 4527:0.26757199 4977:0.22537699 7985:0.276142 8619:0.30276501 8620:0.32938701 #
-0.01511315142646131419457145028673 7:0.203234 10:0.077128001 63:0.096035004 64:0.17247599 116:0.13816801 126:0.056056999 224:0.199468 232:0.070076004 240:0.16299801 276:0.13477799 404:0.15544701 434:0.33208001 523:0.155782 630:0.29814601 731:0.154126 771:0.173848 821:0.383073 1477:0.20284601 2143:0.27057099 2309:0.31509101 2548:0.374369 #
-0.0021266068435202706288222884722927 11:0.033645 12:0.073386997 18:0.058706999 44:0.076241001 45:0.062654004 70:0.102546 83:0.062555999 87:0.058075 91:0.060247 99:0.081637003 137:0.049084 150:0.083540998 232:0.034862 239:0.021610999 272:0.052064002 317:0.167108 350:0.080163002 352:0.046780001 370:0.045306999 420:0.147027 583:0.090972997 596:0.159237 676:0.067541003 699:0.13383999 723:0.137916 731:0.18297499 778:0.13456599 780:0.105668 797:0.080036998 828:0.092642002 858:0.060888 914:0.172144 978:0.16651 979:0.165626 993:0.10684 1004:0.067717001 1012:0.074717999 1026:0.13399 1133:0.082323998 1136:0.129381 1138:0.128856 1269:0.197157 1355:0.140246 1418:0.117466 1469:0.105054 1552:0.122796 1647:0.105278 2533:0.152831 3057:0.111829 5576:0.27909601 7622:0.577833 #
-0.040670881696370002333917881287562 10:0.030003 45:0.04899 69:0.039627001 85:0.053461999 87:0.02682 112:0.022178 113:0.068419002 126:0.021806 142:0.056651 149:0.061466001 150:0.110599 169:0.049339999 214:0.080977999 227:0.068735003 236:0.031497002 239:0.016898001 256:0.047936998 273:0.070818998 300:0.049068 350:0.037020002 357:0.073353998 401:0.069310002 420:0.067899004 443:0.047107998 585:0.12860399 597:0.090921998 719:0.062509999 780:0.048799001 782:0.071884997 794:0.126441 810:0.148049 874:0.128832 915:0.186718 1018:0.103803 1127:0.158453 1146:0.060403999 1213:0.100351 1293:0.113665 1397:0.119208 1731:0.075306997 2004:0.105252 2056:0.29246101 2129:0.114409 2338:0.178207 2485:0.23852199 2786:0.124885 3449:0.123697 3724:0.118566 9032:0.36336699 9033:0.36336699 10637:0.188371 10638:0.318941 10639:0.188371 10640:0.188371 #
-0.012631988734083691647280822678567 35:0.013594 45:0.080067001 72:0.098054998 75:0.037558001 87:0.025888 89:0.053117 124:0.05156 156:0.027288999 162:0.064847998 205:0.039501 232:0.026312999 233:0.074358001 241:0.083470002 315:0.049605001 323:0.067377001 350:0.035734002 370:0.057898 387:0.057689998 393:0.076246999 401:0.066903003 433:0.084913999 454:0.076021999 595:0.072568998 597:0.051835001 719:0.060339 810:0.14290699 818:0.117306 828:0.14674 874:0.052113 909:0.097254001 1013:0.060756002 1032:0.141138 1127:0.204926 1131:0.070919 1154:0.087886997 1348:0.058180999 1418:0.23134699 1466:0.117279 1482:0.109021 1678:0.089731999 1756:0.118942 1762:0.158536 1926:0.090008996 1935:0.103617 2056:0.212212 2277:0.118313 2338:0.101596 2504:0.12587599 2850:0.12744699 3061:0.110435 4849:0.140572 6464:0.18182901 6465:0.31990501 6466:0.28298 6467:0.307863 6468:0.35074699 6469:0.147705 6470:0.152437 #
-0.040936767305568298735973797874976 35:0.049996998 48:0.198111 317:0.273976 465:0.22991601 1118:0.40097499 1127:0.23573799 1736:0.256378 1861:0.39151099 2056:0.37191299 3211:0.50660098 #
0.10000000000000000555111512312578 6:0.047223002 11:0.041496001 24:0.116075 33:0.178076 36:0.044712 41:0.103202 44:0.106922 51:0.16525599 64:0.105829 70:0.074698001 76:0.048259001 87:0.042304002 88:0.077152997 93:0.085851997 101:0.137923 105:0.066873997 123:0.082373001 138:0.081400998 164:0.070058003 181:0.087938003 182:0.112705 197:0.080389 222:0.102027 239:0.026653999 241:0.088503003 244:0.05773 248:0.14859501 311:0.107244 321:0.106388 336:0.103941 351:0.073752001 352:0.057696 387:0.094270997 450:0.097822003 459:0.114437 460:0.124464 465:0.172957 470:0.208735 477:0.19911 498:0.109789 504:0.170075 519:0.13459 616:0.113044 676:0.141041 697:0.11552 721:0.190826 731:0.094570003 780:0.076972 858:0.075096004 906:0.091413997 1032:0.136216 1069:0.113044 1140:0.106388 1156:0.13971899 1321:0.108269 1358:0.15144999 1533:0.136216 1542:0.135556 1713:0.142801 2144:0.32193199 3835:0.190034 5028:0.195113 6949:0.217351 #
0.10000000000000000555111512312578 18:0.050647002 59:0.050027002 69:0.043721002 76:0.033757001 100:0.080932997 104:0.043145001 110:0.082532004 112:0.041430999 113:0.035971001 146:0.063814998 160:0.077344999 231:0.104541 236:0.034752 238:0.069287002 239:0.018643999 240:0.069958001 258:0.057082999 260:0.155113 261:0.083949 271:0.063752003 313:0.055094998 315:0.056701001 322:0.060547002 331:0.120991 336:0.15258101 337:0.167272 342:0.102883 355:0.198531 448:0.049741 470:0.055953 493:0.055408001 628:0.091812998 649:0.088426001 697:0.080805004 741:0.075218 765:0.084243 777:0.071365997 858:0.052528001 896:0.070179999 933:0.055725001 993:0.114245 1020:0.17008901 1026:0.068272002 1116:0.104532 1125:0.069851004 1317:0.21259899 1338:0.13595501 1426:0.16132499 1427:0.079677001 1478:0.104532 1617:0.184479 1736:0.190134 3043:0.168832 3377:0.123846 4088:0.44857401 4877:0.142208 5218:0.132926 5407:0.35728601 6001:0.17423999 8786:0.191038 #
0.10000000000000000555111512312578 14:0.077692002 15:0.040638 16:0.077953003 23:0.115234 35:0.017742001 36:0.074942 41:0.048682 43:0.147975 44:0.035785999 59:0.096713997 76:0.038543999 86:0.078659996 106:0.116401 114:0.111966 115:0.052861001 124:0.067291997 145:0.058469001 147:0.15671401 155:0.116838 170:0.081189997 179:0.080320999 194:0.084302999 216:0.065677002 225:0.095357999 227:0.086590998 232:0.034341 239:0.021288 248:0.056550998 272:0.122382 276:0.039009999 393:0.058773 420:0.085538 433:0.110823 485:0.109878 530:0.068443999 533:0.097221002 560:0.075852998 583:0.089612 623:0.080608003 723:0.052062001 776:0.122227 778:0.164818 789:0.099981003 804:0.090286002 855:0.161259 931:0.106011 933:0.063626997 993:0.062158 1014:0.101167 1140:0.084969997 1146:0.076095998 1681:0.097929999 1765:0.12592199 1896:0.111886 1937:0.179768 2451:0.173593 3098:0.15583199 3518:0.17650799 4155:0.166333 6544:0.218128 6545:0.36932299 6546:0.350326 6547:0.198948 6548:0.237308 #
0.10000000000000000555111512312578 23:0.031528998 24:0.074722998 35:0.0143 36:0.028782999 80:0.085837997 87:0.064986996 114:0.037819002 126:0.037491001 142:0.033975001 157:0.165957 164:0.0451 232:0.046866 236:0.054152001 238:0.063766003 239:0.017159 241:0.03365 286:0.20253199 300:0.049823999 350:0.037590999 385:0.040964998 419:0.041662 572:0.073555 659:0.126811 686:0.084312998 697:0.074366003 708:0.094393998 758:0.093263999 771:0.116268 812:0.12733901 951:0.074366003 961:0.10845 984:0.168005 1000:0.116956 1040:0.087265 1110:0.076468997 1158:0.22429 1159:0.19932801 1160:0.38587201 1299:0.17251401 1313:0.115417 1317:0.070084997 1556:0.123372 1740:0.089943998 1806:0.096519001 1859:0.120394 2006:0.089708 2085:0.106374 2144:0.18226001 2497:0.26145601 2665:0.103582 3058:0.219157 3404:0.125605 5962:0.147875 6174:0.125605 6742:0.160357 6904:0.160357 6905:0.191276 6906:0.16677301 6907:0.14227 6908:0.175817 #
0.10000000000000000555111512312578 6:0.044089999 23:0.045727 24:0.22743399 33:0.23338699 44:0.070831001 70:0.069742002 76:0.094558001 83:0.072034001 87:0.066875003 93:0.080155998 101:0.128773 104:0.057588998 105:0.096225999 108:0.076321997 113:0.048013002 116:0.079154 126:0.032113999 142:0.049275 232:0.040144999 257:0.090420999 272:0.059953 338:0.091228999 350:0.054519001 387:0.088016003 419:0.060423002 434:0.079722002 440:0.089924999 450:0.15463801 459:0.106845 465:0.095374003 470:0.126452 496:0.136485 497:0.047665 545:0.171863 554:0.12686899 585:0.111859 596:0.087374002 616:0.105544 617:0.103387 682:0.086654998 757:0.150869 780:0.071865 787:0.093562998 817:0.189393 837:0.081949003 908:0.122015 914:0.094456002 933:0.074378997 1032:0.215332 1108:0.100399 1131:0.1082 1156:0.130449 1305:0.110531 1321:0.101086 1346:0.165305 1667:0.165305 1806:0.139985 2144:0.30057299 2304:0.20063999 2463:0.170801 3076:0.150869 3229:0.20293 3908:0.177426 4210:0.187727 #
-0.10000000000000000555111512312578 26:0.068608001 36:0.033523999 45:0.057937998 76:0.036184002 83:0.057847001 99:0.044587001 105:0.029614 113:0.065283 126:0.043664999 142:0.066999003 183:0.082317002 236:0.063070998 238:0.074267998 239:0.019985 312:0.074353002 331:0.12968899 336:0.21756899 337:0.075135998 350:0.043781999 354:0.053895 355:0.12568501 356:0.116397 364:0.207856 392:0.064195 413:0.100912 415:0.078630999 419:0.048523001 448:0.053316999 453:0.063849002 459:0.145276 498:0.082317002 623:0.075672001 627:0.082906 649:0.094783999 650:0.075402997 738:0.062839001 828:0.085669003 914:0.075852998 1013:0.074438997 1020:0.225977 1026:0.174629 1146:0.071437001 1154:0.107679 1211:0.095546998 1296:0.081177004 1317:0.194786 1321:0.081177004 1339:0.29036599 1427:0.085405 1446:0.183916 1450:0.084376998 1468:0.075225003 1469:0.097147003 1717:0.112047 1805:0.104483 2111:0.13357399 2147:0.147695 3032:0.146291 3340:0.113944 3603:0.150755 3832:0.1173 3880:0.31487101 5722:0.204772 6737:0.186766 7074:0.19423901 7624:0.204772 #
-0.10000000000000000555111512312578 9:0.095504999 23:0.064159997 24:0.188471 32:0.074276999 36:0.034593999 41:0.079847999 57:0.093676999 59:0.093690999 61:0.083311997 74:0.104133 76:0.037338 112:0.027067 126:0.026613001 144:0.124414 164:0.113754 197:0.148421 198:0.076727003 232:0.033266999 236:0.03844 241:0.068475001 258:0.063139997 297:0.075600997 300:0.059882 317:0.094181001 324:0.072938003 341:0.073559999 443:0.057491001 464:0.072938003 527:0.121511 554:0.105135 555:0.099205002 585:0.092696004 686:0.101333 908:0.101112 914:0.186786 920:0.114154 945:0.091595002 960:0.118828 979:0.093346 1110:0.091904998 1131:0.089663997 1142:0.077901997 1158:0.37840199 1317:0.176772 1321:0.083768003 1348:0.073559999 1491:0.10987 1529:0.121985 1760:0.237359 1798:0.113799 1897:0.127258 2075:0.123461 2144:0.17673001 2497:0.31423599 3057:0.106712 3093:0.157297 3459:0.12556501 3832:0.20494699 6456:0.192728 13364:0.22988901 #
-0.0020827919835285793950796495721534 6:0.066147998 11:0.034331001 14:0.080479003 23:0.068605997 26:0.075704001 28:0.118817 33:0.070202 35:0.018378001 36:0.062631004 37:0.092836 45:0.063931003 58:0.085137002 59:0.141196 60:0.099042997 76:0.083788998 95:0.073305003 98:0.096840002 102:0.106079 149:0.080211997 181:0.072752997 201:0.098949 222:0.084408998 241:0.112845 244:0.047761001 276:0.084803 322:0.121251 326:0.094677001 353:0.140707 402:0.121685 428:0.095121004 464:0.077992 474:0.074299 534:0.15134899 561:0.092012003 583:0.092827 591:0.119507 627:0.091481 651:0.110571 730:0.089819998 741:0.088964999 803:0.090320997 841:0.170175 869:0.113251 933:0.194161 1057:0.099638999 1099:0.41738299 1149:0.168409 1423:0.118142 1574:0.13670699 1710:0.16819701 1826:0.25114301 1943:0.31989399 4946:0.27082101 5410:0.225952 #
-0.048914711400576182942501191064366 23:0.056219 44:0.051433001 49:0.091595002 59:0.048487 83:0.052306 95:0.060070001 99:0.040316001 134:0.061363 142:0.060580999 143:0.079967 236:0.033682 241:0.035436999 272:0.043533999 285:0.089382 315:0.054954998 350:0.067028001 351:0.050000999 358:0.28965801 385:0.043141 458:0.062987 518:0.079990998 535:0.115387 665:0.071466997 775:0.093506001 780:0.052184001 807:0.040589001 850:0.115997 909:0.107743 933:0.054009002 954:0.20492101 956:0.080806002 974:0.079204001 995:0.083590001 1156:0.094723001 1374:0.079990998 1512:0.113093 1698:0.216971 1747:0.115997 1756:0.18571401 2033:0.124024 2578:0.163635 2814:0.285932 3105:0.139451 3183:0.139451 3840:0.35163 4290:0.2308 4292:0.143071 4758:0.25368199 5150:0.13489 12219:0.185157 14266:0.20143799 14267:0.20143799 14268:0.20143799 #
-0.073901831010836652180451267213357 6:0.037080001 11:0.032584 15:0.039953001 22:0.063280001 23:0.038458001 37:0.05204 44:0.05957 51:0.076640002 58:0.080805004 63:0.078341998 64:0.174393 69:0.049079999 75:0.048191 76:0.116693 91:0.058346 93:0.067413002 105:0.052510999 114:0.046130002 126:0.045729 138:0.063918002 146:0.071636997 156:0.035014998 157:0.096458003 208:0.084546998 210:0.077422999 219:0.054435998 222:0.168128 232:0.033762999 242:0.103989 246:0.093272999 250:0.081616998 321:0.083538003 337:0.078689002 338:0.076725997 452:0.053909998 459:0.089859001 485:0.108027 497:0.067873999 545:0.085368 554:0.1067 716:0.083318003 738:0.065810002 767:0.085368 858:0.058967002 892:0.116589 930:0.11376 994:0.120597 1005:0.13658699 1040:0.106442 1202:0.12479 1317:0.17940301 1334:0.105188 1339:0.127434 1448:0.198682 1571:0.108577 1717:0.117345 1797:0.105188 1801:0.222865 1888:0.112448 2144:0.179361 2148:0.121032 2390:0.18952601 2414:0.127995 3618:0.14801 4142:0.14801 4601:0.14921901 4770:0.18456601 11077:0.489629 #
0.10000000000000000555111512312578 10:0.053036999 35:0.014703 114:0.038885001 126:0.047779001 142:0.034933001 169:0.051513001 198:0.137752 204:0.068369001 221:0.036749002 232:0.02846 239:0.017643001 241:0.034598 282:0.09138 350:0.038651001 508:0.065041997 523:0.107123 533:0.080572002 537:0.13308699 585:0.20693099 835:0.086127996 979:0.16758899 1035:0.121953 1118:0.28139001 1127:0.14548901 1147:0.092479996 1209:0.073294997 1321:0.071663998 1374:0.078097001 1397:0.17541 1490:0.088056996 1617:0.217058 1678:0.16432901 2037:0.109373 2056:0.32220301 2062:0.219533 2077:0.094788 2148:0.102024 2150:0.122852 3459:0.10742 3529:0.30976 4509:0.15558 5011:0.15558 6725:0.137849 7550:0.180774 12247:0.17147499 12248:0.17147499 12249:0.196669 12250:0.196669 12251:0.196669 #
0.10000000000000000555111512312578 18:0.054482002 30:0.081467003 35:0.016714999 36:0.033643 41:0.045864001 42:0.065798 44:0.033714999 48:0.066229999 61:0.081023 65:0.104497 113:0.038694002 126:0.061760001 138:0.061250001 157:0.092431001 169:0.058559999 170:0.076490998 217:0.054442 226:0.053506002 232:0.032352999 239:0.020056 250:0.078210004 251:0.104855 256:0.056894999 272:0.048317 317:0.091592997 337:0.075404003 338:0.073523 340:0.067574002 422:0.093652003 525:0.11598 529:0.111018 582:0.134905 699:0.073358998 702:0.128065 723:0.049049001 810:0.10378 829:0.119581 906:0.068783998 910:0.119975 929:0.222294 1007:0.094561003 1020:0.281984 1039:0.163545 1113:0.166292 1127:0.13343599 1130:0.106265 1131:0.087200001 1178:0.104045 1240:0.109011 1312:0.097700998 1317:0.138699 1321:0.081467003 1329:0.10685 1420:0.089993 1446:0.109011 1450:0.084677003 1647:0.097700998 1678:0.110332 1888:0.107755 2009:0.176163 2056:0.26093 2069:0.10685 2338:0.12492 4069:0.205502 4168:0.145475 6112:0.205502 6725:0.15670501 7647:0.205502 7648:0.223572 7649:0.223572 #
0.10000000000000000555111512312578 10:0.052090999 35:0.024451001 39:0.116487 49:0.087830998 142:0.058092002 143:0.076681003 212:0.100219 243:0.106015 247:0.102793 282:0.151959 300:0.085190997 354:0.079121001 433:0.090205997 474:0.257943 494:0.19444899 794:0.129655 811:0.101126 980:0.46504599 1374:0.129871 1578:0.41576001 1617:0.360955 2184:0.12695201 3832:0.36138701 8080:0.27418199 #
0.10000000000000000555111512312578 10:0.041064002 49:0.069238 56:0.073301002 70:0.064815998 75:0.053252999 99:0.087366 122:0.086993001 126:0.071220003 142:0.109279 156:0.038693 198:0.086047001 236:0.043109 356:0.079558 370:0.048486002 459:0.099297002 585:0.103957 596:0.25005499 671:0.075947002 719:0.085556 780:0.066788003 885:0.087573998 889:0.235938 952:0.109474 976:0.10255 1026:0.17773101 1037:0.112188 1119:0.099762999 1136:0.13846 1146:0.082672 1300:0.246273 1312:0.112665 1321:0.093944997 1341:0.322422 1415:0.131413 1442:0.324682 1650:0.094994999 2351:0.25555301 2664:0.18573 2711:0.136804 3365:0.130096 5407:0.18573 6938:0.41828999 #
0.10000000000000000555111512312578 10:0.030198 11:0.015639 18:0.078227997 21:0.131991 23:0.031252 45:0.049309 49:0.050918002 59:0.045637 63:0.037601002 70:0.047665 99:0.037946001 112:0.037795998 156:0.067901999 164:0.075691 181:0.056113001 199:0.066242002 217:0.046169002 226:0.045375999 231:0.056325 239:0.028798001 243:0.061459001 282:0.10919 313:0.085097998 327:0.043568999 415:0.066918999 420:0.068340003 433:0.052294999 508:0.062702999 585:0.076449998 780:0.049116001 817:0.076449998 874:0.054338999 914:0.109302 915:0.28963801 980:0.112977 1018:0.176898 1119:0.073366001 1131:0.073949002 1298:0.137962 1450:0.07181 1578:0.101004 1617:0.080191001 1863:0.22736999 1910:0.179389 2485:0.17034 2630:0.12696099 2646:0.33923301 3832:0.169027 4648:0.116734 6185:0.27989301 8079:0.24817701 8080:0.41476899 8081:0.29507101 #
-0.0018273782756421279912378841103759 1:0.053091001 9:0.103107 23:0.030753 35:0.013948 38:0.107628 41:0.038272999 55:0.117052 63:0.037 70:0.079415001 99:0.03734 105:0.041990001 112:0.037191998 121:0.042234 143:0.043742999 148:0.086383998 156:0.028000001 200:0.090967998 216:0.051633999 232:0.064425997 236:0.065467998 239:0.016736999 313:0.049456999 314:0.083534002 393:0.046206001 551:0.121397 552:0.111351 563:0.118356 582:0.26864001 611:0.112217 670:0.077564001 677:0.066105001 688:0.094144002 731:0.059381001 803:0.068549998 807:0.037592001 835:0.081704997 874:0.053470999 914:0.063524 937:0.062629998 951:0.072535999 1073:0.101903 1092:0.15588801 1448:0.093835004 1469:0.081355996 1628:0.126251 1879:0.1894 1888:0.089919999 1928:0.123689 2038:0.096436001 2930:0.14133 3057:0.146631 3376:0.124932 3436:0.147589 3494:0.113314 3618:0.118356 3703:0.121397 4142:0.118356 4566:0.25636801 4630:0.119323 5719:0.151555 7367:0.156409 9819:0.27542099 9820:0.162668 9821:0.18656801 9822:0.18656801 9823:0.162668 9824:0.18656801 9825:0.162668 9826:0.18656801 9827:0.18656801 #
-0.0046825817673238605970409409451349 6:0.11548 11:0.021468 18:0.063423999 35:0.019458 41:0.053392 52:0.106435 75:0.053759001 83:0.067581996 87:0.037055999 91:0.065087996 100:0.212696 112:0.030642999 123:0.072154999 126:0.030129001 156:0.039060999 192:0.092219003 199:0.21699201 239:0.023348 240:0.159336 274:0.150683 300:0.067795001 315:0.071005002 327:0.059808001 340:0.078666002 352:0.085569002 370:0.082874 392:0.074997999 404:0.233247 410:0.196845 429:0.10103 448:0.062289 465:0.089478999 493:0.11748 523:0.083728001 559:0.089369997 594:0.109867 597:0.074196003 600:0.122711 661:0.10103 682:0.170616 686:0.114724 699:0.0854 716:0.092945002 726:0.123039 780:0.067423999 809:0.35576099 915:0.25798401 929:0.099170998 1033:0.102502 1142:0.14933001 1399:0.12924001 1433:0.109233 1578:0.138652 1896:0.122711 1913:0.21002699 1955:0.180177 2694:0.218196 2750:0.16511101 8469:0.205891 #
-0.10000000000000000555111512312578 10:0.038176998 49:0.064369999 56:0.143015 70:0.102026 76:0.038929999 84:0.104744 86:0.079449996 106:0.117569 142:0.089346997 150:0.140729 179:0.13736001 236:0.040077999 239:0.021501999 272:0.051800001 285:0.106355 293:0.17237499 328:0.092603996 337:0.080839999 338:0.232207 352:0.046542 356:0.073964998 370:0.045077 415:0.084599003 482:0.161155 512:0.103434 538:0.113925 588:0.093041003 596:0.075492002 671:0.119548 780:0.130308 874:0.068696 887:0.158034 935:0.139523 993:0.062781997 1012:0.15600801 1127:0.084491 1130:0.113925 1217:0.073669001 1312:0.104744 1321:0.25729501 1338:0.092603996 1348:0.129857 1423:0.115196 1574:0.225693 1706:0.15596201 2062:0.112121 2403:0.127689 3630:0.194708 4758:0.30185401 5272:0.18157201 5273:0.23968901 5274:0.23968901 5275:0.23968901 #
-0.052568805801871024141469490587042 23:0.082057998 35:0.017734 42:0.069812 45:0.061693002 69:0.049901001 83:0.061595999 84:0.103662 97:0.085966997 99:0.080384001 114:0.046902001 162:0.084600002 209:0.082878001 212:0.152549 219:0.093709998 233:0.164248 236:0.083240002 239:0.02128 324:0.075262003 329:0.15577 393:0.058749001 453:0.067987002 508:0.078450002 535:0.135879 596:0.178286 662:0.14605001 668:0.065706998 719:0.078717999 789:0.099941 799:0.23657601 818:0.189686 859:0.110677 895:0.095484003 945:0.094513997 1012:0.17556199 1032:0.25950801 1108:0.08585 1340:0.088919997 1366:0.16626699 1367:0.135179 1450:0.152119 1542:0.183236 1650:0.087403998 1678:0.245671 1941:0.131313 1949:0.12845901 2187:0.137335 2450:0.160523 2850:0.16626699 3147:0.32424799 6721:0.206826 7653:0.19269601 7654:0.19269601 #
-0.038455476505192050240555801110531 3:0.074447997 9:0.078149997 35:0.017432 44:0.059533 49:0.062618002 53:0.171068 61:0.084499002 87:0.033197001 88:0.10251 94:0.067369998 105:0.052478001 126:0.045699999 131:0.062008999 144:0.074527003 178:0.189642 180:0.072907001 184:0.084729001 199:0.13792799 205:0.085763 234:0.091528997 236:0.038987 239:0.043894999 256:0.059335001 272:0.050390001 276:0.064894997 291:0.096934997 292:0.062771998 315:0.063610002 340:0.070473 352:0.045274999 370:0.043848999 385:0.084547997 415:0.082295999 457:0.073436998 463:0.120092 490:0.132199 543:0.103229 559:0.080063 656:0.160198 682:0.123316 719:0.077373996 720:0.114025 731:0.125651 765:0.094508998 780:0.060401998 809:0.28028801 840:0.169662 863:0.098425001 880:0.138937 928:0.082615003 1100:0.116145 1299:0.330937 1617:0.098617002 2304:0.099598996 5989:0.40700799 7739:0.18025801 9588:0.20329399 11481:0.233163 11482:0.233163 #
0.10000000000000000555111512312578 6:0.041487001 10:0.070395999 23:0.043028001 35:0.040956002 36:0.066509001 44:0.039365001 59:0.106386 60:0.062118001 67:0.137446 87:0.077996999 115:0.058146998 122:0.109174 150:0.090521 209:0.091201998 239:0.023417 241:0.045922 249:0.067836002 276:0.090053 282:0.071635 316:0.201285 322:0.076045997 341:0.083526999 357:0.101651 383:0.142947 410:0.140081 429:0.101329 497:0.075939998 523:0.083976001 575:0.093714997 596:0.082217 665:0.092612997 670:0.108524 686:0.115064 807:0.052598 1013:0.18304899 1033:0.102806 1105:0.152821 1110:0.104358 1126:0.075838 1142:0.088458002 1305:0.104007 1307:0.24140701 1345:0.16306201 1424:0.17699499 1427:0.100074 1460:0.25588399 1540:0.096183002 1549:0.23215701 1558:0.135911 1632:0.15554801 1717:0.131291 1729:0.123404 1769:0.122427 1784:0.141361 1903:0.14655501 1945:0.16306201 1967:0.168369 1972:0.141964 4418:0.194159 4805:0.20650101 11018:0.26103899 #
0.10000000000000000555111512312578 1:0.042289998 11:0.020755 35:0.011111 76:0.024138 100:0.097984001 115:0.033103999 127:0.051922001 151:0.053638998 205:0.032285001 251:0.118011 271:0.045584999 336:0.109102 337:0.105188 356:0.04586 413:0.067317002 422:0.062252998 453:0.042592999 497:0.053587001 530:0.042862002 595:0.059312001 611:0.052793998 665:0.052724998 671:0.043777999 770:0.057870999 823:0.085127003 825:0.045271002 993:0.081689999 1125:0.049947001 1317:0.12994 1353:0.05212 1418:0.072462 1446:0.072462 1455:0.098526001 1518:0.066692002 1617:0.062856004 1788:0.063868001 1997:0.094278 2077:0.071626998 2080:0.069518 2191:0.076274998 2385:0.076011002 2430:0.069698997 3369:0.104165 3832:0.078249998 3880:0.184724 3989:0.12459 4433:0.114892 4825:0.17871501 5006:0.25233299 5167:0.120723 6357:0.100567 7366:0.14861301 7367:0.26146501 7368:0.14861301 7369:0.136601 7370:0.14861301 7371:0.14861301 7372:0.14861301 7373:0.14861301 7374:0.14861301 7375:0.28667301 7376:0.14861301 7377:0.204402 7378:0.14861301 7379:0.14861301 7380:0.14861301 7381:0.14861301 7382:0.14861301 7383:0.14861301 7384:0.14861301 7385:0.14861301 7386:0.129575 7387:0.14861301 #
0.10000000000000000555111512312578 11:0.019544 23:0.066127002 30:0.086337 36:0.060368001 38:0.057278998 50:0.056423001 74:0.18171801 75:0.048939999 76:0.038483001 87:0.033734001 99:0.047421001 105:0.031496 112:0.027896 126:0.027427999 205:0.051472999 206:0.067068003 208:0.085862003 213:0.094563 219:0.144255 236:0.067079 241:0.041682001 244:0.046036001 257:0.077228002 258:0.065076001 276:0.065945998 313:0.062809996 338:0.185937 352:0.046007998 387:0.075173996 419:0.051607002 426:0.076058999 459:0.15450899 460:0.099251002 512:0.102246 623:0.080481999 697:0.092119001 769:0.14206401 825:0.072177 840:0.101828 967:0.096894003 979:0.096207999 1020:0.114523 1040:0.18302301 1121:0.112617 1317:0.25575 1335:0.16402601 1348:0.075815 1571:0.110265 1601:0.097598001 1647:0.103541 1688:0.119958 1979:0.145881 2067:0.133674 2225:0.152824 2456:0.43335801 2682:0.19863699 2777:0.213715 3147:0.135721 4211:0.170689 5475:0.236938 5476:0.236938 #
0.10000000000000000555111512312578 49:0.055032998 52:0.083801001 87:0.029176001 99:0.041012999 113:0.074429996 123:0.056811001 124:0.058107998 232:0.029654 246:0.17192499 256:0.088294998 272:0.044286001 285:0.153953 312:0.1158 316:0.075294003 370:0.038538001 441:0.097667001 452:0.047350001 497:0.059615001 523:0.065922998 547:0.124461 552:0.072235003 572:0.078801997 662:0.126168 723:0.044957001 736:0.12800699 742:0.196721 837:0.060534 905:0.124461 1083:0.116776 1093:0.234503 1121:0.097400002 1296:0.074670002 1399:0.101756 1459:0.095365003 1515:0.074772999 1540:0.075505003 1847:0.126168 2069:0.165821 2452:0.131061 2639:0.28010601 3049:0.129999 3868:0.14186101 4117:0.14554501 4235:0.134565 4280:0.166464 5079:0.16210701 5356:0.25380501 6494:0.140213 6755:0.34696099 6756:0.17867 6757:0.20492101 6758:0.149901 6759:0.17867 6760:0.18835799 #
0.10000000000000000555111512312578 12:0.062297001 15:0.035021 41:0.041951999 50:0.048698999 51:0.067178003 71:0.085502997 85:0.098272003 88:0.089910999 105:0.027185 126:0.023674 142:0.061503999 145:0.050386999 155:0.100688 202:0.068572 214:0.051922999 221:0.038213 239:0.018346 256:0.088115998 266:0.106871 272:0.044195998 313:0.054212 402:0.101234 404:0.156656 426:0.111152 572:0.078643002 579:0.074827999 580:0.13839 611:0.07265 616:0.077806003 686:0.21511 765:0.082892999 787:0.068974003 793:0.105707 812:0.080410004 813:0.082748003 822:0.096938998 823:0.117143 837:0.060412001 912:0.146166 914:0.069632001 1019:0.096678004 1126:0.059413001 1142:0.117336 1151:0.093984999 1152:0.091150001 1169:0.106871 1317:0.126871 1321:0.074519001 1348:0.065436997 1353:0.071722001 1446:0.099715002 1468:0.069054998 1617:0.086496003 1666:0.099133 1765:0.108516 1932:0.097469002 1971:0.126812 2892:0.122618 4046:0.42789301 4225:0.14732499 5481:0.154919 6144:0.14732499 6203:0.158103 6348:0.178308 6557:0.17144699 6758:0.149597 11251:0.39449 #
-0.082826722205223274331231664291408 14:0.078217 18:0.058219999 31:0.054976001 35:0.017860999 43:0.062429 44:0.036028001 76:0.038803998 83:0.062036999 85:0.067805998 87:0.034015 89:0.118169 91:0.059746999 94:0.11688 99:0.047816001 104:0.13846099 105:0.031757999 115:0.053218 126:0.027657 162:0.085206002 206:0.114503 229:0.084216997 238:0.079645999 243:0.269887 246:0.095512003 247:0.12714 251:0.112049 258:0.065618001 326:0.092015997 338:0.164883 355:0.228214 459:0.15579601 544:0.076527998 650:0.169701 656:0.078217 671:0.070377998 723:0.052414 782:0.091172002 812:0.093938001 813:0.096670002 990:0.123492 1004:0.067155004 1013:0.079829998 1020:0.35560599 1060:0.23042101 1101:0.12579501 1116:0.31355399 1125:0.080294997 1147:0.112344 1217:0.073430002 1317:0.087539002 1341:0.193865 1348:0.076447003 1420:0.096167997 1490:0.10697 1509:0.12579501 1729:0.112943 2033:0.14709599 2050:0.20029201 2375:0.167457 7469:0.208306 #
-0.10000000000000000555111512312578 6:0.067451 31:0.05768 50:0.101065 59:0.060334999 60:0.059648 62:0.067538001 70:0.063015997 87:0.035688002 104:0.052035 112:0.029511999 114:0.049559999 145:0.104566 156:0.037618998 232:0.036272999 236:0.109368 241:0.074662 257:0.138331 282:0.16414499 311:0.090471998 324:0.079527996 352:0.08241 356:0.077349998 365:0.12186 387:0.166898 422:0.104999 452:0.057918001 463:0.129104 688:0.12648501 751:0.27143699 833:0.189162 835:0.18586101 914:0.085346997 951:0.165004 979:0.172328 991:0.077195004 1104:0.25880501 1108:0.090715997 1119:0.096993998 1142:0.084941 1219:0.106646 1234:0.097764999 1317:0.091843002 1433:0.1052 1473:0.13875601 1518:0.112488 1589:0.20632701 1617:0.106018 1902:0.212109 2062:0.117253 2148:0.31029499 2928:0.18643899 3101:0.1646 3543:0.18643899 3701:0.28419599 #
-0.062053774513388081091047610016176 12:0.065145001 19:0.067216001 35:0.015988 36:0.032180998 69:0.076171003 75:0.044172999 89:0.062472999 126:0.024755999 142:0.099122003 150:0.074158996 156:0.094550997 157:0.088413998 169:0.056015 202:0.071707003 213:0.085350998 260:0.094265997 290:0.050494999 300:0.055706002 323:0.079245001 328:0.197163 433:0.058984999 459:0.139457 494:0.075096004 559:0.073432997 582:0.129042 592:0.060695 623:0.072641999 652:0.114385 782:0.081610002 811:0.066125996 889:0.093255997 928:0.075773999 954:0.103666 984:0.34163201 990:0.26378301 992:0.111757 993:0.056015 995:0.088743001 1007:0.090451002 1020:0.26972899 1060:0.206256 1083:0.121868 1133:0.073077999 1312:0.093455002 1317:0.078358002 1396:0.107211 1427:0.138813 1446:0.176551 1666:0.103666 1760:0.105215 1788:0.091908 1933:0.106528 2033:0.131669 2080:0.100037 2198:0.14178 2424:0.22970501 2585:0.154061 2715:0.162002 2716:0.169176 2717:0.33282399 #
-0.01253615536979323444310985280481 11:0.01771 36:0.032308999 54:0.162027 62:0.097948 70:0.053977001 88:0.094393998 103:0.091714002 112:0.025279 113:0.037159 114:0.042451002 128:0.107791 131:0.057100002 137:0.043745 143:0.050340001 156:0.032223001 170:0.154157 218:0.102612 227:0.078342997 232:0.052606001 239:0.01926 256:0.054637998 257:0.118488 267:0.059726998 393:0.053174 410:0.068048 418:0.090632997 452:0.04961 459:0.14001 473:0.098916002 491:0.074638002 497:0.062461 510:0.080481999 550:0.147608 559:0.073724002 570:0.088279001 591:0.10438 722:0.068553999 728:0.094847001 739:0.084976003 760:0.058329999 811:0.066388004 945:0.085545003 995:0.186974 1004:0.060350001 1008:0.163138 1127:0.075682998 1171:0.086723 1375:0.339681 1397:0.080247998 1403:0.102049 1424:0.085979998 2083:0.20216601 2888:0.334914 2917:0.130402 3105:0.25165901 3347:0.154671 3973:0.145291 5453:0.187199 10211:0.19735 10723:0.21470299 10724:0.21470299 10725:0.21470299 #
-0.0070496354663507768481545134875432 6:0.082916997 10:0.039595999 11:0.020506 14:0.081390001 15:0.072080001 23:0.040978 35:0.018586 49:0.066763997 88:0.064553 112:0.049557999 113:0.102674 124:0.070494004 126:0.028779 145:0.159832 219:0.058003001 221:0.046452999 239:0.022301 240:0.049423002 247:0.078137003 250:0.086966 322:0.122623 327:0.057126999 330:0.101482 352:0.048273001 393:0.104247 414:0.088200003 419:0.054148 544:0.079631999 569:0.149057 574:0.118812 637:0.094157003 665:0.088200003 720:0.121575 738:0.182982 759:0.14471 770:0.096808001 807:0.119534 837:0.073438004 899:0.121215 1093:0.25791201 1133:0.084950998 1338:0.096046999 1353:0.087186001 1475:0.25652999 1534:0.1285 1979:0.153062 2265:0.176569 3343:0.17424899 3509:0.15098999 6036:0.184908 11269:0.42091799 11270:0.248601 11271:0.248601 11272:0.248601 #
0.10000000000000000555111512312578 5:0.067939997 9:0.109052 15:0.039531998 30:0.084119 35:0.017259 49:0.061997 59:0.055567 65:0.063726999 85:0.065518998 86:0.076520003 87:0.032868002 99:0.046202999 112:0.027179999 121:0.052258998 123:0.064000003 126:0.026724 131:0.061393999 156:0.034646001 169:0.060467001 170:0.078980997 199:0.13656101 205:0.050151002 210:0.076606996 214:0.099239998 232:0.033406999 234:0.090622 236:0.081008002 241:0.068761997 244:0.044853002 256:0.058747999 273:0.086788997 276:0.037948001 297:0.075916998 313:0.061195999 322:0.067252003 326:0.15054099 327:0.053049002 337:0.077859998 352:0.094072998 385:0.049440999 424:0.113924 452:0.090314999 457:0.15258799 464:0.073243998 493:0.061544001 545:0.084468 623:0.078414999 656:0.075579002 671:0.068002999 682:0.15133201 686:0.101758 697:0.089753002 716:0.082439996 728:0.101981 731:0.073476002 740:0.089328997 758:0.112561 783:0.068131 807:0.046514999 809:0.422786 858:0.058345001 904:0.11727 928:0.081795998 937:0.077496 1026:0.075832002 1134:0.099414997 1296:0.084119 1299:0.345745 1309:0.12202 1340:0.14651699 1429:0.116108 1433:0.096887 1617:0.09764 1717:0.116108 2060:0.120639 2069:0.11033 2154:0.142134 2304:0.098612003 2545:0.161808 3768:0.16630501 4406:0.15304799 4566:0.132934 8203:0.212194 #
0.10000000000000000555111512312578 45:0.097534999 110:0.087957002 112:0.026079001 114:0.043795001 126:0.025641 169:0.058017001 184:0.210035 206:0.062697999 236:0.118415 238:0.073841996 239:0.01987 243:0.071800001 271:0.067942999 287:0.092784002 313:0.14011601 392:0.063826002 434:0.063653998 458:0.117268 482:0.087957002 596:0.069762997 624:0.087376997 640:0.190511 676:0.13032 789:0.093319997 993:0.058017001 1012:0.163932 1037:0.096385002 1131:0.146274 1477:0.157097 1650:0.081614003 2165:0.094426997 2432:0.124964 2731:0.118473 3038:0.20359699 4243:0.16474999 8162:0.57183599 8872:0.18569501 8873:0.34472001 8874:0.221499 8875:0.19312499 #
0.10000000000000000555111512312578 10:0.034451 11:0.017841 14:0.119899 18:0.052708998 23:0.105033 42:0.063657001 44:0.032618001 63:0.042895999 65:0.05971 76:0.035131 114:0.089749999 121:0.048965 125:0.088296004 196:0.155821 219:0.085447997 236:0.061236002 246:0.14641 273:0.137683 323:0.080150001 338:0.120436 340:0.110691 350:0.089208998 351:0.053688999 352:0.042001002 356:0.066747002 427:0.084909 433:0.059659 450:0.071211003 463:0.188628 493:0.057663999 512:0.093340002 533:0.15003601 545:0.079143003 577:0.234633 597:0.104402 652:0.30188999 765:0.087673999 801:0.1434 807:0.043582998 840:0.092958003 874:0.061992001 958:0.105156 990:0.1893 1127:0.076246001 1256:0.101444 1321:0.16540501 1346:0.12888899 1348:0.145247 1404:0.142037 1731:0.086471997 1888:0.10425 2033:0.225483 2277:0.140743 2462:0.35909101 4434:0.147999 4892:0.144842 5211:0.33662701 #
0.10000000000000000555111512312578 9:0.110074 10:0.052306999 11:0.027089 21:0.13503 23:0.054133002 36:0.049419001 112:0.038665999 115:0.073154002 156:0.049288001 199:0.240794 239:0.029461 240:0.137015 243:0.106456 247:0.103221 256:0.083573997 273:0.123466 274:0.19013301 276:0.053985 282:0.090121999 286:0.246727 297:0.107999 310:0.144132 318:0.17291901 443:0.082128003 585:0.224209 682:0.102584 686:0.303794 707:0.219348 757:0.30239999 809:0.188117 861:0.16108599 903:0.146376 910:0.104086 914:0.111819 1257:0.18714701 1317:0.25252801 1604:0.139174 2062:0.153622 2148:0.17036501 2659:0.169149 5860:0.233252 #
0.10000000000000000555111512312578 3:0.088362999 9:0.054784 10:0.074630998 11:0.047905002 14:0.153404 23:0.045616999 38:0.066901997 44:0.041733 57:0.112769 69:0.122175 87:0.094024003 88:0.07186 94:0.079962 99:0.055388 104:0.097271003 112:0.032582998 120:0.140582 123:0.076722004 151:0.099886 232:0.067806996 239:0.024826 240:0.055016998 247:0.086981997 271:0.178147 272:0.059808001 323:0.102548 324:0.087803997 354:0.066950999 393:0.116048 402:0.23195 474:0.083645001 492:0.100566 536:0.152501 543:0.25713 555:0.119424 650:0.093668997 656:0.090603001 699:0.15374701 728:0.122254 777:0.095027998 802:0.146276 914:0.094227999 935:0.095142998 1000:0.35511699 1142:0.196807 1154:0.133763 1159:0.232673 1374:0.109895 1518:0.124193 1570:0.12477 1669:0.103436 2068:0.164906 2414:0.151822 3912:0.174189 8518:0.25437599 8939:0.22480799 #
-0.090643899616059203649953701642517 9:0.107624 11:0.049038 24:0.089002997 35:0.017033 36:0.034283999 37:0.050818 44:0.034357 48:0.067492001 73:0.097516999 86:0.075517997 87:0.068074003 98:0.053009 112:0.026823999 125:0.093002997 126:0.026373999 151:0.082231998 157:0.094191998 192:0.13668001 198:0.18145201 199:0.079599001 236:0.038095001 241:0.04008 244:0.044266 254:0.126118 265:0.11278 292:0.061336 327:0.052354001 351:0.056550998 354:0.093322001 410:0.072208002 440:0.073852003 460:0.095435999 466:0.27807 473:0.104963 494:0.080003001 518:0.090470999 554:0.218661 673:0.138374 676:0.063873 686:0.170035 697:0.088578001 707:0.089873999 765:0.092347004 792:0.102479 809:0.34054199 837:0.067302004 885:0.077388003 903:0.101546 920:0.113132 954:0.110439 974:0.089580998 1295:0.114216 1298:0.097912997 1317:0.141341 1422:0.082454003 1571:0.106026 1617:0.096362002 2113:0.140273 2176:0.14694899 2184:0.088437997 2242:0.143402 2609:0.140273 2784:0.136603 5828:0.29822201 6176:0.15588801 10501:0.198644 10502:0.22782999 #
-0.059935993176191602882507680760682 5:0.059475999 10:0.032187998 11:0.051332999 33:0.057714 59:0.143301 87:0.028773 105:0.026864 111:0.090075001 126:0.023395 129:0.096055001 158:0.10561 171:0.079075001 197:0.092575997 236:0.033792 240:0.104838 241:0.060194999 251:0.198908 265:0.100039 273:0.159445 336:0.070695996 341:0.064664997 448:0.115415 459:0.077835001 491:0.070253998 554:0.092422001 570:0.140689 802:0.106818 825:0.104233 919:0.112389 926:0.089079998 980:0.120422 1013:0.067527004 1225:0.074463002 1317:0.074047998 1335:0.13990299 1337:0.14164899 1339:0.110382 1348:0.064664997 1398:0.101977 1422:0.073138997 1440:0.120422 1451:0.15309 1452:0.150315 1599:0.100351 1601:0.140946 1617:0.144723 1662:0.096317999 2044:0.14164899 2304:0.086326003 2430:0.094780996 3362:0.129252 4211:0.145586 5152:0.169424 8081:0.18575799 8791:0.176203 12658:0.18575799 12659:0.42411199 12660:0.20209201 12661:0.20209201 12662:0.20209201 #
-0.0090274677548392041198654922595779 6:0.053576998 11:0.027806001 12:0.060651001 14:0.065183997 18:0.082148999 35:0.014885 36:0.029960999 59:0.047924999 64:0.070915997 95:0.059374001 99:0.039848998 101:0.15648299 105:0.044812001 112:0.023442 115:0.093075 126:0.039025001 156:0.062710002 180:0.13065401 210:0.066072002 222:0.068366997 239:0.017860999 243:0.109276 244:0.038685001 249:0.051741 250:0.069650002 258:0.054683998 276:0.032729 300:0.051863 314:0.089146003 322:0.058003001 393:0.083489999 427:0.078157999 470:0.053601999 631:0.070093997 650:0.067390002 668:0.055149999 776:0.102549 807:0.040118001 933:0.1393 1104:0.097957 1114:0.107821 1348:0.063708998 1435:0.085394002 1520:0.084879003 1693:0.142304 1737:0.113461 2069:0.16111299 2323:0.10828 2417:0.13332599 2616:0.103664 2750:0.12630901 4903:0.13332599 6426:0.15082601 6668:0.282617 6815:0.16173799 8770:0.375853 8817:0.17359699 8867:0.17359699 10323:0.16173799 14018:0.199103 14019:0.199103 14020:0.33711001 14021:0.199103 14022:0.199103 #
-0.020773362661467946466142819872402 5:0.066100001 6:0.035696 10:0.035773002 15:0.038461 35:0.016790999 38:0.054296002 44:0.033868998 73:0.096134 85:0.063744001 91:0.134032 113:0.038872 114:0.093194 143:0.05266 174:0.092855997 184:0.17128199 221:0.041967999 232:0.032501999 236:0.104844 244:0.043637998 315:0.103745 327:0.051612001 392:0.064718999 411:0.099881001 433:0.104888 475:0.093199998 588:0.087182999 596:0.119772 623:0.076289997 676:0.062967002 722:0.071713001 778:0.155991 785:0.086773001 787:0.075750001 856:0.094994999 976:0.089336999 993:0.099606 1012:0.069657996 1026:0.073778003 1146:0.072021 1236:0.107943 1413:0.121627 1547:0.106463 1650:0.140117 1651:0.201786 1655:0.14029901 1756:0.086773001 2199:0.112963 2493:0.125494 3591:0.249716 4638:0.133834 6573:0.164296 8161:0.433249 8162:0.52566701 #
-0.024425444228313133304686388669325 9:0.17535999 11:0.026172999 15:0.054336999 23:0.109764 37:0.119833 41:0.11021 44:0.047850002 57:0.129298 59:0.076375999 60:0.075507 87:0.13308699 99:0.063506 121:0.121618 137:0.064649001 143:0.074395999 164:0.074814998 198:0.222247 199:0.11086 205:0.116712 221:0.059289999 239:0.059735999 240:0.063080996 241:0.094512999 248:0.12802701 256:0.080747999 327:0.072915003 352:0.12930299 354:0.076762997 370:0.059673 392:0.091433004 457:0.099937998 464:0.100673 493:0.084591001 530:0.091516003 682:0.099115998 686:0.139865 697:0.29438499 780:0.082199 791:0.114836 809:0.30774 835:0.291621 920:0.157562 937:0.106518 977:0.113613 1007:0.134205 1134:0.136646 1149:0.12839 1422:0.114836 1459:0.14766499 3397:0.175649 8019:0.25775701 13263:0.317305 #
0.10000000000000000555111512312578 10:0.053541001 11:0.016376 12:0.060479 43:0.051879998 69:0.041765999 74:0.089932002 85:0.056348 86:0.065810002 104:0.041214999 112:0.023375999 142:0.059709001 156:0.050450999 160:0.176313 179:0.067198999 190:0.081781 197:0.053716 199:0.069366001 239:0.01781 246:0.079372004 251:0.093115002 271:0.060899999 272:0.042907 328:0.16097499 338:0.13702101 355:0.11201 454:0.083007999 459:0.076467 482:0.078840002 491:0.069018997 505:0.087899998 510:0.074423 529:0.166923 592:0.056348 623:0.067438997 739:0.078578003 825:0.060479 858:0.050179001 885:0.067438997 910:0.062925003 928:0.070347004 929:0.075649999 983:0.238667 984:0.245774 990:0.173757 991:0.128317 1020:0.095964 1060:0.238093 1122:0.16685501 1125:0.112978 1128:0.116902 1146:0.063663997 1317:0.072746001 1396:0.099532001 1445:0.191563 1469:0.146588 1478:0.099855997 1663:0.29378301 1773:0.11314 1940:0.150399 1965:0.118306 2033:0.122239 2128:0.114327 2906:0.16128001 5839:0.25003099 8942:0.173106 9586:0.198539 9587:0.198539 #
0.10000000000000000555111512312578 3:0.089869998 11:0.048721999 35:0.021042001 42:0.082834996 58:0.097480997 126:0.055167001 156:0.042242002 157:0.116365 184:0.10228 223:0.083067 226:0.114052 232:0.068962999 234:0.110488 238:0.093831003 240:0.133526 241:0.083835997 294:0.134892 350:0.093656003 352:0.092537001 422:0.117902 452:0.065035999 459:0.22749799 464:0.151199 497:0.048361 498:0.104 771:0.101047 773:0.13378 885:0.161874 1013:0.19736999 1060:0.21901099 1108:0.101864 1671:0.149942 1948:0.153734 2533:0.178556 3377:0.35197401 3529:0.158793 8916:0.46726999 9928:0.281461 9929:0.235964 #
0.10000000000000000555111512312578 1:0.066894002 45:0.061136 48:0.069637999 59:0.135024 87:0.033468999 91:0.058786999 98:0.054694999 104:0.048799999 105:0.031248 113:0.040685002 121:0.053215001 126:0.027213 142:0.041754998 156:0.03528 174:0.097185999 205:0.086465001 217:0.057243001 221:0.043924998 227:0.085776001 239:0.021088 240:0.046732999 241:0.098683998 246:0.093978003 251:0.110249 254:0.130128 258:0.064563997 273:0.088376001 311:0.084845997 338:0.077304997 341:0.075218 352:0.045646001 370:0.044209 385:0.050345 387:0.074583001 397:0.072177999 415:0.082970001 448:0.095255002 452:0.054317001 453:0.067373 459:0.090538003 506:0.117097 627:0.087481998 665:0.083400004 723:0.051571999 737:0.094950996 760:0.063864 767:0.086012997 954:0.113951 991:0.072394997 1060:0.257799 1065:0.115654 1113:0.17484599 1234:0.091686003 1317:0.086131997 1321:0.085657999 1340:0.088118002 1446:0.114619 1477:0.234979 1478:0.118231 1591:0.149128 1630:0.155847 1767:0.122392 1924:0.13197701 1940:0.178075 2338:0.22239 2375:0.164767 2424:0.252496 2658:0.11747 4535:0.235074 4536:0.235074 4537:0.18173499 4538:0.235074 4539:0.18173499 #
0.10000000000000000555111512312578 10:0.035514999 14:0.073000997 22:0.17816301 31:0.051309999 35:0.01667 43:0.058265999 56:0.063395999 70:0.056056999 76:0.036215998 104:0.110459 105:0.02964 142:0.067059003 156:0.056660999 169:0.058405001 197:0.102144 236:0.037284002 239:0.020003 242:0.099384002 243:0.122381 276:0.062061001 315:0.060832001 322:0.064958997 327:0.051240001 352:0.073308997 354:0.091334999 392:0.064253002 459:0.085879996 497:0.064868003 499:0.098072998 539:0.079315998 572:0.145182 616:0.143637 670:0.092701003 681:0.104852 832:0.294548 896:0.075292997 933:0.101224 979:0.090539999 1342:0.084453002 1348:0.071347997 1418:0.108722 1508:0.176393 1515:0.081362002 1694:0.176147 1737:0.127067 1771:0.127067 2089:0.122327 2148:0.115672 2210:0.093943998 2420:0.17238501 2841:0.198034 3365:0.19050799 3907:0.18693499 3908:0.142611 3911:0.20495699 4850:0.22297899 4851:0.489088 #
0.10000000000000000555111512312578 10:0.034890998 18:0.053382002 31:0.050407998 76:0.035580002 99:0.074231997 103:0.093574002 105:0.029119 118:0.115343 119:0.065826997 122:0.043655999 124:0.062116999 131:0.058258001 156:0.101242 181:0.064833 195:0.096560001 205:0.047589 219:0.051111002 243:0.071009003 256:0.055746 392:0.063123003 444:0.076632001 453:0.062784001 460:0.155367 469:0.112828 484:0.173343 485:0.101429 544:0.118807 585:0.088329002 592:0.062171999 650:0.12553801 668:0.186856 721:0.140688 778:0.058304999 882:0.209736 926:0.096560001 964:0.091072001 965:0.118132 992:0.114477 993:0.057378002 995:0.15391 1125:0.073623002 1146:0.070244998 1338:0.084633 1341:0.104986 1468:0.073968999 1656:0.149887 1669:0.081876002 1694:0.102207 1768:0.117168 2083:0.121825 2451:0.160244 2598:0.110177 3365:0.288445 9933:0.21906 9934:0.21906 9935:0.21906 9936:0.21906 9937:0.21906 9938:0.21906 9939:0.21906 9940:0.21906 #
-0.010535744288571180504732183180749 11:0.033078998 43:0.061891999 45:0.129274 52:0.096860997 83:0.061503001 87:0.033723 112:0.027887 113:0.086029001 115:0.052760001 126:0.046424001 138:0.064888999 156:0.035548002 217:0.057675999 232:0.071930997 239:0.021248 243:0.161127 250:0.082856998 273:0.089046001 276:0.038934998 282:0.064998001 323:0.087766998 336:0.14028899 338:0.16346399 387:0.075148001 405:0.080263004 454:0.099027999 459:0.091224 760:0.064347997 858:0.059863001 906:0.152927 954:0.114814 961:0.227377 983:0.37876901 991:0.072943002 1004:0.066577002 1069:0.090112999 1122:0.22634301 1125:0.189959 1129:0.152771 1130:0.236258 1131:0.092381001 1216:0.206513 1317:0.086785004 1337:0.166016 1429:0.119127 1441:0.163969 1445:0.134975 1478:0.2017 1663:0.146872 1681:0.097742997 1736:0.153742 1760:0.11653 1935:0.134975 2585:0.17062899 2817:0.192405 3491:0.117614 6363:0.17062899 #
-0.016416849478426618486048838008173 10:0.067799002 11:0.059448998 33:0.121565 44:0.108686 76:0.069137998 104:0.088367 112:0.050117999 126:0.103414 205:0.092474997 214:0.108078 271:0.13057099 278:0.200167 282:0.197785 293:0.128286 318:0.224133 410:0.134914 415:0.150244 422:0.178312 443:0.106453 465:0.146346 470:0.1146 477:0.35356399 783:0.12562899 858:0.107585 1069:0.161952 3599:0.391271 10409:0.391271 10410:0.391271 #
-0.066822558324584210853736010449211 6:0.062732004 12:0.071015 35:0.017429 48:0.069059998 76:0.037864 113:0.040348001 121:0.052772999 126:0.045692999 142:0.041407999 169:0.061062001 199:0.081449002 208:0.049895 223:0.068801001 272:0.085303001 273:0.087642998 276:0.038322002 282:0.063974001 297:0.076664001 300:0.060725 317:0.095505998 327:0.053571001 328:0.090066999 336:0.138079 337:0.13312501 338:0.236084 339:0.32642099 347:0.14910001 350:0.077572003 362:0.18022799 443:0.0583 474:0.070460998 717:0.15308499 935:0.080146998 1007:0.098600999 1032:0.106875 1101:0.122748 1127:0.139137 1215:0.18022799 1217:0.121316 1321:0.084946997 1334:0.105104 1368:0.092883997 1397:0.087132998 1604:0.098793998 1606:0.31443799 1863:0.107137 1913:0.111108 1949:0.12624399 2009:0.183689 2163:0.11687 2780:0.135712 3036:0.140669 3701:0.15610801 4156:0.233124 4157:0.233124 4158:0.170532 4159:0.21428201 4160:0.176598 #
-0.01870668598804051466211184617805 11:0.020384001 18:0.060222 35:0.018476 43:0.064576 55:0.091573998 69:0.051987 70:0.062128998 76:0.040139001 87:0.059574001 99:0.049460001 104:0.086861998 108:0.067989998 110:0.098135002 112:0.029096 121:0.055943999 122:0.049249999 123:0.068512 124:0.16722301 143:0.057943001 155:0.071861997 156:0.037089001 184:0.152052 206:0.069953002 236:0.041322 244:0.048016001 256:0.062890001 267:0.116399 272:0.090426996 276:0.068782002 282:0.067818001 287:0.10352 312:0.082479998 351:0.061342001 370:0.046475999 485:0.240134 596:0.16334599 597:0.119282 606:0.29718599 614:0.113295 615:0.222028 730:0.090299003 764:0.206292 778:0.065775998 805:0.13113301 807:0.049795002 837:0.073003002 857:0.12963 935:0.084962003 1002:0.246374 1014:0.105353 1338:0.095477998 1364:0.112746 1468:0.083448 1603:0.148174 1627:0.27739701 1632:0.147259 1717:0.124294 1788:0.106207 1994:0.107765 2019:0.19549701 2394:0.169093 2403:0.22290701 2731:0.132181 9424:0.24712899 #
-0.057049735346587283901786946671564 6:0.041632999 11:0.051561002 18:0.063835002 23:0.043179002 35:0.019584 38:0.063327 44:0.094265997 48:0.077601001 49:0.119113 58:0.090726003 70:0.065856002 76:0.042546999 87:0.063147999 89:0.076523997 99:0.052428 121:0.15474001 126:0.063639 144:0.199806 169:0.068613 239:0.023499001 240:0.088174999 241:0.046083 261:0.105809 271:0.080352001 315:0.071465001 316:0.096249998 353:0.149942 354:0.063372999 368:0.13307001 387:0.083112001 429:0.101685 450:0.086241998 459:0.211731 494:0.091986999 510:0.098194003 676:0.07344 690:0.103849 705:0.198689 722:0.083641 759:0.265306 767:0.095849 783:0.130898 790:0.194841 880:0.156094 1037:0.113989 1150:0.121907 1152:0.116757 1236:0.12589701 1423:0.12589701 1544:0.152496 1665:0.12625401 1902:0.105626 1913:0.12485 2062:0.122537 2306:0.117021 7909:0.49450201 10475:0.219611 #
0.10000000000000000555111512312578 37:0.057418998 73:0.065076001 75:0.031404 91:0.038022 115:0.033867002 131:0.084854998 144:0.048597001 146:0.046682999 154:0.107021 162:0.054223001 164:0.035847999 192:0.053870998 202:0.050979 247:0.047786999 262:0.080362 271:0.046636 280:0.067764997 282:0.087559998 373:0.091741003 385:0.055131 405:0.051521 419:0.033115 438:0.096450999 440:0.049284 530:0.092024997 539:0.054081 570:0.062513001 614:0.069701001 633:0.100084 656:0.11878 683:0.091741003 697:0.100084 764:0.060476001 807:0.030634999 853:0.081321001 1026:0.049943 1065:0.074800998 1092:0.075029999 1142:0.051521 1206:0.086640999 1217:0.079118997 1484:0.081652001 1702:0.16603699 1780:0.106566 1979:0.158493 2809:0.109528 2952:0.111217 3369:0.22364099 3397:0.084163003 3549:0.127462 3550:0.15203799 3551:0.31907001 3552:0.13975 3553:0.13975 3554:0.120274 3555:0.15203799 3556:0.15203799 3557:0.224447 3558:0.123506 3559:0.123506 3560:0.15203799 3561:0.15203799 3562:0.120274 3563:0.15203799 3564:0.117541 3565:0.15203799 3566:0.13975 3567:0.15203799 3568:0.15203799 3569:0.25742301 3570:0.15203799 3571:0.19147 3572:0.123506 #
0.10000000000000000555111512312578 13:0.09121 36:0.034274001 37:0.050802998 63:0.045170002 87:0.054905999 110:0.090444997 113:0.066743001 114:0.076246999 123:0.063143 126:0.062918 144:0.123263 147:0.088835001 178:0.088273004 181:0.067408003 203:0.25039899 204:0.079177998 211:0.091679998 216:0.063034996 237:0.106821 238:0.18119 239:0.020431999 244:0.074927002 247:0.071586996 272:0.049222998 290:0.053778999 315:0.062137 321:0.081551999 392:0.065631002 393:0.056409001 395:0.087586001 419:0.083995 428:0.25963399 433:0.106365 453:0.065278001 460:0.161539 554:0.21859699 650:0.077090003 655:0.091522999 738:0.108777 894:0.059990998 899:0.111055 935:0.078304 1547:0.107963 1617:0.29665199 2191:0.116899 2510:0.204629 3377:0.135719 3672:0.14449 4832:0.44494799 7272:0.385636 #
0.10000000000000000555111512312578 5:0.059875999 9:0.096107997 10:0.032405 11:0.028414 30:0.155581 35:0.025753001 49:0.054637998 92:0.076488003 109:0.086016998 112:0.023954 113:0.073896997 126:0.061457999 131:0.054106999 144:0.065030999 151:0.073432997 164:0.114472 180:0.063616998 198:0.11497 199:0.071082003 202:0.068218 233:0.083200999 241:0.060600001 275:0.077757999 276:0.079807997 282:0.055831999 286:0.090274997 292:0.092739001 300:0.052995998 308:0.104422 315:0.093976997 340:0.061492998 385:0.073775001 390:0.069522999 433:0.056116 494:0.071442999 559:0.069861002 592:0.057742 637:0.077056997 676:0.057039 708:0.100402 722:0.064962 758:0.167962 761:0.091513 777:0.069861002 780:0.052705001 783:0.060044002 797:0.067592002 812:0.19089299 858:0.051419999 885:0.069108002 914:0.165306 1109:0.100712 1142:0.068944 1146:0.065240003 1147:0.09567 1149:0.082322001 1150:0.22593699 1212:0.110646 1298:0.087436996 1317:0.156443 1370:0.081894003 1665:0.098057002 1666:0.098622002 1704:0.24719299 2182:0.131226 2191:0.104422 2199:0.102327 2385:0.104059 2497:0.197319 3404:0.318809 4211:0.146566 5696:0.426967 5697:0.165271 #
0.10000000000000000555111512312578 1:0.06786 5:0.070180997 13:0.095495999 24:0.093157999 49:0.064042002 59:0.057399999 65:0.065829001 83:0.061921 87:0.033952001 97:0.086420998 107:0.088616997 108:0.065605998 113:0.041271999 115:0.053119 123:0.111935 143:0.055911999 164:0.056226999 192:0.084494002 199:0.083315998 221:0.044558998 222:0.138642 233:0.097519003 239:0.021392001 241:0.041951001 250:0.141243 276:0.0392 290:0.056306001 323:0.088363998 352:0.046305001 385:0.051070999 402:0.118045 404:0.076549999 493:0.063574001 554:0.109058 574:0.113969 651:0.107263 671:0.070247002 682:0.126121 697:0.092712998 758:0.116274 765:0.096658997 809:0.231278 812:0.093763001 813:0.096490003 825:0.072641999 831:0.14682201 835:0.104433 903:0.106287 1142:0.22559801 1285:0.135206 1298:0.102484 1317:0.27935901 1321:0.086893998 1340:0.15134899 1398:0.120332 2062:0.111549 2144:0.318966 2222:0.184358 2385:0.121968 2448:0.15128 2493:0.133242 3491:0.118414 3955:0.21958099 6059:0.180645 8939:0.19371399 10123:0.23846599 #
0.10000000000000000555111512312578 6:0.041721001 9:0.087986 19:0.082507998 23:0.043271001 24:0.28629601 35:0.019626001 49:0.070497997 52:0.225289 69:0.055222001 75:0.113791 88:0.068163998 112:0.030906999 113:0.045433 169:0.068758003 194:0.093254998 199:0.091715001 236:0.092115998 239:0.023549 244:0.051004 327:0.060323 352:0.106973 414:0.093134001 456:0.248374 466:0.13426501 635:0.111687 682:0.081998996 686:0.115711 740:0.101579 817:0.105849 874:0.075236 969:0.15198 970:0.186446 1260:0.14531501 1317:0.162854 1321:0.161957 1404:0.29186499 1524:0.137697 1529:0.139294 1539:0.133351 2062:0.122795 2067:0.1481 2371:0.33031201 2812:0.29348099 5828:0.343615 #
-0.10000000000000000555111512312578 9:0.044822 15:0.038773 48:0.113566 56:0.064374 75:0.079184003 81:0.072140999 87:0.067652002 121:0.051254999 126:0.062546 143:0.053087 147:0.088310003 156:0.033980999 169:0.059305001 205:0.049187999 208:0.048459999 214:0.097333997 221:0.042307999 239:0.020311 272:0.10269 286:0.210839 300:0.058977999 327:0.088094003 340:0.143618 352:0.043965001 370:0.042580999 420:0.138182 440:0.073394999 492:0.082277998 554:0.175321 690:0.089760996 692:0.12902699 758:0.26344499 761:0.101844 793:0.117034 812:0.089025997 833:0.100917 903:0.100917 1142:0.076725997 1147:0.277825 1150:0.105369 1159:0.23594899 1317:0.082961001 1318:0.139404 1418:0.110399 1422:0.081942998 1617:0.200973 1681:0.15820099 1688:0.114632 1729:0.107037 1769:0.10619 1888:0.109126 2062:0.25274101 2122:0.13108499 2144:0.174062 2193:0.15010899 3404:0.148681 3574:0.153218 4989:0.168409 5111:0.226418 5112:0.179113 5113:0.163111 #
-0.098992696056994816666829706264252 6:0.040199 9:0.10508 11:0.020863 15:0.043313999 24:0.098811001 35:0.01891 36:0.038061999 44:0.038143001 61:0.091664001 98:0.099642999 112:0.02978 126:0.029281 131:0.067267001 164:0.142315 198:0.084418997 199:0.088371001 208:0.054134998 221:0.047263 236:0.042293001 244:0.049144 248:0.060276002 276:0.041579001 282:0.145667 283:0.232905 286:0.190026 292:0.19010501 297:0.083180003 315:0.069003999 351:0.062783003 414:0.089737996 457:0.134884 637:0.095798999 655:0.101638 656:0.082809001 699:0.082993999 758:0.123329 773:0.120222 817:0.101989 903:0.112737 914:0.145817 945:0.100778 1142:0.22366101 1317:0.241836 1459:0.11771 1494:0.13318001 1618:0.20355301 2413:0.232493 2497:0.144885 5063:0.37339699 5066:0.191606 6805:0.191606 7421:0.34788799 #
-0.0038956248214807231641798601629034 9:0.071176 10:0.033822998 22:0.057597 35:0.026881 37:0.047366001 41:0.043563001 53:0.092018999 99:0.042500999 105:0.028228 112:0.025002001 115:0.047302999 149:0.069292001 198:0.148739 232:0.03073 236:0.074516997 246:0.084895998 286:0.26305699 314:0.095080003 352:0.069816999 370:0.083811 385:0.077003002 390:0.072566003 393:0.052593 395:0.081661999 450:0.069913 474:0.064184003 508:0.07023 665:0.075341001 677:0.075243004 679:0.24977399 696:0.115988 882:0.096882001 885:0.12213 1038:0.127325 1131:0.082824998 1156:0.169072 1171:0.085775003 1212:0.115488 1218:0.086531997 1299:0.23814601 1347:0.172317 1405:0.142304 1469:0.092602 2388:0.125038 2599:0.33048999 2812:0.26995701 3392:0.40705699 3936:0.15298 4369:0.17250399 10901:0.19519299 10902:0.212356 #
-0.069482961744611021481787815901043 9:0.073799998 10:0.035069998 12:0.067073002 23:0.036293998 32:0.071140997 35:0.016461 52:0.090043999 85:0.062491 87:0.065789998 99:0.044068001 104:0.045708999 112:0.025924001 121:0.049844 123:0.061042 144:0.070378996 187:0.23091 188:0.126792 206:0.062325999 211:0.088629998 244:0.042780999 256:0.056033 286:0.233142 315:0.060070001 352:0.042755 353:0.074437998 370:0.041409001 397:0.067607 414:0.078117996 415:0.077716 458:0.068848997 460:0.092234001 498:0.081358999 559:0.075607002 575:0.079048 595:0.087876998 656:0.072085999 671:0.064861 682:0.068778999 692:0.125475 758:0.316273 812:0.086575001 814:0.163773 850:0.126792 972:0.149001 1001:0.10195 1142:0.074614003 1146:0.070606001 1298:0.094627999 1342:0.083394997 1343:0.154332 1432:0.096427001 1490:0.098586001 1555:0.16542099 1571:0.173494 1579:0.104371 2062:0.31717601 2075:0.11825 2448:0.13968299 2519:0.166797 3571:0.163773 5070:0.357236 5113:0.158621 8303:0.220185 #
-0.067492473464746655098522865046107 1:0.077206999 9:0.053709 11:0.022379 19:0.085275002 23:0.044721998 36:0.069126002 48:0.13608301 49:0.072862998 69:0.096634999 83:0.07045 113:0.079504997 126:0.074947998 142:0.048191 144:0.086721003 202:0.154029 231:0.080600999 238:0.236017 239:0.041209001 248:0.064654 276:0.116379 287:0.192426 290:0.064061001 297:0.089222997 312:0.090552002 327:0.062346 338:0.089222997 352:0.052683 354:0.065637 385:0.151623 402:0.22739699 410:0.085989997 474:0.082004003 572:0.104333 575:0.097402997 596:0.085451998 616:0.103223 635:0.115433 649:0.115433 656:0.15039299 682:0.143493 700:0.119073 728:0.119854 765:0.109972 799:0.103694 863:0.29885599 977:0.097144999 1000:0.165894 1133:0.092712 1142:0.091939002 1158:0.151595 1285:0.15382899 1296:0.098862 1317:0.099409997 1353:0.095151 1468:0.091614 1561:0.110753 1599:0.13472299 1609:0.12658601 1951:0.17352299 2039:0.13228901 2224:0.198467 2304:0.115895 2380:0.15883499 2890:0.169479 3170:0.169479 5218:0.17352299 #
0.10000000000000000555111512312578 22:0.129613 44:0.042562 56:0.135868 62:0.128759 63:0.094772004 75:0.058297999 114:0.094485 216:0.078112997 232:0.040842999 236:0.099041 241:0.084068999 443:0.14812601 508:0.093341999 591:0.23232301 807:0.135709 882:0.128765 941:0.26460001 949:0.17905 952:0.119845 1001:0.130683 1028:0.231648 1126:0.17208099 1698:0.14486 1756:0.184627 3356:0.36999899 3463:0.34425899 6804:0.246085 8418:0.43925199 #
