SVM-light Version V6.02
0 # kernel type
3 # kernel parameter -d 
1 # kernel parameter -g 
1 # kernel parameter -s 
1 # kernel parameter -r 
empty# kernel parameter -u 
14598 # highest feature index 
2865 # number of training documents 
380 # number of support vectors plus 1 
1.0076284 # threshold b, each following line is a SV (starting with alpha*y)
-0.018305997990344075043722682494263 5:0.085969001 6:0.046425998 33:0.083421998 35:0.036975998 36:0.043956999 41:0.156368 60:0.069512002 61:0.179239 64:0.104043 76:0.047444999 87:0.041590001 105:0.038830001 123:0.080982998 124:0.27355999 143:0.068489 206:0.082686 222:0.100305 244:0.056756001 275:0.111643 276:0.134056 305:0.210436 311:0.105433 317:0.119672 365:0.142012 402:0.144601 494:0.102576 530:0.248192 539:0.17592999 552:0.10297 611:0.103771 615:0.26244199 731:0.092974 807:0.099656999 824:0.14285401 825:0.088983998 894:0.07694 916:0.15099099 991:0.089961 1125:0.098174997 1347:0.13999601 1475:0.126316 1549:0.123792 1647:0.127652 1650:0.107632 1729:0.13809299 2252:0.244892 2651:0.19182 3209:0.225831 3745:0.23108201 4210:0.19767299 4638:0.174064 #
-0.020293249115963803846929280894074 18:0.065208003 36:0.096088 44:0.084683999 87:0.038098 107:0.099439003 108:0.124647 109:0.14022601 110:0.179913 111:0.311221 112:0.031505 113:0.046312001 114:0.052907001 115:0.059606001 116:0.076350003 117:0.49593601 118:0.14089499 119:0.22448599 120:0.32437301 121:0.158067 122:0.148876 123:0.125605 124:0.075878002 125:0.109233 126:0.052448001 127:0.093489997 128:0.134342 129:0.127186 130:0.139837 131:0.071163997 132:0.13831501 133:0.171142 134:0.081513003 135:0.154089 136:0.113849 137:0.05452 138:0.073308997 139:0.131253 140:0.181078 141:0.14881299 142:0.047529999 143:0.062739998 144:0.085530996 145:0.111628 146:0.082162 147:0.104368 #
-0.032332412515890120163764009930674 45:0.097534999 110:0.087957002 112:0.026079001 114:0.043795001 126:0.025641 169:0.058017001 184:0.210035 206:0.062697999 236:0.118415 238:0.073841996 239:0.01987 243:0.071800001 271:0.067942999 287:0.092784002 313:0.14011601 392:0.063826002 434:0.063653998 458:0.117268 482:0.087957002 596:0.069762997 624:0.087376997 640:0.190511 676:0.13032 789:0.093319997 993:0.058017001 1012:0.163932 1037:0.096385002 1131:0.146274 1477:0.157097 1650:0.081614003 2165:0.094426997 2432:0.124964 2731:0.118473 3038:0.20359699 4243:0.16474999 8162:0.57183599 8872:0.18569501 8873:0.34472001 8874:0.221499 8875:0.19312499 #
-0.043112744416431418581492351904672 6:0.044009 11:0.047933001 15:0.099513002 23:0.077280998 35:0.020702001 37:0.061764002 43:0.072356999 58:0.095903002 59:0.112851 70:0.069614001 75:0.057195999 76:0.044975001 83:0.071901999 87:0.039425001 91:0.069247998 100:0.107829 105:0.036809001 109:0.180428 126:0.032055002 134:0.084351003 143:0.064924002 156:0.099169999 164:0.065289997 169:0.072529003 179:0.093722999 180:0.086585 232:0.040070999 239:0.024839999 240:0.055048998 243:0.188372 249:0.17171399 250:0.096867003 258:0.076053001 273:0.104102 276:0.045519002 300:0.072129004 312:0.092418 317:0.113442 318:0.14579999 350:0.054419 433:0.076375 436:0.227749 450:0.091164 452:0.063983001 453:0.079361998 498:0.102317 533:0.113442 568:0.112239 574:0.132339 583:0.104565 597:0.133654 633:0.107658 668:0.076701 778:0.124787 802:0.14636099 803:0.101742 964:0.194915 995:0.194552 1013:0.092524998 1026:0.090960003 1125:0.093064003 1312:0.121007 1338:0.106982 1375:0.148711 1767:0.144172 1896:0.130555 2375:0.194087 5509:0.189466 6229:0.241432 11108:0.25452399 14329:0.27690399 #
-0.0086211762689736102377446869127198 6:0.040874001 11:0.035918001 35:0.019227 36:0.038701002 44:0.065664999 48:0.076187 60:0.0612 69:0.054102 91:0.108896 131:0.068396002 142:0.095867999 143:0.060299002 149:0.083919004 165:0.126531 169:0.067363001 192:0.091124997 239:0.023071 240:0.051128 244:0.049968999 322:0.074923001 351:0.063836999 397:0.078965999 414:0.191485 416:0.175971 450:0.084670998 475:0.106721 579:0.094102003 596:0.081001997 676:0.230526 690:0.101957 695:0.159476 777:0.088310003 780:0.066624001 974:0.101121 1012:0.079764001 1013:0.085934997 1028:0.124667 1060:0.20011801 1063:0.365233 1119:0.099517003 1121:0.122239 1131:0.100309 1218:0.104798 1374:0.102127 1418:0.12539899 1424:0.245767 1438:0.16588099 1515:0.093842 1549:0.26008099 1579:0.121908 1729:0.12158 2022:0.128517 2401:0.134902 2508:0.134398 4512:0.180262 6830:0.215608 7050:0.18527199 8201:0.20891701 #
0.10000000000000000555111512312578 1:0.057151999 10:0.031989001 11:0.016566001 35:0.015015 36:0.030222001 49:0.053936001 63:0.039829999 91:0.085040003 98:0.046728998 108:0.055254001 138:0.055022001 142:0.074864998 156:0.071928002 160:0.074740998 169:0.052604999 179:0.067976996 198:0.113493 207:0.088721998 221:0.037528001 236:0.056859002 271:0.061604999 272:0.043404002 290:0.047421001 322:0.058509 327:0.046151999 356:0.061976001 393:0.049740002 420:0.188903 433:0.055395 508:0.066419996 546:0.078207999 550:0.212799 650:0.067976996 722:0.064126998 780:0.052028 789:0.084615 807:0.040468 817:0.137115 874:0.057560999 885:0.143167 894:0.052898999 913:0.163147 914:0.143509 915:0.117577 916:0.175769 917:0.200838 918:0.34004799 919:0.23439699 920:0.20929199 921:0.21268301 922:0.311847 923:0.200838 924:0.200838 925:0.200838 926:0.088528 927:0.139035 928:0.16981301 929:0.076526001 930:0.097925998 931:0.089718997 932:0.142645 933:0.053847998 934:0.127409 935:0.069046997 936:0.106156 #
0.10000000000000000555111512312578 2:0.091889001 11:0.054795999 15:0.043595999 44:0.038391002 59:0.061280001 69:0.053555999 87:0.036247 124:0.12223 155:0.074029997 184:0.092514001 211:0.102477 214:0.064639002 239:0.022838 257:0.082979999 328:0.098359004 338:0.19978499 341:0.081462003 356:0.078561001 370:0.047878001 397:0.078169003 448:0.060929 453:0.072965004 458:0.079605997 459:0.166017 559:0.087419003 570:0.104677 671:0.074995004 677:0.152731 706:0.246911 778:0.067760997 825:0.077551998 933:0.068259001 964:0.105841 965:0.13729 984:0.223611 991:0.078404002 1060:0.27919599 1122:0.32596099 1125:0.20417801 1128:0.149903 1339:0.139054 1422:0.092137001 1440:0.151702 1441:0.17624301 1442:0.18935899 1443:0.15566599 1444:0.340992 1445:0.145078 1446:0.124133 1447:0.128893 1448:0.12804399 1449:0.130665 1450:0.096423 #
0.10000000000000000555111512312578 6:0.037036002 11:0.032545 15:0.039905999 18:0.056786999 35:0.017422 36:0.035066999 45:0.060605001 50:0.055493001 59:0.056092001 70:0.058584999 104:0.101522 112:0.046454001 113:0.096243002 126:0.026976001 158:0.121778 169:0.061037999 184:0.084680997 191:0.19844399 241:0.040995002 250:0.081519999 276:0.038307 312:0.077776 321:0.14127401 328:0.090031996 341:0.074565001 387:0.073935002 453:0.066788003 485:0.107898 493:0.062125001 544:0.074644998 650:0.078873999 661:0.153157 690:0.092382997 706:0.226008 728:0.102944 802:0.123172 935:0.080115996 983:0.13348401 990:0.28743601 993:0.128095 1092:0.115 1122:0.222689 1125:0.186892 1168:0.24208599 1217:0.121268 1398:0.11759 1406:0.149041 1788:0.100149 1932:0.111065 2045:0.161322 2123:0.165511 2124:0.16333599 2125:0.233032 2126:0.233032 2127:0.21419699 2128:0.227203 2129:0.141534 2130:0.189299 #
0.10000000000000000555111512312578 12:0.065145001 19:0.067216001 35:0.015988 36:0.032180998 69:0.076171003 75:0.044172999 89:0.062472999 126:0.024755999 142:0.099122003 150:0.074158996 156:0.094550997 157:0.088413998 169:0.056015 202:0.071707003 213:0.085350998 260:0.094265997 290:0.050494999 300:0.055706002 323:0.079245001 328:0.197163 433:0.058984999 459:0.139457 494:0.075096004 559:0.073432997 582:0.129042 592:0.060695 623:0.072641999 652:0.114385 782:0.081610002 811:0.066125996 889:0.093255997 928:0.075773999 954:0.103666 984:0.34163201 990:0.26378301 992:0.111757 993:0.056015 995:0.088743001 1007:0.090451002 1020:0.26972899 1060:0.206256 1083:0.121868 1133:0.073077999 1312:0.093455002 1317:0.078358002 1396:0.107211 1427:0.138813 1446:0.176551 1666:0.103666 1760:0.105215 1788:0.091908 1933:0.106528 2033:0.131669 2080:0.100037 2198:0.14178 2424:0.22970501 2585:0.154061 2715:0.162002 2716:0.169176 2717:0.33282399 #
0.10000000000000000555111512312578 5:0.058088001 11:0.034166001 35:0.014756 36:0.050287999 45:0.107726 59:0.047509 60:0.046967998 65:0.054485999 69:0.041521002 105:0.026237 112:0.023238 114:0.039025001 134:0.060125001 136:0.083976001 142:0.035057999 149:0.064404003 199:0.068958998 205:0.042877998 211:0.079448 221:0.036881 239:0.017705999 240:0.039239001 241:0.034722999 249:0.086843997 338:0.064907998 370:0.037119001 383:0.045294002 413:0.15137599 426:0.063359 470:0.089969002 494:0.069309004 508:0.065274999 523:0.063496001 546:0.076860003 628:0.087191999 631:0.069486 634:0.074423 648:0.082837 654:0.073664002 719:0.065498002 807:0.03977 933:0.12628201 935:0.114892 953:0.086253002 993:0.051697999 1122:0.079040997 1131:0.076981999 1337:0.13834301 1618:0.158839 1620:0.144382 1780:0.13834301 1798:0.097704001 1863:0.090708002 1994:0.086069003 2817:0.16033401 2818:0.51503801 2819:0.334185 2820:0.334185 2821:0.140186 2822:0.156138 2823:0.197375 2824:0.111354 2825:0.144382 2826:0.197375 #
-0.10000000000000000555111512312578 10:0.053541001 11:0.016376 12:0.060479 43:0.051879998 69:0.041765999 74:0.089932002 85:0.056348 86:0.065810002 104:0.041214999 112:0.023375999 142:0.059709001 156:0.050450999 160:0.176313 179:0.067198999 190:0.081781 197:0.053716 199:0.069366001 239:0.01781 246:0.079372004 251:0.093115002 271:0.060899999 272:0.042907 328:0.16097499 338:0.13702101 355:0.11201 454:0.083007999 459:0.076467 482:0.078840002 491:0.069018997 505:0.087899998 510:0.074423 529:0.166923 592:0.056348 623:0.067438997 739:0.078578003 825:0.060479 858:0.050179001 885:0.067438997 910:0.062925003 928:0.070347004 929:0.075649999 983:0.238667 984:0.245774 990:0.173757 991:0.128317 1020:0.095964 1060:0.238093 1122:0.16685501 1125:0.112978 1128:0.116902 1146:0.063663997 1317:0.072746001 1396:0.099532001 1445:0.191563 1469:0.146588 1478:0.099855997 1663:0.29378301 1773:0.11314 1940:0.150399 1965:0.118306 2033:0.122239 2128:0.114327 2906:0.16128001 5839:0.25003099 8942:0.173106 9586:0.198539 9587:0.198539 #
-0.10000000000000000555111512312578 36:0.060492001 41:0.102213 45:0.129584 48:0.119086 63:0.047086 69:0.049945001 76:0.038562 94:0.068600997 99:0.047518 126:0.046535999 151:0.085694999 164:0.055980999 184:0.086277001 219:0.055396002 232:0.058173001 239:0.021299001 249:0.061698999 256:0.060419999 273:0.089259997 300:0.061845001 315:0.064772002 328:0.091728002 336:0.083056003 350:0.046659999 414:0.084233999 434:0.068230003 453:0.115213 484:0.089523003 760:0.064502999 767:0.182312 807:0.047839999 811:0.073413 825:0.15178099 910:0.075249001 914:0.080839999 933:0.107781 984:0.123166 993:0.062187999 1069:0.090329997 1122:0.280094 1125:0.24572399 1129:0.153137 1298:0.102036 1312:0.103754 1337:0.16641399 1398:0.119806 1441:0.164362 1445:0.135299 1468:0.080170996 1518:0.106548 2067:0.133948 2165:0.101216 2184:0.092161998 2817:0.192867 3716:0.154488 4323:0.179855 6363:0.171039 6371:0.41771701 6372:0.207009 6813:0.237424 #
-0.10000000000000000555111512312578 9:0.152739 10:0.067569003 11:0.049318001 35:0.031716 44:0.037783999 48:0.074224003 69:0.052708 76:0.040695 94:0.072394997 104:0.052012999 112:0.076977998 114:0.049539998 126:0.060869999 142:0.044505 150:0.086884998 175:0.12859701 179:0.084804997 194:0.089009002 236:0.041894998 239:0.022476999 240:0.049810998 276:0.041187 293:0.075510003 314:0.112184 336:0.28023499 338:0.17291901 436:0.098196998 445:0.14973301 450:0.082488999 453:0.07181 491:0.087100998 706:0.143521 719:0.14077801 789:0.105562 794:0.099330001 894:0.065994002 896:0.084605001 910:0.079411 958:0.12181 960:0.21928 1037:0.109029 1069:0.095325999 1122:0.30898401 1128:0.30960801 1168:0.20999999 1299:0.10768 1425:0.161607 1433:0.105156 1534:0.21928 1540:0.092320003 1693:0.221964 1897:0.138699 2045:0.173453 2129:0.15217701 2585:0.180499 6267:0.230304 #
-0.10000000000000000555111512312578 9:0.050241001 11:0.043933 13:0.101635 41:0.052064002 43:0.066317998 56:0.072158001 59:0.061089002 88:0.065900996 98:0.059050001 110:0.100782 112:0.029881001 113:0.043924998 121:0.120571 125:0.103602 158:0.13262901 198:0.084705003 201:0.102159 208:0.054319002 221:0.080293998 238:0.084608003 239:0.038548 241:0.075594999 243:0.196318 248:0.060479999 256:0.064585999 258:0.069706 267:0.070601001 271:0.077849001 273:0.161551 290:0.059925001 326:0.097747996 328:0.16601899 330:0.103602 338:0.141314 341:0.081208996 350:0.049876999 352:0.049281001 355:0.242431 459:0.097747996 484:0.095696002 493:0.067659996 570:0.104352 616:0.096557997 650:0.085901 656:0.08309 910:0.080438003 921:0.128067 965:0.13686299 980:0.15123101 998:0.152171 1060:0.27833 1122:0.28374001 1125:0.085297003 1199:0.134147 1342:0.162752 1396:0.127233 1422:0.091851003 1445:0.144628 1693:0.107134 1819:0.246145 1821:0.225402 2538:0.16100401 4877:0.173654 12088:0.233282 #
-0.10000000000000000555111512312578 11:0.020268001 45:0.108198 48:0.072789997 49:0.065987997 63:0.048730001 71:0.102732 74:0.111301 75:0.050753001 98:0.05717 105:0.032662001 112:0.028929999 114:0.082257003 121:0.055622999 156:0.036876999 184:0.08929 232:0.035557002 236:0.098041996 237:0.11524 239:0.022042001 243:0.07965 251:0.11524 257:0.080087997 272:0.053102002 284:0.098398998 336:0.085956 338:0.080805004 350:0.048289001 393:0.060855001 397:0.075444996 444:0.085956 445:0.086726002 454:0.102732 492:0.08929 627:0.091440998 706:0.238308 784:0.143849 807:0.083828002 811:0.075976998 812:0.096612997 813:0.099422 825:0.07485 906:0.127995 914:0.083663002 933:0.065880001 951:0.095531002 958:0.119456 983:0.14074799 1007:0.103926 1122:0.27470601 1125:0.13982201 1128:0.144679 1131:0.095835999 1154:0.118765 1234:0.095835999 1330:0.30432999 1338:0.094930999 1339:0.227235 1340:0.092106 1341:0.11776 1342:0.093064003 1469:0.107148 1798:0.121633 1940:0.18613499 2006:0.11524 2129:0.14923701 3491:0.122012 4539:0.321632 7974:0.22585399 #
0.10000000000000000555111512312578 44:0.032772999 55:0.080530003 94:0.062793002 107:0.080760002 110:0.181109 120:0.18692 122:0.12758701 136:0.092463002 137:0.044278 147:0.084762998 148:0.100625 208:0.097613998 221:0.040608 239:0.019494999 243:0.070446998 249:0.095620997 276:0.060486998 280:0.096864 290:0.051314 390:0.074262999 411:0.096646003 446:0.145528 470:0.058508001 533:0.089033 572:0.1415 627:0.080876 682:0.189518 686:0.095794 759:0.126504 764:0.086443998 812:0.085450001 823:0.124486 921:0.109663 933:0.058267999 993:0.096380003 996:0.226551 1007:0.219344 1363:0.13678899 1703:0.187556 1946:0.119758 2068:0.271768 2116:0.1487 2304:0.092832997 2519:0.164629 2520:0.119224 3227:0.12722801 5883:0.33922899 5886:0.15655901 6320:0.16801301 7155:0.15655901 8810:0.171919 13410:0.19975901 14446:0.217324 #
0.10000000000000000555111512312578 7:0.082061 11:0.038486 23:0.032230001 26:0.060215998 28:0.094507001 35:0.014618 38:0.080031998 41:0.067913003 89:0.057119001 99:0.039133001 110:0.077643998 122:0.065975003 126:0.022634 142:0.034729999 199:0.068313003 213:0.132126 221:0.076673001 226:0.046794999 233:0.079958998 240:0.081574999 241:0.034396999 249:0.050811 250:0.17848399 258:0.053702001 265:0.096789002 271:0.059976 276:0.076699004 299:0.17528 315:0.053342 324:0.062036 436:0.076629996 458:0.061138999 470:0.089125998 472:0.1132 559:0.067139 607:0.108236 621:0.086759001 633:0.076018997 649:0.083189003 682:0.061076 783:0.057705 838:0.075778998 933:0.052423999 956:0.078433998 974:0.076879002 996:0.20382801 1114:0.105884 1268:0.107196 1579:0.092681997 1972:0.106335 2068:0.19726899 2143:0.10925 2516:0.10925 2646:0.118755 2659:0.100707 3418:0.17972299 3715:0.11086 4381:0.151161 6062:0.34526399 6971:0.170479 6972:0.17972299 6975:0.28864601 6977:0.170479 14366:0.331054 14367:0.195526 14368:0.195526 #
0.10000000000000000555111512312578 16:0.074281998 19:0.071075 38:0.14265101 50:0.053849999 55:0.141876 59:0.054430999 65:0.062424999 75:0.079085 105:0.071731001 110:0.089798003 113:0.039138 239:0.020285999 241:0.083485998 245:0.249228 262:0.119526 265:0.11194 276:0.037172999 291:0.15917701 299:0.096596003 397:0.069433004 419:0.049254 437:0.153025 442:0.088768996 470:0.103078 570:0.092978001 705:0.081729002 709:0.120951 713:0.093663 895:0.091023996 922:0.14714099 933:0.060630001 1138:0.120951 1152:0.170653 1259:0.174823 1342:0.085647002 1514:0.12886401 1616:0.137344 1682:0.123513 2448:0.143456 2535:0.108376 2890:0.141258 3745:0.302883 4231:0.29003999 5535:0.207856 6029:0.1585 7575:0.226133 7576:0.207856 7577:0.226133 7578:0.226133 7579:0.197165 #
0.10000000000000000555111512312578 6:0.042300001 10:0.042392001 11:0.037170999 23:0.043871999 35:0.019897999 36:0.040050998 41:0.054598998 44:0.067956999 50:0.063380003 82:0.12685101 88:0.069110997 89:0.077751003 91:0.112696 95:0.079369001 98:0.12996 102:0.114854 110:0.275792 124:0.075471997 137:0.054226998 138:0.072916001 169:0.069714002 170:0.091059998 205:0.05782 207:0.117576 239:0.023876 240:0.12626401 241:0.046822 256:0.067731 258:0.073100001 260:0.117319 266:0.139088 287:0.11149 315:0.072610997 420:0.095936 440:0.205879 448:0.063698001 453:0.076281004 483:0.094428003 491:0.220791 532:0.109236 544:0.085254997 592:0.075538002 621:0.118098 649:0.113239 668:0.124825 669:0.129017 679:0.112134 699:0.087330997 721:0.100957 1013:0.088932998 1116:0.133864 1125:0.089451 1133:0.090949997 1268:0.086181 1276:0.132163 1665:0.128278 1713:0.305244 1821:0.36430299 2184:0.103315 2282:0.139088 2432:0.150157 2659:0.13708501 2766:0.189037 10709:0.23206 #
0.10000000000000000555111512312578 7:0.223874 10:0.035604 15:0.038279999 41:0.109427 50:0.053231999 71:0.093460001 104:0.078570001 105:0.050310999 110:0.247815 113:0.038688 121:0.050602999 126:0.054306 131:0.059448998 142:0.067226999 205:0.048562001 239:0.020052999 254:0.123742 271:0.068567999 272:0.081795 328:0.086363003 350:0.043931 370:0.042038999 415:0.078897998 465:0.076851003 533:0.155056 552:0.078796998 579:0.081791997 592:0.151393 600:0.105393 643:0.194901 645:0.158767 654:0.141257 665:0.079306997 721:0.084790997 764:0.088914998 833:0.099633001 888:0.094731003 928:0.079204001 929:0.085175 974:0.14881501 1014:0.095296003 1101:0.32859001 1108:0.080899999 1127:0.078796998 1133:0.076385997 1146:0.071680002 1206:0.12738501 1209:0.083307996 1399:0.111 2438:0.119084 2508:0.116816 2831:0.15126801 3386:0.194901 5149:0.17281599 5509:0.152951 6140:0.141809 9273:0.409022 9274:0.223537 #
-0.10000000000000000555111512312578 11:0.039340001 14:0.264375 35:0.035656001 41:0.097838998 69:0.10033 110:0.320667 206:0.135003 276:0.078400999 299:0.20373 530:0.137556 1515:0.17402799 1520:0.20332199 2068:0.284197 2519:0.361292 3715:0.45785099 11222:0.47693601 #
-0.10000000000000000555111512312578 1:0.060945999 11:0.017666001 25:0.115496 60:0.050965 65:0.059122998 88:0.094159998 110:0.202948 120:0.18420801 126:0.041978002 138:0.058674 159:0.15666801 190:0.088220999 207:0.094612002 221:0.040019002 225:0.086061001 236:0.035811 240:0.101603 241:0.037677001 244:0.041611999 248:0.051038001 258:0.058823001 264:0.122048 312:0.071480997 317:0.087742001 353:0.072403997 397:0.065760002 401:0.078803003 420:0.13070799 451:0.12083 470:0.097625002 475:0.088872999 492:0.077827998 550:0.086963996 596:0.067455001 627:0.134949 705:0.247485 738:0.060410999 895:0.086208999 945:0.085332997 951:0.140985 964:0.089038998 1000:0.130955 1004:0.101929 1056:0.118021 1125:0.171766 1150:0.09967 1173:0.14063901 1259:0.165576 1269:0.103519 1326:0.110704 1517:0.106019 1722:0.131864 1736:0.139018 1932:0.172829 2068:0.21608 3124:0.150116 3533:0.186735 4096:0.159299 4335:0.129232 6047:0.165576 13532:0.21417101 13533:0.36262301 #
-0.10000000000000000555111512312578 6:0.034784999 10:0.059023999 11:0.047109 35:0.027705001 63:0.043405998 65:0.060419001 95:0.065268002 105:0.049260002 109:0.092534997 110:0.086912997 121:0.049546 122:0.043618001 126:0.025336999 170:0.074882001 198:0.073048003 240:0.103831 249:0.119363 258:0.060113002 270:0.096901 271:0.067135997 280:0.16517 293:0.065961003 327:0.050294999 374:0.10801 393:0.091779001 458:0.068438001 491:0.076086 597:0.062394001 730:0.079972997 885:0.074344002 920:0.108682 933:0.123152 934:0.235089 935:0.075245999 992:0.193657 996:0.28279901 1171:0.088404998 1342:0.082896002 1363:0.137761 1399:0.108682 1433:0.15552799 1515:0.079861999 1522:0.151517 1740:0.102919 1941:0.121158 2171:0.108344 2403:0.116597 2430:0.102649 2437:0.123479 2952:0.16010401 3479:0.173141 3534:0.27563301 3603:0.148109 3715:0.29612601 4117:0.155451 4167:0.12887201 6099:0.173141 9907:0.218868 9908:0.19083101 9909:0.218868 #
-0.051516398850704067657879647867958 19:0.081110001 35:0.019293001 44:0.038915999 50:0.128966 76:0.041914001 107:0.095899001 110:0.24453899 112:0.030383 114:0.086391002 115:0.057484001 122:0.087076001 126:0.077954002 142:0.096196003 169:0.067593999 204:0.089711003 206:0.17431299 233:0.105533 267:0.071788996 272:0.055771001 276:0.042420998 351:0.064055003 352:0.050110001 397:0.079236999 419:0.056208 434:0.074161001 453:0.073962003 465:0.088721 485:0.119487 559:0.088611998 671:0.076018997 713:0.106888 778:0.068686001 780:0.066852003 807:0.051998001 855:0.257321 874:0.073962003 889:0.112533 991:0.079474002 993:0.141853 1133:0.088183999 1311:0.156736 1338:0.099702001 1348:0.082574002 1613:0.132916 1768:0.233703 2089:0.141573 2323:0.14034501 2403:0.137477 2718:0.157792 2731:0.48101801 3539:0.17657299 5133:0.199507 5407:0.18590599 10246:0.25806099 #
-0.024150110212144391269584176029639 35:0.045763999 49:0.164391 68:0.28414401 98:0.142424 109:0.398857 198:0.204301 327:0.140664 341:0.195868 465:0.210447 633:0.23799001 654:0.228459 682:0.45628101 770:0.238369 869:0.282013 993:0.33647901 #
0.10000000000000000555111512312578 11:0.033078998 43:0.061891999 45:0.129274 52:0.096860997 83:0.061503001 87:0.033723 112:0.027887 113:0.086029001 115:0.052760001 126:0.046424001 138:0.064888999 156:0.035548002 217:0.057675999 232:0.071930997 239:0.021248 243:0.161127 250:0.082856998 273:0.089046001 276:0.038934998 282:0.064998001 323:0.087766998 336:0.14028899 338:0.16346399 387:0.075148001 405:0.080263004 454:0.099027999 459:0.091224 760:0.064347997 858:0.059863001 906:0.152927 954:0.114814 961:0.227377 983:0.37876901 991:0.072943002 1004:0.066577002 1069:0.090112999 1122:0.22634301 1125:0.189959 1129:0.152771 1130:0.236258 1131:0.092381001 1216:0.206513 1317:0.086785004 1337:0.166016 1429:0.119127 1441:0.163969 1445:0.134975 1478:0.2017 1663:0.146872 1681:0.097742997 1736:0.153742 1760:0.11653 1935:0.134975 2585:0.17062899 2817:0.192405 3491:0.117614 6363:0.17062899 #
0.10000000000000000555111512312578 10:0.040321 11:0.043821 35:0.032044001 43:0.066150002 45:0.20274299 63:0.085004002 91:0.063308001 95:0.075492002 97:0.155333 99:0.050666001 105:0.033651002 113:0.043814 126:0.049617998 174:0.177205 184:0.091992997 191:0.127323 232:0.036633998 236:0.071670003 238:0.084393002 239:0.022709999 243:0.082060002 271:0.077651002 276:0.041614 310:0.188114 317:0.103711 336:0.185848 338:0.083250999 350:0.104408 351:0.062836997 560:0.080917001 783:0.126498 850:0.14577501 906:0.077884004 983:0.304317 993:0.066307999 1004:0.071157001 1032:0.116056 1118:0.151785 1122:0.283021 1125:0.20302799 1203:0.128598 1305:0.100864 1312:0.187307 1339:0.138271 1342:0.201216 1355:0.14737099 1427:0.097050004 1445:0.144261 1542:0.115494 2875:0.313541 3031:0.195711 3579:0.205643 4539:0.195711 #
0.10000000000000000555111512312578 5:0.065952003 11:0.018485 15:0.038375001 44:0.033794001 45:0.058281001 50:0.053365 52:0.091642998 105:0.029789001 111:0.099881999 113:0.065669 115:0.049918 126:0.054442 134:0.068264998 184:0.081433997 216:0.062020998 229:0.078993998 232:0.032428999 236:0.078636996 239:0.020103 243:0.072641999 251:0.105101 290:0.052912999 303:0.110253 336:0.20456401 338:0.124778 350:0.044041 433:0.061810002 454:0.093694001 492:0.081433997 544:0.071782999 559:0.076949999 563:0.14216401 570:0.092141002 676:0.062826 706:0.26938999 807:0.045154002 825:0.143261 855:0.12286 914:0.076301999 933:0.060084 983:0.26938999 986:0.097722001 993:0.058697 1122:0.25053799 1125:0.12752099 1219:0.095344998 1422:0.081102997 1441:0.155136 1445:0.12770399 1447:0.113457 1489:0.127059 1540:0.13980401 1681:0.092478 1924:0.21302199 2039:0.109267 2455:0.163929 2456:0.15707301 6363:0.161438 7456:0.195389 7457:0.18787199 7458:0.205984 7459:0.224097 7460:0.195389 7461:0.195389 #
0.10000000000000000555111512312578 10:0.039806001 15:0.042798001 35:0.018684 41:0.086805999 45:0.155103 49:0.067117997 63:0.049564 68:0.116011 112:0.029425001 126:0.060715999 142:0.075162001 143:0.13982999 156:0.078716002 191:0.125699 195:0.110163 213:0.209325 221:0.046698999 232:0.036166001 243:0.193321 257:0.081459999 272:0.054010998 290:0.059011001 313:0.066251002 338:0.139157 370:0.047001 433:0.068933003 631:0.184646 699:0.082004003 706:0.143158 807:0.050358001 825:0.19866 855:0.080925003 958:0.121501 967:0.102204 993:0.065461002 995:0.175593 1026:0.082096003 1122:0.319989 1125:0.234494 1154:0.120799 1168:0.123715 1240:0.121859 1312:0.109215 1663:0.154974 1736:0.095811002 1753:0.15387399 1757:0.138347 2171:0.123715 2354:0.150804 2850:0.175173 6371:0.35475099 6590:0.30054399 #
0.10000000000000000555111512312578 1:0.072534002 2:0.091999002 11:0.050170999 35:0.019056 44:0.065081 45:0.17298099 50:0.060697999 60:0.060655002 85:0.072342001 86:0.084489003 87:0.036291 91:0.063743003 95:0.076011002 113:0.044114999 124:0.072278 169:0.066763997 184:0.156828 217:0.062068999 239:0.022865999 243:0.13989601 248:0.060741 256:0.064865001 276:0.041900001 323:0.094451003 336:0.089166999 350:0.050092999 370:0.047936 393:0.063128002 430:0.105969 492:0.092625 498:0.094182998 508:0.084297001 550:0.175238 555:0.109994 561:0.095407002 671:0.12713 813:0.103136 906:0.078419998 933:0.068341002 983:0.146006 1026:0.083728999 1122:0.28496701 1125:0.20442399 1209:0.094994001 1211:0.109321 1217:0.132644 1353:0.089392997 1445:0.37902901 1461:0.120177 1468:0.086069003 2056:0.141752 2875:0.18645599 3029:0.207057 3030:0.155854 3579:0.207057 6372:0.22224 9476:0.234291 14288:0.25489199 #
-0.10000000000000000555111512312578 11:0.042500999 35:0.018355999 44:0.077701002 45:0.063854001 49:0.065936998 76:0.039878 81:0.132451 99:0.049139 104:0.14229199 112:0.028906999 126:0.028422 130:0.128306 142:0.073839001 157:0.101506 169:0.108885 181:0.189614 204:0.085352004 213:0.097989 219:0.120219 243:0.134753 246:0.098154999 249:0.063803002 272:0.089840002 282:0.114079 317:0.100586 338:0.080742002 419:0.053477 436:0.096224003 448:0.058759999 459:0.094562002 483:0.207864 508:0.081197999 582:0.14815 592:0.069682002 668:0.068007998 851:0.193955 906:0.15852299 919:0.13654201 929:0.093552001 935:0.084408998 945:0.097824 983:0.36698699 988:0.14293 993:0.064309001 1020:0.118673 1026:0.080651 1103:0.123486 1108:0.088857003 1125:0.082516998 1216:0.21407001 1412:0.224177 1497:0.122301 1501:0.100405 1571:0.11426 2056:0.231185 2516:0.13718501 2822:0.194226 2875:0.30409199 #
-0.10000000000000000555111512312578 11:0.044059999 16:0.073531002 23:0.036897998 44:0.057154 45:0.058216002 49:0.060116 51:0.073531002 57:0.15444 112:0.026355 126:0.025913 138:0.061324999 164:0.089364 217:0.054508999 222:0.076863997 236:0.063372999 239:0.020081 243:0.122857 257:0.072961003 279:0.116547 290:0.052854002 328:0.086483002 338:0.124639 399:0.102874 441:0.106687 470:0.102035 474:0.067657001 485:0.175486 561:0.083787002 570:0.21963 583:0.084528998 675:0.15147801 713:0.092716001 892:0.11186 906:0.068867996 914:0.076217003 933:0.060017001 983:0.21709999 991:0.068937004 993:0.099271998 1122:0.25025901 1125:0.157883 1131:0.087306999 1196:0.099546999 1217:0.164176 1348:0.121274 1588:0.137821 1623:0.091871001 1897:0.123914 2609:0.137821 2824:0.213824 2929:0.133386 3029:0.18183801 3034:0.238556 3818:0.18183801 4121:0.136871 6074:0.16957 6406:0.205755 8160:0.205755 9473:0.195171 9474:0.223847 #
-0.10000000000000000555111512312578 11:0.02658 16:0.062518001 19:0.059819002 36:0.02864 41:0.039043002 62:0.051279999 69:0.040036999 89:0.055597998 91:0.047596 112:0.022407999 113:0.03294 114:0.063712999 126:0.037303999 137:0.038777001 169:0.049851 174:0.078685001 181:0.056327 184:0.117099 195:0.083892003 243:0.061694 244:0.036977999 257:0.191029 271:0.058378998 312:0.063520998 315:0.051922001 338:0.192737 392:0.054841999 552:0.067088999 570:0.078253999 592:0.054016002 775:0.149582 783:0.056169 890:0.122756 933:0.107089 991:0.058612999 1122:0.198882 1125:0.166912 1131:0.12568399 1260:0.105355 1398:0.201546 1441:0.13175499 1445:0.108457 1472:0.128791 1686:0.093923002 1689:0.126177 2056:0.179208 2875:0.139222 3818:0.26176801 4207:0.13175499 4246:0.165941 4599:0.367129 5112:0.15055799 6738:0.154604 7875:0.17493901 9790:0.26176801 10323:0.154604 10507:0.190321 10508:0.190321 10509:0.17493901 #
-0.10000000000000000555111512312578 19:0.070619002 35:0.016798001 56:0.10816 59:0.054081999 87:0.031989999 104:0.046643 105:0.029867001 115:0.050048999 121:0.050863001 126:0.026009999 156:0.087991998 158:0.19880199 198:0.126968 239:0.020156 241:0.039526999 243:0.190052 251:0.105376 338:0.073889002 350:0.044156 385:0.100984 393:0.055645999 433:0.061972 441:0.107086 444:0.078598998 544:0.071970999 559:0.077151 671:0.066186003 775:0.104296 799:0.145395 817:0.090597004 874:0.064395003 920:0.188904 928:0.079611003 983:0.128702 991:0.069195002 1060:0.216699 1122:0.251194 1125:0.075512998 1126:0.110521 1130:0.106793 1338:0.086805999 1342:0.085097998 1422:0.137679 1478:0.347994 1542:0.24461 1578:0.119695 1717:0.113006 2321:0.122192 2751:0.123262 3651:0.170204 4390:0.161861 6057:0.475169 #
-0.077064274306608684939057241081173 5:0.058045 45:0.086847998 104:0.069323003 126:0.047915 127:0.068907999 146:0.060557999 156:0.077239998 157:0.21277399 191:0.25884801 205:0.042846002 219:0.046016999 251:0.092500001 267:0.054866001 273:0.074147999 336:0.068994999 350:0.092494003 353:0.066675998 364:0.108684 429:0.076559 448:0.079920001 544:0.186112 654:0.124632 689:0.1223 723:0.073261 771:0.070805997 783:0.098554 791:0.14979701 811:0.060984001 825:0.101724 1004:0.055438001 1060:0.090640001 1125:0.066285998 1225:0.072671004 1289:0.166343 1341:0.094522998 1589:0.095884003 1650:0.072671004 1747:0.113572 1760:0.097034 2039:0.096166 2123:0.36553401 2128:0.192295 2658:0.16687299 3493:0.32148701 3616:0.16021501 4292:0.29397601 5532:0.34699899 5533:0.181288 #
0.10000000000000000555111512312578 1:0.065016001 10:0.061613999 11:0.055516999 35:0.017081 41:0.046868999 44:0.058334999 59:0.054993998 63:0.045311 85:0.10979 86:0.075732 87:0.032529 91:0.057137001 97:0.082799003 112:0.026900001 124:0.064786002 134:0.069597997 151:0.082464002 170:0.078167997 184:0.083025001 198:0.224638 240:0.118523 241:0.040192999 248:0.054446001 249:0.059372999 256:0.058141999 284:0.15491401 299:0.097595997 315:0.062330998 348:0.22727901 370:0.042966999 404:0.073342003 436:0.089542001 442:0.089688003 579:0.083598003 623:0.077606998 668:0.063285999 676:0.134423 677:0.080954 699:0.074966997 780:0.059186999 789:0.16298001 907:0.110432 909:0.122203 996:0.29521 1013:0.076342002 1209:0.085147999 1353:0.080127001 1471:0.141675 2385:0.116857 2403:0.20608 2414:0.125341 3715:0.36164501 4161:0.54520398 #
0.10000000000000000555111512312578 1:0.063325003 11:0.038520001 15:0.038107 35:0.016636999 41:0.045650002 58:0.077071004 59:0.053564001 68:0.103296 104:0.078215003 105:0.029580001 110:0.149617 112:0.0262 113:0.038513999 115:0.049569 122:0.044346999 142:0.066923998 152:0.140065 169:0.058286998 181:0.065860003 184:0.080865003 236:0.037209 239:0.019962 240:0.074904002 241:0.039147999 243:0.072134003 246:0.088963002 248:0.053029001 249:0.097911999 273:0.17557 276:0.061935998 327:0.051135998 330:0.090838999 338:0.123905 350:0.043733001 395:0.085573003 450:0.073261999 453:0.063777998 482:0.210868 485:0.103035 767:0.081423 919:0.123754 980:0.13260099 993:0.098687999 1038:0.133424 1060:0.102268 1108:0.080535002 1129:0.243018 1130:0.105769 1171:0.089883998 1296:0.081086002 1422:0.080535002 1448:0.111922 1515:0.081197999 1539:0.113042 1542:0.101523 1578:0.118547 1662:0.106059 2414:0.12208 3065:0.23363499 3230:0.26408699 3742:0.15405101 4293:0.115861 5839:0.431903 6223:0.194022 8581:0.18655699 11701:0.22252899 #
0.10000000000000000555111512312578 11:0.020731 24:0.098186001 31:0.057835001 35:0.018789999 36:0.037820999 37:0.056061 43:0.065676004 45:0.065366 75:0.051913999 76:0.040821999 83:0.065263003 91:0.062853999 105:0.033410002 110:0.16898499 114:0.049694002 115:0.055985998 119:0.075525999 122:0.050088 126:0.029095 142:0.044643 150:0.087155998 164:0.059261002 180:0.078589998 181:0.074385002 202:0.084274001 219:0.058641002 221:0.046964001 233:0.102782 239:0.022546999 240:0.084600002 243:0.081472002 244:0.048833001 249:0.137069 256:0.063960001 258:0.144868 276:0.041315999 300:0.065468997 351:0.062385999 385:0.053828001 420:0.090594001 491:0.147935 493:0.140616 507:0.267851 622:0.114665 690:0.099639997 743:0.10014 764:0.099973001 784:0.14714 789:0.105891 807:0.050643001 833:0.112023 838:0.097407997 894:0.066200003 996:0.154745 998:0.25515199 1000:0.15368 1125:0.084471002 1133:0.085886002 1604:0.106512 1713:0.120793 1731:0.100479 1819:0.40192601 1821:0.131836 1994:0.1096 3091:0.17197201 3450:0.15585101 4295:0.183854 13411:0.25133601 13412:0.25133601 #
0.10000000000000000555111512312578 9:0.045398999 10:0.036527 11:0.032028999 15:0.039271999 18:0.055886 23:0.064005002 35:0.017145 44:0.072577998 49:0.061588999 59:0.055202 74:0.103881 87:0.032652002 110:0.217317 112:0.027000999 113:0.039692 131:0.060991 138:0.14992701 142:0.097205997 150:0.079526 155:0.066688001 194:0.137941 198:0.160631 216:0.063469999 239:0.020572999 247:0.072081 248:0.054651 256:0.058361001 273:0.145981 276:0.063830003 287:0.096065998 290:0.05415 300:0.101144 318:0.120753 370:0.043129001 420:0.082663998 585:0.092472002 767:0.083912998 780:0.10059 804:0.087251998 807:0.046209998 858:0.057962 874:0.065728001 928:0.081258997 929:0.087384 993:0.143343 1121:0.109003 1125:0.20112599 1345:0.14325701 1422:0.082998998 1529:0.121691 1818:0.14792 1882:0.17729799 1899:0.14119899 2038:0.118541 2485:0.255382 2786:0.152042 3377:0.136656 3491:0.113879 3545:0.142208 3580:0.14434899 3772:0.19226301 5839:0.170577 5840:0.210798 5841:0.38829601 5842:0.229334 #
0.10000000000000000555111512312578 11:0.018433001 12:0.068076 23:0.062369999 35:0.028287999 36:0.033629 44:0.0337 49:0.060015999 69:0.047010999 74:0.101228 81:0.120558 89:0.065283 110:0.247747 113:0.038678002 114:0.044185001 115:0.04978 120:0.113523 122:0.044535998 142:0.039694998 143:0.088716 156:0.093634002 179:0.075639002 239:0.020047 285:0.099160001 301:0.405209 370:0.042027999 414:0.079286002 420:0.080551997 433:0.061639 436:0.087583996 450:0.073573999 523:0.071892001 597:0.063707002 737:0.090267003 855:0.072361998 874:0.064048998 889:0.097451001 914:0.076090999 921:0.269097 929:0.085152 993:0.058534998 1033:0.088012002 1069:0.085023001 1125:0.157621 1140:0.13548 1477:0.093612 1650:0.082341999 1721:0.113143 1825:0.22027101 2066:0.160991 2184:0.086747997 2664:0.160991 2763:0.16621999 2913:0.151227 3532:0.32990599 3534:0.16621999 3580:0.140662 6087:0.151227 13265:0.205414 13519:0.22347599 #
-0.019419915005374474570309928367351 6:0.053188998 11:0.034216002 15:0.071034998 28:0.200499 38:0.047784001 52:0.080831997 59:0.113534 104:0.069475003 105:0.044487 112:0.039402999 113:0.03421 131:0.16187701 156:0.050227001 210:0.065592997 219:0.046117999 241:0.082978003 248:0.047102999 321:0.070773996 336:0.165002 354:0.047819 405:0.066981003 417:0.120051 433:0.054517999 458:0.061806001 459:0.076127999 483:0.070127003 538:0.093948998 559:0.067872003 595:0.078887001 738:0.133046 767:0.072323002 855:0.064002998 907:0.095539004 980:0.117782 1012:0.061303999 1060:0.090838999 1217:0.060750999 1268:0.064002998 1397:0.073877998 1427:0.075776003 1477:0.082797997 1743:0.147019 1961:0.160392 3113:0.25876299 4423:0.24109399 4800:0.29074901 5179:0.160566 10096:0.181685 10196:0.47409499 10197:0.19766 10198:0.19766 10199:0.19766 10200:0.19766 #
-0.050312513530900833391701354457837 6:0.04995 11:0.061861999 35:0.023497 37:0.118693 38:0.075978003 60:0.074789003 63:0.062329002 83:0.081609003 87:0.075763002 94:0.090810001 99:0.062900998 105:0.041777998 112:0.037002999 113:0.054395001 115:0.118535 121:0.071145996 124:0.089120001 137:0.064034 142:0.094518997 149:0.102552 184:0.114208 194:0.111649 250:0.109944 276:0.134813 419:0.068455003 458:0.098274 493:0.083787002 494:0.110363 552:0.110786 592:0.089198999 634:0.118505 648:0.13190299 665:0.111504 671:0.092580996 764:0.125012 771:0.112831 899:0.15324201 933:0.084265999 977:0.112532 1004:0.088342004 1013:0.105016 1016:0.42311701 1093:0.116792 1125:0.105628 1223:0.25022599 1351:0.170196 1539:0.27031699 2025:0.38334599 2069:0.150205 3397:0.173978 3522:0.248623 #
-0.10000000000000000555111512312578 23:0.044135001 31:0.061613999 36:0.040291999 63:0.089907996 76:0.043489002 84:0.117009 87:0.038121998 89:0.078217998 103:0.24003001 104:0.055583999 110:0.22313599 112:0.031525001 122:0.090346999 126:0.030996 131:0.071208 138:0.153942 156:0.068039 165:0.131733 186:0.192883 197:0.072442003 205:0.058168001 219:0.062472001 232:0.038747001 236:0.075804003 239:0.024019999 240:0.053229999 276:0.105032 297:0.21012101 313:0.070978999 351:0.066462003 371:0.118544 397:0.082212999 419:0.058320001 443:0.06696 447:0.27005899 459:0.174606 523:0.086136997 560:0.085584 579:0.097971 592:0.075993001 705:0.096772999 760:0.123165 817:0.107964 833:0.119342 1069:0.21378499 1125:0.23482101 1334:0.120717 1408:0.164855 2083:0.25211999 2767:0.155873 3039:0.202832 3234:0.27014199 3580:0.168532 3583:0.157657 4668:0.233455 #
-0.010900902222239994276975494358339 35:0.034871999 126:0.053996999 142:0.082851 150:0.16174901 160:0.29390499 198:0.155678 818:0.300924 2293:0.326938 2444:0.283299 6769:0.36899099 6912:0.66209501 #
-0.022111599191850631745959177010263 1:0.067335002 10:0.037687998 12:0.072080001 15:0.040520001 18:0.057661999 35:0.017689999 45:0.12914599 51:0.077726997 65:0.110597 76:0.038431998 105:0.031454001 112:0.027859 123:0.065599002 126:0.027392 143:0.055479001 145:0.0583 154:0.16655999 156:0.035512 184:0.22437499 221:0.044213999 239:0.021227 241:0.041627001 273:0.088958003 276:0.065857999 336:0.173713 338:0.203052 364:0.384123 370:0.075345002 387:0.075074002 392:0.068184003 414:0.083949998 427:0.092886001 532:0.097115003 544:0.075795002 569:0.141874 576:0.13932601 583:0.089353003 597:0.067455001 671:0.14628001 699:0.077641003 723:0.051911999 764:0.094120003 810:0.109837 835:0.103625 910:0.074995004 929:0.090161003 1004:0.13958099 1118:0.24021401 1127:0.083410002 1146:0.075875998 1209:0.088184997 1321:0.22499 1326:0.122308 1932:0.112775 2060:0.123654 2278:0.17309099 2551:0.110401 4168:0.15396599 5335:0.175998 6068:0.39577201 #
0.10000000000000000555111512312578 5:0.07141 10:0.038647 12:0.073913999 16:0.079705 18:0.059129 38:0.058658 63:0.081474997 69:0.086424001 70:0.061000999 88:0.063005 99:0.048563 104:0.050370999 105:0.032253999 135:0.139723 156:0.036416002 181:0.071811996 186:0.103235 194:0.086197004 195:0.106954 199:0.084774002 214:0.061606001 219:0.118809 231:0.122048 232:0.035112999 243:0.078653999 251:0.113799 311:0.087577999 370:0.095764004 393:0.060093999 441:0.115645 444:0.084881 448:0.098321997 452:0.056065999 560:0.077556998 585:0.097837999 741:0.087815002 780:0.062857002 782:0.15677699 802:0.128252 818:0.220624 852:0.102626 874:0.069541998 892:0.121252 926:0.106954 933:0.065057002 1122:0.20391899 1126:0.070492998 1296:0.088414997 1338:0.093744002 1412:0.130849 1583:0.102426 1779:0.115964 1933:0.120867 2297:0.140478 2444:0.14737099 2927:0.14737099 3177:0.166023 3368:0.36166701 3483:0.18758599 3742:0.352514 4228:0.14836399 4323:0.183808 4324:0.242642 #
0.10000000000000000555111512312578 76:0.053245999 125:0.226587 127:0.114538 214:0.083236001 243:0.106269 272:0.070849001 274:0.189799 276:0.053890001 414:0.11631 433:0.153098 448:0.078459002 597:0.093456 785:0.12665799 787:0.110568 811:0.101368 818:0.2115 983:0.31795099 1012:0.101676 1122:0.131284 1127:0.19566301 1171:0.13241801 1370:0.131961 1469:0.142958 1478:0.279174 1760:0.27308801 3226:0.204786 3421:0.19656301 7214:0.28583601 7215:0.32783201 7216:0.30133599 #
0.10000000000000000555111512312578 35:0.020271 36:0.085625999 83:0.070405997 126:0.053144 128:0.136126 142:0.101072 156:0.097106002 169:0.07102 184:0.098530002 211:0.109141 248:0.064613998 254:0.150095 276:0.044571001 336:0.199056 338:0.15097301 371:0.120044 431:0.330933 889:0.118237 958:0.131818 984:0.14065699 1122:0.227871 1126:0.078772999 1130:0.21820401 1131:0.179057 1140:0.164377 1396:0.13593 1478:0.41995001 1760:0.13339899 1924:0.152227 2716:0.36316901 6057:0.34776899 #
0.10000000000000000555111512312578 31:0.086428002 45:0.057691999 60:0.052788001 99:0.075171001 113:0.038392998 114:0.092046 128:0.065776996 169:0.058104001 204:0.077115998 207:0.097995996 212:0.067976996 217:0.054017998 238:0.125212 243:0.071907997 248:0.052863002 254:0.257705 267:0.06171 274:0.128429 276:0.036465 292:0.059721 392:0.063922003 444:0.077601001 583:0.083768003 719:0.073614001 737:0.089602001 741:0.080283001 784:0.129867 818:0.143114 964:0.092224002 974:0.087222002 1032:0.101697 1103:0.111571 1122:0.284024 1125:0.177909 1126:0.16817001 1154:0.107222 1211:0.095141999 1217:0.068180002 1330:0.16227099 1344:0.110852 1353:0.077798001 1367:0.126413 1374:0.088088997 1471:0.137556 1513:0.122798 1561:0.090553999 1578:0.118176 1737:0.214036 2040:0.14308 2148:0.115077 2430:0.104039 2658:0.18768901 2845:0.153568 4230:0.140727 4926:0.171497 4927:0.22183099 4928:0.18020099 4929:0.37559199 #
0.10000000000000000555111512312578 10:0.034146 45:0.055755999 69:0.045099001 88:0.055668999 104:0.044505 105:0.028498 113:0.037105002 126:0.064760998 156:0.054478001 181:0.063450001 191:0.182566 202:0.071884997 219:0.084692001 232:0.031024 239:0.019231999 251:0.100547 272:0.046332002 273:0.136466 292:0.057716999 314:0.095988996 327:0.049265001 385:0.045914002 414:0.076061003 617:0.079898 690:0.084991001 699:0.119104 760:0.058244001 818:0.081688002 825:0.065306999 874:0.061443999 935:0.154679 954:0.103923 990:0.187626 993:0.056154002 1028:0.103923 1122:0.239682 1125:0.072053 1127:0.12795401 1128:0.126233 1131:0.083617002 1146:0.068746001 1366:0.150267 1398:0.28229201 1412:0.115612 1469:0.158288 1578:0.11421 1647:0.093686998 1888:0.103327 1935:0.12217 1994:0.093487002 2033:0.277008 2056:0.119226 2129:0.13021 2372:0.15945899 2875:0.15682501 3742:0.25128701 4602:0.14078 4722:0.150267 11147:0.36298701 11148:0.214386 #
-0.020750096457063469529424892812131 10:0.035613 11:0.038704999 12:0.068112001 36:0.070611 45:0.098458998 68:0.103791 70:0.056212999 99:0.075769998 105:0.029722 116:0.10802 126:0.054320998 174:0.092441 199:0.078120001 233:0.091439001 239:0.020058 240:0.093286 248:0.053284001 276:0.062233001 315:0.061000001 338:0.191875 370:0.04205 385:0.047887001 397:0.068654001 448:0.053512 465:0.076871999 478:0.103529 545:0.081813 699:0.073367 783:0.065989003 818:0.144252 825:0.068112001 828:0.205183 1004:0.062849998 1013:0.178286 1126:0.109986 1130:0.27732101 1154:0.108075 1240:0.109023 1341:0.10716 1426:0.102507 1450:0.084687002 1478:0.190409 1509:0.117731 1549:0.094756998 1663:0.23475499 1666:0.108387 1756:0.086386003 1933:0.11138 2271:0.137666 2272:0.133237 2323:0.121601 2711:0.118646 3030:0.136718 3606:0.133237 4754:0.152991 7102:0.347983 7103:0.37858099 7104:0.19495299 #
-0.020503915428289894162805495625435 8:0.064796001 11:0.042787999 15:0.042328998 23:0.040743999 35:0.018479999 45:0.13491 50:0.058862001 63:0.049020998 108:0.115141 123:0.068526998 126:0.028613999 147:0.096409 156:0.096803002 169:0.109621 187:0.123521 208:0.111025 217:0.060191002 226:0.059156999 231:0.124332 239:0.022174001 243:0.080126002 273:0.092928 276:0.040633 290:0.058364 293:0.074493997 323:0.091594003 338:0.137632 370:0.046486001 397:0.075896002 422:0.103542 431:0.30169001 560:0.079008996 597:0.070464998 697:0.096101999 699:0.17020901 719:0.21404301 761:0.18825001 803:0.090821996 887:0.162974 933:0.112212 937:0.082978003 1004:0.069480002 1013:0.082594 1131:0.096409 1146:0.079263002 1461:0.116542 2659:0.21556 3030:0.25590199 3822:0.16726901 4228:0.15114 8354:0.200794 8810:0.195539 11812:0.41851601 11813:0.247182 #
-0.10000000000000000555111512312578 2:0.067027003 6:0.029514 14:0.060798001 44:0.047414999 45:0.048296999 75:0.038357999 76:0.030161999 86:0.104222 95:0.055379 99:0.037167002 104:0.065272003 107:0.069009997 114:0.062167998 126:0.036398999 134:0.056570001 153:0.15568601 179:0.062854998 180:0.058068 181:0.115342 214:0.079832003 271:0.056963 300:0.048372999 303:0.091365002 338:0.103401 393:0.045991998 436:0.072780997 450:0.061138999 474:0.056129001 494:0.110412 676:0.052062999 699:0.10317 719:0.061625998 731:0.059106 825:0.056570001 919:0.103276 995:0.077060997 1026:0.145568 1037:0.080808997 1125:0.130981 1126:0.053950999 1127:0.065461002 1154:0.089759998 1168:0.19292 1366:0.130164 1412:0.21016499 1539:0.094336003 1540:0.068425 1560:0.45901999 1640:0.1028 1906:0.085556 1949:0.100565 2585:0.226511 2850:0.130164 3742:0.217669 4658:0.138126 4659:0.161916 5472:0.17069501 5735:0.146906 6469:0.15085401 6996:0.138126 9487:0.161916 9488:0.289013 9489:0.18570501 #
-0.019963113160462685885532252427765 1:0.103816 5:0.063412003 6:0.057980999 11:0.049617 14:0.070542 15:0.036897998 35:0.033806 60:0.051274002 70:0.054168999 75:0.044505998 95:0.064254001 109:0.053803001 115:0.100726 123:0.101139 131:0.057303 137:0.043900002 146:0.066157997 148:0.099765003 162:0.076844998 206:0.060991 216:0.059633002 220:0.121561 231:0.064011 244:0.041864 272:0.046565998 316:0.079168998 326:0.082987003 354:0.052127 385:0.096841998 393:0.053364001 414:0.076444 419:0.046930999 518:0.238869 552:0.075952999 579:0.078838997 597:0.061423998 615:0.114333 624:0.084997997 662:0.132662 690:0.085419998 786:0.109827 789:0.090778999 800:0.10837 825:0.065636002 976:0.085704997 981:0.092601001 1121:0.102413 1169:0.190648 1217:0.066224001 1484:0.195925 1587:0.13174801 1607:0.109455 1681:0.18660299 1700:0.120392 1703:0.109827 2073:0.1126 2111:0.129191 2141:0.16657799 2388:0.214809 3050:0.151025 3491:0.181155 3661:0.17503101 4063:0.17503101 4193:0.160264 5563:0.16657799 5908:0.17503101 8443:0.215468 8444:0.17503101 8445:0.215468 8446:0.16657799 8447:0.198053 #
-0.013667551056059257935659800864414 11:0.039978001 45:0.060063001 50:0.093116999 56:0.065661997 63:0.045802001 64:0.082258001 87:0.032882001 112:0.027191 113:0.039971001 114:0.045662999 115:0.051444001 116:0.065895997 119:0.069399998 126:0.056106001 169:0.102422 202:0.077437997 206:0.065373003 219:0.053885002 231:0.116166 238:0.076990999 258:0.063431002 338:0.25082701 340:0.069803998 351:0.057325002 448:0.055272002 493:0.104246 544:0.073977001 671:0.068031996 676:0.064746998 699:0.128305 719:0.18288399 874:0.066191003 933:0.061921 1013:0.215437 1130:0.35095999 1131:0.189036 1146:0.074056998 1341:0.18740299 1342:0.087471001 1353:0.080995001 1399:0.11468 1477:0.096741997 1478:0.116156 1663:0.143209 1760:0.113624 2171:0.114323 2184:0.089648001 2189:0.17494901 2535:0.110683 2925:0.159879 3606:0.13761701 12068:0.50656599 12069:0.230948 #
0.10000000000000000555111512312578 6:0.07203 10:0.042633999 11:0.037384 15:0.045839 18:0.065229997 23:0.044123001 35:0.020012001 36:0.040279999 37:0.12530001 58:0.092707999 75:0.055289999 76:0.091240004 81:0.085286997 83:0.069505997 110:0.27737099 115:0.059625998 121:0.060596 122:0.090320997 145:0.065952003 151:0.096615002 157:0.110666 210:0.088827997 217:0.065182 223:0.078998998 239:0.024013 249:0.069560997 300:0.069725998 310:0.117479 321:0.095844001 352:0.088004999 426:0.085927002 444:0.09364 510:0.10034 560:0.085560001 579:0.097943 625:0.17120001 654:0.099903002 656:0.087635003 671:0.078851998 722:0.085469 738:0.075503998 767:0.165832 773:0.12722901 783:0.078998998 811:0.082768001 914:0.091141 921:0.13507301 953:0.116975 1037:0.11648 1125:0.214679 1196:0.11904 1217:0.082271002 1344:0.133763 1447:0.13552199 1515:0.097672999 1518:0.120125 2025:0.192834 2038:0.13836101 2073:0.139884 2439:0.24339999 2868:0.14148501 3066:0.160495 5812:0.192834 6984:0.26767799 6985:0.26767799 6986:0.217444 #
0.10000000000000000555111512312578 5:0.103263 9:0.069458999 15:0.060086001 56:0.099758998 156:0.05266 164:0.082731001 199:0.122589 212:0.10752 232:0.050776001 312:0.117106 336:0.122744 394:0.12647299 396:0.130954 419:0.076424003 484:0.132301 491:0.121976 597:0.100025 721:0.133092 723:0.130334 804:0.13349301 820:0.20314001 914:0.119469 945:0.1398 993:0.091903999 1093:0.130389 1097:0.206599 1125:0.199664 1217:0.107842 1305:0.1398 1340:0.13152599 1450:0.132893 1693:0.14811499 1853:0.23262 2121:0.189216 2306:0.156743 2993:0.27126101 3239:0.23743901 4020:0.222591 6403:0.285027 12725:0.35087499 #
0.10000000000000000555111512312578 18:0.066187002 23:0.044769999 32:0.209409 35:0.020306 57:0.110676 60:0.064631999 63:0.091201 69:0.057135999 75:0.094988003 81:0.086539 83:0.070525996 110:0.182614 131:0.1223 156:0.13462301 192:0.096235998 206:0.076881997 219:0.063371003 232:0.039303999 287:0.192634 299:0.11602 300:0.070749 346:0.130905 350:0.053378001 385:0.162393 436:0.106447 450:0.089419998 489:0.149003 634:0.102412 648:0.113991 719:0.152606 777:0.195723 799:0.103806 921:0.137054 928:0.16294201 929:0.103491 945:0.22710399 1038:0.16285001 1110:0.108583 1125:0.15455601 1338:0.104934 1461:0.128057 1669:0.101516 1694:0.21456 1898:0.17673001 2551:0.12672301 2763:0.20201901 3365:0.232053 3580:0.170955 8823:0.38553101 #
0.10000000000000000555111512312578 1:0.069968998 23:0.096713997 35:0.018382 36:0.037 41:0.050439 60:0.058510002 61:0.089106001 63:0.048762001 88:0.063845001 98:0.096862003 108:0.067644998 114:0.082312003 126:0.028463 151:0.088745996 154:0.102221 156:0.077441998 181:0.12321 194:0.087347001 198:0.138944 214:0.105699 232:0.035581 272:0.053137001 313:0.136786 385:0.052657999 443:0.061489001 450:0.080949001 719:0.081592999 722:0.078507997 723:0.053941999 753:0.112175 799:0.15910999 817:0.20806199 920:0.359676 921:0.210071 929:0.093688004 1108:0.150666 1127:0.206825 1397:0.091899 1416:0.155982 1417:0.309385 1638:0.129962 1756:0.094994001 1788:0.105669 1949:0.13315099 1998:0.119188 2014:0.168237 2751:0.283079 2757:0.149336 3580:0.154761 9972:0.36297601 #
0.10000000000000000555111512312578 9:0.047396 10:0.038135 23:0.039466001 38:0.057881001 42:0.070463002 43:0.062563002 44:0.061131999 50:0.057015002 55:0.186188 59:0.057631001 112:0.028189 113:0.041437998 114:0.080151998 137:0.048781 142:0.089249 143:0.056136001 155:0.11788 212:0.153971 232:0.034646999 237:0.19012401 239:0.021477999 323:0.088720001 353:0.080941997 390:0.081816003 419:0.052149002 427:0.093987003 436:0.093835004 444:0.083756 523:0.215031 556:0.117439 597:0.178104 617:0.151079 620:0.143555 668:0.066320002 676:0.067124002 721:0.153768 778:0.177907 799:0.154935 858:0.102456 906:0.073661 1011:0.151889 1217:0.124595 1225:0.088219002 1333:0.113186 1396:0.203227 1484:0.128583 1694:0.26657 1853:0.268756 1955:0.165748 2143:0.13377801 2169:0.131349 2196:0.145417 2738:0.181371 3340:0.122459 3421:0.143555 3878:0.172481 5259:0.271458 6898:0.189403 #
-0.029271577739636071152640184322991 11:0.044498999 16:0.074262001 38:0.054653 45:0.140303 49:0.060713001 59:0.054416999 69:0.047557998 87:0.032187998 99:0.045246001 104:0.046930999 112:0.026617 113:0.039127 126:0.026171001 171:0.149774 198:0.075452998 203:0.21857899 205:0.049113002 206:0.063992999 217:0.055050999 232:0.032715 238:0.075365998 241:0.039771002 251:0.106028 271:0.069346003 273:0.084991999 276:0.037163001 315:0.061675999 323:0.083772004 338:0.074345998 340:0.068329997 352:0.043898001 364:0.124579 390:0.077252999 429:0.087756 452:0.052237 505:0.10009 539:0.080416001 621:0.100313 722:0.072183996 731:0.12183 778:0.060171999 889:0.098583996 894:0.059546001 919:0.212872 933:0.102629 964:0.093987003 993:0.10026 1013:0.075539999 1026:0.125737 1075:0.11191 1108:0.081817999 1130:0.107453 1339:0.29466099 1413:0.122426 1450:0.085625 1756:0.087343 1779:0.108046 1784:0.122426 1998:0.109588 2009:0.105208 3061:0.137308 3620:0.18364599 4293:0.117706 4505:0.18364599 5290:0.17884 5362:0.261906 5576:0.154686 8349:0.33374 8351:0.207801 8352:0.207801 #
-0.10000000000000000555111512312578 9:0.156665 35:0.059165999 156:0.118775 169:0.20729101 232:0.114525 247:0.248742 420:0.48298901 474:0.2392 721:0.30019099 929:0.510571 1209:0.29494101 1693:0.334075 #
-0.10000000000000000555111512312578 8:0.050425 15:0.032940999 23:0.031707998 33:0.054935001 35:0.014381 36:0.028946999 37:0.042907 38:0.046503 50:0.077559002 56:0.054691002 59:0.046301998 76:0.031243 85:0.054595001 86:0.063762002 87:0.027388001 91:0.08145 104:0.039933 105:0.066724002 110:0.076387003 115:0.042849001 127:0.067208 128:0.057039 130:0.100525 150:0.066705003 152:0.121077 155:0.055937 164:0.045356002 194:0.14341 206:0.092193 208:0.041170999 209:0.067208 213:0.076771997 214:0.048840001 217:0.098302998 221:0.035944 223:0.056770999 227:0.070191003 232:0.072639003 236:0.032164998 246:0.076903 248:0.045839999 251:0.152752 274:0.188563 290:0.045419998 312:0.108703 315:0.052478999 330:0.078524999 350:0.037804 353:0.065030999 393:0.047641002 415:0.067895003 425:0.113934 585:0.16277701 594:0.081202 621:0.085354 630:0.118436 677:0.068158001 733:0.098387003 783:0.056770999 803:0.070679002 958:0.093517996 978:0.078524999 996:0.118436 1014:0.082006 1033:0.075759001 1060:0.088404 1122:0.130429 1125:0.109463 1140:0.14454401 1198:0.078948997 1276:0.095519997 1370:0.131101 1403:0.19187699 1408:0.118436 1427:0.073744997 1433:0.080733001 1458:0.114625 1496:0.116833 1529:0.102072 1650:0.070877999 1694:0.089749999 1736:0.073744997 1811:0.122032 1899:0.118436 2037:0.106978 2173:0.128812 2282:0.100525 2452:0.123029 2551:0.089749999 2845:0.133167 3001:0.120162 3142:0.13162 3371:0.097717002 3545:0.119282 4467:0.156262 5362:0.13162 6029:0.134829 6046:0.161267 7010:0.24225099 8500:0.161267 9795:0.16772 10089:0.176814 #
-0.080847821788466611714341070182854 19:0.086810999 36:0.070372 41:0.05666 42:0.081285998 58:0.161965 75:0.096594997 81:0.088003002 87:0.039324 112:0.032519002 114:0.114605 126:0.031973999 134:0.084137 142:0.117071 149:0.090125002 156:0.115725 174:0.11419 209:0.096499003 214:0.070127003 219:0.064443 221:0.05161 239:0.024777001 293:0.083238997 312:0.092183001 338:0.090829998 356:0.085231997 382:0.21386901 385:0.100154 419:0.060159001 434:0.079374 436:0.108248 453:0.079159997 458:0.086364999 484:0.104145 783:0.212707 787:0.15772399 818:0.105242 838:0.107045 859:0.128867 882:0.126009 892:0.13802101 928:0.16569901 937:0.092719004 954:0.22668999 993:0.072345003 1108:0.099959999 1338:0.180675 1374:0.109679 1713:0.132743 1760:0.44878101 2006:0.129538 2143:0.15432601 6590:0.196171 7179:0.25387701 7180:0.231553 #
-0.10000000000000000555111512312578 10:0.063432001 12:0.071650997 23:0.065646 35:0.017585 44:0.035470001 60:0.055971999 87:0.033489 97:0.085242003 110:0.093402997 113:0.040709 122:0.079365999 126:0.027229 137:0.047922999 142:0.070739001 156:0.084238999 232:0.057631001 241:0.041379001 256:0.059857 324:0.074626997 370:0.044234999 436:0.092184 508:0.077789001 512:0.101502 595:0.093874998 630:0.24519999 645:0.16706 708:0.19653501 807:0.047394 811:0.123142 874:0.067413002 878:0.235881 889:0.102569 929:0.089624003 984:0.122019 1112:0.119892 1125:0.079052001 1209:0.08766 1338:0.090874001 1552:0.119892 1592:0.157507 1650:0.086667001 1651:0.26192901 1656:0.16094001 1824:0.167788 2166:0.143822 2403:0.125305 2595:0.14692999 2835:0.169447 4638:0.140159 8519:0.34723401 12389:0.235213 12390:0.235213 12391:0.235213 12392:0.235213 #
0.10000000000000000555111512312578 11:0.014598 23:0.049394 31:0.040725999 44:0.026689 59:0.042599998 89:0.051701002 107:0.111356 112:0.020837 115:0.039423998 126:0.020488 206:0.050097 223:0.052232001 241:0.031135 243:0.05737 244:0.058222 273:0.066537 276:0.029092999 282:0.048567999 335:0.109746 370:0.033284001 425:0.104825 443:0.044259999 508:0.058531001 760:0.048082002 767:0.109644 807:0.060378999 929:0.067436002 937:0.059411999 953:0.077340998 979:0.071863003 984:0.19267599 990:0.091481 1060:0.081335999 1061:0.122521 1069:0.067335002 1108:0.064052001 1146:0.056752 1147:0.083223 1173:0.116218 1413:0.095841996 1441:0.122521 1445:0.100855 1457:0.12405 1469:0.077177003 1515:0.064579003 1544:0.10303 1553:0.101378 1678:0.087339997 1764:0.10303 1805:0.083005004 1898:0.11516 1977:0.088725001 2037:0.098425001 2471:0.14837401 2535:0.084820002 2663:0.129464 3147:0.101378 4142:0.112276 4240:0.136825 4463:0.14837401 4509:0.14000601 6115:0.143769 6363:0.127497 6364:0.154311 6365:0.162678 6366:0.176982 6367:0.176982 6368:0.136825 6369:0.176982 6370:0.176982 6371:0.31137899 6372:0.154311 6373:0.14837401 6374:0.176982 6375:0.176982 6376:0.176982 6377:0.154311 6378:0.176982 #
0.10000000000000000555111512312578 10:0.055373002 19:0.064535998 35:0.025991 49:0.055142999 56:0.058378998 63:0.040720999 87:0.029234 110:0.138054 112:0.057689 113:0.035537001 126:0.040245 142:0.036471002 179:0.069498003 192:0.072752997 195:0.090507999 214:0.109407 239:0.01842 254:0.113664 256:0.052253 272:0.044374999 276:0.033753 290:0.048482001 293:0.06188 313:0.054430999 332:0.13894799 342:0.101642 370:0.038615 389:0.065912999 436:0.080472 441:0.097861998 559:0.070505999 597:0.058534 616:0.078120001 699:0.14139 719:0.142996 784:0.120207 817:0.082794003 889:0.089538001 922:0.133605 993:0.091061004 1013:0.068608999 1026:0.067449003 1032:0.15938 1146:0.065842003 1260:0.113664 1331:0.098131999 1338:0.079328999 1341:0.098406002 1413:0.18826599 1534:0.106134 1617:0.25583801 1756:0.079328999 1863:0.15977199 1910:0.092573002 2297:0.118876 2403:0.109385 2929:0.122352 3377:0.20716099 3459:0.112151 3899:0.32050699 4169:0.155544 4976:0.319556 5407:0.147919 6971:0.17902701 14059:0.20533 14060:0.20533 14061:0.20533 #
0.10000000000000000555111512312578 10:0.033909 11:0.017561 14:0.069701001 35:0.015916999 43:0.055631999 63:0.042222001 75:0.043974999 80:0.095541999 89:0.062192999 91:0.090145998 109:0.053162001 112:0.025065999 113:0.036846999 115:0.099524997 124:0.102215 156:0.031952001 206:0.060263999 221:0.039781 247:0.066914998 265:0.105389 294:0.102033 338:0.070013002 341:0.068122998 393:0.052726999 448:0.050951999 453:0.061018001 523:0.068489999 552:0.075047001 579:0.077899002 597:0.060692001 665:0.075533003 690:0.084400997 723:0.046707001 778:0.197474 802:0.11253 825:0.064854003 827:0.126862 981:0.091495998 1026:0.069935001 1035:0.132017 1051:0.14114501 1056:0.117319 1122:0.085257001 1125:0.071552999 1292:0.122596 1355:0.123938 1448:0.107078 1478:0.107078 1574:0.118399 1686:0.105064 1689:0.14114501 1699:0.14567199 1703:0.108518 1744:0.16841801 1977:0.106731 2129:0.27136299 2508:0.111257 2551:0.099331997 2616:0.110847 2847:0.13506 2921:0.13980301 2981:0.17848399 4193:0.158353 5401:0.185626 7815:0.17848399 8230:0.17848399 8444:0.17294399 9768:0.360468 9769:0.16841801 9770:0.212898 #
0.10000000000000000555111512312578 11:0.018239999 35:0.016532 41:0.076805003 52:0.090429001 68:0.102645 85:0.062758997 86:0.073297001 87:0.053305998 100:0.086108997 104:0.045903999 115:0.117542 126:0.025598001 144:0.07068 147:0.086246997 223:0.065260999 244:0.042964 251:0.103709 256:0.056272998 262:0.11688 272:0.047789 338:0.072719 415:0.078047998 419:0.048163999 454:0.092451997 559:0.075929999 611:0.078555003 614:0.101375 615:0.117336 665:0.078451999 676:0.061994001 789:0.093163997 812:0.086944997 813:0.089474 852:0.093526997 993:0.057920001 1122:0.23107301 1125:0.193929 1137:0.109804 1317:0.081022002 1468:0.126423 1488:0.122408 1500:0.113893 1515:0.080687001 1544:0.128729 1681:0.154504 1686:0.109125 1729:0.104536 1805:0.103709 2326:0.11233 2538:0.14028101 4497:0.164473 4808:0.17095301 5356:0.16175701 5424:0.159299 5425:0.296179 5689:0.17095301 6691:0.179629 8335:0.18538301 9790:0.179629 11558:0.221127 11559:0.221127 11560:0.221127 11561:0.221127 #
0.10000000000000000555111512312578 10:0.033712 11:0.02956 13:0.084761001 14:0.14542399 15:0.036246002 35:0.015823999 59:0.050946999 62:0.05703 70:0.053211998 81:0.067438997 88:0.054960001 105:0.028136 110:0.08405 138:0.057985999 142:0.078899004 150:0.073397003 238:0.070560999 241:0.037234999 276:0.058910001 321:0.075786002 387:0.067153998 392:0.060991 413:0.095875002 420:0.076292999 428:0.081903003 434:0.060826 451:0.119412 608:0.15483101 611:0.075190999 616:0.080527999 677:0.074996002 688:0.106805 697:0.139331 806:0.105102 807:0.042647999 828:0.137812 896:0.071470998 900:0.15743101 921:0.106805 947:0.12612399 958:0.1029 1012:0.111147 1013:0.19744501 1104:0.104134 1125:0.071135998 1138:0.11321 1146:0.067872003 1250:0.128553 1317:0.131309 1338:0.081773996 1342:0.080165997 1420:0.085198 1617:0.18787301 1650:0.077987999 1769:0.099267997 1814:0.121883 3078:0.248091 3575:0.194552 3576:0.160338 3577:0.194552 3578:0.44419101 3579:0.171938 3580:0.133224 3581:0.143231 3582:0.21166 3583:0.124628 #
-0.10000000000000000555111512312578 23:0.037058 35:0.016807999 43:0.123285 77:0.104623 108:0.061850999 110:0.15115499 112:0.026469 131:0.059788998 203:0.103575 222:0.077197 232:0.055084001 239:0.020168001 248:0.053574 256:0.096867003 258:0.061747 276:0.096435003 326:0.086586997 397:0.14486399 413:0.17242099 475:0.093291 579:0.13927799 670:0.15825 697:0.087406002 705:0.137574 719:0.074605003 741:0.081363 797:0.074689999 807:0.045299001 825:0.068484001 828:0.086452998 894:0.059215002 921:0.113444 993:0.123578 1012:0.069725998 1013:0.179259 1121:0.106856 1125:0.127931 1217:0.069098003 1342:0.085148998 1374:0.089275002 1420:0.090493999 1549:0.161312 1617:0.304014 1650:0.082836002 2022:0.19021501 2430:0.105439 2719:0.22968499 2767:0.130876 2910:0.177846 3078:0.155634 3377:0.133964 3731:0.188475 4430:0.173805 5848:0.177846 5849:0.206645 5850:0.38064599 #
-0.10000000000000000555111512312578 23:0.041602999 35:0.018869 41:0.087664001 44:0.064442001 45:0.065640002 60:0.060059998 91:0.063118003 105:0.033550002 110:0.23916499 112:0.029716 126:0.029216999 131:0.067121997 142:0.044831 151:0.091095999 162:0.090012997 183:0.093258999 184:0.091715999 201:0.101593 204:0.087738998 222:0.086664997 238:0.084140003 239:0.038334999 240:0.050175998 243:0.081813999 248:0.060145002 249:0.065587997 258:0.069320001 272:0.054545 422:0.105724 436:0.098916002 450:0.083094001 498:0.093258999 508:0.083470002 817:0.101769 921:0.127358 934:0.336016 974:0.099238001 985:0.205025 988:0.38339999 991:0.077728003 1026:0.140374 1119:0.097663999 1125:0.202418 1140:0.153009 1338:0.097511001 1366:0.17690501 1450:0.095592 1713:0.1213 2049:0.184626 2123:0.17926 2371:0.151329 2403:0.13445599 2430:0.118371 3682:0.187727 3683:0.205025 3684:0.199659 3685:0.174724 #
-0.10000000000000000555111512312578 15:0.039025001 22:0.061810002 42:0.067068003 55:0.084444001 69:0.047940001 75:0.047070999 76:0.037013002 105:0.063573003 109:0.056905001 110:0.189913 120:0.115764 121:0.087346002 137:0.046431001 155:0.066266999 206:0.109219 217:0.055493001 222:0.078252003 239:0.020443 240:0.045304999 243:0.125075 249:0.10027 258:0.062590003 287:0.095459998 300:0.059361 397:0.069972001 402:0.112809 433:0.062856004 465:0.078346997 650:0.077133 654:0.085052997 668:0.063124001 782:0.086965002 807:0.045917999 811:0.070464998 812:0.089603998 813:0.092208996 861:0.11178 894:0.060024001 921:0.114994 991:0.070182003 998:0.23134799 1000:0.235927 1005:0.133413 1056:0.125579 1116:0.19406401 1122:0.25477701 1221:0.116158 1226:0.136638 1278:0.129209 1445:0.12986501 1515:0.083154 1650:0.083967999 2026:0.125579 2039:0.111116 2466:0.15108299 2765:0.185121 2766:0.16185699 2767:0.132664 2768:0.18027601 2769:0.15108299 2770:0.20946901 2771:0.17263199 2772:0.185121 2773:0.17263199 2774:0.17618001 2775:0.227888 #
-0.053412754342422597009232276832336 1:0.067110002 10:0.063598 26:0.072627999 35:0.017631 43:0.061624002 49:0.107234 53:0.102192 76:0.038304001 87:0.033576999 89:0.068893 103:0.240392 110:0.223473 112:0.027766 113:0.085657001 122:0.046998002 126:0.065146998 131:0.16366 194:0.083778001 206:0.159298 208:0.050473999 216:0.065268002 225:0.094765 241:0.087067001 266:0.123241 267:0.065604001 293:0.18546 328:0.091113001 341:0.075461 352:0.045793001 356:0.072774 370:0.044351 436:0.156491 443:0.058977 545:0.086290002 607:0.130548 753:0.107592 855:0.213186 979:0.095758997 993:0.061771002 1121:0.112091 1240:0.114989 1403:0.112091 1514:0.13439099 1517:0.116741 1540:0.086893998 1645:0.132402 1768:0.126139 1902:0.095091999 2165:0.100537 2403:0.125634 2731:0.41658401 3038:0.21677101 3039:0.42630899 #
-0.0092356280371386975658332119110128 22:0.071322002 32:0.084960997 44:0.039654002 45:0.068388 59:0.063294999 63:0.05215 80:0.118007 91:0.171599 112:0.052420001 113:0.045511 126:0.030440999 142:0.046707999 216:0.123221 219:0.061353002 232:0.038052998 236:0.074446 276:0.043226 278:0.123652 370:0.083731003 401:0.096754 433:0.072529003 436:0.103058 453:0.075364999 491:0.091412999 538:0.124985 585:0.106031 597:0.074963003 722:0.083962001 723:0.057689998 778:0.24950901 780:0.115338 804:0.100045 807:0.089711003 856:0.11122 945:0.104771 1179:0.179924 1417:0.157666 1570:0.118555 1753:0.161902 1756:0.101594 1757:0.145565 1977:0.131827 2197:0.150626 2616:0.136911 6014:0.645944 10450:0.262959 #
0.10000000000000000555111512312578 3:0.067413002 10:0.033627 18:0.051449001 23:0.034800999 44:0.031838 59:0.086044997 76:0.034290999 86:0.069982 88:0.054823 91:0.052799001 102:0.091109 113:0.036541 114:0.041744001 126:0.024441 142:0.037501 156:0.075612999 162:0.075296998 169:0.055300999 170:0.122302 179:0.071460001 205:0.077657998 229:0.074423 239:0.01894 241:0.062886998 276:0.072834998 317:0.086494997 356:0.065150999 393:0.052289002 397:0.064825997 415:0.074519001 427:0.082878999 433:0.058233 515:0.138641 556:0.21733101 585:0.085130997 594:0.089124002 617:0.078684002 661:0.081955001 721:0.208975 782:0.080568999 810:0.098003998 828:0.081188999 837:0.148829 874:0.102453 895:0.084983997 965:0.113855 1135:0.16593499 1146:0.067700997 1209:0.078684002 1225:0.077791996 1338:0.081569001 1344:0.105504 1418:0.174299 1853:0.236993 1994:0.092067003 2169:0.115825 2171:0.104512 2485:0.11203 3406:0.261493 3458:0.141379 3460:0.14995401 3461:0.147983 3509:0.128231 5005:0.19406401 5643:0.265885 6715:0.147983 10112:0.31167799 10113:0.211128 10114:0.19406401 #
0.10000000000000000555111512312578 1:0.062541001 6:0.034929 11:0.038043998 14:0.071952 15:0.063722 36:0.055994999 37:0.049020998 41:0.045085002 43:0.057427999 49:0.059021998 69:0.046232998 87:0.031291001 110:0.18315101 112:0.025876001 121:0.049750999 122:0.043798 206:0.062210001 240:0.073976003 249:0.119857 267:0.061138 322:0.064025 420:0.13412701 492:0.135221 560:0.070248 597:0.062651999 616:0.083614998 677:0.077871002 718:0.17852999 776:0.113196 807:0.044282999 838:0.085175999 1007:0.242559 1125:0.073863 1171:0.088771001 1334:0.099085003 1449:0.112799 1583:0.092772998 1659:0.26150399 2184:0.085311003 2247:0.139422 2516:0.122798 5516:0.156094 7978:0.202011 7982:0.19162001 8785:0.202011 9130:0.37211001 9131:0.21977399 9132:0.21977399 9133:0.21977399 9134:0.21977399 9135:0.21977399 9136:0.21977399 #
0.10000000000000000555111512312578 10:0.041003998 12:0.078422002 45:0.066953003 49:0.069137998 75:0.053176001 112:0.030309999 126:0.029802 160:0.095806003 169:0.067431003 170:0.14913 195:0.23814601 217:0.062688999 243:0.083451003 246:0.10292 248:0.061349001 292:0.069307998 328:0.099462003 336:0.188998 370:0.048415001 394:0.092794999 401:0.094724 433:0.071006998 434:0.125264 445:0.090865001 508:0.085139997 532:0.105659 764:0.102401 783:0.075978003 794:0.10206 813:0.104167 906:0.079204001 941:0.115004 1101:0.135552 1146:0.082552001 1209:0.095944002 1443:0.15741301 1445:0.35008299 1645:0.14453501 2045:0.17822 2613:0.266523 2875:0.18832099 5076:0.19501901 8440:0.224462 13677:0.435886 13678:0.25744101 #
0.10000000000000000555111512312578 10:0.035615001 11:0.054335002 15:0.038291 22:0.060648002 44:0.080466002 49:0.060051002 50:0.053247999 51:0.124365 59:0.091130003 89:0.065321997 105:0.029724 108:0.061517999 123:0.061990999 145:0.055093002 158:0.116853 164:0.052723002 184:0.081256002 187:0.26664299 236:0.037388999 240:0.075266004 241:0.066604003 282:0.061363 312:0.07463 320:0.12615301 337:0.075415999 338:0.226445 351:0.055503 354:0.054095998 355:0.12615301 411:0.168367 419:0.048703998 443:0.055920001 481:0.11819 499:0.098348998 545:0.081817001 564:0.29403901 566:0.120584 570:0.15566701 706:0.128085 933:0.101509 983:0.128085 1103:0.112464 1122:0.187922 1125:0.179333 1217:0.116363 1268:0.072403997 1317:0.081931002 1422:0.080926001 1450:0.084691003 1897:0.123781 1998:0.108392 1999:0.13492601 2094:0.229946 2380:0.130906 2388:0.131662 2929:0.13324299 3065:0.23476601 7804:0.19496199 8063:0.18164299 11068:0.22360601 11069:0.22360601 #
0.10000000000000000555111512312578 11:0.043721002 14:0.06216 15:0.055050001 18:0.046266999 31:0.04369 37:0.042349 38:0.045899 44:0.028632 70:0.047731999 99:0.064338997 133:0.121432 149:0.061953001 170:0.064957999 180:0.059367999 221:0.035477001 239:0.017031999 240:0.037746001 241:0.033401001 248:0.045244999 276:0.074478 321:0.067982003 322:0.055312 332:0.128482 418:0.191255 419:0.041354001 428:0.124393 436:0.074410997 453:0.054416001 464:0.060238998 470:0.086544998 472:0.186115 508:0.062790997 545:0.069471002 559:0.065195002 617:0.070758998 656:0.06216 679:0.079991996 682:0.100416 780:0.049185 783:0.056033999 857:0.099592 874:0.054416001 914:0.064645998 993:0.049731001 1234:0.074052997 1424:0.076033004 1650:0.069957003 1659:0.10765 1853:0.125874 2519:0.14382701 3715:0.25688401 4202:0.15423299 4257:0.125874 5487:0.174519 6097:0.239106 6726:0.15423299 6971:0.280287 6972:0.295486 6973:0.15423299 6974:0.18986399 6975:0.347408 6976:0.18986399 6977:0.280287 #
-0.012738031844720760707434514813485 11:0.030449999 31:0.050172001 37:0.048632 41:0.075730003 69:0.045866001 76:0.035413001 81:0.069468997 87:0.065146998 98:0.050730001 109:0.054444 111:0.097180001 113:0.063891999 121:0.049357001 138:0.059732001 181:0.109257 214:0.055358 221:0.040741 242:0.16453899 249:0.05666 262:0.115244 276:0.035840999 292:0.058697999 346:0.105085 348:0.103351 352:0.042337 385:0.097994998 390:0.074506 403:0.166825 404:0.146882 410:0.069103003 426:0.069990002 428:0.142848 450:0.071782 452:0.050379999 493:0.058125999 544:0.146568 555:0.094088003 665:0.077353999 682:0.115314 752:0.24016701 767:0.079777002 837:0.064407997 1017:0.097180001 1142:0.073884003 1152:0.097180001 1326:0.112699 1512:0.207257 1533:0.099955998 1609:0.17223901 1662:0.103916 1782:0.157069 1806:0.110021 1853:0.303352 1924:0.122409 2438:0.116152 2510:0.115694 7491:0.182788 10948:0.45756501 10949:0.218032 10950:0.218032 #
-0.020668322038703668130921187184867 6:0.085337996 8:0.11356 10:0.068999 11:0.044289999 16:0.084046997 35:0.019128 36:0.038502 41:0.052487001 44:0.080972001 50:0.060929 63:0.050742 85:0.072617002 86:0.084810004 87:0.076448999 88:0.066437997 114:0.120719 124:0.122842 126:0.050149001 142:0.045446999 147:0.099793002 164:0.14396 197:0.180636 227:0.093359999 236:0.089782998 239:0.038862001 240:0.050866 272:0.093621999 315:0.069802001 318:0.13472 350:0.050283 370:0.048117999 419:0.055729002 431:0.31228101 453:0.073330998 731:0.081435002 780:0.1391 789:0.107797 914:0.087117001 928:0.26706901 956:0.102637 993:0.11347 1427:0.098088004 1443:0.15644599 1779:0.122282 2009:0.119071 2210:0.22622401 2607:0.49754599 2945:0.162315 3213:0.30919901 7352:0.20240401 #
-0.084968896336506491429041432184022 11:0.022717999 35:0.020591 36:0.070173003 43:0.071969002 48:0.081589997 50:0.065586999 76:0.044734001 91:0.068876997 98:0.064081997 113:0.080709003 115:0.061351001 124:0.078098997 126:0.066909999 138:0.075453997 142:0.082831003 163:0.116038 180:0.086121 194:0.097842 199:0.096225999 212:0.084398001 216:0.19890399 219:0.064260997 225:0.110673 226:0.065915003 232:0.039856002 292:0.074147999 310:0.120876 315:0.075138003 356:0.084990002 357:0.107251 392:0.079364002 393:0.115492 396:0.102792 401:0.101339 415:0.097211003 485:0.21591701 492:0.100085 529:0.13676301 583:0.104004 627:0.102496 650:0.093220003 661:0.106911 676:0.077215001 719:0.091397002 760:0.074826002 778:0.19128799 780:0.120804 926:0.121402 1001:0.21591701 1007:0.11649 1026:0.090471998 1125:0.156726 1146:0.149534 1348:0.149214 1561:0.34622201 1599:0.13676301 1805:0.271081 2485:0.146145 2613:0.35341799 3466:0.17921101 #
-0.012992866983545786965792423472976 9:0.025928 11:0.018292001 18:0.031918 23:0.02159 41:0.026869001 43:0.034226 52:0.053562999 69:0.027553 77:0.060954001 94:0.064076997 99:0.026214 105:0.029479001 112:0.015421 124:0.037140999 131:0.034832999 139:0.064245999 155:0.038086999 164:0.030882999 187:0.065452002 201:0.052722 208:0.047463998 217:0.031893998 241:0.023042001 262:0.069231004 276:0.075033002 282:0.035943002 297:0.043072999 300:0.071599998 341:0.087954 365:0.063676 387:0.041556001 398:0.120392 465:0.045030002 467:0.080642998 482:0.052012 483:0.046468999 513:0.062771998 545:0.047924999 577:0.067702003 611:0.046530001 614:0.060047001 622:0.059756 658:0.066991001 660:0.070055999 676:0.03672 716:0.046774 743:0.088358998 794:0.051925 797:0.073677003 818:0.104736 827:0.078047998 835:0.057360001 860:0.15007 976:0.052099001 1005:0.076678999 1122:0.052452002 1254:0.085225999 1340:0.049098 1459:0.127919 1593:0.106398 1601:0.053952001 1680:0.079033002 1700:0.073183998 1701:0.082441002 1838:0.18014801 1977:0.065663002 1998:0.063491002 2086:0.103614 2111:0.078533001 2154:0.080642998 2197:0.075025998 2659:0.067460999 2829:0.153523 3212:0.093027003 3226:0.13853 3397:0.072504997 3402:0.1142 3480:0.27294299 3708:0.09922 3893:0.101259 3985:0.14562599 4150:0.095812 4207:0.090673 4299:0.1443 4329:0.085225999 4782:0.157509 4948:0.093027003 5198:0.120392 5224:0.1142 5510:0.103614 6683:0.091805004 6973:0.106398 7269:0.120392 8103:0.106398 9545:0.18014801 9769:0.103614 10580:0.203842 13717:0.130979 13718:0.120392 13719:0.221766 13720:0.221766 13721:0.130979 13722:0.130979 13723:0.130979 13724:0.130979 13725:0.130979 13726:0.130979 #
-0.016474462604552507494215518590863 23:0.081653997 44:0.074702002 93:0.143132 99:0.16786499 126:0.120345 150:0.290847 256:0.12606201 353:0.167468 415:0.174843 523:0.26982099 559:0.17009901 560:0.158338 721:0.490316 889:0.36574599 1198:0.20331 1209:0.184615 1225:0.30904001 1274:0.231723 1902:0.199743 #
0.10000000000000000555111512312578 10:0.041019998 11:0.050693002 16:0.084600002 35:0.019254001 39:0.091729999 69:0.091730997 87:0.036667999 88:0.066875003 110:0.244047 112:0.030322 116:0.073484004 119:0.162414 123:0.071399003 126:0.029813999 138:0.070556 187:0.12869801 202:0.086355001 211:0.103667 239:0.023103001 272:0.094237998 275:0.098430999 276:0.071681 317:0.178644 327:0.059181999 383:0.059101 397:0.079076998 418:0.108716 420:0.092831001 422:0.107882 433:0.120273 451:0.246011 453:0.073812999 465:0.088541999 474:0.077841997 493:0.068659 592:0.073094003 595:0.215709 596:0.170229 615:0.136659 622:0.117497 676:0.072203003 947:0.25983801 996:0.158567 1012:0.079875998 1013:0.20535301 1119:0.099656999 1125:0.22586399 1329:0.123086 1334:0.116113 1344:0.12869801 1650:0.199146 2143:0.14390101 2403:0.2323 3230:0.180516 3233:0.17828999 3779:0.176218 3955:0.140062 4661:0.17828999 #
0.10000000000000000555111512312578 23:0.038238999 35:0.017343 41:0.047589 45:0.060332 50:0.055243 76:0.09832 81:0.073913999 104:0.048158001 110:0.219827 115:0.108446 121:0.12531701 137:0.047265001 138:0.063553996 160:0.086332001 202:0.077785 239:0.020811001 243:0.127323 249:0.060284998 256:0.099955998 257:0.075612999 273:0.208119 282:0.063661002 327:0.053309001 338:0.129169 370:0.043628 392:0.066846997 393:0.057454001 414:0.082304001 419:0.085552 482:0.092120998 493:0.12978899 550:0.094195999 554:0.106093 585:0.15837801 596:0.073064998 697:0.18928 894:0.061103001 921:0.117061 983:0.22499099 986:0.17128 992:0.12123 993:0.102881 1060:0.106613 1133:0.079273 1317:0.221802 1420:0.093378998 1509:0.20681401 1518:0.104107 1617:0.30215001 1728:0.096625999 1819:0.22499099 3377:0.138234 5839:0.29214901 5840:0.361036 #
0.10000000000000000555111512312578 9:0.043809999 11:0.018254999 12:0.067415997 16:0.072697997 19:0.069559 30:0.21043099 37:0.049362998 44:0.056506 62:0.059629999 63:0.043889999 69:0.078826003 70:0.055638 81:0.070513003 87:0.031509001 88:0.057466 91:0.055344999 95:0.065995999 110:0.14879701 113:0.038302999 169:0.057967 192:0.078414999 198:0.073863 202:0.074206002 236:0.062655002 239:0.019853 241:0.038933001 350:0.073639996 370:0.041620001 389:0.071042001 436:0.146855 440:0.071739003 451:0.124857 510:0.082957998 572:0.178602 676:0.062045 677:0.078414999 688:0.111675 722:0.070662998 837:0.065375999 851:0.2464 921:0.111675 926:0.097551003 933:0.059337001 956:0.088776998 993:0.098146997 1026:0.123088 1125:0.125935 1224:0.155119 1298:0.095110998 1411:0.141543 1417:0.13269299 1513:0.122509 1523:0.117433 1557:0.107591 1693:0.093420997 1756:0.085502997 1765:0.117433 1906:0.101959 2165:0.094346002 2271:0.285954 2329:0.111308 2947:0.157185 3049:0.140396 6116:0.203422 7976:0.179777 8249:0.192959 9334:0.42690501 #
0.10000000000000000555111512312578 10:0.062618002 44:0.035016 57:0.094618 69:0.048845999 70:0.058375001 89:0.067832001 110:0.193505 112:0.027338 113:0.068043001 131:0.061751999 138:0.133499 143:0.054442 156:0.059004001 184:0.084379002 192:0.082273997 214:0.058954999 226:0.055571001 232:0.033601999 236:0.038826 239:0.02083 271:0.071223997 272:0.050181001 273:0.22779199 276:0.064626999 300:0.060484 340:0.070182003 443:0.058068 447:0.26629999 451:0.131 453:0.066549003 654:0.086661004 722:0.12553 780:0.060152002 807:0.046787001 820:0.134432 837:0.068593003 885:0.078872003 919:0.129132 929:0.149802 958:0.112885 993:0.060819 1026:0.076274998 1125:0.163774 1408:0.242057 1422:0.084035002 1617:0.30243 1818:0.31430301 1821:0.25560701 1899:0.30002299 2144:0.105428 2757:0.141028 7975:0.194664 12386:0.213431 13130:0.202453 #
0.10000000000000000555111512312578 9:0.067399003 10:0.032028001 23:0.033146001 35:0.015034 37:0.094129004 45:0.052297998 58:0.069645002 63:0.03988 68:0.158044 91:0.085144997 95:0.059966002 113:0.034802999 126:0.039414 138:0.055089999 142:0.035718001 146:0.061742999 174:0.083136 213:0.135884 238:0.067037001 287:0.17677499 303:0.098932996 328:0.077689998 338:0.111966 370:0.037817001 383:0.046146002 389:0.064551003 393:0.049802002 397:0.061742999 433:0.055464 492:0.073073 579:0.073578 656:0.065834001 701:0.072191998 722:0.108712 741:0.072775997 778:0.053521998 810:0.093342997 856:0.085051 889:0.087687999 998:0.28771299 1013:0.067192003 1026:0.138624 1122:0.168997 1125:0.141831 1131:0.187159 1146:0.109177 1236:0.096643999 1269:0.097195998 1300:0.113448 1557:0.23328599 1756:0.131541 1998:0.097475998 2094:0.122133 2165:0.085726 2822:0.15907501 3368:0.24181999 3398:0.125613 4690:0.142823 5131:0.132048 6324:0.28543499 9789:0.16858301 9790:0.163351 12333:0.15907501 13558:0.201088 13559:0.201088 13560:0.201088 #
-0.10000000000000000555111512312578 1:0.101517 11:0.029425999 42:0.062008001 55:0.078074001 76:0.034221001 95:0.062830999 104:0.043738998 109:0.052611999 116:0.060118001 126:0.041297 138:0.057723001 160:0.07841 202:0.070648 213:0.084090002 234:0.082709998 238:0.147407 273:0.079212002 276:0.034635 280:0.093910001 313:0.055853002 338:0.145411 341:0.067419 351:0.052299 434:0.102519 499:0.092670999 558:0.132618 596:0.066361003 616:0.080160998 624:0.140727 670:0.087595001 671:0.062066 685:0.145367 719:0.069918998 723:0.046224002 797:0.069999002 807:0.042454001 823:0.12069 852:0.089115001 894:0.055496 933:0.056492001 967:0.086162999 993:0.055188 996:0.129724 1006:0.117726 1012:0.065347001 1013:0.119202 1033:0.082979999 1040:0.096124999 1041:0.130652 1119:0.081529997 1122:0.084376 1125:0.070813 1131:0.082177997 1136:0.191587 1317:0.16201399 1348:0.067419 1353:0.073893003 1450:0.079801001 1468:0.071145996 1650:0.077633001 1765:0.111802 1788:0.15331499 2116:0.14416499 2651:0.138358 2788:0.121983 3509:0.21667001 3575:0.19366799 4036:0.151785 4352:0.29907501 4354:0.183706 4355:0.137097 4356:0.159609 4433:0.16289 5077:0.128831 5289:0.154127 10088:0.210697 10089:0.19366799 #
-0.10000000000000000555111512312578 6:0.061354998 11:0.044879001 45:0.059298001 81:0.072646998 104:0.047332 105:0.051316999 110:0.153299 120:0.32335201 121:0.123167 130:0.119151 205:0.049532 229:0.080371998 239:0.034630999 240:0.076747 243:0.176369 248:0.054334 249:0.124345 258:0.13142 300:0.059390999 392:0.065701 394:0.082184002 559:0.078291997 585:0.155662 717:0.14972299 731:0.072570004 752:0.096248001 825:0.069454998 833:0.101624 863:0.096248001 935:0.078387 979:0.092580996 983:0.41757101 988:0.132732 991:0.070217997 1033:0.089795999 1040:0.32032701 1122:0.154596 1540:0.084011003 1736:0.087408997 1778:0.125644 1819:0.130604 1821:0.20249701 1904:0.180369 3715:0.218881 6200:0.18521599 10264:0.180369 13620:0.22800501 #
-0.067998293238376764091590587213432 18:0.050647002 59:0.050027002 69:0.043721002 76:0.033757001 100:0.080932997 104:0.043145001 110:0.082532004 112:0.041430999 113:0.035971001 146:0.063814998 160:0.077344999 231:0.104541 236:0.034752 238:0.069287002 239:0.018643999 240:0.069958001 258:0.057082999 260:0.155113 261:0.083949 271:0.063752003 313:0.055094998 315:0.056701001 322:0.060547002 331:0.120991 336:0.15258101 337:0.167272 342:0.102883 355:0.198531 448:0.049741 470:0.055953 493:0.055408001 628:0.091812998 649:0.088426001 697:0.080805004 741:0.075218 765:0.084243 777:0.071365997 858:0.052528001 896:0.070179999 933:0.055725001 993:0.114245 1020:0.17008901 1026:0.068272002 1116:0.104532 1125:0.069851004 1317:0.21259899 1338:0.13595501 1426:0.16132499 1427:0.079677001 1478:0.104532 1617:0.184479 1736:0.190134 3043:0.168832 3377:0.123846 4088:0.44857401 4877:0.142208 5218:0.132926 5407:0.35728601 6001:0.17423999 8786:0.191038 #
-0.10000000000000000555111512312578 11:0.040109999 12:0.070583999 14:0.128442 38:0.056016002 41:0.047533002 50:0.055178002 59:0.094433002 63:0.045953002 87:0.032990001 91:0.098112002 113:0.040103 114:0.077569 126:0.026822999 174:0.16219699 192:0.082101002 195:0.102136 217:0.056423999 219:0.113457 226:0.055454001 232:0.033530999 241:0.069017999 251:0.183998 273:0.207875 328:0.089520998 338:0.181835 350:0.045536999 445:0.081784002 448:0.093892999 491:0.080550998 508:0.129747 739:0.091706999 761:0.104224 787:0.078148998 818:0.088289998 837:0.068448 928:0.139009 954:0.112321 1060:0.106488 1125:0.20321 1129:0.149453 1131:0.090374 1203:0.117706 1321:0.084431998 1366:0.16241001 1469:0.282085 1578:0.123439 1597:0.38467699 1760:0.113999 2372:0.29180601 2824:0.130725 3672:0.14699499 4168:0.15077101 6371:0.32890299 #
-0.10000000000000000555111512312578 9:0.116916 11:0.044550002 19:0.071139 44:0.05779 50:0.053897999 89:0.066119 91:0.056602001 94:0.065397002 112:0.055923998 114:0.044751 126:0.044362001 131:0.060192998 169:0.100376 174:0.158435 236:0.037845001 300:0.058956999 312:0.075540997 336:0.221044 338:0.156204 370:0.042564999 392:0.065219998 414:0.080300003 436:0.211676 458:0.070772998 465:0.077812999 510:0.084841996 592:0.064236999 640:0.114976 656:0.074100003 706:0.129648 722:0.072268002 731:0.072039001 780:0.099275 787:0.160201 889:0.098697998 914:0.077064998 960:0.198084 967:0.092559002 1121:0.107578 1122:0.26701301 1125:0.076068997 1126:0.065756001 1140:0.081041001 1236:0.108778 1260:0.125292 1274:0.105875 1364:0.10326 1367:0.12898 1466:0.24717499 1518:0.101572 1666:0.109715 1693:0.200508 1721:0.114591 2016:0.138393 2164:0.128328 2354:0.136573 2662:0.154866 6267:0.20804299 6268:0.189749 6269:0.38321999 #
0.10000000000000000555111512312578 11:0.040463999 18:0.056963 33:0.066756003 35:0.036674999 42:0.116479 43:0.061081 44:0.035250001 63:0.078491002 75:0.048283 76:0.037966002 89:0.068286002 91:0.058456998 99:0.046783999 105:0.031073 108:0.064309999 110:0.15716401 113:0.040456999 126:0.02706 204:0.081261002 216:0.064692996 232:0.080720998 243:0.075773001 250:0.081772 293:0.070446 315:0.107974 324:0.074164003 336:0.081772 390:0.167633 482:0.092823997 596:0.20553701 606:0.281102 607:0.27155599 677:0.082824998 785:0.090310998 894:0.061569002 907:0.112985 945:0.093134999 993:0.103666 1012:0.072498001 1125:0.133017 1212:0.12712499 1217:0.121644 1363:0.24911401 1374:0.092823997 1546:0.195968 1698:0.119974 2027:0.159941 2191:0.119974 2735:0.166024 2777:0.210843 2873:0.17386501 4076:0.30597699 6665:0.23375399 6666:0.23375399 6667:0.23375399 #
0.10000000000000000555111512312578 6:0.028790001 11:0.014942 14:0.059305001 23:0.062662996 43:0.047334999 59:0.043602001 70:0.045540001 81:0.057716001 86:0.060044002 98:0.071360998 110:0.187704 124:0.051366001 164:0.072316997 172:0.108533 202:0.10284 203:0.083454996 214:0.045991998 239:0.016249999 241:0.031867001 249:0.047074001 287:0.075879999 330:0.073945999 368:0.092019998 383:0.041568998 426:0.058148999 437:0.37748399 440:0.058719002 458:0.11887 466:0.092649996 543:0.13578901 568:0.073425002 574:0.086574003 679:0.076319002 764:0.072053 780:0.046927001 786:0.092332996 833:0.080738999 921:0.091407001 933:0.048567999 935:0.105444 1000:0.110762 1039:0.13251001 1114:0.098095998 1125:0.10308 1212:0.098514996 1250:0.11002 1459:0.084299996 1490:0.081106 1493:0.117869 1977:0.090811998 2246:0.10074 2261:0.143299 2385:0.092649996 2430:0.084957004 3019:0.249147 3157:0.20140301 3912:0.114018 4207:0.21232501 4355:0.117869 4553:0.13251001 4558:0.14714999 10804:0.16650499 13531:0.16650499 14501:0.181145 14502:0.181145 14503:0.181145 14504:0.181145 14505:0.181145 14506:0.181145 #
0.10000000000000000555111512312578 10:0.030782999 14:0.063274004 23:0.076021001 31:0.093332 45:0.050264001 56:0.054949 70:0.048588 86:0.064061999 89:0.056458998 104:0.067930996 160:0.071924001 169:0.050622001 180:0.060433 181:0.096846998 185:0.15699799 199:0.067524001 217:0.047063001 219:0.076348998 243:0.106074 244:0.037551001 267:0.053764001 276:0.075813003 422:0.080958001 433:0.053307001 634:0.072874002 721:0.073308997 723:0.042399999 770:0.075259998 818:0.15454499 936:0.102154 937:0.064879 984:0.23924901 1026:0.107492 1118:0.11588 1122:0.201961 1269:0.093415998 1305:0.077004001 1312:0.084458001 1321:0.070423998 1353:0.067781001 1412:0.104223 1418:0.094235003 1663:0.31272501 1760:0.095086001 1764:0.11251 1788:0.083059996 2316:0.128131 2350:0.114471 3360:0.115165 3716:0.12575699 3740:0.43971601 3741:0.274335 3742:0.22653399 3743:0.285312 3744:0.17764699 3745:0.152889 #
0.10000000000000000555111512312578 23:0.027702 69:0.035353001 81:0.090662003 91:0.042027999 110:0.066735998 115:0.037434999 126:0.03294 131:0.075673997 142:0.029851001 156:0.025222 179:0.056882001 211:0.067647003 219:0.06639 313:0.044550002 350:0.055920999 397:0.051601 420:0.102565 436:0.065865003 451:0.094812997 523:0.054063998 633:0.065338999 645:0.119363 676:0.047116 721:0.063747004 722:0.112612 802:0.088829003 874:0.081551999 914:0.096885003 921:0.084803 934:0.106614 1125:0.056481998 1250:0.102071 1353:0.058938999 1405:0.066514 1592:0.112537 1596:0.092609003 1650:0.104844 1667:0.100142 1702:0.108397 1756:0.16942801 2011:0.097833999 2073:0.087824002 2148:0.087181002 3365:0.143584 3371:0.085371003 3630:0.136519 4638:0.100142 6584:0.320793 6683:0.117794 7480:0.136519 8823:0.41505399 10294:0.495083 10295:0.16805799 10296:0.154475 10297:0.16805799 10298:0.16805799 #
0.10000000000000000555111512312578 10:0.027951 12:0.053456999 18:0.072405003 23:0.028926 38:0.071828999 63:0.058924999 94:0.10641 99:0.035122 105:0.023327 113:0.030371999 119:0.125838 124:0.049761001 125:0.071635999 137:0.035753999 156:0.055272002 181:0.123936 184:0.063770004 194:0.062341001 200:0.085565001 219:0.085925996 243:0.056885 248:0.041818999 249:0.118999 257:0.120037 313:0.046519 338:0.097710997 350:0.034488 351:0.043559 370:0.033002 383:0.068184003 419:0.038222998 428:0.067905001 448:0.071108997 458:0.054871999 506:0.087415002 544:0.095174998 559:0.060258001 597:0.050027002 728:0.131257 730:0.064121 794:0.069569997 829:0.158922 885:0.059608001 919:0.097593002 928:0.062178999 964:0.072956003 979:0.071255997 983:0.26230299 990:0.090708002 1028:0.085065998 1119:0.067905001 1122:0.23209 1125:0.099859998 1130:0.083408996 1146:0.056272 1353:0.061544001 1441:0.121485 1445:0.100003 1603:0.105218 1760:0.086337 2039:0.085565001 2123:0.26156899 2354:0.105889 2716:0.138822 3481:0.120073 4292:0.124639 4332:0.142553 5171:0.153006 5532:0.470373 6590:0.124639 9999:0.27310899 11909:0.175486 #
-0.10000000000000000555111512312578 10:0.037849002 11:0.019601 35:0.017766001 44:0.035835002 76:0.038596001 88:0.061705001 91:0.059427001 99:0.047559999 110:0.094364002 112:0.047371 113:0.086312003 121:0.091081001 122:0.047357 156:0.085105002 206:0.067264996 211:0.095652997 226:0.056871999 232:0.072167002 239:0.021317 256:0.10239 267:0.066105001 308:0.206504 327:0.054607 330:0.097005002 350:0.046700999 397:0.15312301 433:0.110975 474:0.071823999 517:0.199169 559:0.171242 596:0.074844003 654:0.088688999 677:0.084198996 732:0.13992099 775:0.110307 777:0.081597999 778:0.107089 794:0.094207004 852:0.100508 896:0.080241002 1125:0.135224 1178:0.110588 1239:0.180013 1338:0.091808997 1447:0.12031 1694:0.187723 1730:0.14248 2026:0.13094901 2688:0.17675 2731:0.127102 2757:0.30288899 2989:0.282011 3365:0.203027 3858:0.193037 4313:0.180013 6800:0.218426 10978:0.23763201 10979:0.23763201 #
-0.10000000000000000555111512312578 16:0.081964999 19:0.078426003 23:0.069638997 41:0.086667001 42:0.073435001 45:0.064893998 83:0.064792 87:0.035526 88:0.064792 91:0.062401 98:0.058056001 110:0.167766 112:0.029378001 115:0.055582002 116:0.071195997 142:0.044321001 192:0.088412002 232:0.075778 239:0.022383999 247:0.078426003 248:0.100678 256:0.063499004 276:0.041017 315:0.068072997 322:0.072691001 324:0.13404199 370:0.046925999 390:0.085266002 393:0.061797999 397:0.076614998 419:0.054347999 596:0.219402 607:0.233869 670:0.103736 719:0.082803003 820:0.14446101 823:0.242001 933:0.066900998 935:0.085785002 986:0.32054201 1004:0.070138 1019:0.117959 1060:0.194159 1125:0.083861001 1136:0.134005 1217:0.076691002 1340:0.093534 1341:0.33385301 1606:0.128976 1650:0.15566599 2144:0.113294 4880:0.29247099 4881:0.249522 4882:0.19290499 4883:0.249522 #
-0.10000000000000000555111512312578 23:0.060141001 35:0.016109999 36:0.032427002 48:0.063836001 73:0.092234999 98:0.050138 99:0.043127999 105:0.028644999 126:0.024945 142:0.080326997 156:0.054758001 183:0.079623997 192:0.076352999 217:0.052474 232:0.031184001 239:0.019331001 241:0.079557002 246:0.22479901 249:0.094814003 276:0.035422999 287:0.29811299 300:0.056131002 363:0.104156 445:0.076058 465:0.074083999 484:0.081253 491:0.074910998 572:0.082865998 616:0.081984997 656:0.070548996 775:0.16936199 794:0.085428998 803:0.079177 818:0.082108997 874:0.061760001 979:0.087499 990:0.23375399 993:0.056442998 998:0.30831799 1004:0.060571 1125:0.172823 1126:0.131383 1140:0.16192301 1257:0.122799 1341:0.103275 1426:0.098789997 1571:0.100283 1596:0.118747 1625:0.17504901 1694:0.17023 1821:0.113033 1920:0.123435 1933:0.107341 2033:0.224638 2122:0.124758 2757:0.274665 3365:0.184109 6201:0.180656 8146:0.187885 11381:0.215489 #
-0.063727391675381842017777955788915 11:0.043241002 35:0.023148 36:0.046592001 41:0.063515998 76:0.050287999 83:0.080397002 100:0.120569 131:0.082341999 142:0.115415 150:0.107367 156:0.078677997 239:0.027775001 356:0.095545001 370:0.058228001 415:0.109282 420:0.111603 433:0.085399002 492:0.190501 588:0.203495 596:0.204652 719:0.102747 780:0.080209002 853:0.16560601 889:0.13501599 1125:0.10406 1341:0.148388 1650:0.114083 1659:0.36840999 2077:0.14922801 2085:0.172189 6930:0.48186299 6938:0.40528399 13130:0.26995799 #
-0.021259795286358591087649827500172 8:0.132908 10:0.038479999 18:0.099682003 30:0.088035002 35:0.018061999 36:0.036355 60:0.057491001 87:0.034398001 104:0.050154001 112:0.028445 126:0.047354002 128:0.121293 137:0.083342999 210:0.080173001 213:0.163258 214:0.061340999 216:0.066863999 217:0.140388 223:0.071301997 230:0.110489 232:0.059195001 275:0.15634 350:0.047479998 370:0.045435999 384:0.109696 397:0.074180998 434:0.069430001 441:0.115147 447:0.116113 597:0.068873003 722:0.130611 723:0.053002998 786:0.123146 797:0.080265 804:0.091917999 838:0.093634002 885:0.19583 921:0.121912 962:0.097928002 1268:0.078230001 1309:0.127699 1344:0.12073 1353:0.084729999 1647:0.105578 1783:0.158649 1924:0.135639 2121:0.22059301 2415:0.47659501 4117:0.17159399 5397:0.210648 6282:0.17969801 11171:0.323596 12724:0.241597 #
0.10000000000000000555111512312578 23:0.068058997 45:0.107382 105:0.054885 112:0.048613001 198:0.233325 205:0.089698002 236:0.06904 354:0.099889003 383:0.160427 394:0.148828 491:0.243027 540:0.43350101 806:0.34714201 967:0.168851 1018:0.22752801 1122:0.27995801 1125:0.234955 1309:0.21824101 1398:0.20835 1693:0.29510701 2077:0.199002 2824:0.232943 #
0.10000000000000000555111512312578 6:0.032304998 11:0.028387999 18:0.138285 31:0.079195 35:0.015196 44:0.051899001 83:0.052781001 87:0.02894 104:0.042197 108:0.055922002 126:0.023530999 158:0.17985199 164:0.047927 169:0.111733 198:0.067841001 236:0.033987999 239:0.018234 256:0.051727001 276:0.033413999 282:0.055780999 321:0.072780997 392:0.058572002 405:0.068879999 420:0.073266998 452:0.046967998 470:0.054722998 485:0.22458801 493:0.054189 550:0.215372 699:0.112926 719:0.114208 741:0.073564 818:0.077450998 838:0.078778997 858:0.051373001 983:0.19713899 990:0.30951801 993:0.090144999 1057:0.082391001 1122:0.194245 1131:0.134233 1215:0.43871099 1311:0.123456 1353:0.071286999 1433:0.085308999 1469:0.088638 1487:0.22011501 1760:0.100005 1788:0.087357 2039:0.09911 2062:0.095083997 2128:0.117049 2354:0.122652 2454:0.151188 3024:0.20326599 3025:0.15398 3026:0.148691 3027:0.15398 3028:0.151188 3029:0.16512001 #
0.10000000000000000555111512312578 9:0.045699999 10:0.036770001 35:0.017259 36:0.034738999 45:0.101656 60:0.054935999 87:0.032869 105:0.030687001 115:0.051424 126:0.026725 142:0.041005999 191:0.116111 192:0.081798002 205:0.050152 221:0.043136999 229:0.081377998 232:0.056564 236:0.038601 243:0.157047 258:0.063405998 273:0.086791001 317:0.094577998 336:0.136737 338:0.12854201 350:0.045370001 353:0.078045003 397:0.120016 434:0.066343002 464:0.073244996 508:0.076347999 676:0.064722002 737:0.093248002 753:0.105323 759:0.16656201 764:0.091826998 889:0.10067 910:0.073168002 929:0.148937 954:0.189475 1004:0.064891003 1033:0.090919003 1111:0.166308 1122:0.272347 1125:0.077587999 1217:0.070954002 1342:0.14804301 1427:0.149848 1441:0.159817 1445:0.131557 1468:0.077953003 1649:0.166308 1724:0.098614 1741:0.101318 1806:0.116492 1924:0.272001 1938:0.29829001 2009:0.107435 2375:0.16181201 3034:0.145307 3491:0.114635 6363:0.166308 8149:0.19354001 13593:0.230857 13594:0.230857 #
0.10000000000000000555111512312578 18:0.050386999 22:0.056081999 23:0.057707001 44:0.031181 45:0.053775001 74:0.093659997 75:0.042709 88:0.053691 98:0.048108999 110:0.214257 126:0.023936 131:0.115402 142:0.036727 156:0.080977 181:0.128426 214:0.088886999 272:0.044686001 300:0.053860001 328:0.079884999 354:0.050021999 382:0.094562002 385:0.074978001 444:0.15179799 506:0.174391 592:0.058683999 616:0.078667 699:0.067846 764:0.082245998 838:0.080136001 889:0.090166003 920:0.102674 928:0.124046 1032:0.094792999 1069:0.078667 1125:0.069493003 1154:0.099941999 1446:0.170701 1450:0.078313999 1466:0.133366 1650:0.076187 1899:0.127307 2012:0.305244 2259:0.107264 2272:0.12321 2354:0.26183599 2416:0.118441 2485:0.23025499 2757:0.12558401 3449:0.28494701 3450:0.217089 5052:0.19005799 5053:0.39885801 5054:0.19005799 #
0.10000000000000000555111512312578 23:0.031911999 44:0.049431998 63:0.038394999 76:0.031445 99:0.038748 104:0.084344 114:0.064811997 126:0.022412 150:0.11367 174:0.13552099 181:0.136731 187:0.096745998 213:0.130825 233:0.079172999 243:0.062757 261:0.132404 276:0.066789001 315:0.052816998 338:0.15192901 356:0.059742998 435:0.078199998 474:0.058515999 594:0.081725001 679:0.081566997 690:0.076752 721:0.124338 723:0.042474002 807:0.039009999 914:0.065918997 1001:0.089640997 1109:0.095836997 1122:0.25604999 1217:0.100749 1254:0.125974 1397:0.072361 1412:0.176771 1445:0.110326 1466:0.124873 1469:0.084423997 1540:0.071335003 1578:0.103137 1760:0.227295 1761:0.12964299 1967:0.211428 1998:0.093847997 1999:0.116821 2094:0.117586 2163:0.097057 2395:0.16230699 2508:0.101173 2867:0.262059 3034:0.121858 3742:0.31982499 4841:0.149674 6584:0.14162201 11552:0.37345701 11553:0.177954 #
-0.10000000000000000555111512312578 1:0.115297 6:0.030684 11:0.015924999 35:0.014434 36:0.049189001 59:0.046471 60:0.045942001 85:0.092773996 105:0.043451998 109:0.101172 110:0.129806 121:0.073997997 122:0.065144002 138:0.052891999 145:0.080539003 155:0.095054001 203:0.088946 206:0.054648999 240:0.064985 243:0.131336 248:0.046007 249:0.084946997 258:0.11128 267:0.053707 273:0.122893 276:0.053734001 300:0.05029 321:0.069127001 341:0.061776001 350:0.037942 383:0.044303998 404:0.061974999 554:0.088293001 579:0.070641004 596:0.060807001 656:0.063207 825:0.058811001 833:0.086051002 933:0.051764 965:0.104113 1058:0.127995 1122:0.16225199 1133:0.111702 1142:0.065422997 1334:0.087041996 1441:0.133653 1445:0.110019 1501:0.078952 1609:0.189037 1868:0.180951 2089:0.105915 2172:0.168331 2455:0.33701 2568:0.156831 3153:0.14625099 3481:0.223664 3715:0.18533701 3791:0.161855 4832:0.122477 6200:0.156831 11653:0.50378603 #
-0.10000000000000000555111512312578 9:0.044844002 23:0.03734 49:0.060837001 50:0.053945001 81:0.072177999 89:0.066175997 104:0.122713 131:0.060245998 151:0.081763998 156:0.100156 178:0.087796003 181:0.1407 192:0.080265999 198:0.075606003 210:0.127281 212:0.069417 239:0.034407999 313:0.101676 317:0.092805997 351:0.056228999 356:0.069904998 370:0.072131999 420:0.081653997 454:0.094711997 458:0.070834003 465:0.131864 592:0.064292997 650:0.076673999 778:0.102087 799:0.086580001 810:0.105154 886:0.14258599 954:0.18592601 956:0.090871997 976:0.090107001 1017:0.170954 1018:0.21135999 1032:0.103853 1069:0.145926 1108:0.081984997 1296:0.082544997 1412:0.206838 1420:0.15439001 1511:0.13187499 1571:0.105422 1693:0.095625997 1694:0.105693 1863:0.104108 2080:0.105967 2187:0.131152 2271:0.23615099 2272:0.28328401 2485:0.120204 3365:0.11431 3742:0.15682299 6181:0.15682299 7472:0.17513201 10974:0.208223 10975:0.197513 10976:0.226533 10977:0.226533 #
-0.081951917380529509804532040107006 10:0.046673998 11:0.040925998 35:0.037094001 60:0.069734 87:0.041722 88:0.076093003 98:0.068181999 109:0.174615 219:0.068371996 240:0.15201899 248:0.146552 249:0.12893701 270:0.12974 271:0.089887999 330:0.20254099 597:0.141443 668:0.081170999 717:0.192431 794:0.116174 813:0.118572 885:0.099538997 895:0.117957 935:0.100747 977:0.104925 1075:0.145061 1122:0.280036 1133:0.100138 1427:0.112342 1580:0.285712 2672:0.180424 2837:0.322846 2864:0.177982 4095:0.202866 6029:0.20539799 6101:0.255503 7276:0.293042 7277:0.269357 #
-0.044364521272148987884875737108814 2:0.15384001 6:0.040008999 15:0.043109 18:0.103866 22:0.068278 36:0.037881002 37:0.16541301 42:0.074086003 56:0.071572997 60:0.059904002 62:0.067828 63:0.049924001 89:0.073538996 99:0.050383002 105:0.056658 163:0.222578 164:0.059354998 171:0.166776 178:0.097563997 181:0.074504003 198:0.14225499 202:0.084408 208:0.053879 239:0.038236 261:0.101682 267:0.070028998 287:0.178543 290:0.100639 321:0.090135999 383:0.09781 389:0.080810003 415:0.088852003 424:0.124231 427:0.098820001 493:0.113629 494:0.088398002 496:0.123852 545:0.092110001 559:0.086441003 575:0.090374999 665:0.089312002 713:0.104268 785:0.097258002 799:0.096212 803:0.092495002 1004:0.070759997 1008:0.191277 1432:0.110244 1445:0.24289 1533:0.115407 1612:0.166894 2077:0.121329 3226:0.157251 3371:0.12787899 3545:0.1561 3912:0.15844899 5714:0.204494 7976:0.34623799 12916:0.25173599 12917:0.25173599 #
-0.032978963572097383383230351228121 11:0.045740001 15:0.094961002 18:0.135132 37:0.123689 52:0.133935 104:0.067989998 108:0.090104997 128:0.097113997 131:0.087100998 142:0.098498002 143:0.130017 145:0.080693997 181:0.25293499 197:0.15003 208:0.118685 221:0.061198 226:0.078382999 231:0.097296998 232:0.047394998 236:0.054763 248:0.132146 249:0.17861401 291:0.136161 306:0.157405 336:0.114572 420:0.19988 435:0.13229001 444:0.298967 450:0.107826 492:0.201511 493:0.147834 523:0.105362 668:0.216484 671:0.096478 739:0.12962499 807:0.065991998 894:0.086264998 930:0.159692 956:0.13138101 1122:0.131157 1211:0.140468 1340:0.122769 1374:0.13005599 1433:0.137455 1494:0.17244799 1515:0.119506 1769:0.153604 2321:0.17811599 2852:0.22673 3392:0.213109 #
