SVM-light Version V6.02
0 # kernel type
3 # kernel parameter -d 
1 # kernel parameter -g 
1 # kernel parameter -s 
1 # kernel parameter -r 
empty# kernel parameter -u 
14598 # highest feature index 
2865 # number of training documents 
708 # number of support vectors plus 1 
1.0159467 # threshold b, each following line is a SV (starting with alpha*y)
-0.046774176639419760836968720241202 41:0.030130001 63:0.049318001 89:0.042906001 93:0.042438 109:0.036674999 131:0.03906 182:0.094328001 183:0.054269999 189:0.082459003 208:0.031435002 222:0.085391 262:0.13144299 336:0.051380001 383:0.033705 385:0.031454999 405:0.084269002 414:0.052108999 497:0.025235999 552:0.051773001 588:0.057013001 637:0.055628002 668:0.040683001 671:0.043265998 682:0.045878999 783:0.043347001 827:0.228376 906:0.045187 935:0.120495 1488:0.081303999 1495:0.096446998 1500:0.075648002 1700:0.082065001 1703:0.074864 1970:0.093935996 2336:0.10744 2375:0.102946 2385:0.075121 2493:0.082065001 2551:0.178817 3129:0.100496 3512:0.089805998 4233:0.089805998 4614:0.123132 4634:0.10744 4794:0.111261 5149:0.113548 5295:0.095569 6515:0.128059 7155:0.105807 7559:0.128059 8103:0.11931 8425:0.11931 8565:0.128059 9310:0.123132 9769:0.116188 10222:0.135003 10323:0.11931 11617:0.146874 11618:0.123132 11619:0.146874 11620:0.146874 11621:0.146874 11622:0.146874 11623:0.22858 11624:0.248679 11625:0.146874 11626:0.146874 11627:0.248679 11628:0.22858 11629:0.146874 11630:0.146874 11631:0.146874 11632:0.146874 11633:0.135003 #
-0.10000000000000000555111512312578 18:0.065208003 36:0.096088 44:0.084683999 87:0.038098 107:0.099439003 108:0.124647 109:0.14022601 110:0.179913 111:0.311221 112:0.031505 113:0.046312001 114:0.052907001 115:0.059606001 116:0.076350003 117:0.49593601 118:0.14089499 119:0.22448599 120:0.32437301 121:0.158067 122:0.148876 123:0.125605 124:0.075878002 125:0.109233 126:0.052448001 127:0.093489997 128:0.134342 129:0.127186 130:0.139837 131:0.071163997 132:0.13831501 133:0.171142 134:0.081513003 135:0.154089 136:0.113849 137:0.05452 138:0.073308997 139:0.131253 140:0.181078 141:0.14881299 142:0.047529999 143:0.062739998 144:0.085530996 145:0.111628 146:0.082162 147:0.104368 #
-0.044385472531382585970050058676861 10:0.058327001 11:0.046553001 18:0.052705999 35:0.016170001 49:0.058084998 70:0.092064999 77:0.211234 87:0.030794 128:0.064133003 164:0.107023 182:0.082041003 214:0.092978999 217:0.052668002 229:0.076242 250:0.075662002 314:0.096840002 327:0.049702 385:0.046321001 443:0.054088999 445:0.076338999 454:0.090428002 458:0.06763 491:0.157792 508:0.071529999 597:0.061657999 633:0.084090002 670:0.089919001 679:0.091123998 689:0.34997201 1018:0.119186 1019:0.102248 1020:0.104542 1021:0.17109901 1022:0.198806 1023:0.343844 1024:0.33660701 1025:0.101975 1026:0.071047999 1027:0.20512 1028:0.104844 1029:0.155812 1030:0.216287 1031:0.36620501 1032:0.099155001 1033:0.085180998 1034:0.216287 #
-0.064403806514509720493322220136179 9:0.052648 14:0.087070003 41:0.092373997 59:0.108388 98:0.061879002 105:0.059858002 113:0.04603 126:0.073468 155:0.130941 172:0.159345 194:0.15996601 198:0.150289 199:0.092918999 201:0.279347 204:0.092454001 239:0.023858 248:0.063377 258:0.073045 263:0.178092 276:0.114081 290:0.062795997 295:0.132062 300:0.117295 315:0.072555996 327:0.061115 470:0.071598999 494:0.093391001 513:0.12746 523:0.179552 579:0.097312003 614:0.121925 682:0.17434201 700:0.116721 723:0.098788999 906:0.081822999 935:0.091434002 977:0.095225997 1209:0.099115998 1292:0.153147 1296:0.16408201 1342:0.100729 1368:0.105964 1569:0.24814001 1623:0.109153 2136:0.205608 2260:0.30896199 2750:0.168718 4653:0.210388 5232:0.29300201 7076:0.231884 #
-0.041993292484877001169429888705054 1:0.076165996 11:0.046332002 13:0.107186 15:0.096189 22:0.122915 23:0.044119 26:0.172987 37:0.059700999 44:0.040362999 55:0.25880501 56:0.076099001 97:0.096998997 98:0.105442 104:0.055564001 143:0.106254 145:0.065945998 194:0.095083997 201:0.18241701 214:0.067956999 223:0.078993 226:0.064057 244:0.052003998 249:0.069554999 258:0.154275 371:0.118501 385:0.057323001 428:0.103571 465:0.092018999 470:0.072058 497:0.096511997 622:0.122111 656:0.087627999 738:0.232492 805:0.14202601 811:0.082760997 858:0.067647003 863:0.112986 910:0.084830999 969:0.15496001 993:0.070106998 1054:0.12456 1065:0.27635401 1225:0.098621003 1477:0.112119 1514:0.152527 1532:0.153317 1533:0.122706 1540:0.098621003 1945:0.16719601 2017:0.17416 2329:0.134619 5702:0.20692401 12186:0.453181 #
0.10000000000000000555111512312578 35:0.025474999 63:0.067576997 109:0.085087001 128:0.059675001 137:0.086052001 148:0.157774 171:0.187914 192:0.071309 204:0.069962002 216:0.094306 223:0.059395 256:0.051215 290:0.047518998 313:0.090328999 322:0.187451 350:0.039551999 399:0.092490003 419:0.043834999 454:0.084142998 483:0.071401 485:0.157774 491:0.118456 634:0.075884998 708:0.099316999 722:0.064259 807:0.068659 855:0.110336 899:0.098128997 976:0.080050997 1196:0.151535 1313:0.121437 1334:0.090735003 1424:0.136457 1497:0.169737 1538:0.26343399 1539:0.102234 1540:0.074153997 1541:0.18498699 1542:0.23958901 1543:0.201253 1544:0.117159 1545:0.40261701 1546:0.285669 1547:0.095397003 1548:0.201253 1549:0.085288003 1550:0.201253 1551:0.201253 1552:0.102582 1553:0.11528 #
0.10000000000000000555111512312578 10:0.036630999 11:0.032118998 85:0.065273002 92:0.086462997 109:0.149856 112:0.027078001 115:0.051229998 142:0.040851001 155:0.066877 178:0.089134 182:0.20817199 205:0.049961999 206:0.065099999 222:0.078971997 239:0.020631 241:0.068503 250:0.080453999 257:0.074961998 276:0.064011 280:0.26748499 396:0.085835002 404:0.154935 410:0.072892003 414:0.081595004 434:0.15771601 440:0.12622599 475:0.095435999 477:0.091023996 504:0.077749997 508:0.076059997 524:0.148339 588:0.15115499 597:0.137591 640:0.116829 670:0.161888 685:0.093716003 707:0.090723999 731:0.073200002 807:0.046340998 837:0.067938 863:0.097084001 976:0.091480002 1133:0.078589998 1198:0.094391003 1274:0.107582 1278:0.13039701 1307:0.125617 1351:0.124544 1587:0.29511601 1668:0.1612 1669:0.085959002 1670:0.148339 1671:0.122519 1672:0.482649 1673:0.21139599 1674:0.151023 #
0.10000000000000000555111512312578 6:0.078831002 8:0.161158 11:0.050710998 35:0.037082002 37:0.065343 50:0.069761001 62:0.078932002 91:0.15374599 98:0.068161003 109:0.225265 111:0.13057099 114:0.057921998 119:0.088031001 122:0.058380999 124:0.083070002 126:0.033911999 142:0.052035 145:0.072177999 163:0.123423 172:0.103665 181:0.086700998 197:0.079259001 214:0.074378997 219:0.068351001 223:0.206313 231:0.087029003 239:0.026280001 248:0.069811001 271:0.089859001 276:0.048156001 327:0.067318 341:0.093737997 392:0.084415004 419:0.063807003 445:0.103398 450:0.096446998 453:0.083961003 497:0.120113 583:0.110624 597:0.141399 617:0.109177 722:0.093538001 728:0.12941299 739:0.115944 797:0.271709 851:0.13668101 874:0.083961003 976:0.116525 1033:0.115374 1075:0.145016 1424:0.117315 1515:0.106894 1549:0.2102 1783:0.19237 1892:0.28122699 1893:0.255422 1894:0.231745 1895:0.29295 1896:0.13812 #
0.10000000000000000555111512312578 3:0.095954999 9:0.059491001 12:0.091545001 23:0.049536001 24:0.117401 36:0.045221999 44:0.045318998 63:0.059599001 81:0.095752001 87:0.042787001 91:0.179341 109:0.17907199 172:0.25376901 205:0.065286003 232:0.103777 241:0.089512996 248:0.071615003 256:0.076476999 276:0.049401 352:0.058355 385:0.064360999 393:0.074428 397:0.092274003 418:0.12685899 445:0.276784 457:0.16025899 459:0.115745 470:0.080906004 472:0.173987 538:0.142839 559:0.24624699 594:0.12685899 650:0.101717 737:0.121387 812:0.118162 813:0.121599 859:0.140214 885:0.10208 908:0.13217901 1013:0.100416 1211:0.12889101 1268:0.164759 1555:0.41063401 1949:0.162742 1950:0.37580901 #
0.10000000000000000555111512312578 18:0.063280001 35:0.019414 49:0.069738001 63:0.051499002 76:0.071410999 91:0.064939998 95:0.077436998 109:0.220328 112:0.030574 124:0.192145 126:0.030060999 128:0.076999001 149:0.084733002 150:0.090048 155:0.075511001 156:0.081788003 197:0.070256002 219:0.060587998 223:0.076637998 227:0.19884899 232:0.063625 239:0.023295 248:0.061882 293:0.078258999 322:0.075649001 324:0.082388997 327:0.059672002 350:0.051033001 429:0.1008 444:0.090839997 515:0.17052101 527:0.137255 648:0.184526 668:0.071929 722:0.082914002 733:0.316939 740:0.170132 743:0.103464 760:0.148054 817:0.177284 856:0.109831 1217:0.079811998 1375:0.41083199 1513:0.143748 1579:0.123091 1682:0.141835 1724:0.110924 1951:0.16608199 1952:0.226411 1953:0.33098701 1954:0.122108 #
-0.10000000000000000555111512312578 6:0.039675001 15:0.042748999 27:0.102828 35:0.018663 37:0.055681001 59:0.060088001 60:0.10058 109:0.174024 112:0.029391 126:0.028898001 128:0.125328 131:0.066389002 137:0.12137 150:0.086566001 155:0.072590999 156:0.078625001 169:0.065385997 206:0.070661999 212:0.076495998 239:0.022394 241:0.043915998 293:0.075231999 322:0.152619 429:0.164069 493:0.066551 634:0.159372 648:0.17738999 668:0.069146998 733:0.30468199 742:0.14153799 874:0.071546003 894:0.065752 896:0.084293 916:0.129034 975:0.15422601 1015:0.13298699 1106:0.189105 1125:0.083898999 1422:0.090345003 1724:0.223785 1814:0.14375 1953:0.151618 1954:0.36148399 2510:0.13246299 3045:0.192992 3062:0.142257 3633:0.159659 3785:0.16101301 3941:0.13948201 4293:0.12997299 4857:0.343346 #
-0.10000000000000000555111512312578 10:0.043269999 31:0.062513001 33:0.077583 36:0.069215998 50:0.064692996 60:0.064645998 74:0.25824699 105:0.086173996 109:0.114857 115:0.060513999 128:0.080553003 137:0.093716003 142:0.048253998 156:0.069032997 164:0.134425 223:0.13575 225:0.109164 227:0.16783699 229:0.16214 232:0.039313 236:0.045425002 241:0.047791999 247:0.085386001 248:0.13586099 266:0.141967 290:0.064144999 313:0.072015002 322:0.079141997 348:0.128773 352:0.052751001 366:0.143592 443:0.067938 452:0.062771998 457:0.223272 464:0.180885 614:0.124543 665:0.096382 722:0.242162 730:0.099264003 733:0.29159901 735:0.29261401 807:0.114876 811:0.084000997 935:0.093396999 981:0.116752 1217:0.083497003 1234:0.105958 1450:0.102893 1545:0.227751 3957:0.34212199 4349:0.236864 #
-0.10000000000000000555111512312578 10:0.070644997 11:0.051562998 35:0.019585 44:0.039503999 59:0.106762 83:0.068021998 91:0.110921 104:0.054381002 105:0.058959 108:0.122026 109:0.156096 112:0.030843001 113:0.045338999 128:0.13151801 155:0.128977 199:0.154965 217:0.063790001 227:0.161843 232:0.037909001 236:0.104526 239:0.023499999 244:0.050898001 256:0.066665001 276:0.043062001 292:0.070524998 300:0.068236999 317:0.107321 323:0.097070999 327:0.060198002 354:0.063375004 385:0.094990999 399:0.31415099 418:0.110582 440:0.178207 444:0.091640003 453:0.07508 597:0.074679002 654:0.097769998 661:0.101687 665:0.092940003 710:0.13741 722:0.083644003 740:0.101368 752:0.110582 807:0.052784 808:0.164886 1033:0.10317 1057:0.106182 1098:0.15807 1133:0.089516997 1171:0.105812 1375:0.238203 1609:0.122224 2184:0.101687 2401:0.13741 2661:0.147073 3358:0.51782697 6524:0.173673 #
-0.10000000000000000555111512312578 1:0.074453004 11:0.021581 41:0.053672001 49:0.070263997 59:0.062976003 60:0.062259 81:0.083361 86:0.086723 87:0.037250001 93:0.075595997 98:0.103069 109:0.170478 115:0.058279999 155:0.128815 170:0.089512996 192:0.15696 197:0.119851 201:0.105314 208:0.094811 217:0.063709997 226:0.062615998 238:0.087220997 239:0.023469999 241:0.046027001 322:0.129051 326:0.100767 341:0.083717003 352:0.050804 419:0.056986 445:0.22036199 544:0.14189699 559:0.089838997 597:0.074584998 652:0.13993999 654:0.097646996 668:0.072471 670:0.108771 735:0.22736099 760:0.071079999 765:0.106049 974:0.174178 995:0.108569 1008:0.117413 1060:0.120239 1172:0.145502 1196:0.116351 1824:0.23132899 1998:0.126826 2196:0.158906 2306:0.116877 2771:0.198195 3412:0.16733401 3941:0.14618701 4299:0.170241 6933:0.21934099 9002:0.44298401 #
-0.10000000000000000555111512312578 10:0.040070999 15:0.043081999 18:0.17115401 44:0.037937999 49:0.067564003 91:0.062914997 104:0.124627 108:0.069214001 109:0.062821001 113:0.043542001 124:0.18615399 127:0.087897003 128:0.156552 150:0.087241001 206:0.071213 219:0.058699001 223:0.12571301 232:0.061641999 239:0.022569001 250:0.088008001 272:0.054370001 370:0.047313001 428:0.164828 617:0.158749 723:0.055193 797:0.19945 804:0.20087101 811:0.077790998 812:0.098918997 1004:0.070716001 1075:0.124537 1112:0.128235 1135:0.19772799 1170:0.123401 1198:0.103254 1211:0.107901 1234:0.098123997 1332:0.41216499 1424:0.170581 1724:0.33093601 2011:0.146457 2037:0.139911 2691:0.116781 2692:0.30254 3639:0.149912 8453:0.25158101 #
0.10000000000000000555111512312578 26:0.132387 35:0.032138001 36:0.135754 48:0.127345 62:0.115826 69:0.090429999 71:0.179729 77:0.47738501 87:0.146051 145:0.105914 156:0.064516 186:0.182896 214:0.109144 221:0.080325 241:0.075623997 242:0.45721501 244:0.21794599 321:0.153919 352:0.141331 354:0.103997 385:0.15587901 448:0.174191 497:0.073861003 544:0.288975 690:0.17042001 760:0.116788 787:0.14498501 896:0.145155 1601:0.177072 #
0.10000000000000000555111512312578 6:0.067394003 11:0.057672001 14:0.081993997 33:0.121099 43:0.065443002 76:0.085366003 87:0.035657998 89:0.073161997 105:0.033291999 108:0.116662 122:0.084505998 126:0.049088001 145:0.061705999 156:0.078881003 164:0.099982999 169:0.065599002 202:0.083976001 204:0.087063998 205:0.092119999 208:0.090756997 221:0.079235002 244:0.126976 272:0.054125 278:0.117768 279:0.13039599 292:0.067424998 298:0.32786599 351:0.062165 403:0.27007601 450:0.082454003 452:0.057868998 453:0.071778998 457:0.165539 474:0.075696997 530:0.072232999 631:0.088169999 770:0.097525999 842:0.15888099 843:0.121757 846:0.102789 894:0.065966003 1119:0.096910998 1126:0.072760001 1134:0.107854 1219:0.106556 1298:0.107633 1340:0.093879998 1552:0.127657 7404:0.31019101 8615:0.19812199 9923:0.344464 10341:0.218364 11879:0.25044701 11880:0.25044701 #
0.10000000000000000555111512312578 13:0.090582997 14:0.125385 56:0.064310998 59:0.054446001 76:0.036738999 94:0.065357 104:0.046957001 105:0.030068001 112:0.026632 114:0.044723 115:0.050386 122:0.076324001 198:0.075493999 201:0.091049999 238:0.075407997 239:0.020292001 240:0.044969 243:0.124147 264:0.128901 267:0.062923998 313:0.143088 350:0.075267002 352:0.043923002 396:0.084421001 428:0.087527998 523:0.20315 555:0.097611003 570:0.093005002 575:0.081206001 583:0.085417002 595:0.090276003 596:0.071243003 607:0.12521499 619:0.11865 692:0.128901 760:0.061453 787:0.076289997 811:0.069941998 818:0.14593001 824:0.110619 921:0.114141 922:0.147183 934:0.242961 937:0.075933002 945:0.090124004 1002:0.133187 1004:0.063580997 1168:0.111972 1368:0.090124004 1583:0.095484003 1591:0.242961 1623:0.092836 1903:0.126993 1958:0.17487299 2044:0.158545 2145:0.14026301 2321:0.123015 2346:0.141297 2436:0.117771 3031:0.17487299 4674:0.168244 5262:0.20791499 10526:0.382985 10527:0.226197 #
0.10000000000000000555111512312578 15:0.039025001 22:0.061810002 42:0.067068003 55:0.084444001 69:0.047940001 75:0.047070999 76:0.037013002 105:0.063573003 109:0.056905001 110:0.189913 120:0.115764 121:0.087346002 137:0.046431001 155:0.066266999 206:0.109219 217:0.055493001 222:0.078252003 239:0.020443 240:0.045304999 243:0.125075 249:0.10027 258:0.062590003 287:0.095459998 300:0.059361 397:0.069972001 402:0.112809 433:0.062856004 465:0.078346997 650:0.077133 654:0.085052997 668:0.063124001 782:0.086965002 807:0.045917999 811:0.070464998 812:0.089603998 813:0.092208996 861:0.11178 894:0.060024001 921:0.114994 991:0.070182003 998:0.23134799 1000:0.235927 1005:0.133413 1056:0.125579 1116:0.19406401 1122:0.25477701 1221:0.116158 1226:0.136638 1278:0.129209 1445:0.12986501 1515:0.083154 1650:0.083967999 2026:0.125579 2039:0.111116 2466:0.15108299 2765:0.185121 2766:0.16185699 2767:0.132664 2768:0.18027601 2769:0.15108299 2770:0.20946901 2771:0.17263199 2772:0.185121 2773:0.17263199 2774:0.17618001 2775:0.227888 #
0.10000000000000000555111512312578 10:0.037702002 11:0.019525001 25:0.21613 35:0.017697001 36:0.03562 43:0.129807 60:0.056327999 70:0.059509002 95:0.070588998 131:0.164269 172:0.083764002 197:0.064043 214:0.0601 221:0.074888997 239:0.021235 246:0.094632 271:0.072608002 290:0.094632 292:0.152071 314:0.105984 315:0.064577997 354:0.057264999 385:0.050694998 395:0.091026999 403:0.329409 448:0.118888 494:0.083122 522:0.310664 537:0.38224301 631:0.14109699 676:0.066362999 863:0.099922001 868:0.204989 1163:0.13421001 1405:0.15862399 1569:0.130441 1788:0.24275699 3636:0.161964 9109:0.21757799 11928:0.31705001 13599:0.23671 #
-0.013869418962539924178312134017688 8:0.095562004 10:0.058063999 13:0.145989 14:0.119351 15:0.062428001 38:0.088129997 62:0.098224998 70:0.091649003 99:0.072962001 112:0.042920999 113:0.063093998 122:0.072650999 137:0.074275002 142:0.064753003 206:0.103191 214:0.194245 223:0.182165 231:0.183369 244:0.070831001 389:0.19814 403:0.393125 448:0.087246999 453:0.104482 496:0.17935599 497:0.106054 519:0.165131 550:0.148026 706:0.208821 707:0.243489 708:0.179905 738:0.174106 787:0.122953 910:0.115542 1007:0.15418901 1256:0.170975 1257:0.207744 1736:0.13975701 6609:0.27115199 7816:0.29613799 #
-0.064530796068421034106243894257204 6:0.033188999 9:0.041338999 15:0.03576 26:0.134965 34:0.095270999 35:0.015612 37:0.046579 41:0.042838998 43:0.092390999 45:0.054310001 55:0.077381 76:0.033916999 87:0.070949003 89:0.103288 94:0.102161 97:0.075678997 98:0.082266003 105:0.027759001 126:0.024173999 202:0.070019998 239:0.018733 240:0.041515 241:0.036736999 242:0.157591 266:0.109129 271:0.064055003 315:0.05697 321:0.126599 348:0.098986 350:0.069486 351:0.051833998 354:0.050519999 403:0.290604 405:0.119815 419:0.045483999 440:0.114613 444:0.073051997 494:0.07333 513:0.100081 631:0.124475 677:0.073991999 738:0.058904 780:0.054097001 802:0.110378 857:0.109538 1056:0.115075 1062:0.142885 1146:0.066963002 1449:0.10718 1505:0.24476901 1540:0.076944001 2113:0.128572 2227:0.13587999 2615:0.152758 2986:0.165196 4427:0.191947 5130:0.169636 5438:0.27970201 11928:0.394207 13327:0.20882501 13328:0.20882501 13329:0.20882501 #
-0.081371756289027027952975856806006 1:0.073169 9:0.13282099 23:0.088946 31:0.059167001 32:0.083076 35:0.019223001 44:0.081372999 55:0.095278002 56:0.073105 58:0.089052998 87:0.061983999 93:0.074293002 112:0.030273 126:0.029765001 164:0.060626 172:0.25401601 197:0.069565997 198:0.1453 239:0.023065999 241:0.045233998 244:0.084586002 246:0.102794 353:0.086925998 370:0.048356 385:0.093236998 403:0.116196 410:0.081492998 434:0.12511 497:0.115282 522:0.12932201 544:0.082363002 690:0.101934 700:0.112847 719:0.085326001 738:0.072526999 780:0.112779 868:0.131511 885:0.087338999 935:0.088399 954:0.12464 974:0.101099 1065:0.21418799 1133:0.14876699 1142:0.182855 1317:0.094212003 1342:0.097384997 1421:0.252047 1555:0.19317301 1561:0.177716 1731:0.102794 2260:0.24099401 3348:0.16584501 5813:0.25712499 5814:0.35364899 5815:0.25712499 #
-0.10000000000000000555111512312578 6:0.124964 11:0.038304999 35:0.082849003 77:0.51571399 87:0.066118002 112:0.114744 124:0.22296 126:0.053759001 134:0.14146399 137:0.094617002 206:0.13145199 210:0.15410601 216:0.12852401 223:0.137054 236:0.077650003 239:0.041659001 244:0.090227999 325:0.194159 327:0.106715 419:0.101149 433:0.128087 597:0.132386 624:0.183193 633:0.18055101 723:0.101881 728:0.205148 760:0.26477101 778:0.25939399 896:0.15681 1333:0.21953601 3516:0.31097201 #
-0.040935194629964859192039483559711 6:0.079810001 9:0.058711998 11:0.051339999 15:0.106587 35:0.022173 36:0.044631001 42:0.087286003 69:0.062392 75:0.061260998 76:0.048172001 85:0.14252201 87:0.088619001 98:0.069007002 105:0.066752002 121:0.067139998 122:0.059106 126:0.034334 127:0.103622 137:0.060428001 139:0.145478 143:0.069539003 145:0.123726 155:0.146024 181:0.087778002 183:0.10959 186:0.126187 211:0.119384 239:0.026605999 244:0.120933 245:0.136981 270:0.13131 276:0.048753999 326:0.11423 350:0.058286998 352:0.097510003 354:0.121486 385:0.165749 392:0.085464001 403:0.28127599 404:0.1612 410:0.15915699 433:0.081804 448:0.070981003 492:0.107777 522:0.14917 565:0.159941 574:0.141746 635:0.126187 705:0.107193 743:0.11817 793:0.153304 887:0.115494 910:0.094001003 1012:0.091986001 1142:0.100504 1217:0.154342 1298:0.127463 1374:0.117775 1520:0.12643801 1674:0.32975599 2639:0.16989 2780:0.172658 3397:0.16418099 3508:0.24864499 #
0.10000000000000000555111512312578 11:0.019789999 15:0.041085999 27:0.098829001 35:0.017937001 59:0.057751 60:0.096667998 75:0.049557 109:0.14296401 112:0.028248001 119:0.072097003 126:0.047026001 128:0.120454 131:0.063807003 137:0.12755799 150:0.083199002 155:0.069766998 156:0.036008 169:0.062843002 201:0.096575998 206:0.067914002 212:0.073521003 241:0.042208001 293:0.072306 322:0.14668299 335:0.14877599 429:0.093133003 493:0.063961998 634:0.090466999 648:0.100695 668:0.066458002 733:0.32021499 874:0.068764001 896:0.081014998 916:0.124016 975:0.183724 1015:0.12781499 1106:0.18175 1422:0.147018 1724:0.21508101 1788:0.103111 1814:0.13815901 1954:0.36071301 2510:0.12731101 2691:0.111371 3045:0.185486 3062:0.136724 3633:0.153449 3941:0.134057 4293:0.211505 4325:0.264112 4857:0.329992 #
0.10000000000000000555111512312578 3:0.180334 10:0.037696999 31:0.054462001 35:0.017694 44:0.035691001 59:0.056968998 104:0.083189003 105:0.066024996 109:0.164993 112:0.027866 128:0.070179 135:0.13629 155:0.068823002 156:0.035521001 169:0.061992999 199:0.082690999 205:0.051415998 208:0.085767999 227:0.146222 232:0.071877003 236:0.039574999 239:0.021232 385:0.050687999 390:0.16972999 399:0.184165 419:0.051550999 443:0.141242 452:0.130502 457:0.074543998 483:0.083970003 536:0.13042299 597:0.114238 722:0.075571001 723:0.051924001 726:0.111888 733:0.28887001 752:0.099909 837:0.069916002 899:0.115402 1004:0.066527002 1026:0.077745996 1146:0.075893998 1168:0.11716 1284:0.13042299 1299:0.101716 1353:0.083005004 1396:0.118652 1509:0.12462 1545:0.19842 1731:0.094619997 3001:0.147845 3358:0.42784101 3881:0.165892 5139:0.325528 5140:0.206359 5141:0.19226199 #
0.10000000000000000555111512312578 8:0.169542 11:0.018108999 15:0.063657001 44:0.033108 52:0.089782998 60:0.052244999 62:0.059154999 67:0.1156 70:0.055195 74:0.099449001 98:0.051082 105:0.029184001 109:0.16882201 111:0.165683 115:0.048905 121:0.049699999 128:0.181743 130:0.114732 131:0.058387998 137:0.044732001 155:0.108094 223:0.064795002 232:0.031771 256:0.094598003 284:0.087920003 308:0.112683 311:0.079242997 327:0.105877 341:0.070251003 393:0.054373998 419:0.047820002 428:0.084954999 429:0.085222997 448:0.052544001 483:0.077891998 552:0.131035 634:0.082782999 648:0.092142999 690:0.087038003 722:0.070101 733:0.31349301 738:0.061928 742:0.12448 760:0.059645999 776:0.11308 785:0.084821999 797:0.072939999 804:0.083529003 818:0.083655 825:0.066878997 1004:0.104488 1025:0.103513 1093:0.081587002 1106:0.16631401 1121:0.104352 1178:0.102172 1420:0.088373996 1665:0.105815 1681:0.153401 1724:0.093782999 1953:0.13334499 1954:0.103239 2535:0.10522 2659:0.11308 3023:0.191424 3045:0.169733 3162:0.169733 3163:0.191424 4936:0.17834599 4960:0.27648899 6531:0.18405899 11439:0.219548 #
0.10000000000000000555111512312578 8:0.072199002 10:0.043868002 36:0.041446 38:0.066583 56:0.078307003 119:0.082764998 126:0.031884 137:0.133909 150:0.095509 155:0.080090001 156:0.041336 170:0.094231002 183:0.10177 208:0.16457 216:0.076226003 223:0.081285 226:0.111606 267:0.076618999 268:0.12917399 271:0.084482998 284:0.110297 306:0.13237 322:0.168386 327:0.063290998 383:0.063203998 397:0.084568001 429:0.224369 483:0.097716004 620:0.165139 634:0.175837 648:0.27584001 655:0.110674 668:0.076291002 669:0.13350999 733:0.140871 760:0.074827 782:0.105105 975:0.100499 1069:0.104787 1514:0.15695301 1724:0.246904 1821:0.144472 1954:0.271799 2199:0.13852599 3375:0.21788099 4546:0.21292999 5215:0.20864099 7435:0.25316301 10867:0.275424 #
0.10000000000000000555111512312578 11:0.031807002 35:0.017027 38:0.055057 56:0.064751998 59:0.130815 89:0.066531003 91:0.056954999 93:0.111417 108:0.062656999 109:0.13570701 114:0.045030002 123:0.106902 137:0.046402 155:0.18488599 183:0.084151998 192:0.13663 239:0.02043 254:0.213458 267:0.063354999 290:0.053775001 299:0.097285002 322:0.066347003 341:0.072874002 399:0.219652 419:0.049605001 445:0.19182 483:0.13680699 491:0.13405 544:0.123518 650:0.13051499 655:0.091516003 723:0.049964 726:0.182292 733:0.24445599 752:0.096138 784:0.133329 812:0.15161701 825:0.117464 895:0.15521599 974:0.15161701 1057:0.092312999 1225:0.083915003 1368:0.15363801 1458:0.135709 1509:0.31291401 1519:0.33737901 1724:0.164717 1728:0.160613 1814:0.131146 1954:0.107093 3165:0.13655201 3785:0.14689501 4946:0.148191 #
-0.10000000000000000555111512312578 11:0.018780001 15:0.038989 35:0.017022001 62:0.061347 88:0.059121002 91:0.056938998 105:0.084494002 126:0.026357001 128:0.067511998 156:0.057856001 213:0.090869002 221:0.042544 232:0.032947998 233:0.093108997 241:0.040054001 244:0.074900001 248:0.091866001 250:0.079648003 276:0.037427001 311:0.082177997 326:0.087691002 327:0.05232 348:0.107925 350:0.044746 452:0.052609 457:0.071709998 483:0.080778003 538:0.108218 552:0.168431 594:0.096111998 658:0.116452 665:0.080778003 669:0.110368 722:0.123089 730:0.083192997 733:0.27788901 738:0.064222999 759:0.132533 811:0.119199 895:0.091647997 977:0.081523001 1002:0.22698601 1004:0.063997999 1217:0.069977999 1422:0.082401 1483:0.199981 1513:0.126037 1542:0.17587399 1665:0.109736 2075:0.122276 2088:0.14951099 2338:0.12721699 2644:0.20928 2664:0.27771199 3512:0.13921601 3666:0.130419 4154:0.154074 6144:0.164021 6508:0.16655099 6820:0.17602099 7970:0.198515 13696:0.35434201 #
-0.10000000000000000555111512312578 5:0.086197004 44:0.092689998 58:0.101438 109:0.190841 114:0.057909001 156:0.043956999 181:0.086681999 198:0.097751997 205:0.10773 216:0.137244 226:0.070095003 229:0.103243 232:0.071762003 239:0.026273999 240:0.058226001 266:0.15305699 315:0.079902999 350:0.057560001 370:0.055080999 385:0.062725998 415:0.103375 444:0.102458 450:0.096426003 452:0.067675002 454:0.122454 483:0.175937 512:0.126389 523:0.094221003 597:0.083494 622:0.13362101 658:0.149802 668:0.211698 733:0.149802 740:0.113333 759:0.33254701 760:0.079571001 771:0.105148 778:0.186023 780:0.18105599 797:0.097304001 817:0.118097 855:0.16057301 857:0.153631 907:0.14156599 952:0.124365 956:0.117489 964:0.121764 1122:0.117289 1219:0.124612 1353:0.173915 1433:0.122922 1665:0.14116199 1740:0.32865101 1763:0.18161599 2691:0.13595399 #
-0.040048621154278388201142035995872 2:0.082566999 8:0.059966002 10:0.036435999 35:0.017101999 43:0.059776001 59:0.055063002 60:0.054435998 65:0.063148998 105:0.051486 128:0.142351 142:0.068797998 197:0.104792 204:0.079524003 205:0.049695998 213:0.091298997 214:0.058081001 217:0.055705 219:0.053374 232:0.033103999 239:0.020521 241:0.040243998 267:0.063637003 350:0.044957001 353:0.077335998 367:0.25669399 369:0.125498 396:0.20373601 414:0.081160001 494:0.080329999 552:0.13653199 579:0.083701998 616:0.087033004 656:0.074892998 662:0.140845 722:0.073041998 723:0.050186999 730:0.083586998 739:0.090539001 778:0.10309 791:0.082790002 793:0.118244 797:0.075999998 804:0.087033004 853:0.122356 926:0.100835 981:0.098312996 1016:0.27084601 1017:0.10196 1286:0.18096501 1338:0.088381 1497:0.113951 1524:0.119994 1544:0.13317101 1603:0.13716 1798:0.11324 1814:0.13172901 2165:0.097521998 2841:0.119994 3165:0.13716 3512:0.13987499 3941:0.127818 3945:0.19945399 4717:0.13716 5536:0.21027 7646:0.19945399 9664:0.22875901 9665:0.22875901 9666:0.22875901 #
-0.10000000000000000555111512312578 2:0.080890998 5:0.065958001 10:0.060439002 11:0.018486001 18:0.092469998 32:0.072411001 35:0.016755 36:0.033725001 74:0.101518 76:0.061632 98:0.052145001 109:0.055962998 112:0.026387 180:0.118653 229:0.079001002 234:0.087977 248:0.112082 249:0.058240999 315:0.061142001 322:0.065289997 393:0.055505998 401:0.082461998 414:0.079512998 483:0.134627 523:0.122073 544:0.071788996 634:0.084505998 699:0.124509 722:0.150176 723:0.049168002 740:0.086723 759:0.183865 807:0.045157999 935:0.130457 1104:0.110263 1146:0.071865998 1174:0.262692 1353:0.164949 1358:0.114235 1497:0.29131401 1519:0.118922 1520:0.095542997 1732:0.122412 1954:0.25148401 2042:0.119393 2165:0.095542997 2184:0.086995997 2989:0.157087 3142:0.40014899 3897:0.177292 4325:0.199044 9805:0.206002 11720:0.224116 11721:0.206002 #
-0.10000000000000000555111512312578 36:0.036945999 37:0.054763 44:0.037023999 56:0.069805004 59:0.10006 60:0.058425002 62:0.066152997 74:0.188299 109:0.18060599 113:0.042493001 121:0.055578999 122:0.116758 123:0.068066001 126:0.028422 131:0.065295003 143:0.097465999 155:0.071393996 171:0.096068002 225:0.098656997 231:0.072938003 241:0.073129997 244:0.047703002 248:0.058508001 249:0.063801996 267:0.115641 290:0.098154001 313:0.15531 322:0.071525 370:0.046172999 393:0.060805999 419:0.053475998 426:0.078814 483:0.18280201 493:0.065453999 494:0.086214997 570:0.211853 596:0.201783 619:0.218052 668:0.068007 759:0.084408 771:0.088142999 988:0.241998 991:0.075612001 992:0.217237 1219:0.104459 1578:0.22145499 1724:0.273669 1778:0.135295 1784:0.132956 1827:0.182615 2305:0.17687 2598:0.209077 4524:0.199443 4886:0.172088 6320:0.18980999 10479:0.245518 #
0.10000000000000000555111512312578 6:0.048994001 11:0.025428001 13:0.123452 15:0.089382 39:0.109799 41:0.132715 58:0.106768 69:0.1098 70:0.077500999 83:0.080048002 85:0.087491997 87:0.074313998 105:0.097786002 112:0.036295 115:0.068668999 121:0.118157 126:0.035687 134:0.093906999 172:0.260315 197:0.083405003 211:0.124088 212:0.094466001 216:0.179048 221:0.057603002 239:0.027654 282:0.143235 350:0.060584001 370:0.057975002 385:0.066022001 387:0.097806998 392:0.088831 393:0.160226 410:0.097704001 426:0.098958999 634:0.116238 635:0.13115899 638:0.157132 648:0.12938 677:0.109229 700:0.32285401 723:0.067630999 791:0.111568 1142:0.176873 1225:0.33461601 1449:0.15822101 1736:0.118182 1977:0.15454499 1994:0.13442899 2323:0.167652 2780:0.179461 3093:0.21093 6087:0.20861 7414:0.218951 #
0.10000000000000000555111512312578 6:0.077076003 9:0.056701001 10:0.045621 13:0.114703 14:0.093773 15:0.049049001 58:0.099201001 60:0.068158999 64:0.102018 65:0.079069003 68:0.132957 87:0.040780999 107:0.10644 112:0.057098001 124:0.081220001 127:0.100072 134:0.087251998 142:0.050875999 233:0.117133 240:0.148588 249:0.074432999 258:0.18772601 310:0.125707 315:0.078140996 316:0.105242 321:0.102557 356:0.088386998 426:0.091945998 492:0.104085 497:0.083325997 634:0.108001 668:0.079338998 701:0.10283 728:0.126532 740:0.110834 781:0.203435 783:0.084532999 792:0.27037701 797:0.22707701 807:0.057714 976:0.113931 993:0.075024001 1057:0.196573 1071:0.167684 1333:0.135406 1353:0.100452 1630:0.18989301 1770:0.191802 2447:0.20952401 2572:0.155771 2642:0.22143701 4490:0.191802 5458:0.249735 10187:0.28642699 #
0.10000000000000000555111512312578 1:0.13485201 9:0.116274 11:0.039088 15:0.047928002 16:0.091937996 35:0.020924 44:0.071461 48:0.082911998 58:0.096934997 87:0.039848998 98:0.065119997 100:0.108989 102:0.120778 107:0.104008 109:0.146668 113:0.048439998 126:0.077315003 142:0.049713999 158:0.146262 169:0.073308997 171:0.109514 172:0.16769101 208:0.059903 216:0.077459998 221:0.052297998 239:0.025107 244:0.054379001 276:0.046007998 285:0.124189 292:0.075349003 328:0.108132 350:0.055004001 354:0.067709997 370:0.052636001 382:0.12799799 385:0.101489 403:0.12648 404:0.15211999 408:0.185554 410:0.15019201 426:0.089845002 430:0.116358 447:0.13451301 450:0.092145003 465:0.162919 470:0.17980599 611:0.099427 635:0.249901 713:0.115926 760:0.181449 780:0.072504997 830:0.142177 909:0.1497 920:0.138979 933:0.157483 952:0.118844 1100:0.13941699 1200:0.173553 1450:0.106005 1517:0.138547 1609:0.130585 2437:0.157902 3397:0.15493301 5167:0.227357 14371:0.27988201 #
0.10000000000000000555111512312578 6:0.076145999 12:0.086199999 15:0.101694 18:0.116754 31:0.065114997 41:0.121823 61:0.10255 69:0.059526999 76:0.077817999 85:0.080311 91:0.070766002 99:0.056634001 104:0.058743 112:0.033316001 113:0.082921997 119:0.085033 126:0.032758001 142:0.050262999 145:0.118046 155:0.082285002 199:0.098865002 217:0.116669 221:0.052875001 226:0.067722999 228:0.173024 238:0.094334997 244:0.093088999 276:0.078759 299:0.120876 300:0.073709004 312:0.094443999 352:0.054947 354:0.068457998 357:0.110192 385:0.060603 395:0.108817 404:0.26759699 419:0.061634 530:0.081614003 544:0.090641998 567:0.124732 600:0.133416 682:0.088390999 686:0.124732 700:0.210273 738:0.079818003 765:0.114699 780:0.073305003 791:0.173397 1093:0.178045 1296:0.103111 1433:0.118761 1443:0.173024 1483:0.146795 1515:0.103253 1533:0.12972701 1555:0.299624 1609:0.22353999 1910:0.12757801 1946:0.15593401 2335:0.18251599 2401:0.148431 4832:0.179515 9297:0.260102 #
0.10000000000000000555111512312578 6:0.069917001 9:0.134216 10:0.041384 11:0.036286999 50:0.061873 62:0.118533 92:0.097681999 112:0.030591 119:0.13219599 121:0.140356 122:0.108666 131:0.069099002 134:0.079148002 146:0.079778001 164:0.128567 172:0.19295301 208:0.094155997 209:0.090778001 212:0.13480701 214:0.065968998 221:0.048549999 265:0.128618 290:0.128748 324:0.082436003 326:0.100071 370:0.048864 385:0.163927 410:0.082349002 448:0.062183 497:0.106531 510:0.097396001 516:0.15578701 665:0.092182003 714:0.253326 857:0.136289 937:0.14768 1100:0.129426 1140:0.093032002 1151:0.20217501 1156:0.206866 1827:0.53952497 1899:0.159972 2246:0.14449599 2260:0.14383 4671:0.19325601 4697:0.175825 #
-0.10000000000000000555111512312578 9:0.050639998 13:0.102442 24:0.099933997 36:0.065177001 38:0.061841998 41:0.052476998 58:0.088597998 76:0.070348002 85:0.122927 89:0.074729003 105:0.094933003 109:0.152431 122:0.050980002 155:0.074386999 172:0.31546399 188:0.14730699 210:0.084890001 239:0.038855001 246:0.21462201 249:0.066477001 256:0.065099001 267:0.071162999 282:0.070200004 299:0.109273 337:0.086277999 353:0.086480998 385:0.054786 392:0.073714003 404:0.139037 408:0.169595 419:0.055718001 494:0.089828998 530:0.07378 570:0.105181 579:0.093601003 597:0.072925001 663:0.197767 671:0.127589 760:0.069498003 792:0.115065 807:0.087273002 908:0.112514 1001:0.118445 1077:0.111789 1415:0.130391 1623:0.22033399 1645:0.14362 1653:0.148103 2358:0.162284 7698:0.223041 12049:0.450068 14356:0.25581101 #
-0.088753144576328213410931766702561 9:0.13777199 11:0.027354 15:0.056790002 26:0.102131 35:0.024793001 60:0.078915998 64:0.118118 75:0.068498999 76:0.053863 98:0.077160001 104:0.068843998 105:0.092513002 114:0.065568998 115:0.155028 122:0.211303 126:0.038389999 156:0.049771 169:0.086863004 171:0.129761 172:0.246277 212:0.17206199 221:0.061967 239:0.029750001 241:0.058341 244:0.064433999 251:0.155534 282:0.19098701 287:0.23520599 290:0.078303002 313:0.087911002 327:0.076206997 385:0.120253 392:0.095560998 457:0.104449 470:0.089281 497:0.11958 532:0.136107 569:0.33666399 572:0.127528 579:0.121342 592:0.094121002 676:0.092974 760:0.090095997 803:0.12185 825:0.17104401 858:0.083815999 868:0.169618 975:0.121007 1296:0.120841 1515:0.121007 1561:0.13537499 1576:0.215786 1623:0.136107 1669:0.12395 1681:0.13685299 2616:0.172664 3708:0.25121799 #
-0.036433456617190621007473794179532 8:0.115793 11:0.061691001 35:0.033023998 37:0.098527998 70:0.111051 121:0.099996001 144:0.141192 368:0.224392 466:0.22593001 469:0.227515 682:0.137981 686:0.329671 759:0.15186401 825:0.13456 1258:0.245656 1298:0.18983901 1740:0.207715 1913:0.21053 2306:0.197329 4167:0.26009399 6237:0.34943801 11792:0.44172701 #
-0.10000000000000000555111512312578 121:0.16997901 172:0.265708 244:0.14589 271:0.230322 337:0.25324801 785:0.29009899 792:0.33774501 12136:0.75087303 #
-0.030782071448579414324475678199633 23:0.044966001 35:0.034531001 43:0.071281999 76:0.075018004 85:0.077422 87:0.038839001 109:0.068117999 115:0.194281 121:0.061753001 122:0.054364 123:0.128047 155:0.079324998 169:0.071451999 201:0.109806 204:0.094832003 219:0.063648 236:0.045612998 247:0.08574 256:0.069420002 267:0.075886004 276:0.075925 284:0.109243 330:0.111358 401:0.100372 404:0.25797001 441:0.130015 498:0.100797 592:0.077422 656:0.089309998 671:0.168641 690:0.108146 720:0.133406 723:0.059847001 778:0.122934 783:0.13631301 807:0.054965999 825:0.083099 859:0.374946 933:0.073140003 1013:0.091150999 1225:0.100513 1278:0.154668 1300:0.15390199 1647:0.25017601 1671:0.14532401 1681:0.236248 1920:0.156259 2026:0.150324 2691:0.126628 5362:0.186653 6087:0.31255499 6759:0.237847 #
0.10000000000000000555111512312578 31:0.056320999 49:0.065730996 59:0.058913 72:0.131989 88:0.063553996 98:0.096419998 104:0.050809 109:0.061117001 124:0.069403 126:0.028333001 128:0.122879 137:0.084432997 155:0.120504 156:0.062194001 170:0.141781 201:0.206755 241:0.072903 248:0.058325998 276:0.040233999 309:0.148654 327:0.056244001 352:0.047525998 396:0.091347001 443:0.061207999 445:0.146267 450:0.080580004 457:0.077087998 483:0.18223301 486:0.14094 534:0.150694 583:0.092425004 594:0.103318 616:0.157664 617:0.154442 660:0.13091201 722:0.132318 759:0.176589 761:0.110092 931:0.109337 975:0.089308001 1008:0.18597201 1234:0.095462002 1350:0.213401 1422:0.088578999 1654:0.148654 1722:0.150694 2551:0.114195 2598:0.1231 3412:0.26504201 8999:0.213401 11257:0.414406 11258:0.244755 #
0.10000000000000000555111512312578 18:0.068796001 36:0.042482998 49:0.12837 76:0.045853 82:0.134553 88:0.073307 91:0.070601001 95:0.084187999 98:0.065686002 99:0.056503002 104:0.058605999 108:0.07767 109:0.070495002 111:0.12583099 114:0.117142 127:0.098635003 132:0.145926 137:0.057519998 138:0.130953 163:0.118942 164:0.112705 172:0.099900998 186:0.120114 201:0.113638 208:0.060423002 210:0.24446499 217:0.144272 231:0.083869003 232:0.040854 236:0.047205999 239:0.025326001 247:0.088733003 249:0.124217 279:0.146988 303:0.138896 322:0.13925201 350:0.093939997 351:0.118648 464:0.089570999 538:0.22719499 550:0.114633 557:0.17146599 597:0.080480002 668:0.24081101 676:0.079148002 731:0.089855 759:0.203688 766:0.172621 778:0.127225 789:0.118942 797:0.158804 799:0.107899 995:0.11715 1005:0.16527601 1488:0.156279 1906:0.13006499 3978:0.18904801 6021:0.229333 9692:0.282314 #
0.10000000000000000555111512312578 35:0.062858 77:0.391276 93:0.242934 206:0.237993 229:0.29637599 1784:0.45530799 1954:0.39536101 2595:0.52520502 #
0.10000000000000000555111512312578 9:0.048172001 11:0.020072 14:0.079668 31:0.055996001 37:0.054278001 43:0.107662 44:0.062132001 50:0.057948001 63:0.048259001 70:0.061177 76:0.039524 83:0.063187003 87:0.034646001 90:0.14246 91:0.060855001 93:0.16778301 94:0.070311002 98:0.095863998 99:0.048703 109:0.15855999 112:0.028650001 113:0.042116001 121:0.115605 164:0.097145997 217:0.059255999 223:0.121597 232:0.073900998 272:0.052590001 313:0.10922 370:0.045763999 385:0.145494 392:0.070120998 433:0.067117997 440:0.078881003 442:0.22795001 445:0.253021 493:0.064873002 512:0.10501 543:0.107736 595:0.097119004 627:0.090558998 771:0.087361999 935:0.083659999 964:0.101167 977:0.087130003 1057:0.098635003 1065:0.119722 1170:0.28482899 1355:0.141661 1824:0.102523 2165:0.103739 2169:0.133498 4806:0.164671 5186:0.197675 5900:0.21216901 13416:0.41201401 13417:0.243342 13418:0.243342 #
0.10000000000000000555111512312578 8:0.127755 15:0.049291998 33:0.082203001 35:0.02152 44:0.043407001 60:0.068497002 76:0.079157002 105:0.038263001 109:0.121697 112:0.033890001 113:0.084349997 126:0.033321001 128:0.085350998 134:0.087683998 137:0.099297002 154:0.119668 156:0.090659998 163:0.121272 164:0.114912 171:0.112629 174:0.119003 194:0.102255 223:0.084950998 229:0.101466 232:0.070527002 239:0.025822001 243:0.093305998 248:0.178992 292:0.077492997 396:0.107429 410:0.091229998 419:0.062694997 452:0.066509999 475:0.119445 483:0.102122 485:0.133277 493:0.076737002 494:0.101078 559:0.098839 585:0.116065 668:0.079731002 709:0.15395799 719:0.095519997 722:0.23982701 731:0.091614999 736:0.17980599 825:0.087683998 861:0.14118899 977:0.103064 988:0.399865 995:0.119445 1122:0.11527 1578:0.15334301 2920:0.201754 3545:0.17849 4233:0.176002 6979:0.264579 10472:0.287844 #
-0.10000000000000000555111512312578 56:0.179478 59:0.072403997 60:0.07158 65:0.083036996 94:0.086912997 109:0.127175 115:0.067004003 156:0.076435998 241:0.147732 248:0.071681999 268:0.141075 276:0.10377 350:0.059115 370:0.056570001 374:0.148443 393:0.074497998 422:0.126003 434:0.14636201 445:0.106169 464:0.095435999 465:0.103414 617:0.112103 710:0.267149 716:0.107419 741:0.108863 789:0.21457399 957:0.201427 974:0.308624 1013:0.10051 1057:0.20643701 1107:0.164297 1219:0.127979 1225:0.110833 1417:0.180355 1555:0.39319301 1609:0.334903 1665:0.144977 4355:0.19572701 #
-0.10000000000000000555111512312578 15:0.043331999 22:0.068631999 37:0.056441002 44:0.038159002 56:0.071943 63:0.050182998 81:0.080623999 94:0.073113002 98:0.058874998 109:0.063185997 111:0.112783 126:0.049596999 131:0.067295 155:0.073581003 163:0.35208601 172:0.089543 183:0.093498997 210:0.083971001 226:0.102536 239:0.022700001 243:0.082024999 246:0.101161 299:0.10809 340:0.129494 354:0.061216 370:0.047587998 448:0.102536 483:0.15200201 497:0.073614001 523:0.081404001 544:0.081054002 555:0.109195 560:0.080881 561:0.094714001 583:0.095554002 668:0.224097 719:0.083971001 764:0.100651 791:0.091577999 797:0.084067002 804:0.096271001 852:0.107025 910:0.080199003 928:0.089658998 974:0.099492997 1008:0.192268 1033:0.099656001 1110:0.101161 1468:0.085444003 1514:0.144198 1576:0.16464999 1592:0.16944499 1932:0.120601 2001:0.144945 2242:0.26966801 3360:0.150782 3412:0.161838 3545:0.26567 4023:0.191686 6177:0.200174 13687:0.253041 #
-0.10000000000000000555111512312578 11:0.023529001 18:0.069512002 27:0.1175 35:0.021326 38:0.068958998 49:0.076605998 65:0.078745 76:0.046331 98:0.066370003 99:0.057091001 104:0.059216 109:0.120601 112:0.033585001 113:0.049369998 119:0.085717998 122:0.056846999 137:0.098402999 143:0.11324 146:0.148295 156:0.12611701 178:0.18718299 212:0.148 219:0.066555001 231:0.084742002 244:0.055422999 257:0.15742099 308:0.14640599 314:0.127719 322:0.17439499 352:0.163173 364:0.15719 419:0.062130999 464:0.090503 483:0.101203 485:0.368727 546:0.11108 600:0.134491 650:0.096548997 724:0.241349 753:0.13013899 764:0.113463 858:0.072094999 1240:0.13908599 1296:0.103942 1370:0.194409 1374:0.113274 1405:0.191153 1667:0.169976 1680:0.172123 1736:0.109356 1788:0.20756499 1824:0.12018 1978:0.16514701 7666:0.285252 #
-0.10000000000000000555111512312578 10:0.040835001 11:0.044380002 12:0.078098997 15:0.043903999 18:0.105782 19:0.080582 35:0.019167 42:0.075452998 58:0.088794999 63:0.050845001 70:0.064455003 75:0.052956 76:0.041641001 88:0.112718 89:0.12681 93:0.074078999 98:0.059652001 99:0.051312 108:0.070534997 112:0.030185999 137:0.052235998 142:0.077105001 157:0.105996 163:0.257759 164:0.060451001 172:0.090723999 194:0.091077998 203:0.118117 208:0.054873001 219:0.059819002 231:0.076164998 232:0.037101001 237:0.120242 239:0.022999 256:0.065243997 310:0.11252 328:0.25847101 418:0.108226 419:0.055842001 427:0.100643 429:0.099521004 445:0.278662 459:0.098743998 560:0.081949003 561:0.095964998 668:0.169466 730:0.093679003 778:0.143207 797:0.085175999 803:0.094201997 975:0.093549997 1007:0.108437 1008:0.19480599 1069:0.097542003 1316:0.12853 1396:0.12853 1397:0.095825002 1824:0.182888 2142:0.156764 2485:0.136043 6062:0.173494 6402:0.223538 7560:0.235659 11109:0.25638101 11110:0.25638101 #
-0.10000000000000000555111512312578 11:0.020728 15:0.043033 33:0.071764998 37:0.094903998 43:0.065664999 101:0.116648 104:0.052166998 124:0.071258001 128:0.074513003 130:0.131322 156:0.079148002 164:0.059250999 181:0.12592401 182:0.16139001 212:0.077004999 219:0.058632001 223:0.074164003 226:0.060141001 239:0.022543 250:0.14884201 292:0.067653 313:0.066615 401:0.092462003 419:0.054733999 616:0.095606998 668:0.069606997 723:0.093344003 760:0.068271004 770:0.097856 778:0.066885002 797:0.17520601 804:0.095606998 813:0.10168 937:0.084357999 977:0.089977004 988:0.14629 1005:0.14711601 1017:0.112005 1093:0.158113 1125:0.084457003 1211:0.107778 1435:0.107778 1518:0.112773 1578:0.133872 1930:0.145487 1954:0.118167 2417:0.168276 2499:0.19427501 2521:0.17005201 2841:0.131815 3165:0.463985 3628:0.186911 3635:0.16501699 4163:0.178482 4228:0.15365399 8770:0.198792 10551:0.230984 #
0.10000000000000000555111512312578 1:0.179105 11:0.041885 35:0.022422001 83:0.077876002 87:0.072296999 104:0.062259 105:0.111297 109:0.074888997 112:0.03531 113:0.087885 116:0.085571997 137:0.128235 145:0.073893003 147:0.198053 172:0.339313 190:0.123537 232:0.043400001 239:0.026904 240:0.10095 246:0.25161901 267:0.08343 272:0.064814001 350:0.058940001 385:0.108751 392:0.08642 418:0.1266 427:0.11773 430:0.124684 448:0.18729401 460:0.12562899 477:0.118698 530:0.086498998 665:0.106403 786:0.152868 818:0.114275 830:0.25795099 887:0.116787 933:0.13614701 952:0.12734701 975:0.185286 1026:0.098516002 1109:0.14846 1217:0.15606999 1342:0.33462501 1348:0.095964 1681:0.123763 3635:0.19694 6819:0.261489 #
0.10000000000000000555111512312578 9:0.053291999 11:0.046601001 50:0.064107001 56:0.076540001 60:0.064061999 83:0.069903001 98:0.106053 110:0.106902 111:0.119989 112:0.031695999 113:0.046592999 121:0.14542501 126:0.052765001 134:0.082006 155:0.132543 156:0.040403001 171:0.105337 204:0.093584999 219:0.062811002 221:0.050303001 240:0.14941201 245:0.124335 246:0.107624 256:0.068507999 257:0.209387 270:0.201801 299:0.114996 337:0.090796001 412:0.16041499 440:0.087265 592:0.076405004 596:0.14356001 597:0.076743998 631:0.160467 656:0.088136002 668:0.074569002 705:0.097296998 906:0.082823999 941:0.12026 1040:0.122819 1339:0.14703999 1342:0.101961 1478:0.135399 1497:0.13410001 1561:0.109894 1665:0.129749 2144:0.122232 2598:0.135399 3148:0.48664099 5866:0.218686 6952:0.269207 6953:0.247448 #
0.10000000000000000555111512312578 36:0.140071 156:0.1397 405:0.31542799 785:0.359624 4826:0.85559398 #
0.10000000000000000555111512312578 11:0.044069 13:0.089659996 14:0.073299997 15:0.038339999 36:0.070704997 38:0.054125998 59:0.053892002 76:0.06157 81:0.071336001 105:0.029762 113:0.03875 122:0.124565 126:0.025917999 138:0.061338 162:0.079848997 181:0.066262998 197:0.102562 206:0.063376002 233:0.091559999 244:0.043501001 251:0.220365 267:0.162524 313:0.059351001 330:0.091395997 338:0.192129 393:0.05545 459:0.086231001 470:0.060276002 483:0.079433002 493:0.101061 622:0.102145 671:0.065953001 701:0.080379002 743:0.089206003 782:0.085440002 807:0.045113001 991:0.068951003 993:0.058644 1004:0.062932998 1033:0.088175997 1205:0.161291 1333:0.179208 1509:0.117887 1515:0.081696004 1596:0.123377 1736:0.085832998 2197:0.12824801 2619:0.1877 2620:0.17711499 2691:0.103928 4377:0.18187501 5808:0.18187501 10680:0.19521099 11930:0.205796 13791:0.223892 13792:0.223892 13793:0.223892 13794:0.223892 13795:0.223892 13796:0.223892 13797:0.223892 #
0.10000000000000000555111512312578 35:0.035631999 36:0.088895001 44:0.042449001 63:0.055826001 64:0.100261 87:0.067858003 91:0.070395999 105:0.063354999 109:0.22473399 112:0.033142 114:0.055656001 116:0.13598999 120:0.142995 122:0.056097999 145:0.117429 149:0.091852002 184:0.102292 222:0.096657999 239:0.025251999 240:0.117442 272:0.060834002 332:0.190488 351:0.118303 392:0.081114002 399:0.129366 403:0.12720799 432:0.16209599 434:0.080894999 497:0.101501 570:0.11574 682:0.245478 738:0.079401001 792:0.41816199 806:0.139779 863:0.118827 910:0.187231 1131:0.109791 1218:0.114705 1605:0.158811 1616:0.289473 1665:0.135671 2176:0.18156201 2191:0.144476 2304:0.120244 4167:0.165746 5232:0.183163 13345:0.258742 #
-0.10000000000000000555111512312578 5:0.091421001 6:0.103608 9:0.16046301 10:0.049477 11:0.025622999 23:0.051204 31:0.071480997 36:0.111546 44:0.079314001 50:0.073973 68:0.14419401 87:0.105539 97:0.112575 104:0.064485997 112:0.061923999 127:0.10853 181:0.091936 236:0.087944001 321:0.111225 340:0.158968 351:0.077105001 354:0.12724 370:0.058419 453:0.089029998 457:0.097837001 512:0.226965 517:0.40125501 538:0.147646 628:0.137226 682:0.16429 700:0.13633201 707:0.12254 740:0.120202 896:0.104892 977:0.111225 991:0.095665999 1342:0.280754 1954:0.38116401 2551:0.144933 3795:0.39120001 #
-0.043769582955050123640461379181943 87:0.074492 239:0.046935 399:0.240449 475:0.21711101 648:0.37178901 673:0.53803599 1012:0.16226999 1910:0.39939001 12683:0.52320302 #
-0.10000000000000000555111512312578 11:0.023556 91:0.071419001 106:0.14008 109:0.186084 112:0.033624001 121:0.135673 125:0.116579 126:0.06938 143:0.066959001 145:0.14766499 208:0.10349 243:0.092574 244:0.13240901 249:0.17709699 260:0.213138 265:0.29668 271:0.14832 321:0.102255 350:0.056125 351:0.148764 352:0.055454001 370:0.053707998 414:0.101321 419:0.062203001 426:0.155219 448:0.068347998 453:0.08185 454:0.119401 538:0.135739 544:0.15488701 719:0.094769999 807:0.057544 887:0.111209 1033:0.112473 1069:0.108653 1217:0.087774999 1765:0.42306 1954:0.13429099 2014:0.19540501 2049:0.20890699 2326:0.145073 4860:0.249 4954:0.22591799 5295:0.18582501 #
-0.0055382228712052873620397264176063 11:0.020617999 44:0.037694 45:0.065007001 63:0.049571 76:0.040598001 83:0.064905003 97:0.090585001 99:0.084702998 144:0.079896003 234:0.098122001 307:0.137741 327:0.057438999 345:0.15082601 350:0.049123 385:0.090637997 405:0.221027 410:0.18904699 417:0.31859899 419:0.054443002 429:0.097026996 452:0.057755999 544:0.080067001 614:0.194021 635:0.106347 655:0.100441 682:0.240439 703:0.388524 743:0.099591002 771:0.089736998 837:0.073839001 964:0.103917 1109:0.123734 1217:0.076825 1275:0.137127 1331:0.20226499 1439:0.177532 1900:0.128291 2027:0.171029 2199:0.125717 2330:0.232177 2572:0.13593701 3073:0.134239 5141:0.203049 5838:0.173039 8570:0.229755 #
-0.067565886067766922629118653276237 8:0.052747998 10:0.076480001 15:0.034458 35:0.039255001 36:0.051268 43:0.052581001 61:0.072922997 63:0.039905999 65:0.116573 70:0.050588001 75:0.070372999 77:0.093643002 103:0.14553399 105:0.078798003 112:0.040112998 115:0.094066001 122:0.040100999 128:0.18373699 131:0.090607002 137:0.040998001 165:0.098999001 174:0.083191 210:0.066775002 223:0.100549 231:0.059778001 232:0.029119 233:0.082289003 236:0.070610002 241:0.035399001 250:0.070391998 270:0.089088 275:0.076906003 300:0.088745996 311:0.072627999 316:0.073935002 322:0.123021 327:0.078290999 383:0.046176001 419:0.043827999 426:0.064594001 475:0.083499998 492:0.073122002 497:0.034573998 505:0.089088 535:0.115263 611:0.121032 655:0.169688 677:0.071298003 701:0.122313 723:0.044144999 760:0.054668002 776:0.103641 803:0.073935002 807:0.040545002 813:0.081419997 858:0.086107999 930:0.098113999 1025:0.247563 1033:0.079248004 1091:0.159181 1097:0.118482 1256:0.094373003 1279:0.121418 1305:0.080173001 1509:0.10595 1701:0.126654 1729:0.095126003 1859:0.214444 1927:0.253409 1933:0.100234 1956:0.119182 2083:0.111905 2112:0.184958 2143:0.112432 2323:0.109433 2326:0.102218 2510:0.106774 3236:0.168695 4719:0.155564 5534:0.201222 5535:0.184958 5536:0.184958 5537:0.201222 #
0.10000000000000000555111512312578 11:0.019097 37:0.087434001 50:0.093346 60:0.055093002 76:0.089731999 81:0.073766001 109:0.057810999 115:0.051571 128:0.116233 130:0.120987 131:0.171892 137:0.047169998 164:0.054588001 181:0.116014 197:0.062638 198:0.13083 219:0.054017 229:0.081610002 232:0.033503 238:0.077180997 246:0.092556 276:0.064437002 285:0.102728 321:0.082896002 429:0.089869 450:0.076220997 453:0.112347 457:0.072917998 470:0.062329002 583:0.087425999 597:0.065999001 690:0.091783002 723:0.085997999 740:0.089585997 753:0.105624 771:0.083116002 778:0.104333 804:0.088082999 805:0.122849 824:0.113221 858:0.058513001 935:0.079595 936:0.122371 988:0.32161701 992:0.120987 1026:0.076050997 1065:0.113904 1398:0.116825 1486:0.140614 1533:0.106138 1534:0.11967 1724:0.098895997 1903:0.12998 2513:0.13477699 3165:0.138814 4884:0.231517 4885:0.178986 4886:0.162274 4887:0.231517 4888:0.212805 4889:0.231517 4890:0.231517 4891:0.231517 4892:0.15503199 #
0.10000000000000000555111512312578 6:0.114347 11:0.021257 18:0.062801003 35:0.032621998 36:0.038780998 61:0.093396001 63:0.086535998 85:0.073142 87:0.036692001 95:0.076852001 105:0.034258001 112:0.030342 126:0.050512999 143:0.060424 146:0.079130001 156:0.08117 208:0.055158 214:0.110787 217:0.062756002 220:0.145395 243:0.083539002 244:0.08478 248:0.061414 249:0.066972002 267:0.071691997 300:0.067129999 351:0.063969001 393:0.063826002 512:0.34246901 519:0.116736 523:0.082906999 597:0.124391 623:0.087539002 650:0.087227002 658:0.44788501 665:0.091433004 671:0.075916 759:0.088601001 770:0.100356 787:0.086919002 851:0.370276 858:0.065133996 936:0.136218 1057:0.219221 1107:0.140762 1457:0.30584201 2242:0.162211 3032:0.169232 3950:0.166224 4096:0.191686 #
0.10000000000000000555111512312578 10:0.038860999 11:0.020125 49:0.065522999 57:0.099420004 59:0.058727998 63:0.048386998 65:0.067351997 86:0.080872998 88:0.063354 93:0.070496999 98:0.096115999 99:0.048831001 109:0.187612 112:0.028726 134:0.074322999 139:0.119675 156:0.036617 170:0.17518 194:0.086673997 201:0.09821 212:0.074764997 226:0.058391999 237:0.114428 239:0.021887001 325:0.102008 397:0.074914001 443:0.061016001 465:0.083880998 483:0.181659 560:0.077986002 668:0.114427 698:0.27954701 778:0.18129399 783:0.072006002 802:0.128961 896:0.082386002 974:0.16242801 1069:0.092826001 1198:0.100136 1316:0.122315 1427:0.093534999 1433:0.214894 1523:0.129464 1583:0.102993 1596:0.13444901 1724:0.104221 1973:0.279668 2143:0.136325 2921:0.27126899 3051:0.32482401 3057:0.113255 3462:0.37455299 #
0.10000000000000000555111512312578 6:0.107181 11:0.036093999 37:0.057645999 56:0.073478997 86:0.085665002 98:0.060132001 107:0.096040003 115:0.057569001 126:0.029918 137:0.052655999 204:0.152117 225:0.10385 226:0.061852001 243:0.083774999 267:0.071893997 292:0.069577001 341:0.140016 352:0.084968001 393:0.134325 401:0.095091999 419:0.056290999 425:0.153073 440:0.083774999 448:0.061852001 458:0.080812 464:0.081997 494:0.090752997 513:0.12386 668:0.071586996 671:0.076131001 723:0.056697998 742:0.146532 804:0.098325998 807:0.052074999 825:0.133296 937:0.086758003 1033:0.101783 1093:0.16260999 1109:0.127933 1126:0.195924 1288:0.145096 1448:0.12998401 1524:0.135563 1635:0.14116 1706:0.168164 1729:0.122176 1811:0.16395199 1896:0.12185 2069:0.123515 2081:0.152173 2435:0.199801 2691:0.28627399 2841:0.135563 3469:0.16529199 4638:0.154 6460:0.199801 7938:0.32546899 11112:0.258441 #
0.10000000000000000555111512312578 10:0.041715 50:0.062368002 60:0.062323999 86:0.086813003 87:0.037289001 88:0.068007 94:0.075673997 99:0.052416999 105:0.034814 113:0.095127001 130:0.136866 134:0.079782002 137:0.053360999 149:0.08546 155:0.076158002 156:0.039306998 163:0.28793299 164:0.129595 172:0.092679001 183:0.096773997 205:0.056896001 214:0.066496998 217:0.063776001 240:0.052067 290:0.061840001 292:0.070509002 293:0.078929998 341:0.083802998 353:0.088541001 405:0.088751003 419:0.057045002 429:0.101664 445:0.092440002 491:0.091045998 616:0.099642999 650:0.088646002 654:0.165501 668:0.18930399 671:0.077150002 723:0.057457998 730:0.095697001 752:0.110557 759:0.090040997 760:0.071153 765:0.106158 777:0.089932002 778:0.069709003 859:0.122196 945:0.104351 952:0.111209 964:0.108883 969:0.151629 1008:0.246657 1015:0.139523 1057:0.25332499 1134:0.112787 1171:0.105788 1196:0.116471 1225:0.096501 1238:0.19839901 1296:0.095434003 1340:0.098174997 1353:0.091852002 1374:0.104002 1533:0.120068 1558:0.136361 2375:0.18357199 2598:0.131725 4299:0.170417 9064:0.26190299 9065:0.207185 #
-0.077352682508220138579702052084031 6:0.043278001 10:0.073435001 11:0.066169001 13:0.109048 15:0.046631001 76:0.044227999 112:0.032060999 115:0.060658 130:0.24094 212:0.141284 232:0.066720001 239:0.051265001 240:0.091659002 243:0.149454 247:0.144913 256:0.11733 310:0.11951 313:0.072186001 327:0.062574998 348:0.218548 393:0.160934 452:0.106534 600:0.128388 625:0.17416 723:0.10115 760:0.073980004 783:0.13607 807:0.054868001 811:0.084198996 818:0.103758 851:0.26662999 896:0.091949999 1057:0.32515699 1178:0.126725 1501:0.111359 1509:0.242763 1524:0.142837 1680:0.16431201 2121:0.40996099 2691:0.214018 3715:0.154393 7289:0.221204 #
-0.10000000000000000555111512312578 8:0.074072003 9:0.055937 11:0.048914 30:0.174334 31:0.065021999 35:0.021125 36:0.042521 37:0.106715 44:0.042610999 49:0.12848599 50:0.067289002 61:0.102404 63:0.056039002 64:0.100644 70:0.071038999 87:0.040231001 113:0.048905 126:0.055383999 163:0.20156901 164:0.17385501 170:0.16368601 171:0.110565 172:0.1693 197:0.076449998 203:0.130182 212:0.086589001 219:0.065929003 222:0.097028002 223:0.083393998 239:0.025348 248:0.067336999 327:0.064933002 328:0.10917 357:0.110035 385:0.102464 431:0.37713 447:0.135804 458:0.088356003 494:0.099225 510:0.105921 512:0.206458 523:0.090902999 658:0.24470299 668:0.23057701 722:0.090222999 738:0.079704002 752:0.31125599 797:0.15894701 825:0.086076997 899:0.137778 1020:0.13657901 1037:0.122959 1461:0.13322601 1732:0.154339 1843:0.180723 2520:0.155018 #
-0.0080391649287648199451172814633537 6:0.048896998 8:0.080649003 10:0.082969002 15:0.052685998 35:0.023001 36:0.046296999 37:0.068623997 38:0.074377 102:0.224792 105:0.040897001 113:0.090157002 119:0.092451997 122:0.146311 123:0.085294001 126:0.035615999 131:0.081822 145:0.075802997 156:0.07818 186:0.130898 190:0.12673099 209:0.107491 230:0.23823 232:0.044521999 239:0.046730001 240:0.061163999 258:0.084500998 290:0.15245201 321:0.11016 350:0.060463998 392:0.088655002 448:0.235416 497:0.052862 552:0.108451 617:0.11466 668:0.144291 671:0.090630002 767:0.112573 769:0.184469 791:0.111346 896:0.103888 910:0.097511001 933:0.26373801 1057:0.211146 1093:0.114331 1225:0.191937 1276:0.15277401 1327:0.32787901 1468:0.103888 1501:0.125817 13515:0.28279501 13950:0.30766201 #
-0.010076835167288803601914892738023 8:0.115336 11:0.045125999 62:0.056488998 70:0.052707002 76:0.034051999 97:0.075979002 105:0.027868999 126:0.041092999 127:0.073248997 131:0.094403997 143:0.049155999 156:0.082106002 205:0.045545999 218:0.100199 219:0.102656 236:0.059354998 239:0.039469998 272:0.045309 291:0.207993 294:0.100478 351:0.05204 385:0.044900998 389:0.067300998 440:0.067961 452:0.048443999 510:0.133063 542:0.102225 550:0.085129999 559:0.071989998 650:0.070960999 722:0.066941999 730:0.076605998 735:0.107605 737:0.084683999 739:0.14049301 926:0.24114799 951:0.081511997 1108:0.12846901 1110:0.083815999 1126:0.060908999 1135:0.164776 1178:0.097567998 1310:0.17576399 1416:0.133002 1461:0.098848 1589:0.172574 1756:0.081 2006:0.098328002 2024:0.198342 2153:0.120093 3365:0.179123 3924:0.14695001 5737:0.15594 8208:0.326285 8209:0.182797 8210:0.209654 8211:0.209654 8212:0.35497499 8213:0.182797 #
-0.070874142182591290395343719410448 6:0.101463 11:0.037363 35:0.033865001 36:0.084486 38:0.109504 59:0.109031 98:0.130631 99:0.090657003 105:0.092798002 134:0.13798399 137:0.054508001 155:0.13171799 229:0.15967201 238:0.089187004 239:0.023999 240:0.053185999 243:0.086722001 244:0.05198 249:0.14590099 258:0.073477998 267:0.074423 285:0.118708 315:0.123576 321:0.095790997 322:0.077937998 327:0.061477002 356:0.082556002 395:0.102879 396:0.169057 426:0.224098 441:0.21588799 544:0.14509501 559:0.091863997 660:0.24227799 671:0.078808002 722:0.085422002 797:0.23192801 802:0.141407 811:0.082722001 837:0.07903 858:0.067615002 1126:0.163112 1368:0.18047801 1579:0.12681299 1591:0.28735799 1760:0.131622 1819:0.153245 2691:0.124185 12574:0.452968 #
0.10000000000000000555111512312578 11:0.088962004 31:0.084246002 35:0.027371 60:0.087121002 73:0.40891099 87:0.052126002 95:0.109177 109:0.218155 122:0.153117 143:0.085839003 197:0.236369 209:0.127912 226:0.087619998 231:0.25954199 265:0.18123201 276:0.060183 287:0.259662 321:0.131088 323:0.135663 327:0.142445 341:0.117148 352:0.14919201 419:0.079742 426:0.117525 440:0.200938 550:0.14865801 560:0.117023 633:0.14234 668:0.101411 991:0.11275 3666:0.209713 3736:0.23614 4008:0.36611101 #
0.10000000000000000555111512312578 3:0.087506004 6:0.043556001 9:0.129462 18:0.066784002 24:0.107063 37:0.103501 41:0.056219999 45:0.149579 61:0.099319004 63:0.054350998 76:0.044512998 87:0.039019 88:0.071162999 99:0.054850001 109:0.19105101 112:0.032267001 113:0.047432002 114:0.091746002 121:0.062040001 122:0.092473999 126:0.031725999 131:0.072884999 134:0.083484001 142:0.048679002 181:0.170219 197:0.074147999 206:0.077575997 211:0.110315 222:0.094104998 239:0.024584999 244:0.053247999 256:0.069743 300:0.120869 385:0.099376999 440:0.150415 448:0.137646 493:0.073062003 497:0.079728 530:0.16588099 569:0.16432101 579:0.16978399 583:0.10349 682:0.085607 723:0.060125001 803:0.100697 835:0.12002 874:0.078546003 910:0.18228599 933:0.124412 1135:0.127215 1149:0.110891 1298:0.19942001 1358:0.13969199 1435:0.117541 1468:0.092541002 1600:0.129559 1662:0.13061801 1765:0.145423 2006:0.12853301 2250:0.15170901 2555:0.44747499 4154:0.18545701 7002:0.222627 #
0.10000000000000000555111512312578 31:0.059328001 35:0.019275 56:0.124113 63:0.051132001 76:0.109272 87:0.036708001 105:0.034272 118:0.13575301 119:0.228237 126:0.071222 229:0.090883002 267:0.071722001 395:0.099146001 418:0.108835 419:0.056155998 464:0.21345399 474:0.077927001 523:0.082942002 611:0.091591001 628:0.27178901 723:0.056563001 739:0.17277201 764:0.102553 783:0.076090999 794:0.102212 825:0.13297801 849:0.185735 887:0.100399 984:0.13374799 1001:0.119377 1119:0.099766001 1133:0.088102996 1250:0.156592 1397:0.096364997 1540:0.094998002 1590:0.199323 1635:0.14082301 1638:0.13627601 1651:0.13680799 1778:0.142076 1798:0.127628 1977:0.218844 1998:0.124979 1999:0.155572 2184:0.100081 2628:0.195309 3224:0.20395701 7733:0.224796 13095:0.257824 13096:0.257824 #
0.10000000000000000555111512312578 6:0.045513 11:0.039994001 35:0.021408999 36:0.043093 37:0.15242399 62:0.130642 69:0.060242001 87:0.106392 98:0.112813 109:0.071507998 134:0.087233998 180:0.089543998 181:0.177865 202:0.096020997 217:0.069733001 219:0.066814996 226:0.068535 229:0.100945 244:0.094205998 249:0.074418001 315:0.078125 385:0.14635199 453:0.082074001 459:0.110294 493:0.076343998 544:0.239363 595:0.19351199 616:0.108951 639:0.20629799 692:0.16319001 697:0.111337 708:0.141321 777:0.098332003 783:0.084514998 787:0.096584 807:0.057702001 828:0.110123 852:0.121121 928:0.101467 931:0.12792701 933:0.076779999 1013:0.16201299 1057:0.116075 1151:0.131607 1348:0.21866 1421:0.165794 1516:0.17064101 1520:0.122082 1532:0.16403601 1788:0.123071 1824:0.37153599 2386:0.19378699 2926:0.183153 3654:0.22139101 #
0.10000000000000000555111512312578 11:0.038929999 35:0.035285 39:0.099284001 42:0.082037002 100:0.227801 126:0.032269001 147:0.108722 149:0.090957001 151:0.100611 208:0.059659999 240:0.055417001 247:0.087613001 313:0.073894002 340:0.14265101 353:0.094237 560:0.089098997 567:0.122871 568:0.23711701 578:0.30130401 669:0.135123 670:0.115888 928:0.098768003 952:0.118363 977:0.099808 993:0.153226 1026:0.155036 1142:0.094460003 1155:0.21550199 1217:0.085675001 1269:0.134734 1431:0.17828099 1468:0.15936799 1665:0.134349 1706:0.18137901 1978:0.38510901 2169:0.152924 2508:0.145671 2597:0.21550199 3491:0.138418 5302:0.200811 12006:0.27875099 #
-0.10000000000000000555111512312578 6:0.070460998 11:0.021598 44:0.039487001 58:0.090687998 63:0.051929001 73:0.112077 81:0.083429001 88:0.067992002 91:0.13742299 105:0.034807 109:0.170617 143:0.061393 147:0.102128 164:0.061739001 170:0.089585997 197:0.070844002 198:0.087393001 216:0.072467998 232:0.064157002 233:0.18130299 240:0.088137999 241:0.096671 243:0.084879003 249:0.18996701 293:0.078913003 352:0.050845001 397:0.080398999 419:0.057032999 452:0.102441 579:0.095808998 634:0.16716801 752:0.110533 792:0.19941799 807:0.089331001 885:0.088942997 1114:0.29758 1351:0.141798 1520:0.111628 1564:0.17534199 1967:0.16889 1968:0.26184601 1969:0.191543 1970:0.16746899 1971:0.162369 1972:0.241109 1973:0.14302 1974:0.240683 1975:0.26184601 1976:0.148462 1977:0.13127001 1978:0.15159599 1979:0.161217 #
-0.10000000000000000555111512312578 6:0.040867001 10:0.069343001 50:0.061232001 52:0.105154 56:0.073106997 63:0.086341999 87:0.03661 91:0.108876 98:0.059827 104:0.090379 109:0.153218 112:0.063533999 128:0.181942 170:0.087972999 205:0.055860002 248:0.061276 276:0.042268999 292:0.14527699 300:0.066978998 352:0.049929999 356:0.079347998 370:0.048356999 385:0.055069 397:0.078952 410:0.081496 597:0.215941 670:0.106901 689:0.159447 723:0.056412 736:0.160623 771:0.092312999 803:0.094478004 819:0.22419401 858:0.110034 910:0.13798501 978:0.104966 1176:0.276191 1269:0.124285 1305:0.102451 1312:0.112367 1396:0.128907 1647:0.112367 1665:0.12393 1736:0.098576002 1788:0.110507 1978:0.355243 2018:0.145068 3398:0.160623 7338:0.236351 8196:0.215569 12576:0.25713399 12577:0.25713399 #
-0.10000000000000000555111512312578 11:0.018338 41:0.045607001 60:0.052903999 63:0.044089999 75:0.045921002 76:0.036109 83:0.057728 85:0.063097 100:0.206588 102:0.201335 104:0.046151999 109:0.14486 145:0.054776002 150:0.077092998 155:0.064646997 156:0.033365998 239:0.019943001 256:0.095790997 270:0.098428003 276:0.036545999 317:0.091078997 327:0.051088002 341:0.071137004 353:0.075158 393:0.055059999 404:0.120833 430:0.092426002 433:0.061319001 523:0.071520001 559:0.076338999 567:0.20565499 568:0.152575 572:0.085492 578:0.29879799 616:0.084582999 650:0.075246997 668:0.061581001 719:0.073775001 785:0.085891999 833:0.099090002 993:0.058231 1004:0.062491 1127:0.132688 1131:0.086710997 1142:0.127556 1468:0.075070001 1681:0.091743998 1992:0.160157 1994:0.096946001 2008:0.153905 2385:0.113709 3093:0.152117 3460:0.33137399 3461:0.371847 3585:0.162628 3666:0.12734701 5121:0.193838 8167:0.204349 8442:0.22231799 #
-0.10000000000000000555111512312578 6:0.143416 11:0.031191999 35:0.028271001 69:0.079549 104:0.078501001 109:0.225328 112:0.044521999 114:0.074767001 115:0.084233999 126:0.043776002 143:0.088661999 156:0.056752998 183:0.139727 198:0.12621 204:0.131458 209:0.132118 221:0.070660003 383:0.086778 401:0.139138 440:0.207545 592:0.107324 655:0.151953 719:0.125488 778:0.26263699 811:0.116927 818:0.34383601 910:0.119851 1026:0.124218 1057:0.15327699 1126:0.109861 1140:0.135399 1149:0.153009 1276:0.187775 1312:0.165251 1334:0.28866199 3572:0.30718401 10449:0.37814999 #
-0.10000000000000000555111512312578 50:0.104001 56:0.124171 67:0.54874402 69:0.091874003 109:0.184646 114:0.086351 156:0.065545999 197:0.20006301 276:0.171317 317:0.30294099 322:0.127231 428:0.168997 567:0.192509 668:0.120974 731:0.13900501 785:0.168732 858:0.11038 993:0.114393 1142:0.14799599 1515:0.15935899 2695:0.248879 3460:0.31019101 4602:0.286789 #
0.10000000000000000555111512312578 11:0.023355 13:0.113386 15:0.048486002 44:0.042697001 85:0.080357999 88:0.073521003 91:0.070807002 114:0.055982001 134:0.181006 142:0.050292 155:0.082332999 156:0.110885 184:0.102889 199:0.098922998 203:0.13044401 220:0.159739 240:0.134321 272:0.061190002 275:0.227099 276:0.078805 317:0.196399 350:0.055644002 352:0.054979 402:0.140159 404:0.15389 434:0.137767 592:0.080357999 597:0.16938999 600:0.226025 640:0.143831 730:0.103456 765:0.114766 780:0.124189 792:0.12735701 794:0.112247 797:0.094066001 837:0.083640002 857:0.251463 991:0.087196998 993:0.074161999 1012:0.148683 1168:0.140159 1172:0.157461 1219:0.120464 1285:0.16053399 1353:0.099298999 1520:0.120705 1534:0.14635199 1618:0.32113901 1736:0.108546 2088:0.185927 2104:0.165758 3669:0.18959901 3715:0.16053399 #
0.10000000000000000555111512312578 8:0.132723 10:0.038426999 39:0.085931003 56:0.068594001 70:0.102696 75:0.049834002 81:0.076870002 99:0.048285998 119:0.122751 131:0.064162001 137:0.049155999 146:0.074078001 210:0.080062002 212:0.15515199 221:0.045081001 226:0.057739999 238:0.080430001 271:0.12530001 308:0.123827 326:0.092921004 350:0.132369 383:0.055365 393:0.059751999 401:0.088771001 448:0.057739999 484:0.090970002 592:0.068472996 594:0.101844 627:0.089783996 656:0.078987002 669:0.11695 677:0.085484996 723:0.111078 741:0.087315001 760:0.065545999 825:0.073494002 937:0.080990002 1037:0.104984 1077:0.17851 1125:0.081084996 1237:0.29758599 1305:0.162756 1334:0.108773 1353:0.084611997 1422:0.087315001 1426:0.110605 1811:0.153053 1814:0.138928 2198:0.159949 2294:0.24052399 2692:0.17135599 3062:0.137486 3784:0.24126101 3785:0.40606099 3786:0.221762 3787:0.24126101 #
0.10000000000000000555111512312578 4:0.185655 8:0.156495 10:0.056159999 15:0.060380999 35:0.044633001 104:0.073197 105:0.079357997 124:0.099983998 126:0.040817 137:0.121635 149:0.115053 205:0.076599002 217:0.180189 219:0.082268 223:0.218384 248:0.084025003 370:0.066311002 384:0.16009501 858:0.089115001 981:0.15153401 991:0.108588 1004:0.099110998 1007:0.25250399 1069:0.134149 1306:0.199917 1783:0.231539 1789:0.25400999 2259:0.18291301 5214:0.26225999 12308:0.59699899 #
0.10000000000000000555111512312578 6:0.046184 11:0.040584002 13:0.11637 35:0.021725001 37:0.109744 51:0.095455997 60:0.117081 62:0.132568 109:0.24655899 115:0.064730003 122:0.098052002 123:0.080560997 128:0.18082701 137:0.059206001 145:0.150254 156:0.043612 183:0.107374 212:0.089047 219:0.0678 223:0.085761003 227:0.106033 231:0.146166 232:0.042052001 234:0.114072 241:0.051121 256:0.07395 274:0.168238 311:0.104884 385:0.062235001 482:0.195379 497:0.049929 671:0.144935 743:0.196034 783:0.085761003 797:0.16346 804:0.110558 896:0.098122999 967:0.118836 982:0.181522 1025:0.137008 1093:0.107987 1146:0.093181998 1424:0.11637 1681:0.119918 1888:0.23713499 1930:0.168238 2246:0.161606 2691:0.228388 6091:0.267104 6508:0.21257 6524:0.192653 6641:0.267104 #
0.10000000000000000555111512312578 8:0.176934 11:0.023331 15:0.048436999 18:0.068926997 36:0.042562999 41:0.058024 63:0.056095 81:0.090121999 87:0.040272001 93:0.138376 99:0.056609999 104:0.099417999 105:0.063661002 116:0.080705002 122:0.118296 126:0.032744002 127:0.098823003 128:0.17601199 137:0.057629 143:0.066317998 217:0.068876997 233:0.115671 241:0.049759999 249:0.073504001 272:0.103499 330:0.115464 352:0.054924 354:0.068428002 383:0.064909004 419:0.061608002 420:0.101954 459:0.108939 497:0.15538301 524:0.182438 571:0.18752199 634:0.106653 648:0.118711 759:0.097243004 782:0.10794 807:0.096497998 837:0.083555996 874:0.081067003 956:0.192112 974:0.111215 1127:0.099706002 1217:0.086934999 1316:0.240088 1424:0.113271 1532:0.34002 1641:0.13555899 1736:0.183598 2145:0.175394 3340:0.14466999 3474:0.214268 6045:0.28285199 6046:0.237129 6047:0.21867201 #
-0.10000000000000000555111512312578 8:0.214155 22:0.075217001 38:0.067041002 45:0.072122999 60:0.065991998 62:0.074721001 76:0.045042001 92:0.29106501 98:0.064524002 105:0.077362999 119:0.174886 121:0.13174701 122:0.055266 126:0.076606996 137:0.056501999 156:0.099319004 208:0.059354 221:0.051819 223:0.081845 227:0.10119 239:0.024878001 267:0.077146001 272:0.059932001 281:0.115293 290:0.065480001 323:0.102761 327:0.063726999 350:0.054501001 497:0.124337 550:0.112605 592:0.078707002 716:0.099033996 760:0.179787 783:0.081845 825:0.084477998 832:0.153514 837:0.081920996 936:0.14658099 937:0.093094997 1108:0.26189601 1127:0.097755998 1151:0.26746401 1225:0.102181 1305:0.110493 1433:0.116389 1788:0.119182 2009:0.12905701 2039:0.13521799 3776:0.554793 #
-0.034781497877110267857858616480371 7:0.112673 8:0.167934 31:0.061776999 35:0.020071 44:0.040484 56:0.076329 62:0.072334997 63:0.053242002 65:0.074110001 70:0.114275 105:0.074892998 114:0.089873001 119:0.210512 122:0.053502001 126:0.052620001 143:0.062945001 156:0.084555998 207:0.200802 208:0.120584 216:0.074299999 226:0.108786 227:0.097960003 231:0.135037 239:0.024083 267:0.074681997 290:0.063389003 292:0.072276004 350:0.089331001 464:0.22226401 493:0.071571 497:0.120367 499:0.118079 559:0.092184998 597:0.12958001 668:0.074363001 714:0.15459301 760:0.123491 782:0.10245 858:0.067851998 975:0.16586 1027:0.205413 1069:0.10214 1225:0.167484 1549:0.113771 1683:0.177984 4949:0.234074 4950:0.412135 4951:0.26846501 4952:0.26846501 4953:0.18167099 #
-0.0081141835114005057827402112025084 6:0.037053999 9:0.046153001 11:0.032561 16:0.076585002 19:0.073279001 24:0.154211 26:0.071800999 38:0.056361999 54:0.103915 69:0.049045 75:0.048156999 87:0.033194002 97:0.084491998 105:0.030991999 112:0.046475999 113:0.040351 123:0.064635001 127:0.081455998 134:0.120249 155:0.067795999 172:0.139688 186:0.099193998 208:0.049899001 218:0.188659 219:0.054397002 232:0.070804 240:0.078477003 267:0.064856999 332:0.15776999 450:0.183165 456:0.105113 460:0.097662002 464:0.073971003 473:0.107412 482:0.092582002 581:0.24136899 588:0.090501003 622:0.106366 649:0.16795 671:0.068678997 677:0.082608998 682:0.152835 830:0.118435 833:0.103915 887:0.090788998 1000:0.142556 1250:0.23975401 1490:0.104388 1529:0.123713 1552:0.118837 1623:0.095687002 1737:0.13286 1879:0.23668399 2068:0.138926 2080:0.10906 2333:0.143545 2919:0.140681 3014:0.189391 3227:0.13649 3460:0.165591 3603:0.15776999 4114:0.233144 4115:0.233144 4116:0.20327801 #
-0.085622863281753613939883962302702 8:0.065793999 11:0.020702999 15:0.042980999 35:0.018764 36:0.037769001 59:0.060415 62:0.067626998 75:0.051842999 81:0.079971001 122:0.084689997 126:0.029054999 128:0.12601 137:0.051137999 151:0.090591997 155:0.072985001 201:0.10103 223:0.19329301 226:0.060068998 231:0.126248 232:0.086672999 239:0.022515999 241:0.044155002 246:0.100342 249:0.065224998 352:0.082519002 353:0.084852003 414:0.089047998 418:0.105951 419:0.054669 448:0.101705 452:0.098195001 597:0.071551003 617:0.15837701 743:0.100003 765:0.101736 813:0.101558 858:0.063436002 922:0.16331699 978:0.102458 991:0.077297002 1033:0.098848999 1077:0.109683 1209:0.093539998 1306:0.29864901 1342:0.199499 1446:0.20720901 1552:0.12793399 1571:0.24512801 1760:0.259148 1788:0.107868 1789:0.306144 1806:0.126652 2198:0.1664 2319:0.25022501 3347:0.180813 3466:0.16331699 5232:0.16331699 5869:0.18668599 #
-0.028251364415170173577385170915477 8:0.165665 31:0.088197999 36:0.057675999 63:0.044893999 70:0.13580599 81:0.072126999 119:0.177507 122:0.076383002 164:0.090372004 186:0.22983199 209:0.079089999 276:0.097103 346:0.109105 389:0.072668001 392:0.065231003 498:0.083645001 595:0.15297 607:0.212172 739:0.213799 782:0.086387001 874:0.064879999 920:0.112409 991:0.069715001 1103:0.238938 1375:0.121573 1483:0.117433 1604:0.162429 1800:0.150079 2117:0.247216 2198:0.150079 2510:0.203381 3212:0.27222699 5112:0.179078 5369:0.189781 9047:0.226373 9048:0.226373 9049:0.208077 9050:0.226373 9051:0.226373 #
0.10000000000000000555111512312578 10:0.092223004 11:0.022758 15:0.079995997 22:0.074832998 30:0.170221 31:0.063488998 35:0.020626999 37:0.12915 44:0.041606002 49:0.074096002 59:0.13937099 75:0.056988999 88:0.071641997 98:0.064195 109:0.179776 163:0.27738601 170:0.159825 180:0.181051 201:0.18803801 204:0.162395 210:0.091558002 236:0.046133999 271:0.084629998 290:0.065145999 299:0.19954801 315:0.075269997 352:0.053574 354:0.066747002 370:0.087853 436:0.183082 634:0.104033 648:0.115795 656:0.090328 668:0.160384 752:0.116467 778:0.226138 894:0.072671004 974:0.108483 992:0.144182 1026:0.15345199 1131:0.107611 1140:0.098788999 1305:0.109929 1477:0.115574 1710:0.18878201 1760:0.229831 2210:0.116241 2339:0.17646 2371:0.165427 2487:0.179526 2513:0.160616 2533:0.17502999 13876:0.25360399 #
0.10000000000000000555111512312578 6:0.052039001 11:0.056680001 36:0.049272001 51:0.107558 60:0.077917002 69:0.068879999 83:0.085023001 91:0.081883997 93:0.16018599 98:0.12898999 109:0.195107 112:0.038550999 113:0.056669999 123:0.090774998 162:0.116776 172:0.24315999 222:0.112433 232:0.123643 244:0.063617997 281:0.136127 290:0.077312 307:0.43056801 345:0.33452299 347:0.209416 370:0.061578002 405:0.110957 428:0.126701 523:0.105335 668:0.090696998 743:0.13045999 803:0.120308 820:0.189568 846:0.227534 900:0.243542 1142:0.110957 1217:0.100637 1296:0.119312 1412:0.17657401 1888:0.157812 1979:0.20159701 2191:0.168054 #
0.10000000000000000555111512312578 6:0.044009 11:0.047933001 15:0.099513002 23:0.077280998 35:0.020702001 37:0.061764002 43:0.072356999 58:0.095903002 59:0.112851 70:0.069614001 75:0.057195999 76:0.044975001 83:0.071901999 87:0.039425001 91:0.069247998 100:0.107829 105:0.036809001 109:0.180428 126:0.032055002 134:0.084351003 143:0.064924002 156:0.099169999 164:0.065289997 169:0.072529003 179:0.093722999 180:0.086585 232:0.040070999 239:0.024839999 240:0.055048998 243:0.188372 249:0.17171399 250:0.096867003 258:0.076053001 273:0.104102 276:0.045519002 300:0.072129004 312:0.092418 317:0.113442 318:0.14579999 350:0.054419 433:0.076375 436:0.227749 450:0.091164 452:0.063983001 453:0.079361998 498:0.102317 533:0.113442 568:0.112239 574:0.132339 583:0.104565 597:0.133654 633:0.107658 668:0.076701 778:0.124787 802:0.14636099 803:0.101742 964:0.194915 995:0.194552 1013:0.092524998 1026:0.090960003 1125:0.093064003 1312:0.121007 1338:0.106982 1375:0.148711 1767:0.144172 1896:0.130555 2375:0.194087 5509:0.189466 6229:0.241432 11108:0.25452399 14329:0.27690399 #
0.10000000000000000555111512312578 10:0.038981002 11:0.03418 15:0.04191 18:0.059638999 26:0.15817399 35:0.018297 36:0.036828 39:0.087168999 41:0.050206002 76:0.039749999 103:0.104543 112:0.028814999 121:0.093804002 156:0.036729999 172:0.241778 178:0.094851002 179:0.082836002 208:0.052381001 210:0.081215002 241:0.043055002 282:0.187498 292:0.111558 303:0.120408 352:0.047522999 370:0.046025999 392:0.070523001 428:0.29163 433:0.067502998 456:0.23156001 457:0.18394101 464:0.13147099 474:0.073971003 556:0.120045 661:0.095000997 734:0.134864 740:0.094701998 771:0.087862 783:0.072228998 894:0.064461999 896:0.08264 905:0.148643 977:0.087630004 986:0.106722 1146:0.078478999 1424:0.098007999 1432:0.107179 4293:0.127424 7155:0.17630801 8923:0.244737 8924:0.244737 8925:0.244737 8926:0.244737 8927:0.380885 #
0.10000000000000000555111512312578 8:0.10179 35:0.017146001 37:0.051155001 38:0.055443 43:0.059928 60:0.054575 63:0.045483001 91:0.057353999 98:0.053360999 100:0.233043 109:0.19459 112:0.027001999 113:0.039693002 131:0.060991999 142:0.097208999 156:0.089815997 169:0.060070999 171:0.089737996 239:0.020574 240:0.1088 249:0.059599001 250:0.080228001 266:0.35306701 327:0.089231998 336:0.080228001 395:0.088192999 401:0.084385 404:0.073620997 410:0.072687998 497:0.066719003 539:0.081579 568:0.24257299 650:0.077624001 668:0.10756 778:0.128103 792:0.103159 794:0.090920001 797:0.076192997 825:0.069862001 856:0.203567 858:0.057964001 896:0.077440999 977:0.082116999 993:0.060070999 1121:0.109007 1133:0.078369997 1344:0.114605 1353:0.080431998 1579:0.28367499 1681:0.094642997 1989:0.145492 2080:0.107281 2176:0.14792401 2592:0.150601 2890:0.143262 3378:0.19996201 3666:0.40454599 4135:0.177304 #
-0.10000000000000000555111512312578 1:0.069715999 6:0.065925002 11:0.034215 18:0.059700999 31:0.056375001 44:0.062551998 50:0.098778002 75:0.050604001 76:0.039790999 86:0.081206001 87:0.034880999 91:0.128576 98:0.096511997 100:0.095400997 104:0.050857998 109:0.061175 113:0.042401001 131:0.065154001 137:0.049915001 163:0.216612 172:0.086692996 174:0.101286 181:0.072507001 183:0.090524003 211:0.098614 221:0.045777999 222:0.084123999 244:0.047600001 251:0.27418399 254:0.135617 271:0.075148001 292:0.111673 293:0.073831998 327:0.056297 365:0.119103 429:0.095099002 452:0.056607999 457:0.077160999 474:0.074047998 538:0.116444 544:0.18726499 623:0.083217002 668:0.067860998 787:0.082627997 807:0.049364001 848:0.250294 937:0.082241997 977:0.087719999 1004:0.068862997 1121:0.116444 1126:0.120509 1268:0.079328001 1412:0.13211501 1448:0.123218 1451:0.18558601 1547:0.116129 1903:0.13754401 2069:0.27940199 2146:0.15541799 2691:0.113721 4142:0.15541799 4380:0.18558601 5232:0.159411 7319:0.24498899 7320:0.213605 7321:0.24498899 #
-0.10000000000000000555111512312578 23:0.041602999 35:0.018869 41:0.087664001 44:0.064442001 45:0.065640002 60:0.060059998 91:0.063118003 105:0.033550002 110:0.23916499 112:0.029716 126:0.029216999 131:0.067121997 142:0.044831 151:0.091095999 162:0.090012997 183:0.093258999 184:0.091715999 201:0.101593 204:0.087738998 222:0.086664997 238:0.084140003 239:0.038334999 240:0.050175998 243:0.081813999 248:0.060145002 249:0.065587997 258:0.069320001 272:0.054545 422:0.105724 436:0.098916002 450:0.083094001 498:0.093258999 508:0.083470002 817:0.101769 921:0.127358 934:0.336016 974:0.099238001 985:0.205025 988:0.38339999 991:0.077728003 1026:0.140374 1119:0.097663999 1125:0.202418 1140:0.153009 1338:0.097511001 1366:0.17690501 1450:0.095592 1713:0.1213 2049:0.184626 2123:0.17926 2371:0.151329 2403:0.13445599 2430:0.118371 3682:0.187727 3683:0.205025 3684:0.199659 3685:0.174724 #
-0.10000000000000000555111512312578 11:0.041358002 22:0.180913 37:0.053291999 70:0.060066 76:0.065704003 105:0.03176 109:0.175754 122:0.047614001 142:0.071855001 171:0.158287 239:0.021433 241:0.042032 247:0.075094998 248:0.056936 250:0.083580002 256:0.060800999 285:0.106015 338:0.078571998 342:0.118271 370:0.044932999 385:0.133523 392:0.068847001 422:0.100083 427:0.093790002 440:0.162534 460:0.100083 552:0.084220998 600:0.19072901 671:0.070381001 712:0.152808 752:0.170765 797:0.134396 804:0.153908 874:0.068475999 936:0.126286 975:0.087180004 991:0.073579997 1477:0.100083 1523:0.126779 1654:0.14511199 1728:0.099515997 1930:0.13832501 2598:0.120167 3031:0.18471099 3962:0.1654 4133:0.158399 4139:0.361211 4829:0.219612 4936:0.194085 6524:0.158399 9626:0.219612 13748:0.238923 13749:0.238923 #
-0.10000000000000000555111512312578 11:0.049063001 15:0.042684998 23:0.041087002 31:0.057358 39:0.088780999 41:0.051134001 43:0.065133996 64:0.088780999 76:0.040484998 87:0.035489 94:0.072021998 105:0.033133999 109:0.130622 110:0.236201 112:0.049688999 113:0.043141 121:0.095539004 126:0.028855 130:0.13026001 142:0.044275001 156:0.037409998 194:0.088550001 229:0.184396 240:0.049554002 241:0.043850999 243:0.169568 249:0.064774998 258:0.068461001 276:0.040975001 287:0.104414 393:0.061733 491:0.086652003 493:0.066451997 600:0.117522 634:0.093987003 648:0.104614 701:0.089487001 785:0.096302003 793:0.128842 807:0.050225001 833:0.111099 887:0.097065002 930:0.121538 998:0.35664001 1140:0.089249998 1471:0.154566 1728:0.103823 1819:0.241749 2566:0.166915 2841:0.221377 3666:0.142781 4751:0.19270401 7205:0.456094 8544:0.24926201 #
-0.10000000000000000555111512312578 10:0.046673998 11:0.040925998 35:0.037094001 60:0.069734 87:0.041722 88:0.076093003 98:0.068181999 109:0.174615 219:0.068371996 240:0.15201899 248:0.146552 249:0.12893701 270:0.12974 271:0.089887999 330:0.20254099 597:0.141443 668:0.081170999 717:0.192431 794:0.116174 813:0.118572 885:0.099538997 895:0.117957 935:0.100747 977:0.104925 1075:0.145061 1122:0.280036 1133:0.100138 1427:0.112342 1580:0.285712 2672:0.180424 2837:0.322846 2864:0.177982 4095:0.202866 6029:0.20539799 6101:0.255503 7276:0.293042 7277:0.269357 #
0.10000000000000000555111512312578 9:0.047056001 11:0.019607 23:0.039182 31:0.054698002 36:0.035769999 59:0.057216 81:0.158942 87:0.033842999 105:0.031598002 119:0.120941 125:0.097034 137:0.048431002 156:0.035675 190:0.097914003 202:0.079703003 209:0.140614 219:0.093902998 223:0.070152998 241:0.041816998 244:0.078197002 276:0.039074998 337:0.080170996 385:0.050907999 410:0.12755799 419:0.051773999 426:0.076305002 448:0.096321002 464:0.075416997 597:0.067763001 635:0.101134 659:0.15759 689:0.14739799 700:0.176635 730:0.086855002 760:0.064579003 843:0.115562 894:0.062609002 967:0.097208001 1170:0.116595 1305:0.094709001 1435:0.101949 1520:0.241816 1784:0.12872399 3032:0.156092 4434:0.162644 10487:0.73199397 #
0.10000000000000000555111512312578 23:0.023406001 43:0.037105002 63:0.028161 87:0.020217 104:0.029477 124:0.068173997 173:0.080109999 204:0.049362998 219:0.033131 223:0.041907001 243:0.046029001 257:0.046282001 485:0.065747 523:0.045680001 539:0.050508998 612:0.168515 661:0.055119999 695:0.088050999 738:0.040052999 778:0.037794001 797:0.079874001 804:0.091470003 851:0.112173 855:0.045979001 1011:0.090080999 1026:0.046643998 1168:0.070290998 1435:0.060901001 1475:0.061402999 1512:0.079720996 1703:0.072378002 1729:0.113657 1850:0.096089996 1900:0.123396 1978:0.082208999 2008:0.098301001 2065:0.103872 2486:0.20862401 2671:0.13052 2680:0.13052 2876:0.123806 3474:0.107566 3581:0.16269401 3871:0.100853 3944:0.103872 4142:0.15252 4621:0.11233 5563:0.109777 6530:0.105616 7191:0.19530199 7455:0.19530199 7752:0.123806 9309:0.123806 9441:0.141996 9442:0.141996 9443:0.141996 9444:0.141996 9445:0.141996 9446:0.141996 9447:0.141996 9448:0.141996 9449:0.141996 9450:0.141996 9451:0.141996 9452:0.141996 9453:0.141996 9454:0.141996 9455:0.141996 9456:0.141996 9457:0.141996 9458:0.141996 9459:0.119043 9460:0.141996 9461:0.141996 9462:0.141996 9463:0.141996 9464:0.141996 #
0.10000000000000000555111512312578 15:0.045127999 35:0.019702001 75:0.129893 109:0.065805003 110:0.104648 111:0.117458 115:0.099391997 244:0.051201999 262:0.139292 528:0.163413 552:0.092895001 807:0.053100001 981:0.113256 1051:0.174712 1261:0.203734 1484:0.141528 1520:0.112345 1686:0.339358 1702:0.169976 1703:0.134325 3554:0.208471 3715:0.149417 4782:0.187172 5425:0.35297301 6922:0.26352999 6923:0.26352999 6924:0.41013101 6925:0.26352999 #
0.10000000000000000555111512312578 9:0.146014 18:0.058369 19:0.075282998 33:0.068402998 44:0.061156999 63:0.047502 83:0.105306 98:0.05573 142:0.042544998 162:0.085423999 179:0.081070997 187:0.119693 197:0.064804003 229:0.084431998 248:0.057078999 370:0.045046002 393:0.059321001 426:0.076889001 429:0.092977002 448:0.057324 453:0.068648003 473:0.186839 483:0.14388201 505:0.25305399 540:0.148526 597:0.068282001 656:0.078417003 668:0.20431 719:0.079484999 731:0.129078 780:0.062049001 807:0.048262 825:0.072963998 829:0.128113 885:0.081359997 974:0.094177999 1125:0.080500998 1140:0.145208 1180:0.17255101 1292:0.137927 1552:0.206714 1806:0.120865 2004:0.13383301 2039:0.30475301 2085:0.133205 2323:0.130262 2780:0.139437 3941:0.13383301 5525:0.181445 5821:0.208839 5822:0.35359499 5823:0.18948001 5824:0.23952299 #
0.10000000000000000555111512312578 5:0.087350003 6:0.047171999 36:0.044663001 45:0.077191003 60:0.119585 64:0.105715 87:0.042257998 109:0.206908 112:0.034945 114:0.058683999 116:0.202088 119:0.089189999 122:0.124132 123:0.082284003 124:0.200838 126:0.058175001 137:0.060472 145:0.073128 205:0.064479001 232:0.042950999 233:0.20550901 248:0.070730001 275:0.113437 276:0.13620999 293:0.15144899 297:0.097606003 306:0.34039599 352:0.057633001 370:0.055817999 414:0.105302 464:0.094168998 470:0.079906002 493:0.079126 583:0.11208 623:0.100818 633:0.115395 710:0.326727 885:0.100818 991:0.091406003 1268:0.096106 1305:0.118257 1398:0.14977001 1549:0.21296699 1555:0.36766899 1788:0.12755699 1906:0.136741 2598:0.14928 12826:0.258784 #
-0.10000000000000000555111512312578 9:0.040107001 11:0.016712001 23:0.056543998 41:0.041561998 65:0.055929001 95:0.102295 98:0.047139 105:0.045598999 107:0.075289004 109:0.050590999 121:0.077653997 172:0.121388 208:0.043361999 240:0.040277999 256:0.051557999 276:0.033303998 336:0.070873998 353:0.068493001 385:0.043389998 410:0.15323 443:0.050666999 445:0.071509004 470:0.092350997 477:0.20924 493:0.054012001 512:0.087429002 518:0.20993701 530:0.098935999 533:0.083002001 549:0.145953 571:0.13431799 611:0.071973003 633:0.078768998 634:0.076393001 635:0.14594799 636:0.140256 637:0.076734997 638:0.103269 639:0.145953 640:0.102919 641:0.160272 642:0.48346499 643:0.17664699 644:0.143897 645:0.143897 646:0.143897 647:0.13431799 648:0.085029997 649:0.086199 650:0.068573996 651:0.15429799 652:0.108365 653:0.145953 654:0.12802701 655:0.081412002 656:0.066329002 657:0.105876 658:0.103624 659:0.13431799 660:0.108365 661:0.078644998 662:0.12474 663:0.15663099 664:0.15663099 665:0.071879998 666:0.15663099 #
-0.051635828734939104300849521678174 2:0.15384001 6:0.040008999 15:0.043109 18:0.103866 22:0.068278 36:0.037881002 37:0.16541301 42:0.074086003 56:0.071572997 60:0.059904002 62:0.067828 63:0.049924001 89:0.073538996 99:0.050383002 105:0.056658 163:0.222578 164:0.059354998 171:0.166776 178:0.097563997 181:0.074504003 198:0.14225499 202:0.084408 208:0.053879 239:0.038236 261:0.101682 267:0.070028998 287:0.178543 290:0.100639 321:0.090135999 383:0.09781 389:0.080810003 415:0.088852003 424:0.124231 427:0.098820001 493:0.113629 494:0.088398002 496:0.123852 545:0.092110001 559:0.086441003 575:0.090374999 665:0.089312002 713:0.104268 785:0.097258002 799:0.096212 803:0.092495002 1004:0.070759997 1008:0.191277 1432:0.110244 1445:0.24289 1533:0.115407 1612:0.166894 2077:0.121329 3226:0.157251 3371:0.12787899 3545:0.1561 3912:0.15844899 5714:0.204494 7976:0.34623799 12916:0.25173599 12917:0.25173599 #
-0.043694923333107281437914792832089 1:0.071351998 3:0.080059998 10:0.039935999 11:0.049353998 23:0.041329999 35:0.018746 36:0.037730999 37:0.11737 44:0.037811 73:0.107322 76:0.085465997 93:0.122665 98:0.058339 105:0.033330001 113:0.043396 131:0.066683002 138:0.068691999 143:0.058789 208:0.090862997 209:0.087603003 221:0.046852 236:0.041926 244:0.048717 282:0.116502 351:0.062238 387:0.079553001 399:0.115232 429:0.097331002 444:0.087714002 448:0.060008001 453:0.071863003 504:0.14352199 541:0.105639 611:0.089074001 633:0.097484998 669:0.121544 713:0.24782699 782:0.095684998 838:0.097176999 840:0.107759 1146:0.080403 1147:0.347339 1149:0.101455 1156:0.117905 1218:0.102173 2259:0.130073 2354:0.151297 2668:0.157821 2906:0.203683 3421:0.15033799 3636:0.56660002 4335:0.151297 5830:0.193845 #
-0.10000000000000000555111512312578 11:0.049736999 19:0.111933 61:0.129062 69:0.074917004 87:0.08585 94:0.174224 105:0.047339998 109:0.212207 122:0.070972003 134:0.183681 138:0.097565003 145:0.14856499 232:0.051536001 312:0.11886 357:0.13868 385:0.12913699 426:0.114321 450:0.117247 452:0.082289003 530:0.102714 738:0.100454 878:0.210933 1623:0.146163 1710:0.243674 1932:0.169733 1948:0.194517 2926:0.22777 4399:0.44849199 10054:0.50550902 #
-0.080381459712471153844504101471102 6:0.037312001 9:0.16196001 35:0.017552 49:0.063049003 87:0.033426002 94:0.067833997 98:0.054623999 100:0.091421999 113:0.040633 121:0.053146001 149:0.129705 172:0.140662 194:0.083401002 204:0.081614003 208:0.050246999 231:0.069744997 310:0.174455 322:0.068393998 323:0.086994998 393:0.058143999 405:0.207597 513:0.112515 656:0.076861002 682:0.073334001 700:0.103036 725:0.180483 830:0.20192499 837:0.069352001 899:0.114471 952:0.099688001 1109:0.116216 1122:0.094016001 1133:0.080224998 1217:0.072157003 1225:0.086502999 1299:0.17083199 1340:0.149003 1398:0.118467 1405:0.092918001 1423:0.112832 1432:0.174079 1534:0.121351 1700:0.13117699 1977:0.117696 1987:0.379419 1988:0.392131 2034:0.120495 2219:0.16063701 2326:0.11926 2829:0.162525 3977:0.15721001 4299:0.152761 5729:0.1815 #
0.10000000000000000555111512312578 10:0.031562999 11:0.027675999 35:0.014815 36:0.029820001 44:0.029883999 45:0.051538002 83:0.051456999 87:0.028214 105:0.044601001 112:0.023332 137:0.040375002 171:0.077540003 194:0.119194 202:0.066445999 239:0.017777 240:0.039395999 267:0.055126999 271:0.060784999 314:0.088726997 315:0.054062001 321:0.070955001 342:0.098095998 396:0.073959999 419:0.043163002 544:0.107476 585:0.079905003 592:0.056242 617:0.073853001 710:0.103947 713:0.082079001 726:0.261536 738:0.055897001 914:0.067473002 988:0.115362 991:0.061028998 998:0.118817 1000:0.121169 1125:0.066601001 1140:0.120137 1415:0.101008 1438:0.127817 1580:0.114113 1669:0.074066997 1976:0.112357 2044:0.45872301 2385:0.101356 2436:0.103176 3129:0.135591 3516:0.132699 4070:0.156764 4121:0.121169 6057:0.15011699 6419:0.198166 6420:0.18215001 6421:0.198166 6422:0.198166 6423:0.198166 6424:0.18215001 6425:0.18215001 6426:0.15011699 6427:0.17278101 6428:0.198166 #
0.10000000000000000555111512312578 6:0.045641001 8:0.075280003 22:0.077890001 32:0.15710101 35:0.021469999 44:0.043306001 69:0.060412001 92:0.25763601 114:0.056779999 121:0.13643 122:0.057231002 126:0.056287002 132:0.14844 156:0.112467 164:0.067712002 169:0.075220004 211:0.115596 214:0.123454 221:0.090856001 232:0.041558001 235:0.16123 236:0.048018999 261:0.1964 267:0.079888001 271:0.088088997 292:0.13090301 350:0.13467801 351:0.120692 354:0.069475003 356:0.088619001 370:0.054008 433:0.079209 457:0.090448998 465:0.098731004 469:0.14791299 470:0.077313997 474:0.146963 484:0.108284 497:0.049343001 522:0.144437 650:0.097199999 812:0.112916 813:0.116199 852:0.121463 869:0.132305 910:0.091017999 933:0.13036799 977:0.102826 991:0.088440999 1728:0.202526 1892:0.34170601 1902:0.115796 2221:0.26396701 2466:0.19039001 2628:0.217545 2686:0.201287 3795:0.21360099 #
0.10000000000000000555111512312578 3:0.080067001 5:0.073799998 7:0.105243 8:0.065733999 15:0.042941999 30:0.15470999 31:0.0977 58:0.086848997 83:0.065113999 85:0.071168996 86:0.083120003 87:0.035703 91:0.062711 105:0.033333 113:0.043400001 122:0.084613003 128:0.125894 146:0.076995 150:0.086957 156:0.037634999 162:0.15142199 181:0.074215002 219:0.099062003 228:0.153328 229:0.088394001 260:0.110533 267:0.11811 272:0.054193001 290:0.10025 313:0.158627 327:0.057624001 350:0.049281001 353:0.084774002 445:0.149856 478:0.116107 532:0.174255 538:0.119188 579:0.091752999 594:0.105854 596:0.078979999 627:0.093319997 719:0.083214 723:0.055013999 765:0.101642 767:0.091752999 794:0.099412002 858:0.107307 874:0.071869001 887:0.097649001 899:0.122269 977:0.25066301 993:0.065682001 1001:0.116107 1028:0.121555 1298:0.107769 1340:0.093998 1374:0.099577002 1739:0.171579 1958:0.32823899 2171:0.124132 3177:0.171579 3836:0.16174001 3985:0.164667 4020:0.15908 4233:0.153328 12434:0.23049399 12969:0.250761 #
0.10000000000000000555111512312578 6:0.039186999 9:0.048810001 50:0.058715999 63:0.048898999 64:0.087820999 70:0.130088 76:0.040047999 81:0.078561001 92:0.156951 104:0.051185999 109:0.061569002 114:0.048751 121:0.133195 123:0.068356998 137:0.085058004 226:0.059009999 231:0.073250003 239:0.022119001 267:0.068590999 268:0.11564 275:0.094237 317:0.101014 385:0.052806001 393:0.061066002 433:0.068007998 472:0.14275099 491:0.085716002 575:0.088519998 622:0.11249 705:0.150885 812:0.164148 839:0.130836 937:0.140145 945:0.098241001 975:0.15233199 1001:0.114166 1077:0.10775 1134:0.106184 1150:0.114747 1151:0.33381799 1218:0.100474 1225:0.090851001 1256:0.11564 1418:0.120224 1422:0.089235999 1473:0.136492 1481:0.135873 1618:0.117195 1728:0.173887 1765:0.130836 1860:0.15181001 1903:0.138431 2319:0.24581499 2812:0.131354 2853:0.214982 2854:0.214982 2858:0.190622 3374:0.14275099 5314:0.190622 7009:0.22664 #
0.10000000000000000555111512312578 11:0.058095001 35:0.052655 43:0.065922998 60:0.060033999 64:0.089856997 70:0.063423999 98:0.058699001 104:0.052372001 109:0.17587 112:0.029703001 121:0.136282 122:0.105511 124:0.17071 143:0.059151001 150:0.087484002 151:0.091057003 169:0.066079997 221:0.047141001 232:0.061813001 233:0.103169 324:0.080043003 327:0.057973001 342:0.124884 356:0.077850997 385:0.128932 392:0.072696999 422:0.17893 440:0.17162199 452:0.058293 493:0.113876 512:0.184329 517:0.124884 523:0.081159003 655:0.101375 671:0.074316002 676:0.119754 701:0.15335 743:0.100518 760:0.116048 778:0.19781099 783:0.074455 807:0.050833002 812:0.099195004 813:0.10208 858:0.063762002 976:0.16990501 1279:0.152229 1344:0.21345399 1353:0.14980499 1425:0.16272099 1769:0.11832 1898:0.164156 2009:0.19878501 2034:0.219235 2691:0.117107 2777:0.134398 3165:0.151264 3350:0.19957399 3356:0.157592 3711:0.153226 3954:0.25228199 3955:0.13720199 #
-0.10000000000000000555111512312578 3:0.085063003 11:0.021974999 18:0.064920001 30:0.097075 35:0.019917 44:0.040174 48:0.078919999 69:0.094888002 70:0.066974998 75:0.093169004 88:0.069176003 109:0.15874401 112:0.031366002 113:0.110027 116:0.128701 126:0.03084 151:0.096156001 169:0.069779001 221:0.04978 232:0.065274 240:0.052962001 275:0.24297 276:0.043793 292:0.071722001 330:0.108751 350:0.088647 368:0.135331 392:0.076766998 397:0.081799001 404:0.085519001 427:0.104579 436:0.17678 452:0.061556999 532:0.109339 539:0.094763003 596:0.247183 676:0.074688002 701:0.095642 778:0.148807 797:0.088506997 806:0.34519699 874:0.076352999 896:0.089956999 933:0.210421 1012:0.173398 1013:0.089016996 1014:0.192294 1134:0.114727 1196:0.118474 1338:0.102926 1618:0.214393 1693:0.29345301 1695:0.31226099 1924:0.14956801 4638:0.158747 #
-0.05828778625390811790607514808471 11:0.055714998 36:0.048432998 50:0.076645002 82:0.1534 91:0.080490999 104:0.066814996 122:0.108602 134:0.205759 182:0.122086 210:0.106808 221:0.060141001 237:0.150951 238:0.107298 265:0.159326 267:0.15159699 272:0.14597499 293:0.096998997 299:0.137486 311:0.11617 313:0.179056 326:0.123963 327:0.073960997 352:0.062498 401:0.118426 419:0.070104003 433:0.150308 445:0.113602 454:0.13456701 584:0.217803 607:0.17817 619:0.168828 655:0.129333 783:0.094989002 785:0.21054199 807:0.064852998 861:0.157873 937:0.108046 991:0.099122003 1002:0.189514 1223:0.15134899 1825:0.187369 1958:0.52219403 #
-0.10000000000000000555111512312578 9:0.058072001 10:0.046723999 11:0.050781 76:0.047646999 88:0.076173998 91:0.073362 99:0.099408001 104:0.060897999 109:0.215794 113:0.085964002 121:0.139364 123:0.081326999 126:0.071267001 150:0.17223801 165:0.144327 180:0.091728002 182:0.23352 223:0.086576998 240:0.12239 247:0.092202999 276:0.081648 307:0.16165499 313:0.077765003 314:0.131346 315:0.13550401 321:0.105037 350:0.057652 370:0.055169001 539:0.104349 559:0.100731 570:0.31474301 579:0.107338 640:0.14902 650:0.099290997 665:0.104077 710:0.153877 743:0.116882 759:0.100854 760:0.079697996 792:0.131952 837:0.086658001 851:0.231741 858:0.074142002 889:0.127923 931:0.13104799 974:0.115344 986:0.127923 993:0.130098 1140:0.105037 1268:0.094989002 1342:0.111107 1449:0.150564 1475:0.126854 1540:0.108089 1879:0.17589 2024:0.163911 2304:0.12531 2344:0.21819501 2430:0.137583 2579:0.167171 #
-0.05177263250500511310159268418829 10:0.048377998 11:0.025054 15:0.052014001 23:0.084770001 30:0.110678 32:0.234184 35:0.022708001 42:0.089391001 63:0.060237002 76:0.049332999 87:0.112846 112:0.035760999 114:0.12603199 121:0.116418 126:0.035161 137:0.061884999 156:0.10878 164:0.150296 178:0.117718 202:0.101845 213:0.121223 239:0.046133999 240:0.102239 243:0.098458998 276:0.049929999 292:0.081772 300:0.133959 324:0.096368 350:0.059693001 352:0.058979001 464:0.096368 470:0.213379 483:0.182456 523:0.097713001 592:0.086204998 627:0.113035 665:0.107761 833:0.13538 846:0.124661 976:0.120816 987:0.185721 1012:0.094203003 1126:0.246353 1317:0.111291 1483:0.15756699 1520:0.33788699 1549:0.128719 1617:0.12846699 1727:0.43614799 1888:0.146392 3032:0.19945499 #
-0.10000000000000000555111512312578 11:0.04033 35:0.021589 56:0.172304 60:0.068719 75:0.059648 76:0.079414003 87:0.041115001 89:0.084360003 104:0.059948001 105:0.038387001 108:0.079448 109:0.122092 115:0.064326003 121:0.065371998 124:0.228607 128:0.085626997 131:0.214405 201:0.11624 207:0.12757 216:0.079921998 229:0.101795 232:0.041788999 236:0.048285998 239:0.025905 241:0.050802 265:0.14295 271:0.088578999 276:0.080374002 312:0.096381001 314:0.129297 324:0.091622002 327:0.066359997 352:0.056074001 385:0.061845999 445:0.101925 597:0.082323 650:0.097741999 723:0.107267 739:0.114293 783:0.085225999 797:0.095939003 807:0.098518997 861:0.141647 937:0.096941002 1234:0.190703 1277:0.19758999 1374:0.114674 1397:0.107934 1424:0.195802 1493:0.187903 1549:0.122379 2282:0.15091 2595:0.180389 2691:0.134048 3672:0.18319701 3813:0.20803399 5244:0.26543701 5245:0.28877699 5246:0.26543701 #
0.10000000000000000555111512312578 1:0.058591001 11:0.016983001 13:0.082452998 15:0.035259001 35:0.015393 36:0.030982999 41:0.071514003 55:0.129179 58:0.071309999 65:0.056837998 98:0.047906 100:0.080178 102:0.186463 109:0.13416 111:0.091770001 113:0.035634998 126:0.050020002 127:0.071935996 145:0.106461 149:0.113753 162:0.073431 171:0.080564 181:0.060936999 197:0.094318002 202:0.069038004 208:0.044066999 219:0.048039 221:0.038472999 243:0.113004 244:0.067732997 249:0.12768 258:0.05655 270:0.091156997 295:0.173107 308:0.105676 352:0.039980002 353:0.069606997 392:0.059330001 404:0.066094004 426:0.066094004 450:0.114772 452:0.080551997 544:0.065953001 568:0.083457001 570:0.084656999 578:0.253061 616:0.078335002 617:0.076733001 650:0.069688998 676:0.057723999 682:0.13497201 738:0.058077 760:0.055937 791:0.126166 797:0.068403997 887:0.080178 896:0.069523998 993:0.128693 1016:0.11616 1037:0.089594997 1120:0.131685 1127:0.072578996 1142:0.069771998 1278:0.116739 1449:0.17892399 1497:0.102562 1553:0.11794 1853:0.356195 1987:0.112955 1988:0.116739 1989:0.13061801 1990:0.20589501 1991:0.20589501 1992:0.14832599 1993:0.20589501 1994:0.089785002 1995:0.189254 1996:0.189254 #
