SVM-light Version V6.02
0 # kernel type
3 # kernel parameter -d 
1 # kernel parameter -g 
1 # kernel parameter -s 
1 # kernel parameter -r 
empty# kernel parameter -u 
14598 # highest feature index 
2865 # number of training documents 
704 # number of support vectors plus 1 
1.0144989 # threshold b, each following line is a SV (starting with alpha*y)
-0.046896888311128294424268148077317 6:0.034373 11:0.030205 23:0.03565 35:0.016169 36:0.032545 38:0.052283999 44:0.032614 45:0.056247 64:0.077031001 69:0.045496002 97:0.078377999 98:0.050321002 99:0.043285001 102:0.093328997 113:0.063377 114:0.042762 126:0.025036 138:0.059250001 142:0.080619 143:0.050708 198:0.122216 232:0.031296998 240:0.072797999 272:0.046739999 287:0.090594999 291:0.089914002 313:0.057332002 315:0.059002999 336:0.22288001 392:0.062321 411:0.162846 426:0.069426 433:0.059652001 497:0.037160002 576:0.21561299 581:0.132241 617:0.080601998 668:0.12572099 702:0.123885 778:0.097464003 855:0.118571 859:0.100907 896:0.073028997 933:0.098180003 945:0.086171001 993:0.095913999 1168:0.18126801 1172:0.20364501 1418:0.105453 1422:0.078272 1805:0.101432 2430:0.101432 4510:0.53413498 4511:0.18131401 4512:0.15159 4513:0.21627399 4514:0.17108899 4515:0.140726 4516:0.160864 4517:0.18131401 4518:0.175687 #
-0.087434319406519467321459160302766 3:0.063764997 5:0.058773 6:0.031739 8:0.05235 9:0.039533 11:0.016473001 22:0.091710001 23:0.032917999 28:0.096527003 32:0.109248 33:0.136095 35:0.01493 36:0.050882 38:0.048278 43:0.052184001 44:0.05099 45:0.051938001 48:0.059160002 50:0.047556002 60:0.047522001 76:0.054919001 80:0.089621 87:0.059670001 93:0.057702001 105:0.069270998 108:0.054942001 113:0.034564 138:0.054710999 154:0.083025001 156:0.078210004 164:0.047086999 205:0.073455997 212:0.061195999 217:0.048629999 258:0.054850001 271:0.061257001 273:0.075079001 282:0.130777 327:0.045891002 351:0.049570002 354:0.048312999 371:0.088416003 385:0.072416 396:0.074533999 419:0.043497998 470:0.11283 480:0.119739 497:0.089538001 523:0.064245 575:0.071695 623:0.067835003 637:0.075636998 649:0.084967002 685:0.13778301 705:0.122207 713:0.197386 730:0.072970003 738:0.056331001 744:0.122956 748:0.13824999 771:0.071695 811:0.061749998 863:0.084301002 931:0.089212 938:0.121292 1057:0.080946997 1110:0.079838 1151:0.091778003 1296:0.152715 1416:0.12669 1501:0.081667997 1510:0.131139 1604:0.14329401 1613:0.102859 1665:0.096251003 1797:0.152445 2034:0.102498 2186:0.18356299 2187:0.115619 2329:0.100442 2388:0.117588 2601:0.15439101 2602:0.17412201 2607:0.30683899 3004:0.14853901 3044:0.22881299 9367:0.17412201 10331:0.19970401 10332:0.17412201 10333:0.18356299 #
-0.014781413000999594695161754032142 9:0.13777199 11:0.027354 15:0.056790002 26:0.102131 35:0.024793001 60:0.078915998 64:0.118118 75:0.068498999 76:0.053863 98:0.077160001 104:0.068843998 105:0.092513002 114:0.065568998 115:0.155028 122:0.211303 126:0.038389999 156:0.049771 169:0.086863004 171:0.129761 172:0.246277 212:0.17206199 221:0.061967 239:0.029750001 241:0.058341 244:0.064433999 251:0.155534 282:0.19098701 287:0.23520599 290:0.078303002 313:0.087911002 327:0.076206997 385:0.120253 392:0.095560998 457:0.104449 470:0.089281 497:0.11958 532:0.136107 569:0.33666399 572:0.127528 579:0.121342 592:0.094121002 676:0.092974 760:0.090095997 803:0.12185 825:0.17104401 858:0.083815999 868:0.169618 975:0.121007 1296:0.120841 1515:0.121007 1561:0.13537499 1576:0.215786 1623:0.136107 1669:0.12395 1681:0.13685299 2616:0.172664 3708:0.25121799 #
-0.0060256807054350422503397055606911 2:0.067257002 10:0.029679 21:0.076617002 22:0.050540999 44:0.058970999 61:0.067529999 63:0.036954999 65:0.051440001 75:0.038488999 94:0.053840999 113:0.067681 128:0.055252999 131:0.049555998 179:0.063069999 181:0.055149 197:0.050415002 229:0.065684997 232:0.064347997 236:0.052754998 248:0.044404998 250:0.18198299 290:0.043997999 299:0.079598002 312:0.062192 370:0.059333999 390:0.063676 393:0.046149999 450:0.061347999 453:0.053406 497:0.032017 513:0.089304999 515:0.122363 532:0.076477997 566:0.100487 680:0.12478 726:0.088091001 731:0.059308998 753:0.085013002 780:0.048271999 817:0.075135998 1006:0.104117 1108:0.067437999 1121:0.088568002 1198:0.076477997 1297:0.16366901 1557:0.090590999 1589:0.190115 1665:0.089809999 1741:0.138467 1902:0.075135998 2363:0.127499 2419:0.141158 3343:0.13060901 3421:0.111726 4717:0.111726 6911:0.162469 7032:0.162469 7277:0.171279 7980:0.162469 12125:0.45357499 13381:0.18634 13382:0.18634 13383:0.171279 13384:0.315501 13385:0.18634 13386:0.18634 #
-0.0016272787018114620409547921298099 38:0.056363001 63:0.046238001 105:0.073957004 114:0.046098001 116:0.112635 126:0.02699 162:0.083150998 169:0.061069001 208:0.049901001 214:0.141259 215:0.12966099 216:0.168377 217:0.174833 236:0.081813999 239:0.020915 250:0.081560999 292:0.062767997 351:0.057872001 367:0.35052699 368:0.118437 369:0.216564 370:0.074239001 371:0.216626 372:0.153102 373:0.14068399 374:0.115058 375:0.124205 376:0.214306 377:0.23315001 378:0.214306 379:0.214306 380:0.23315001 381:0.23315001 382:0.25444099 383:0.053502999 384:0.10586 385:0.104789 386:0.19362999 387:0.073972002 388:0.17341501 389:0.074842997 390:0.079671003 391:0.15612499 392:0.067183003 393:0.057743002 394:0.084039003 395:0.089658 396:0.087016001 397:0.071586996 #
0.10000000000000000555111512312578 8:0.070423998 11:0.037519999 35:0.020085 41:0.055112001 43:0.070201002 44:0.068594001 59:0.064666003 63:0.053279001 76:0.043634001 91:0.067185 105:0.035712 113:0.046496999 114:0.053118002 115:0.059843998 126:0.052657001 155:0.078120999 169:0.070367999 208:0.13721 218:0.128396 224:0.110662 226:0.064296 232:0.081588 239:0.040805001 241:0.047262002 243:0.087085001 246:0.107402 293:0.080963999 414:0.095314004 431:0.32789499 432:0.15470199 433:0.074098997 434:0.077205002 435:0.108515 436:0.10529 437:0.18179899 438:0.17043 439:0.14610501 440:0.147448 441:0.128042 442:0.29442 443:0.113754 444:0.093979999 445:0.094821997 446:0.17990001 447:0.129116 448:0.108862 449:0.135564 450:0.088448003 451:0.25662401 452:0.062075999 453:0.076996997 454:0.112322 455:0.20769501 456:0.20507701 457:0.084615 458:0.084004998 459:0.103471 460:0.112536 461:0.19081099 462:0.16108 463:0.138372 464:0.085236996 465:0.092362002 466:0.137408 467:0.165407 #
0.10000000000000000555111512312578 5:0.077629 11:0.021756999 23:0.073616996 31:0.060697999 36:0.103576 63:0.052312002 112:0.031056 113:0.045651998 114:0.052152999 126:0.030534999 131:0.070150003 156:0.083079003 183:0.097465001 199:0.092157997 219:0.146862 223:0.077846996 232:0.064629003 248:0.062858 276:0.043359999 284:0.105632 313:0.069923997 322:0.076843001 395:0.171744 397:0.080991 433:0.072754003 443:0.065964997 444:0.156234 491:0.091697 510:0.20750301 538:0.12537301 592:0.074863002 624:0.104054 730:0.096381001 760:0.150391 778:0.19599999 825:0.080352001 837:0.077919997 857:0.13836101 858:0.066666 882:0.25254801 883:0.208665 884:0.36279601 885:0.188031 886:0.43323699 887:0.102716 888:0.111784 889:0.115024 890:0.17013399 891:0.19619399 892:0.13181201 893:0.16356499 894:0.069476001 #
0.10000000000000000555111512312578 6:0.027736001 8:0.045747999 15:0.029885 35:0.022090999 44:0.026317 70:0.043873999 91:0.043644 98:0.040605001 108:0.048013002 109:0.10399 112:0.020547001 126:0.034205999 164:0.041149002 171:0.143306 174:0.072150998 186:0.074251004 210:0.057913002 217:0.042497002 236:0.029181 239:0.015655 241:0.030701 328:0.067424998 330:0.071240999 351:0.073344998 370:0.032821 431:0.213002 523:0.117822 540:0.108217 592:0.049529999 668:0.134955 713:0.072284997 752:0.073669001 778:0.110843 791:0.063160002 874:0.050018001 991:0.053746 1138:0.093344003 1225:0.064303003 1226:0.177168 1227:0.12572201 1228:0.174518 1229:0.27241099 1230:0.160413 1231:0.152162 1232:0.113556 1233:0.29548499 1234:0.068067998 1235:0.122323 1236:0.083874002 1237:0.090207003 1238:0.132202 1239:0.132202 1240:0.085092999 1241:0.29548499 1242:0.174518 1243:0.174518 1244:0.174518 1245:0.160413 1246:0.271602 1247:0.174518 1248:0.152162 1249:0.174518 1250:0.105995 1251:0.174518 #
0.10000000000000000555111512312578 3:0.078057997 9:0.126283 50:0.058216002 63:0.048482999 67:0.128722 88:0.063479997 104:0.050749999 112:0.048734002 114:0.048335999 126:0.0283 142:0.073522002 181:0.151841 187:0.122165 205:0.053109001 232:0.059898999 236:0.040876999 239:0.021931 241:0.043007001 351:0.060681 352:0.080375001 383:0.117734 384:0.111 387:0.077564001 427:0.095967002 436:0.162223 444:0.085519999 447:0.117493 453:0.070065998 491:0.084986001 540:0.151593 544:0.078309 559:0.083944999 650:0.082745001 670:0.101635 701:0.087765999 721:0.092730999 723:0.053633001 778:0.065067999 780:0.063331001 858:0.061787002 928:0.086621001 945:0.097404003 1218:0.099618003 1274:0.114357 1298:0.220489 1404:0.16053399 1405:0.203054 1406:0.15635499 1407:0.178831 1408:0.150517 1409:0.22471 1410:0.22471 1411:0.26473299 1412:0.276669 1413:0.224152 1414:0.22471 1415:0.12461 1416:0.15508801 1417:0.146579 1418:0.1192 1419:0.188999 #
0.10000000000000000555111512312578 8:0.070223004 9:0.089787997 10:0.042668 11:0.046372 23:0.044156998 50:0.063793004 62:0.072178997 81:0.14451601 105:0.060293 112:0.031539999 113:0.078501001 114:0.089680001 126:0.065080002 134:0.081603996 142:0.080564998 156:0.040205002 164:0.13255601 219:0.062503003 232:0.038766 239:0.024031 383:0.203025 419:0.058348 426:0.085993998 431:0.231988 452:0.061898999 453:0.076778002 484:0.17102399 708:0.132201 730:0.097883001 778:0.170145 787:0.152977 810:0.12435 855:0.226348 856:0.113304 896:0.090457 931:0.119671 1209:0.099835999 1212:0.145688 1268:0.086741999 1374:0.106378 1450:0.242117 1693:0.113083 1736:0.102699 1737:0.25847301 1738:0.246235 1739:0.18329599 1740:0.213284 1741:0.11757 1742:0.23356999 1743:0.19925299 1744:0.211918 1745:0.267887 #
-0.10000000000000000555111512312578 6:0.038353 10:0.080660999 35:0.018041 43:0.063056998 50:0.057464998 63:0.100435 65:0.066615999 75:0.049844999 114:0.047713 126:0.027935 142:0.042863 156:0.061321001 174:0.099766999 197:0.065288998 205:0.088761002 219:0.056304 221:0.045090999 232:0.034921002 236:0.068319 248:0.057505999 267:0.067129999 276:0.039669 322:0.070300996 383:0.132146 392:0.069536999 419:0.052561 424:0.119088 444:0.142931 465:0.082962997 484:0.090990998 492:0.087692 497:0.041462999 592:0.068489 631:0.084955998 650:0.081678003 723:0.052942 728:0.106603 741:0.087334998 778:0.20535401 891:0.179489 935:0.082962997 937:0.13716 962:0.097814001 1033:0.095037997 1114:0.13067999 1214:0.26830301 1218:0.098333001 1236:0.115978 1427:0.092511997 1450:0.091398001 1477:0.212138 1694:0.112591 1715:0.157021 1724:0.103082 1731:0.096473999 2062:0.112882 2121:0.130134 2750:0.153088 5291:0.61924499 #
-0.10000000000000000555111512312578 9:0.038594 14:0.063827999 15:0.033386 23:0.032136001 33:0.055677 42:0.057376999 45:0.050703999 104:0.068526 114:0.038547002 126:0.038213 138:0.053410999 156:0.049541 169:0.051066 181:0.097695 236:0.091008998 239:0.017488999 282:0.053500999 321:0.069806002 337:0.065753996 350:0.038314998 397:0.059861001 420:0.070272997 491:0.176854 650:0.065987997 656:0.063827999 701:0.14688601 708:0.096212 778:0.123827 828:0.074972004 885:0.066223003 886:0.25752699 887:0.075919002 906:0.059981 938:0.282563 979:0.22100399 1014:0.083113 1032:0.213283 1108:0.119465 1118:0.116895 1119:0.12773199 1298:0.083787002 1348:0.062383 1374:0.077418998 1412:0.17801 1501:0.079728 1618:0.092665002 1693:0.082298003 1863:0.151703 1902:0.078612 2037:0.183575 2630:0.13055199 3742:0.228517 3797:0.140448 10974:0.30341601 12786:0.46523201 #
-0.10000000000000000555111512312578 9:0.081069998 33:0.069075003 35:0.018083001 41:0.084011003 44:0.036474999 60:0.057557002 68:0.112276 115:0.053879 121:0.054754 137:0.049279999 142:0.042962998 160:0.090012997 198:0.080727004 202:0.081101999 205:0.052545 232:0.059262998 236:0.068476997 239:0.021698 256:0.061553001 276:0.039760001 293:0.072894 350:0.047534999 383:0.055505 392:0.069697998 426:0.077643998 427:0.094949 434:0.069509 436:0.198937 443:0.060488001 452:0.055888999 506:0.120485 510:0.090667002 657:0.26526299 708:0.250498 778:0.135104 787:0.13812201 806:0.203357 858:0.061131001 885:0.139107 979:0.098213002 986:0.105474 1014:0.103114 1344:0.120868 1397:0.090402998 1407:0.17693301 1468:0.081672996 1540:0.089120999 1693:0.214274 1695:0.16744401 1768:0.30871701 1788:0.103949 2560:0.15109099 2691:0.112276 2949:0.179905 3397:0.133893 3420:0.17693301 3493:0.15109099 4553:0.17693301 4711:0.16744401 5075:0.196483 6271:0.24187499 #
-0.020734545130292832137985925555768 109:0.176035 142:0.125219 206:0.199551 596:0.465969 723:0.154661 778:0.39377499 785:0.27236399 797:0.234209 1413:0.38176399 1681:0.492571 #
-0.03181458887407923041834578725684 11:0.023866 36:0.043540001 88:0.075131997 103:0.123597 109:0.222491 112:0.057679001 113:0.050078001 114:0.057209 115:0.064452 126:0.033495001 142:0.051394001 156:0.113314 162:0.103192 170:0.276364 205:0.062857002 208:0.061926998 219:0.067509003 232:0.041871 236:0.081915997 239:0.025955999 249:0.15779699 256:0.073632002 271:0.088753 315:0.078937002 330:0.118114 353:0.097816996 370:0.054414999 397:0.088840999 434:0.083150998 440:0.093791999 443:0.122514 444:0.101218 448:0.069247 491:0.100585 560:0.092485003 624:0.11414 627:0.107678 648:0.121435 650:0.097933002 668:0.1357 778:0.130392 797:0.096127003 802:0.152936 807:0.058301002 817:0.116669 886:0.18212 945:0.115284 962:0.117281 1375:0.26309901 1433:0.121435 1468:0.097701997 1632:0.172414 2004:0.16167 2078:0.191826 2083:0.16091099 2325:0.193754 4907:0.22369 5131:0.190001 5276:0.211657 11805:0.265957 #
0.10000000000000000555111512312578 11:0.054019 15:0.042978 22:0.16243599 23:0.070044003 44:0.098757997 58:0.086921997 59:0.06041 65:0.069282003 74:0.19248199 85:0.071229003 87:0.099757001 89:0.073316 93:0.12278 99:0.085046001 104:0.052099999 105:0.056485999 114:0.049621999 136:0.180793 147:0.097887002 164:0.124186 194:0.089157 197:0.114967 198:0.199884 217:0.103475 221:0.046895999 239:0.022514001 241:0.074754998 385:0.1128 392:0.072319001 419:0.054664001 457:0.188627 458:0.132871 510:0.094076999 530:0.122558 541:0.179029 560:0.13582399 616:0.161669 668:0.117704 671:0.073930003 722:0.080133997 751:0.27177501 765:0.17224 1019:0.200883 1023:0.190118 1149:0.171939 1288:0.140903 1723:0.13423701 2401:0.13164499 6479:0.45922199 8670:0.190118 #
0.10000000000000000555111512312578 11:0.054428998 35:0.020672999 69:0.122078 87:0.03937 99:0.055344 100:0.107681 112:0.032556999 122:0.055108 124:0.132762 126:0.098576002 142:0.049116999 190:0.113904 216:0.23567 217:0.067336001 219:0.109239 223:0.081610002 232:0.083977997 233:0.113083 236:0.046236999 247:0.086912997 248:0.065895997 263:0.18516999 267:0.076924004 270:0.122426 297:0.090937003 300:0.072029002 312:0.156262 327:0.063543998 336:0.096734002 366:0.14616001 415:0.097599998 452:0.063895002 465:0.160963 539:0.098361999 596:0.087093003 623:0.093928002 637:0.21979301 803:0.101602 976:0.109991 1170:0.135636 2034:0.2403 2252:0.231824 2443:0.175423 2450:0.44653401 2816:0.27730799 2926:0.176856 3340:0.141433 11128:0.231824 #
0.10000000000000000555111512312578 31:0.073156998 35:0.023768 45:0.082682997 87:0.045263998 98:0.20650899 105:0.042261001 112:0.037431002 145:0.132625 149:0.103738 156:0.047713999 214:0.080719002 216:0.087986998 236:0.148408 238:0.105986 239:0.028519999 272:0.068706997 324:0.100868 392:0.091610998 393:0.078737997 434:0.091362998 497:0.14253999 547:0.193092 616:0.120956 738:0.089676 771:0.114136 910:0.170605 1004:0.089363001 1019:0.15029401 1026:0.104433 1420:0.216674 1427:0.12188 1600:0.15029401 1647:0.235231 1681:0.13119701 2210:0.349518 2607:0.31694999 2615:0.23256201 3213:0.183072 3491:0.157868 4638:0.18944301 4903:0.212891 14027:0.292225 #
0.10000000000000000555111512312578 16:0.078345001 19:0.074961998 23:0.082503997 38:0.057657 41:0.048926 45:0.062027998 48:0.148274 69:0.084949002 70:0.05996 75:0.083410002 86:0.079056002 95:0.071122997 97:0.086433001 102:0.21599101 112:0.028081 129:0.191936 138:0.065339997 151:0.086084001 182:0.090466999 231:0.070854001 232:0.082359999 236:0.117482 239:0.021395 282:0.065449998 284:0.095509999 315:0.065066002 350:0.046872001 370:0.094130002 387:0.075671002 452:0.055109002 458:0.074577004 465:0.081996001 498:0.088127002 539:0.084836997 676:0.066864997 688:0.12035 789:0.100484 832:0.132026 855:0.130757 859:0.111278 887:0.092874996 909:0.12756699 933:0.108271 1014:0.101676 1108:0.086315997 1297:0.209484 1348:0.076315001 1518:0.107032 1557:0.11595 2064:0.15130299 2243:0.305904 2430:0.111857 3585:0.174466 4075:0.199948 6275:0.17181499 7727:0.184385 11349:0.50052202 #
0.10000000000000000555111512312578 6:0.032079998 10:0.054434001 32:0.065217003 35:0.015091 44:0.030439001 52:0.082546003 60:0.048032999 65:0.055721998 70:0.106496 104:0.099992 105:0.026831999 112:0.040238 115:0.044962998 123:0.055959001 128:0.101339 137:0.041126002 208:0.043202002 216:0.055863999 227:0.073652998 236:0.057146002 239:0.018107001 290:0.080696002 327:0.046383999 354:0.048831999 363:0.16519099 371:0.15131 390:0.068976 392:0.058164999 401:0.074270003 419:0.043965001 440:0.110784 494:0.070881002 538:0.095940001 627:0.075117998 634:0.076109998 648:0.084715001 650:0.068319999 783:0.16631 807:0.068862997 955:0.33510399 1061:0.139736 1209:0.075226001 1358:0.102886 1423:0.097010002 1439:0.34211001 1524:0.105879 1778:0.111231 2210:0.143989 2873:0.150135 2945:0.394328 3213:0.116234 6440:0.25420099 7497:0.31413999 9010:0.159679 10117:0.185536 10686:0.175993 #
-0.014319263113194919193049692296427 3:0.21025901 11:0.047768001 35:0.020631 59:0.18543699 60:0.065667003 75:0.056999002 83:0.071654998 91:0.069011003 92:0.103745 95:0.082291998 102:0.35080799 113:0.080865003 142:0.049015999 149:0.090043999 164:0.065066002 180:0.086287998 181:0.081671 197:0.156683 198:0.092101 232:0.039933998 234:0.108326 236:0.096833996 239:0.024754999 241:0.14949501 247:0.086733997 350:0.091822997 363:0.13338199 370:0.051897001 442:0.282671 464:0.18374 493:0.073567003 523:0.088775001 594:0.116488 637:0.104517 671:0.081289001 753:0.12589701 811:0.085326999 813:0.111658 863:0.116488 933:0.176557 956:0.110697 964:0.114725 1355:0.16064601 1368:0.109949 1404:0.18121 2305:0.198796 3142:0.319693 4119:0.209043 4946:0.17955901 6418:0.240603 #
-0.047597115880791178443853794988172 8:0.13281301 35:0.018049 38:0.058364 64:0.085988998 87:0.034373 94:0.069757 112:0.028425001 114:0.100176 119:0.15225001 122:0.081462003 137:0.103228 143:0.095840998 155:0.070203997 208:0.051672 209:0.084348999 214:0.061296999 219:0.056329001 223:0.170026 226:0.057778999 268:0.113228 276:0.067194998 290:0.096516997 401:0.088831 444:0.142996 453:0.069193996 492:0.087730996 497:0.087053999 628:0.106652 739:0.095551997 855:0.13236 881:0.110144 933:0.109598 1019:0.239518 1119:0.093419999 1236:0.196456 1240:0.117716 1290:0.30979601 1516:0.14386 1724:0.103128 1789:0.173921 1821:0.126638 2018:0.230616 2282:0.213615 2692:0.359853 4990:0.179571 9279:0.24142499 9280:0.21049801 9281:0.24142499 #
-0.024135213525269021833663529719161 11:0.090079002 35:0.034214001 67:0.57501101 105:0.127666 112:0.053881001 126:0.052976999 156:0.116291 217:0.11144 221:0.085513003 229:0.161319 232:0.066225998 236:0.12956201 243:0.14834701 322:0.133321 327:0.105164 385:0.16594701 453:0.131162 456:0.49235699 457:0.34395599 676:0.12830099 719:0.151866 738:0.129087 3057:0.212432 #
-0.011630341971335106734941611250633 5:0.050911002 18:0.071374997 31:0.039806999 32:0.055892002 35:0.012933 106:0.084850997 112:0.034485001 114:0.057911001 115:0.038534001 127:0.060439002 181:0.051197 206:0.048967 214:0.043921001 231:0.122634 232:0.042385001 244:0.033611 256:0.044022001 300:0.045060001 350:0.057562001 370:0.055082999 383:0.122246 390:0.124056 420:0.062353998 443:0.043260999 444:0.060515001 552:0.103246 719:0.057406001 807:0.059016999 899:0.084347002 905:0.105066 976:0.116503 1004:0.048625 1018:0.161401 1422:0.062605999 1577:0.198203 1650:0.063739002 1678:0.14454199 1686:0.085368998 2075:0.092903003 2130:0.237928 2639:0.099090002 2705:0.133737 3209:0.133737 3820:0.12462 5131:0.29642001 5712:0.128668 5886:0.12462 6738:0.140524 7653:0.140524 10496:0.150828 13191:0.412801 13192:0.36303499 13193:0.36303499 #
-0.051993694432795077575715225748354 5:0.103263 9:0.069458999 15:0.060086001 56:0.099758998 156:0.05266 164:0.082731001 199:0.122589 212:0.10752 232:0.050776001 312:0.117106 336:0.122744 394:0.12647299 396:0.130954 419:0.076424003 484:0.132301 491:0.121976 597:0.100025 721:0.133092 723:0.130334 804:0.13349301 820:0.20314001 914:0.119469 945:0.1398 993:0.091903999 1093:0.130389 1097:0.206599 1125:0.199664 1217:0.107842 1305:0.1398 1340:0.13152599 1450:0.132893 1693:0.14811499 1853:0.23262 2121:0.189216 2306:0.156743 2993:0.27126101 3239:0.23743901 4020:0.222591 6403:0.285027 12725:0.35087499 #
0.10000000000000000555111512312578 9:0.074327998 21:0.15438101 37:0.049463999 59:0.053378001 62:0.059751 69:0.04665 75:0.096127003 105:0.029478 156:0.033282001 195:0.097749002 205:0.048175 236:0.062781997 352:0.043060999 383:0.106797 384:0.17048 389:0.071186997 390:0.180831 420:0.079933003 436:0.14715301 440:0.071884997 444:0.077575997 447:0.106578 484:0.083617002 491:0.13052601 492:0.080585003 540:0.137511 559:0.076146998 737:0.089573003 778:0.18176 806:0.231094 838:0.085946001 858:0.056047 882:0.171299 945:0.1496 952:0.15943199 964:0.092193998 965:0.119588 967:0.236643 1123:0.279273 1214:0.24655899 1298:0.095303997 1329:0.105984 1349:0.096294999 1450:0.083990999 1461:0.104555 1477:0.157281 1552:0.113034 1693:0.196454 1736:0.085014999 1741:0.097324997 2282:0.115887 2485:0.117671 5290:0.175428 5291:0.34512401 5292:0.171442 #
0.10000000000000000555111512312578 11:0.022617999 26:0.084449001 35:0.020501001 43:0.150374 50:0.110562 55:0.101611 62:0.073884003 63:0.054382 76:0.044537999 91:0.116109 93:0.079231001 98:0.063800998 109:0.14369801 115:0.14576 121:0.105102 122:0.092526004 123:0.076021001 164:0.064654998 181:0.081156 219:0.063979 239:0.024599001 247:0.145927 250:0.095926002 251:0.12860601 256:0.118152 267:0.12915701 274:0.158757 313:0.072691001 322:0.13525601 331:0.159633 401:0.100895 426:0.088025004 434:0.078803003 445:0.230958 542:0.13370401 647:0.181796 665:0.097286999 668:0.075956002 778:0.174164 793:0.141739 797:0.21739399 804:0.104327 807:0.055252999 856:0.11598 986:0.119576 1004:0.077078 1008:0.123058 1026:0.090075999 1112:0.139771 1268:0.150336 1397:0.102491 1413:0.148496 1420:0.110378 1578:0.146082 1669:0.102491 1736:0.105124 2069:0.131054 2323:0.149129 2326:0.13929699 2513:0.159633 2691:0.215516 3957:0.203959 9375:0.252051 #
0.10000000000000000555111512312578 9:0.049722001 10:0.040006001 11:0.020718001 16:0.082506999 23:0.041402001 35:0.018778 38:0.060720999 60:0.059769999 63:0.104537 70:0.063144997 75:0.051881 87:0.035760999 114:0.084085003 138:0.068810999 142:0.093627997 150:0.087099001 156:0.037696 179:0.085014001 208:0.053757999 231:0.074617997 232:0.036347002 236:0.041999001 240:0.049934 278:0.281845 293:0.075695999 370:0.047237001 372:0.164937 373:0.151559 443:0.106352 474:0.075916998 484:0.198755 508:0.083067 657:0.22224 688:0.126744 708:0.20987 719:0.17492101 778:0.15953 885:0.085317001 928:0.150684 1026:0.139697 1037:0.109297 1133:0.085830003 1146:0.080541998 1198:0.103087 1461:0.118423 1529:0.133279 1753:0.154645 1757:0.13904101 1788:0.107945 2658:0.26340699 3492:0.19418199 3493:0.15689901 3770:0.27926201 6322:0.23087201 6323:0.25117299 6324:0.210572 #
0.10000000000000000555111512312578 9:0.133504 10:0.041164 23:0.072130002 63:0.12231 69:0.054368 70:0.064974003 88:0.067110002 91:0.109433 97:0.093662001 104:0.053652 112:0.030429 113:0.04473 114:0.051100001 124:0.153799 126:0.029919 136:0.10996 142:0.077725999 156:0.038787998 163:0.303987 164:0.14541601 180:0.080813996 239:0.023185 271:0.079276003 276:0.042484999 300:0.067321002 310:0.113427 352:0.050184999 356:0.13503399 383:0.141528 433:0.071285002 436:0.171499 483:0.091692999 559:0.088744998 592:0.073351003 621:0.114678 733:0.13218801 778:0.219933 783:0.076274998 787:0.087167002 804:0.098329 806:0.128336 964:0.181923 979:0.104942 1069:0.166485 1477:0.227199 1570:0.116521 1632:0.15400399 1693:0.284686 1760:0.21529 2121:0.23597901 2508:0.13506 2921:0.169714 3357:0.257658 11443:0.23755901 #
0.10000000000000000555111512312578 3:0.073408 5:0.067662001 32:0.19383401 35:0.029101999 75:0.047488 81:0.17480101 91:0.057495002 98:0.053491998 109:0.200064 121:0.088119 124:0.065192997 136:0.165617 205:0.049945001 243:0.074524999 276:0.037792999 300:0.059886001 315:0.062720999 370:0.043237001 393:0.056938998 420:0.082869001 440:0.074524999 545:0.084122002 681:0.108109 778:0.20209201 797:0.076380998 858:0.058106001 909:0.208205 935:0.079040997 1057:0.26016 1176:0.145849 1370:0.092542998 1374:0.091296002 1435:0.098604999 1497:0.114522 1509:0.121053 1580:0.13238899 1731:0.091912001 2169:0.126127 2513:0.22660901 3157:0.150971 5173:0.22990499 5174:0.22990499 5175:0.40448999 5176:0.38926399 #
-0.10000000000000000555111512312578 6:0.040789999 10:0.069213003 11:0.02117 35:0.019188 44:0.065530002 56:0.072970003 70:0.064522997 87:0.036541 94:0.125559 109:0.10851 115:0.05717 124:0.072777003 142:0.108786 156:0.038518999 163:0.25803199 172:0.15377299 180:0.080251999 197:0.069439001 201:0.246526 219:0.059882 236:0.042915002 322:0.12659401 327:0.099858001 350:0.050439 383:0.058897 396:0.095788002 433:0.07079 440:0.140862 453:0.073558003 483:0.091055997 559:0.149215 597:0.215538 778:0.17825399 807:0.051713999 837:0.12836801 857:0.134625 1133:0.087702997 1146:0.082299002 1344:0.128253 1408:0.15801901 1529:0.23058499 1578:0.13672601 2004:0.14340401 2081:0.15112001 2323:0.23632701 2513:0.25297299 2551:0.119747 2816:0.152014 2957:0.215166 4121:0.156931 4543:0.208488 8696:0.223775 10571:0.223775 #
-0.10000000000000000555111512312578 10:0.092223004 11:0.022758 15:0.079995997 22:0.074832998 30:0.170221 31:0.063488998 35:0.020626999 37:0.12915 44:0.041606002 49:0.074096002 59:0.13937099 75:0.056988999 88:0.071641997 98:0.064195 109:0.179776 163:0.27738601 170:0.159825 180:0.181051 201:0.18803801 204:0.162395 210:0.091558002 236:0.046133999 271:0.084629998 290:0.065145999 299:0.19954801 315:0.075269997 352:0.053574 354:0.066747002 370:0.087853 436:0.183082 634:0.104033 648:0.115795 656:0.090328 668:0.160384 752:0.116467 778:0.226138 894:0.072671004 974:0.108483 992:0.144182 1026:0.15345199 1131:0.107611 1140:0.098788999 1305:0.109929 1477:0.115574 1710:0.18878201 1760:0.229831 2210:0.116241 2339:0.17646 2371:0.165427 2487:0.179526 2513:0.160616 2533:0.17502999 13876:0.25360399 #
-0.10000000000000000555111512312578 9:0.12844101 11:0.034726001 35:0.018588999 37:0.055461001 45:0.064666003 65:0.068640001 69:0.052306 105:0.033052001 115:0.055387001 137:0.085775003 138:0.142956 150:0.086222999 208:0.053217001 214:0.063130997 222:0.085380003 236:0.041576002 239:0.022305001 256:0.063276 300:0.064768001 310:0.109126 327:0.057138 392:0.071649 419:0.054157998 434:0.071456 447:0.119501 454:0.103958 491:0.086438 561:0.09307 646:0.49302801 656:0.081404001 716:0.088794999 771:0.089266002 778:0.15792499 783:0.073383003 791:0.27711201 797:0.13986599 804:0.225743 811:0.076883003 855:0.080512002 887:0.16394 920:0.209051 1004:0.069890998 1351:0.13465001 1420:0.169461 1468:0.083959997 1613:0.33418301 1693:0.27388999 1731:0.099404 2369:0.22855 #
-0.026440466782327320255374658586334 35:0.025803 36:0.051936001 38:0.049279001 63:0.068447001 75:0.042105 114:0.040304001 216:0.095519997 222:0.069995001 226:0.048785001 231:0.102533 232:0.082351997 239:0.018285999 340:0.061611 390:0.117939 392:0.058738999 444:0.071309 447:0.097967997 452:0.047100998 497:0.035023998 541:0.14541 770:0.079379 803:0.074897997 856:0.086217001 938:0.123806 939:0.157591 1117:0.14111599 1268:0.066004999 1297:0.105746 1755:0.131478 1997:0.129316 2062:0.095353998 2942:0.149113 3529:0.241347 8710:0.300924 12125:0.54731101 12126:0.203844 12127:0.203844 12128:0.44711599 #
-0.045336583663920126952007194631733 19:0.086810999 36:0.070372 41:0.05666 42:0.081285998 58:0.161965 75:0.096594997 81:0.088003002 87:0.039324 112:0.032519002 114:0.114605 126:0.031973999 134:0.084137 142:0.117071 149:0.090125002 156:0.115725 174:0.11419 209:0.096499003 214:0.070127003 219:0.064443 221:0.05161 239:0.024777001 293:0.083238997 312:0.092183001 338:0.090829998 356:0.085231997 382:0.21386901 385:0.100154 419:0.060159001 434:0.079374 436:0.108248 453:0.079159997 458:0.086364999 484:0.104145 783:0.212707 787:0.15772399 818:0.105242 838:0.107045 859:0.128867 882:0.126009 892:0.13802101 928:0.16569901 937:0.092719004 954:0.22668999 993:0.072345003 1108:0.099959999 1338:0.180675 1374:0.109679 1713:0.132743 1760:0.44878101 2006:0.129538 2143:0.15432601 6590:0.196171 7179:0.25387701 7180:0.231553 #
0.10000000000000000555111512312578 7:0.074147001 9:0.059215002 11:0.024674 22:0.100561 23:0.029122001 26:0.092122003 28:0.085394002 42:0.051994 43:0.046165001 71:0.073864996 76:0.080109 93:0.051047001 94:0.107128 100:0.068797 101:0.082009003 105:0.039763 122:0.035208002 202:0.059239 208:0.037811998 236:0.029541001 240:0.059468001 244:0.034325998 257:0.057583999 260:0.077875003 290:0.041715 321:0.063258 325:0.073864996 353:0.059726998 387:0.056053001 392:0.050909001 440:0.057269 445:0.062357001 476:0.116014 497:0.030355999 624:0.069692999 637:0.066914 649:0.075167 692:0.100678 705:0.063853003 837:0.052189 1056:0.164837 1150:0.082217999 1412:0.095273003 1604:0.126766 1638:0.093382001 1741:0.077537 2113:0.108775 2246:0.166354 2388:0.104026 2518:0.123831 2639:0.101199 5218:0.112994 9264:0.47435299 9970:0.16239201 11259:0.242993 12318:0.370763 12319:0.176671 12320:0.176671 12321:0.29912999 12322:0.176671 12323:0.176671 #
0.10000000000000000555111512312578 15:0.035638001 27:0.085724004 31:0.1005 35:0.015559 60:0.083849996 95:0.062059999 112:0.024502 114:0.086352997 128:0.147255 149:0.067906998 156:0.031234 199:0.07271 200:0.101473 208:0.075415 221:0.065840997 227:0.075937003 239:0.018669 272:0.044976 276:0.03421 281:0.14649101 308:0.106813 353:0.070355996 390:0.071115002 444:0.072802 656:0.068134002 701:0.074713998 723:0.045657001 783:0.103992 811:0.064350002 986:0.090751 1016:0.19879401 1027:0.28961101 1077:0.090944 1130:0.25811499 1178:0.09685 1260:0.115203 1473:0.115203 1571:0.16398101 1805:0.204833 1821:0.109163 2385:0.106443 2596:0.13 4100:0.15764999 4899:0.18145201 6637:0.278745 13983:0.58099699 #
0.10000000000000000555111512312578 9:0.051878002 10:0.04174 11:0.045364 23:0.043196999 35:0.019592 36:0.039434999 60:0.062362 76:0.042564001 95:0.078148998 105:0.034836002 124:0.074311003 126:0.051364999 137:0.053394001 156:0.039331 206:0.125599 271:0.080385 275:0.100159 313:0.069470003 316:0.09629 363:0.12666801 497:0.045028001 676:0.073471002 731:0.083410002 737:0.179225 803:0.09629 851:0.25659901 861:0.128543 926:0.115515 932:0.18613 1202:0.14016899 1220:0.162503 1305:0.104415 1596:0.144412 1767:0.231021 1849:0.21970101 2196:0.33402899 3516:0.175487 13673:0.443712 13674:0.443712 #
0.10000000000000000555111512312578 6:0.064727001 10:0.064868003 35:0.030448001 36:0.061285999 59:0.098030999 60:0.096914999 82:0.32865101 105:0.054136999 112:0.047951002 113:0.119345 124:0.115486 217:0.099173002 220:0.38903299 232:0.058936 239:0.036534999 240:0.080966003 323:0.150914 327:0.093588002 350:0.080039002 370:0.076591998 464:0.129216 485:0.188572 676:0.193322 699:0.31888801 719:0.28362799 777:0.139847 851:0.190019 896:0.137521 1108:0.147394 1131:0.158847 1146:0.130596 1364:0.18580499 12543:0.407267 #
0.10000000000000000555111512312578 6:0.036164999 8:0.05965 9:0.107494 11:0.01877 24:0.088895999 35:0.017012 41:0.046681002 43:0.059461001 89:0.112551 94:0.065748997 103:0.097203001 108:0.062604003 112:0.056225002 120:0.115595 126:0.055282 131:0.102464 133:0.145537 137:0.046363 156:0.071671002 157:0.19743299 164:0.112598 170:0.077853002 181:0.067346998 192:0.080628 197:0.10424 229:0.080213003 241:0.040031999 249:0.059133999 282:0.062445998 286:0.240944 297:0.15704501 311:0.082131997 330:0.092891 340:0.164124 350:0.044721 354:0.055050999 389:0.073046997 431:0.116387 444:0.079603001 449:0.24097399 473:0.177503 493:0.060664002 656:0.074499004 668:0.063031003 682:0.071080998 701:0.081693999 737:0.155624 743:0.090664998 803:0.083609998 810:0.105628 914:0.162599 929:0.086705998 945:0.090664998 1108:0.082354002 1353:0.079805002 1396:0.114078 1618:0.108157 1635:0.12429 1768:0.121711 1860:0.237215 2803:0.137308 3404:0.149427 4222:0.18485001 4289:0.190771 7598:0.198404 7599:0.22755399 7600:0.22755399 7601:0.209162 #
-0.013300089865107393022336523813465 35:0.098770998 113:0.22865701 116:0.37696099 124:0.37463 126:0.15294001 276:0.21717601 1013:0.44145101 1019:0.62456298 #
-0.022441075756587842288114487132589 9:0.111892 19:0.074447997 39:0.17704999 50:0.056405 81:0.196933 94:0.068439998 112:0.027888 114:0.046833001 116:0.11443 126:0.027419999 129:0.112583 138:0.064892001 142:0.042073 202:0.079421997 208:0.050696 219:0.055264998 225:0.199746 233:0.096864998 236:0.067059003 290:0.055927999 325:0.099032 350:0.046549998 363:0.29875001 370:0.044546001 385:0.050728001 393:0.058662999 397:0.072728001 465:0.081432998 484:0.15121999 508:0.078335002 525:0.122876 526:0.12519801 592:0.067225002 624:0.093437999 737:0.24965701 739:0.093746997 789:0.099794 825:0.072154 932:0.16823301 975:0.086429 1061:0.27763501 1203:0.120325 1422:0.179901 1509:0.21116599 1584:0.18312 1722:0.145836 1755:0.152777 1767:0.29429001 1805:0.11109 1861:0.33090299 7712:0.16823301 #
-0.040591254877172515402872221557118 8:0.167862 11:0.077505998 15:0.109659 30:0.111187 36:0.096362002 44:0.046014 63:0.060513999 107:0.191989 123:0.084592998 124:0.14650001 126:0.074129999 137:0.105262 143:0.071543001 145:0.075180002 162:0.108824 204:0.106075 208:0.065306999 214:0.077473 220:0.172149 221:0.057016 223:0.188988 230:0.13954701 244:0.059285998 256:0.077651002 300:0.079481997 351:0.075740002 452:0.070505999 459:0.117522 510:0.11438 538:0.145032 690:0.204816 701:0.109546 732:0.179667 738:0.086070001 837:0.090138003 851:0.24104799 855:0.167289 869:0.23802 1026:0.100233 1054:0.142002 1457:0.213874 1532:0.29593799 1570:0.232926 2121:0.16455001 2191:0.15661 8061:0.25581101 8597:0.241384 #
-0.061972342423548390510923411511612 10:0.039205998 11:0.042610001 15:0.071370997 31:0.056643002 35:0.018402999 36:0.037041001 41:0.050496001 50:0.058617 53:0.106665 69:0.051782001 71:0.102916 91:0.061558001 124:0.23052 126:0.059799999 134:0.074983999 142:0.091756999 217:0.059941001 221:0.045995001 239:0.022081999 244:0.047826 271:0.075505003 290:0.058120999 300:0.064119004 357:0.095853999 485:0.297407 497:0.042293999 523:0.079187997 561:0.092136003 572:0.094658002 597:0.070171997 690:0.097585 782:0.093934998 803:0.090443999 838:0.095399998 851:0.24102101 855:0.222517 931:0.109962 1011:0.156157 1093:0.091473997 1329:0.117643 1448:0.209618 1458:0.146678 1491:0.117643 1542:0.112301 2095:0.19995899 2199:0.123804 2520:0.13504 2861:0.16016801 3639:0.146678 5838:0.170406 6815:0.19995899 9459:0.43307701 11500:0.246153 #
-0.01528060451260675536855337952602 3:0.175808 11:0.036642 33:0.157245 35:0.019615 44:0.066990003 60:0.131026 63:0.052033 64:0.093448997 69:0.055193 88:0.068127997 99:0.052510999 105:0.034876 143:0.104155 192:0.092964001 197:0.185231 206:0.074267 214:0.066615 236:0.104688 280:0.116941 315:0.071578003 316:0.096401997 397:0.136399 401:0.096537001 419:0.057147 439:0.14268699 456:0.28227201 458:0.19577099 497:0.125853 530:0.180575 597:0.126638 632:0.150289 676:0.073555999 685:0.106912 699:0.086089 811:0.081127003 836:0.38547799 840:0.19091401 1004:0.073748 1110:0.10489 1348:0.176184 1501:0.107294 1601:0.108074 1804:0.183899 2282:0.137109 2466:0.173943 4520:0.41113201 #
0.10000000000000000555111512312578 2:0.102607 10:0.076664001 11:0.023449 23:0.13082001 30:0.103588 31:0.065416001 37:0.063409001 41:0.058318 43:0.074284002 44:0.042869002 49:0.160219 50:0.067697003 63:0.095457003 64:0.101254 69:0.059803002 71:0.118856 75:0.058719002 88:0.073817 95:0.084775001 99:0.056896001 112:0.056669999 115:0.063325003 127:0.099321999 129:0.22877701 142:0.085495003 205:0.061758 208:0.103018 222:0.097615004 223:0.083898999 232:0.041138999 236:0.080482997 239:0.025502 256:0.072343998 272:0.061437 327:0.065325998 370:0.090520002 393:0.070405997 434:0.13832299 530:0.138823 575:0.102059 671:0.14178801 807:0.057280999 855:0.155855 859:0.34610701 874:0.081476003 933:0.198893 935:0.097735003 1004:0.079907998 1014:0.121192 1126:0.082589999 1200:0.29846799 1223:0.133678 1297:0.14747301 1772:0.152052 1994:0.123966 2184:0.110351 2231:0.19237401 3085:0.29846799 6029:0.199257 8386:0.24786299 #
0.10000000000000000555111512312578 22:0.063623004 35:0.017537 36:0.035298999 38:0.056708001 53:0.242562 64:0.083549999 70:0.058972999 71:0.098075002 83:0.060911 98:0.11454 126:0.027155001 134:0.14996099 138:0.064264998 142:0.070547 150:0.13772701 163:0.09883 197:0.107456 204:0.13807 209:0.081955999 216:0.064920999 236:0.125406 239:0.021043001 246:0.093778998 276:0.038559999 291:0.097521998 322:0.14341301 350:0.046100002 354:0.056749001 387:0.074424997 397:0.072025001 434:0.141472 445:0.231143 458:0.073348999 512:0.101227 525:0.121688 764:0.093305998 807:0.080027997 832:0.129853 838:0.090912998 858:0.059287 896:0.079209 906:0.122193 1126:0.068149999 1268:0.075956002 1296:0.144724 1444:0.314192 1477:0.098261997 1561:0.095757 1977:0.117598 2001:0.134368 3371:0.119162 3982:0.45249599 3983:0.389433 #
0.10000000000000000555111512312578 9:0.056384999 11:0.039779 35:0.021294 50:0.067828 63:0.1577 65:0.078629002 88:0.073960997 91:0.120604 98:0.112208 109:0.071124002 113:0.049297001 115:0.063446999 143:0.066783004 170:0.164997 198:0.095063999 217:0.165512 232:0.041218001 236:0.047626998 246:0.11387 248:0.067876004 282:0.078163996 292:0.076682001 312:0.16095801 325:0.119087 350:0.055977002 351:0.070699997 453:0.081634 459:0.109702 480:0.17078 483:0.101054 559:0.097805001 654:0.106305 668:0.188272 708:0.140563 778:0.12836 791:0.28778499 961:0.161495 1014:0.205593 1110:0.11387 1333:0.22798499 1340:0.10677 1403:0.135382 1523:0.15114 1693:0.203577 1724:0.12167 1779:0.13612799 1961:0.136508 2001:0.163156 2077:0.13728 2210:0.120003 3635:0.187039 3732:0.197182 4842:0.23878901 4906:0.248344 #
0.10000000000000000555111512312578 16:0.17621 26:0.16520201 35:0.040104002 36:0.080721997 64:0.191062 105:0.071305998 170:0.18352801 236:0.089694999 313:0.240767 497:0.092169002 648:0.225134 723:0.199258 791:0.40742099 951:0.20855799 1353:0.18812899 1427:0.20564801 1779:0.25637099 2210:0.22600301 2212:0.53794903 #
0.10000000000000000555111512312578 9:0.105801 10:0.050276998 11:0.044085 15:0.054055002 42:0.092899002 44:0.080596 45:0.082093999 52:0.129087 91:0.165665 108:0.086843997 112:0.062925003 137:0.064314 143:0.074010998 164:0.074428 169:0.082680002 170:0.25771201 180:0.098702997 219:0.124699 292:0.084981002 318:0.348802 356:0.097407997 370:0.059363998 393:0.078178003 424:0.15577599 433:0.087064996 434:0.15359101 452:0.072938003 453:0.090469003 525:0.34365001 583:0.1192 656:0.216878 668:0.087435998 778:0.176318 855:0.102211 1014:0.134569 1135:0.14652599 1298:0.32372299 1397:0.117981 1601:0.130025 2329:0.26880801 2949:0.234786 4946:0.205395 #
-0.10000000000000000555111512312578 6:0.03286 9:0.085894004 35:0.015457 36:0.031112 44:0.031179 46:0.097741 87:0.029437 89:0.060398001 114:0.069214001 143:0.048475999 149:0.067464001 163:0.147486 164:0.082539998 186:0.087966003 217:0.050347 232:0.029920001 236:0.090210997 239:0.018547 246:0.173463 272:0.044682 293:0.062309001 313:0.054807998 322:0.101982 383:0.047446001 447:0.099367 452:0.047773 508:0.068377003 530:0.059631001 616:0.078661002 668:0.057270002 730:0.075545996 752:0.087277003 761:0.092998996 778:0.055029999 780:0.090686001 791:0.195255 807:0.04166 896:0.069813997 914:0.070396997 995:0.085795 1140:0.074028999 1340:0.077501997 1353:0.072509997 1523:0.109709 1693:0.087277003 2077:0.209124 2144:0.093874998 2210:0.147486 2212:0.207341 2213:0.400785 2346:0.129152 2607:0.121739 2845:0.14313 3545:0.128206 3610:0.139911 5155:0.173333 7140:0.293477 7397:0.206754 7398:0.206754 7399:0.321771 7400:0.190043 #
-0.10000000000000000555111512312578 9:0.149784 31:0.124034 35:0.019202 36:0.038649999 37:0.097000003 38:0.062091999 62:0.069204003 91:0.108754 102:0.110836 105:0.034141999 126:0.029733 131:0.068306997 142:0.108867 147:0.100177 150:0.089065999 200:0.12523399 214:0.065211996 217:0.105896 236:0.102484 249:0.066745996 353:0.086831003 383:0.058940999 419:0.055943001 434:0.073811002 444:0.089850001 447:0.209003 464:0.081490003 474:0.13144 485:0.24957401 486:0.147902 497:0.074720003 505:0.23864099 547:0.15599699 611:0.091242999 622:0.117178 668:0.071144998 789:0.108211 791:0.221817 804:0.097718 856:0.18393201 931:0.114738 977:0.091964997 1209:0.095720999 1513:0.14218 1693:0.22753499 1779:0.122752 1933:0.127941 1994:0.112002 2210:0.183218 2309:0.167125 4190:0.171992 4293:0.133727 12407:0.223942 13556:0.25684401 13557:0.25684401 #
-0.10000000000000000555111512312578 6:0.044893 35:0.021118 45:0.073463 46:0.133535 49:0.075859003 68:0.13112 76:0.045878999 87:0.040217001 91:0.070639998 112:0.033257 124:0.080098003 126:0.032699 143:0.066229001 149:0.092170998 192:0.100086 208:0.060456999 232:0.106665 236:0.13186 239:0.02534 244:0.054883 272:0.061046001 313:0.074879996 396:0.105424 426:0.090676002 433:0.077910997 434:0.13744301 443:0.184332 452:0.13697401 465:0.097112 494:0.099191003 564:0.263551 566:0.152328 622:0.12887 767:0.103355 783:0.083365001 803:0.103788 806:0.140265 810:0.22200599 979:0.194198 993:0.073987 1126:0.138947 1299:0.121396 1343:0.197988 1353:0.099064998 1427:0.10829 1557:0.137326 1561:0.115309 2210:0.28398901 2825:0.20663001 2868:0.149304 3371:0.143492 3385:0.182193 5169:0.21837801 5683:0.21398 12994:0.282471 #
-0.10000000000000000555111512312578 9:0.087687999 11:0.051495001 33:0.074713998 35:0.019559 43:0.068363003 44:0.039452001 45:0.068039998 50:0.062300999 63:0.108885 70:0.065771997 93:0.075593002 112:0.030802 115:0.058277 169:0.068526 182:0.099237002 232:0.037859 236:0.043745 272:0.118655 293:0.078845002 322:0.12904499 325:0.109382 336:0.269611 353:0.14975099 497:0.132423 505:0.115828 668:0.231695 716:0.093428001 725:0.118787 751:0.167325 778:0.14613301 791:0.160313 794:0.103717 852:0.187353 896:0.088340998 916:0.13523 1054:0.121751 1065:0.12871499 1069:0.168529 1125:0.087926999 1131:0.10204 1168:0.27178499 1289:0.130321 1687:0.22810601 1688:0.13245501 1693:0.110438 1695:0.181113 3113:0.37452099 4515:0.170233 4880:0.181113 5250:0.20225801 #
-0.10000000000000000555111512312578 6:0.036451001 10:0.036529999 15:0.039275002 21:0.094301 22:0.062206 38:0.055445001 41:0.047049001 50:0.054616001 51:0.12756 75:0.113046 76:0.063070998 236:0.100071 239:0.020574 241:0.040348001 256:0.058364999 267:0.063800998 294:0.109918 313:0.158649 324:0.072766997 350:0.045072999 394:0.082668997 415:0.080949999 434:0.065909997 443:0.057356 452:0.111215 564:0.126385 572:0.088197 591:0.111501 731:0.123596 791:0.14053901 945:0.091380998 951:0.21278401 953:0.100226 1004:0.064466998 1033:0.090325996 1110:0.091689996 1305:0.091380998 1468:0.077444002 1508:0.30719301 1523:0.1217 1552:0.116903 1623:0.159376 1669:0.085721999 1768:0.122672 1779:0.109612 1788:0.098567002 1797:0.17507599 1900:0.117714 1924:0.128764 1972:0.12473 2142:0.14023601 2210:0.230583 2343:0.165223 2607:0.13504399 2920:0.16075499 3182:0.150607 4502:0.28883299 4903:0.26003501 9383:0.18630899 10055:0.22935 #
0.10000000000000000555111512312578 8:0.138818 11:0.020814 18:0.104115 45:0.111116 65:0.069659002 76:0.069394 81:0.080399998 112:0.02971 114:0.084475003 115:0.05621 116:0.171812 122:0.105535 123:0.069957003 137:0.107895 138:0.069131002 142:0.044822 156:0.064121999 178:0.097797997 206:0.120938 213:0.10071 218:0.120599 219:0.123557 222:0.086648002 224:0.103943 225:0.101398 238:0.176541 239:0.022637 263:0.16897599 275:0.096442997 276:0.041480999 292:0.067934997 299:0.107791 308:0.129513 323:0.093505003 338:0.19802301 357:0.098264001 371:0.11172 396:0.094177999 431:0.12906399 448:0.060391001 465:0.086753003 498:0.09324 510:0.160155 560:0.080656998 585:0.101749 634:0.095147997 878:0.149459 991:0.077711999 1013:0.201205 1064:0.124149 1468:0.085207 1648:0.15536401 1765:0.22671001 2089:0.13843399 2102:0.40115899 3012:0.199619 3512:0.154293 5812:0.181784 7856:0.23194499 #
0.10000000000000000555111512312578 11:0.036061 15:0.044217002 61:0.093575001 91:0.064572997 112:0.030401001 113:0.075664997 124:0.073218003 126:0.029890999 156:0.114161 162:0.092087999 181:0.076419003 197:0.118282 219:0.060245 223:0.129025 225:0.103757 232:0.037365999 235:0.14496601 236:0.043175001 239:0.023163 241:0.095328003 248:0.061531998 267:0.121618 276:0.042445 292:0.069514997 300:0.067258999 312:0.086177997 352:0.050138 363:0.124805 397:0.079282001 460:0.108161 464:0.138708 494:0.090671003 597:0.154476 723:0.056648001 735:0.278119 760:0.070150003 777:0.088662997 803:0.094873004 858:0.110494 975:0.094217002 978:0.105404 1011:0.16380399 1017:0.194858 1108:0.093447998 1217:0.079360999 1221:0.131613 1312:0.112837 2121:0.13924401 2196:0.43781799 2306:0.1953 2415:0.29275399 3694:0.186012 6815:0.35514 #
0.10000000000000000555111512312578 4:0.12790801 6:0.038608 11:0.042050999 35:0.018161001 42:0.071493 43:0.063477002 44:0.062024999 58:0.219543 70:0.061071001 76:0.039455 105:0.054674 108:0.066832997 112:0.028601 113:0.071185999 116:0.069312997 126:0.059016 128:0.072030999 148:0.190441 163:0.102346 169:0.063628003 199:0.084872998 201:0.097782001 216:0.141092 223:0.150456 229:0.085630998 232:0.035154 236:0.068774 239:0.021792 240:0.048294 241:0.042734999 244:0.047199 248:0.098015003 275:0.092844002 315:0.066272996 450:0.079976998 457:0.129544 479:0.120251 597:0.117252 633:0.094446003 676:0.068103999 677:0.086073004 719:0.080613002 722:0.077564001 778:0.064657003 1013:0.08117 1133:0.083011001 1146:0.077896997 1549:0.17430399 1853:0.16105101 1900:0.12468 2367:0.19216999 2659:0.125119 3359:0.19216999 3638:0.16816901 3670:0.35861501 5434:0.187803 9140:0.223289 11160:0.211804 14282:0.24292301 14283:0.24292301 14284:0.24292301 #
0.10000000000000000555111512312578 19:0.070619002 35:0.016798001 56:0.10816 59:0.054081999 87:0.031989999 104:0.046643 105:0.029867001 115:0.050048999 121:0.050863001 126:0.026009999 156:0.087991998 158:0.19880199 198:0.126968 239:0.020156 241:0.039526999 243:0.190052 251:0.105376 338:0.073889002 350:0.044156 385:0.100984 393:0.055645999 433:0.061972 441:0.107086 444:0.078598998 544:0.071970999 559:0.077151 671:0.066186003 775:0.104296 799:0.145395 817:0.090597004 874:0.064395003 920:0.188904 928:0.079611003 983:0.128702 991:0.069195002 1060:0.216699 1122:0.251194 1125:0.075512998 1126:0.110521 1130:0.106793 1338:0.086805999 1342:0.085097998 1422:0.137679 1478:0.347994 1542:0.24461 1578:0.119695 1717:0.113006 2321:0.122192 2751:0.123262 3651:0.170204 4390:0.161861 6057:0.475169 #
0.10000000000000000555111512312578 11:0.023529001 18:0.069512002 27:0.1175 35:0.021326 38:0.068958998 49:0.076605998 65:0.078745 76:0.046331 98:0.066370003 99:0.057091001 104:0.059216 109:0.120601 112:0.033585001 113:0.049369998 119:0.085717998 122:0.056846999 137:0.098402999 143:0.11324 146:0.148295 156:0.12611701 178:0.18718299 212:0.148 219:0.066555001 231:0.084742002 244:0.055422999 257:0.15742099 308:0.14640599 314:0.127719 322:0.17439499 352:0.163173 364:0.15719 419:0.062130999 464:0.090503 483:0.101203 485:0.368727 546:0.11108 600:0.134491 650:0.096548997 724:0.241349 753:0.13013899 764:0.113463 858:0.072094999 1240:0.13908599 1296:0.103942 1370:0.194409 1374:0.113274 1405:0.191153 1667:0.169976 1680:0.172123 1736:0.109356 1788:0.20756499 1824:0.12018 1978:0.16514701 7666:0.285252 #
-0.10000000000000000555111512312578 35:0.020271 36:0.085625999 83:0.070405997 126:0.053144 128:0.136126 142:0.101072 156:0.097106002 169:0.07102 184:0.098530002 211:0.109141 248:0.064613998 254:0.150095 276:0.044571001 336:0.199056 338:0.15097301 371:0.120044 431:0.330933 889:0.118237 958:0.131818 984:0.14065699 1122:0.227871 1126:0.078772999 1130:0.21820401 1131:0.179057 1140:0.164377 1396:0.13593 1478:0.41995001 1760:0.13339899 1924:0.152227 2716:0.36316901 6057:0.34776899 #
-0.097025887152570614024860162771802 6:0.044075999 9:0.131005 10:0.044171002 11:0.022875 35:0.020733001 44:0.041820999 60:0.065994002 61:0.100503 69:0.122432 75:0.057282999 76:0.045042999 81:0.088361003 89:0.081014 91:0.069353998 94:0.080130003 98:0.064525001 104:0.097475998 112:0.032651 113:0.081266999 121:0.106295 126:0.054357 156:0.087347001 183:0.102472 216:0.076752 232:0.067948997 236:0.078514002 239:0.024878001 248:0.066087998 257:0.090392001 276:0.045588002 284:0.111058 297:0.091201 312:0.092559002 340:0.083820999 350:0.09228 414:0.098390996 444:0.097015001 448:0.112376 560:0.150087 569:0.16628 576:0.163293 594:0.117068 597:0.079057999 791:0.100367 881:0.214221 889:0.120933 895:0.11163 896:0.093644001 929:0.105671 1217:0.085236996 1344:0.138584 1574:0.154228 2196:0.401939 2306:0.39609599 3639:0.165253 4362:0.18975499 4516:0.349251 #
-0.009163140734344255716736782346743 8:0.049577001 9:0.037439 10:0.051003002 11:0.043552 15:0.032387 32:0.061106998 58:0.065502003 60:0.076200999 62:0.121602 68:0.087791003 73:0.211237 76:0.030718001 83:0.049109999 87:0.064255998 89:0.055249002 93:0.092524 95:0.056398999 98:0.074506 99:0.037852 102:0.081614003 105:0.042566001 108:0.052032001 112:0.046730001 113:0.078110002 119:0.056832999 121:0.042814001 126:0.021894 138:0.087728001 143:0.044342998 144:0.126865 145:0.046597999 146:0.121868 156:0.074066997 164:0.075502999 186:0.080466002 192:0.067011997 197:0.051169001 198:0.063121997 208:0.040479001 219:0.044126999 221:0.03534 226:0.09499 231:0.134075 232:0.046339002 236:0.031624001 239:0.016966 240:0.063661002 242:0.084296003 248:0.076309003 257:0.104373 261:0.076393001 300:0.049263999 312:0.063121997 321:0.067717999 350:0.062932 351:0.046944998 352:0.036724001 354:0.045754001 383:0.043400999 385:0.085003003 411:0.084106997 448:0.045263 458:0.059138 460:0.079223998 484:0.071313001 543:0.083733 560:0.060451999 583:0.071418002 617:0.070483997 656:0.061918002 668:0.052386999 671:0.055712 677:0.113462 680:0.26578099 682:0.195108 705:0.115735 723:0.041492 738:0.053346999 741:0.068447001 758:0.092216 759:0.065021001 761:0.085069999 762:0.214431 764:0.075227998 827:0.112697 858:0.047800001 881:0.086283997 896:0.063862003 931:0.084486999 1057:0.07666 1069:0.071955003 1131:0.073765002 1156:0.088933997 1217:0.058129001 1353:0.066327997 1555:0.083919004 1740:0.21222199 1741:0.083003998 1824:0.134913 1902:0.07626 1913:0.235213 2196:0.194489 2306:0.22046401 2423:0.136246 2432:0.1067 2463:0.197157 3459:0.103301 4748:0.12096 13348:0.173841 #
-0.022675106996876876613855600339775 11:0.021214999 35:0.019229 76:0.041774999 81:0.138753 113:0.044514999 126:0.050413001 169:0.067368999 208:0.093206003 216:0.071183003 221:0.04806 232:0.037220001 236:0.120065 246:0.102825 257:0.20005099 313:0.115442 325:0.182074 433:0.070942 434:0.155118 445:0.34248 452:0.059431002 453:0.073716 454:0.107536 464:0.081603996 597:0.124145 650:0.087054998 654:0.095994003 685:0.104807 783:0.075907998 825:0.07835 920:0.37624499 967:0.105182 1127:0.090664998 1225:0.094769001 1234:0.100317 1268:0.14101 1329:0.122924 1405:0.213632 1491:0.122924 1532:0.14733 1666:0.124678 1736:0.098603003 1910:0.11596 2193:0.170518 4235:0.168897 5150:0.172233 9379:0.257204 9380:0.236415 9381:0.257204 #
-0.10000000000000000555111512312578 23:0.147219 31:0.095622003 35:0.018348999 48:0.123101 56:0.069779001 76:0.039863002 104:0.050949 114:0.082162 170:0.083968997 205:0.053316999 216:0.067924999 219:0.057263002 232:0.060134001 236:0.069482997 239:0.022017 244:0.047685001 273:0.092269003 312:0.081913002 327:0.056398001 393:0.060784001 418:0.103603 443:0.061377 449:0.295531 515:0.161165 544:0.133108 552:0.086514004 619:0.128738 665:0.087073997 730:0.089677997 731:0.13226099 752:0.103603 759:0.084376998 760:0.066678002 783:0.072433002 799:0.288856 817:0.098962002 892:0.122644 1014:0.104629 1126:0.071303003 1146:0.133251 1209:0.091467001 1234:0.095725 1284:0.135245 1368:0.16556799 1811:0.155697 2210:0.103402 2351:0.143682 2658:0.207655 2824:0.138464 3061:0.252386 4537:0.39819199 4932:0.24542899 4933:0.225592 #
0.10000000000000000555111512312578 1:0.082612 11:0.040544 26:0.089405 35:0.021703999 36:0.043685 43:0.075859003 50:0.069131002 76:0.047150999 85:0.082392998 88:0.12763301 98:0.067546003 105:0.065338001 125:0.118507 126:0.056901 142:0.051564999 147:0.113228 150:0.17044801 169:0.076039001 205:0.106781 209:0.101427 214:0.073707998 219:0.114683 232:0.088164002 239:0.026041999 250:0.101555 256:0.073876999 313:0.130299 354:0.070231996 397:0.089137003 443:0.122922 452:0.067079 497:0.153603 559:0.099684 592:0.082392998 597:0.140122 623:0.098609999 631:0.102202 743:0.115667 791:0.22048999 807:0.058495 895:0.116855 993:0.128746 1133:0.099202998 1163:0.278689 1355:0.169001 1477:0.121606 1540:0.106966 1760:0.142828 2210:0.25668001 4571:0.36559799 5683:0.219915 13365:0.290306 13366:0.290306 #
0.10000000000000000555111512312578 6:0.109236 9:0.182298 10:0.077674001 11:0.023758 35:0.021532999 37:0.108776 38:0.069629997 44:0.043435 63:0.119876 69:0.060591001 76:0.046781 112:0.033911001 142:0.122084 156:0.043226998 180:0.090062998 232:0.087471999 236:0.081542999 239:0.025838001 267:0.080124997 290:0.068007998 370:0.054166999 393:0.071333997 395:0.110761 402:0.142579 436:0.191127 452:0.066552997 491:0.100128 492:0.104666 499:0.126683 513:0.13803899 532:0.118212 533:0.117999 595:0.114953 656:0.094296999 669:0.13962001 767:0.17843799 778:0.076661997 780:0.074615002 791:0.10424 804:0.18553901 974:0.11325 977:0.10313 1037:0.12533399 1038:0.17269599 1093:0.107034 1140:0.10313 1533:0.132045 1693:0.31726801 1704:0.16675401 1979:0.17733601 2210:0.121349 2259:0.149417 2417:0.326563 2767:0.16767401 2785:0.19490901 11665:0.28802699 #
0.10000000000000000555111512312578 22:0.275848 25:0.210181 31:0.151852 35:0.029139001 44:0.058775 51:0.128029 85:0.110617 86:0.129191 169:0.102087 174:0.161135 236:0.155515 292:0.104929 293:0.11746 341:0.124712 350:0.076596998 383:0.151436 397:0.119672 443:0.16503 474:0.117802 594:0.164526 677:0.138099 731:0.124051 837:0.115135 895:0.156885 1033:0.15349799 1236:0.187317 1459:0.181381 1779:0.186272 2210:0.39184701 4885:0.30131701 8876:0.389752 #
0.10000000000000000555111512312578 9:0.103939 13:0.100192 22:0.067859001 35:0.018704999 36:0.037648998 37:0.055805001 38:0.060483001 49:0.067189999 63:0.049617998 69:0.052630998 75:0.051677998 76:0.040635999 87:0.060311999 88:0.064966001 113:0.073316 146:0.076820001 156:0.063575998 179:0.143378 180:0.132458 216:0.069242001 221:0.046750002 232:0.094475999 240:0.049738999 241:0.044013999 272:0.05407 283:0.13606399 294:0.119906 313:0.066322997 352:0.048581999 354:0.060527001 397:0.076820001 434:0.071898997 450:0.082369 452:0.161392 453:0.071705997 464:0.166586 535:0.14331301 562:0.137255 564:0.137869 597:0.071323 858:0.063233003 946:0.193422 951:0.097272001 974:0.16655999 1025:0.11796 1075:0.123849 1268:0.13716599 1275:0.232393 1347:0.119906 1540:0.092184998 1693:0.221641 1768:0.133819 1817:0.16429199 1956:0.148186 2181:0.18609001 2210:0.221211 2691:0.116136 4805:0.197919 5799:0.47757101 #
0.10000000000000000555111512312578 5:0.064406998 10:0.034857001 11:0.030564001 18:0.05333 35:0.027702 37:0.048813999 55:0.081093997 69:0.046037 109:0.114683 112:0.025766 114:0.043269999 115:0.082539 134:0.112874 147:0.144521 163:0.193497 183:0.080863997 204:0.128811 217:0.090228997 239:0.019632 249:0.056871001 272:0.047295 350:0.043009002 383:0.085031003 395:0.14249 433:0.060362 498:0.080863997 539:0.077845 665:0.077643 668:0.127216 731:0.069654003 771:0.078566998 791:0.189 804:0.083261997 807:0.044096 824:0.107024 837:0.064648002 895:0.088091001 1008:0.098210998 1033:0.086189002 1146:0.070175998 1353:0.076751001 1397:0.081795998 1424:0.087638997 1561:0.089336 1570:0.098665997 1671:0.116585 1682:0.119533 1688:0.110798 1847:0.13474099 2081:0.128859 2121:0.118016 2840:0.153392 2841:0.114794 2861:0.142399 3057:0.101586 11073:0.34058899 11414:0.201157 11768:0.37053701 11769:0.21884499 11770:0.21884499 11771:0.21884499 11772:0.21884499 #
-0.10000000000000000555111512312578 26:0.081697002 91:0.112325 105:0.092017002 122:0.052866999 137:0.054049 142:0.047120001 143:0.062197998 147:0.103467 156:0.039813001 214:0.067354001 219:0.061895002 221:0.049569 232:0.091606997 236:0.075103 238:0.088436 243:0.085992001 267:0.073795997 272:0.097069003 429:0.102975 452:0.159949 474:0.135757 485:0.122829 497:0.127248 668:0.073481001 775:0.12314 791:0.250525 797:0.088133 907:0.128222 914:0.090324 936:0.14021701 977:0.094984002 991:0.081697002 1004:0.126252 1037:0.115435 1105:0.155303 1129:0.171104 1133:0.09065 1199:0.14021701 1423:0.12749401 1515:0.096796997 1756:0.173531 1779:0.126783 1784:0.143657 1812:0.179515 2210:0.29164401 2268:0.15807401 4083:0.222397 4571:0.33408001 5932:0.20985501 9382:0.21549401 9980:0.243838 #
-0.036592773508912247726332367392388 3:0.086860001 6:0.043235 35:0.020338001 50:0.109683 56:0.077344 59:0.065480001 70:0.068389997 82:0.12965401 105:0.061225999 124:0.077138998 143:0.063781999 208:0.058223002 217:0.066243 219:0.063470997 232:0.102724 235:0.15272801 236:0.045487002 239:0.024404 261:0.109881 266:0.142161 290:0.15327699 350:0.112196 389:0.087325998 442:0.106788 452:0.062857002 462:0.16310699 464:0.22521999 592:0.077206999 594:0.114834 723:0.142416 733:0.139137 735:0.139622 753:0.124109 760:0.192853 803:0.099953003 807:0.054814 811:0.084114999 837:0.080360003 858:0.068754002 894:0.071652003 895:0.109501 962:0.110265 964:0.113096 1025:0.128259 1027:0.122934 1100:0.135508 1209:0.101382 1234:0.106102 1275:0.31319401 1461:0.128259 1755:0.17546099 1808:0.173986 2246:0.15128601 2691:0.126276 5799:0.47486299 #
-0.066961093423533721291640574690973 6:0.062222999 31:0.053208999 35:0.017286999 36:0.034796 37:0.087327003 63:0.045857999 87:0.032922 109:0.137784 113:0.04002 114:0.045719001 126:0.045322001 138:0.063348003 146:0.070998996 148:0.107065 156:0.034703001 163:0.097420998 164:0.142269 171:0.090478003 197:0.062560998 201:0.093076997 210:0.076733999 217:0.056306999 226:0.055339999 249:0.060090002 322:0.067363001 354:0.055939998 383:0.111359 442:0.153688 445:0.171277 453:0.066271998 483:0.082037002 540:0.14338499 629:0.16657799 668:0.064049996 709:0.123679 728:0.102149 741:0.083685003 906:0.071140997 977:0.082794003 1017:0.1745 1057:0.158692 1125:0.077714004 1178:0.107609 1223:0.108733 1298:0.29275101 1332:0.128594 1353:0.137306 1578:0.123184 1704:0.133872 1724:0.098774001 1814:0.13315301 1847:0.142368 2242:0.14554299 3161:0.42310199 4325:0.121291 6107:0.193854 8088:0.20161 9066:0.231232 9067:0.231232 #
-0.10000000000000000555111512312578 8:0.059657998 9:0.045051999 19:0.071530998 22:0.14729799 26:0.070087999 31:0.088669002 32:0.073531002 33:0.13639601 37:0.050763 43:0.059469 56:0.064704999 75:0.079591997 76:0.062586002 83:0.059094999 87:0.032403 88:0.059094999 92:0.085560001 101:0.105642 105:0.051222 142:0.040424 143:0.05336 149:0.074261002 156:0.034155998 180:0.071162999 209:0.079512998 217:0.093832001 223:0.067166001 232:0.069114998 236:0.038054001 239:0.020416001 241:0.040036999 282:0.062454 311:0.082143001 358:0.125411 383:0.052226 385:0.082525 393:0.056364 411:0.101209 450:0.074925996 525:0.118061 658:0.116402 677:0.080637999 719:0.075522996 772:0.14679 811:0.070370004 1093:0.084573001 1133:0.077768996 1316:0.114093 1539:0.19574399 1693:0.096069999 1765:0.120762 1971:0.141123 2025:0.16395 4141:0.184873 5020:0.15951701 5021:0.16647901 5827:0.209189 7653:0.184873 9263:0.22758301 9264:0.51778799 9265:0.22758301 9266:0.209189 #
-0.080858710757357427079128342484182 8:0.134865 23:0.035537999 35:0.016119 44:0.032512002 50:0.051341001 56:0.061298002 70:0.054202002 105:0.028658999 107:0.080118999 112:0.025384 113:0.063179001 114:0.042628001 126:0.024958 134:0.065676004 141:0.1199 150:0.074763 174:0.15091901 207:0.095242999 232:0.052825 434:0.061958 452:0.118879 464:0.178496 497:0.077740997 512:0.093038 592:0.061190002 650:0.072972998 661:0.083690003 677:0.076392002 741:0.078028001 743:0.085901998 778:0.097159997 787:0.17352 856:0.217603 919:0.1199 953:0.094215997 991:0.066396996 1026:0.070822001 1057:0.087389998 1126:0.062636003 1133:0.073674001 1134:0.092846997 1236:0.17544 1257:0.122862 1275:0.118278 1364:0.098361 1408:0.132742 1557:0.104815 1741:0.094622001 1900:0.110656 2073:0.112668 2176:0.13906001 2298:0.132742 2439:0.242992 2592:0.23971 2661:0.121043 3034:0.135704 4353:0.18798 4950:0.33097801 5799:0.376349 9698:0.215599 #
0.10000000000000000555111512312578 1:0.066040002 11:0.019142 39:0.082658 42:0.068299003 43:0.060642 44:0.034995999 58:0.080375999 63:0.046023998 86:0.16143499 89:0.114786 91:0.121796 109:0.151216 112:0.027323 121:0.052535001 124:0.15703499 128:0.116511 137:0.047283001 171:0.15374801 244:0.045090001 249:0.10211 352:0.045063 357:0.090370998 425:0.137454 491:0.080675997 497:0.039873999 538:0.110304 633:0.090227 670:0.163357 761:0.104387 778:0.172443 783:0.068490997 797:0.077100001 912:0.32353601 1305:0.194048 1477:0.097213 1534:0.119956 1602:0.17580099 2019:0.183586 2069:0.187791 2511:0.164829 2891:0.358679 2892:0.139146 3342:0.15704399 3765:0.183586 4555:0.169762 4630:0.148426 9311:0.202343 9766:0.202343 9767:0.213315 #
0.10000000000000000555111512312578 12:0.080509998 19:0.083070002 22:0.071684003 41:0.054218002 44:0.039856002 45:0.068736002 48:0.078295 76:0.072682001 81:0.142579 83:0.068627998 91:0.066095002 105:0.035131998 121:0.059829999 126:0.051803 138:0.072407 151:0.095394 154:0.18604 162:0.094259001 205:0.057415999 214:0.067103997 217:0.064359002 236:0.074824996 239:0.023708999 256:0.067258 257:0.086144999 276:0.043446001 286:0.198561 293:0.079650998 338:0.182402 401:0.164652 433:0.072898 447:0.127022 482:0.104952 493:0.14786699 579:0.096704997 585:0.10657 588:0.173705 596:0.083241999 657:0.138117 722:0.23559301 735:0.13564999 874:0.075747997 896:0.089244999 906:0.170645 993:0.069227003 1004:0.07429 1012:0.172024 1032:0.121165 1130:0.12562101 1341:0.30226201 1348:0.084569 1547:0.12527999 1663:0.16388801 1757:0.14630499 1805:0.123955 1826:0.27002001 1955:0.18296599 2056:0.248863 2184:0.102593 2868:0.139697 3685:0.18296599 #
0.10000000000000000555111512312578 5:0.055551998 50:0.044950001 60:0.044918001 63:0.063382 75:0.038989 81:0.060141999 104:0.082234003 112:0.022224 113:0.032669 115:0.042047001 123:0.052329998 137:0.065116003 142:0.033528 181:0.055865001 198:0.106667 205:0.086056001 236:0.082359999 256:0.048036002 267:0.052510001 297:0.130271 350:0.037096001 395:0.072586998 427:0.074097998 452:0.091531999 497:0.032432999 654:0.070449002 719:0.062638998 770:0.20520701 778:0.131099 937:0.063366003 1134:0.081288002 1211:0.080957003 1338:0.123476 1396:0.246929 1422:0.068314001 1650:0.06955 1722:0.116217 2304:0.080631003 3155:0.15333501 3385:0.255503 3462:0.138079 3493:0.117911 5886:0.13598099 6497:0.173503 6898:0.149322 8554:0.158246 10807:0.173503 10975:0.16457801 11183:0.158246 12111:0.188759 12112:0.188759 12113:0.31959701 12114:0.188759 12115:0.188759 12116:0.29376599 12117:0.188759 12118:0.188759 #
0.10000000000000000555111512312578 1:0.057250001 44:0.051367 48:0.059597 75:0.070358001 82:0.095884003 86:0.066684999 87:0.028643001 89:0.058770001 104:0.041763999 105:0.026743 113:0.058954 115:0.075875998 126:0.023289001 142:0.035734002 194:0.071469001 226:0.048147999 236:0.056956001 256:0.051197 323:0.074547999 326:0.077483997 327:0.04623 340:0.060805999 383:0.046167001 443:0.105584 448:0.081520997 493:0.053633001 513:0.096417002 532:0.082569003 572:0.077363998 671:0.059262998 699:0.066012003 731:0.064032003 791:0.17374501 811:0.062206 812:0.079102002 819:0.175409 837:0.059429999 896:0.067932002 1004:0.056549001 1138:0.182191 1353:0.070556 1420:0.080980003 1515:0.073408 1613:0.217457 2077:0.096963003 2128:0.115848 2191:0.103256 2325:0.134718 2711:0.106752 2903:0.13765401 3352:0.23875199 3491:0.099899001 3643:0.133377 3703:0.221642 4009:0.132108 5744:0.16866 6585:0.163425 9385:0.15914799 11423:0.36811501 14293:0.340628 14294:0.20118 14295:0.20118 14296:0.20118 #
0.10000000000000000555111512312578 6:0.110185 11:0.052296001 15:0.077033997 31:0.061136998 35:0.019863 43:0.069425002 63:0.052691001 70:0.066794001 87:0.037827 91:0.139437 112:0.031280998 113:0.077855997 124:0.24087401 126:0.080256999 138:0.072787002 142:0.079902999 144:0.084922999 149:0.086694002 216:0.175466 219:0.06199 232:0.038447998 239:0.023833999 240:0.052818999 244:0.108333 249:0.1169 322:0.077399999 340:0.080302998 342:0.131519 352:0.051589999 483:0.094260998 485:0.208286 491:0.092361003 493:0.070830002 633:0.174895 686:0.117112 719:0.088166997 723:0.058288001 778:0.19742 783:0.078410998 794:0.105328 820:0.15381899 1054:0.123643 1333:0.21266 1427:0.101855 1898:0.172878 1994:0.115857 2061:0.188703 4094:0.186223 8368:0.210177 10264:0.210177 12959:0.449844 12960:0.26568499 #
-0.075684290272958004708314661002078 31:0.118441 69:0.108277 70:0.19942801 85:0.146082 87:0.073283002 112:0.035792001 115:0.067717001 142:0.053996999 155:0.149672 212:0.093154997 214:0.077183999 219:0.21842 221:0.056804001 232:0.043992002 239:0.027271001 256:0.077362001 257:0.167766 267:0.143185 350:0.101155 356:0.093809001 393:0.075289004 404:0.232869 453:0.14751901 513:0.145693 588:0.24764501 597:0.181869 661:0.118004 665:0.107853 722:0.097065002 723:0.112921 778:0.211136 855:0.098435 859:0.141836 891:0.22611199 986:0.13256399 1014:0.12959699 1026:0.099859998 1116:0.152897 1133:0.17588601 1137:0.15095399 1468:0.10265 1583:0.128327 1804:0.21307699 1805:0.142575 2181:0.22611199 2262:0.16906101 12248:0.265055 #
-0.018824232542281868485467555274226 11:0.034014001 41:0.084592998 74:0.11032 81:0.077598996 112:0.028674999 127:0.085091002 142:0.043260001 275:0.222124 276:0.040036 328:0.094094999 340:0.124637 369:0.13361201 370:0.045802999 383:0.055890001 393:0.060318001 436:0.095450997 458:0.198722 559:0.083628997 596:0.129878 654:0.090898 719:0.080821 737:0.20645 803:0.089487001 874:0.069802001 882:0.289942 909:0.13026699 993:0.063793004 1012:0.210878 1013:0.227192 1069:0.092660002 1542:0.34216601 1820:0.415196 2075:0.130797 2165:0.103827 2751:0.22622401 4864:0.32621101 6089:0.184495 #
-0.018309797781152999107678880363892 9:0.060568001 13:0.122525 15:0.052393999 35:0.038729001 48:0.090636998 50:0.123362 63:0.060678001 87:0.043561999 104:0.063515 113:0.052953999 126:0.059969001 156:0.045919001 158:0.15989 164:0.188247 192:0.108409 226:0.073224001 241:0.053824998 265:0.151456 324:0.097074002 328:0.118208 341:0.097901002 350:0.101808 354:0.074019 390:0.104552 479:0.25643799 493:0.081566997 575:0.109842 656:0.100169 682:0.095572002 699:0.16997901 723:0.067124002 863:0.129155 1033:0.120498 1142:0.103681 1178:0.142386 1295:0.153385 1397:0.114356 2432:0.17261501 4566:0.42043 7911:0.25650299 8012:0.223813 8878:0.26676601 10861:0.26676601 10862:0.26676601 #
-0.025467536681996277847517262671317 11:0.042500999 35:0.018355999 44:0.077701002 45:0.063854001 49:0.065936998 76:0.039878 81:0.132451 99:0.049139 104:0.14229199 112:0.028906999 126:0.028422 130:0.128306 142:0.073839001 157:0.101506 169:0.108885 181:0.189614 204:0.085352004 213:0.097989 219:0.120219 243:0.134753 246:0.098154999 249:0.063803002 272:0.089840002 282:0.114079 317:0.100586 338:0.080742002 419:0.053477 436:0.096224003 448:0.058759999 459:0.094562002 483:0.207864 508:0.081197999 582:0.14815 592:0.069682002 668:0.068007998 851:0.193955 906:0.15852299 919:0.13654201 929:0.093552001 935:0.084408998 945:0.097824 983:0.36698699 988:0.14293 993:0.064309001 1020:0.118673 1026:0.080651 1103:0.123486 1108:0.088857003 1125:0.082516998 1216:0.21407001 1412:0.224177 1497:0.122301 1501:0.100405 1571:0.11426 2056:0.231185 2516:0.13718501 2822:0.194226 2875:0.30409199 #
-0.034394974608605022314833377095056 10:0.077886999 15:0.049458001 23:0.140246 35:0.021592 36:0.043460999 63:0.057278 64:0.102869 76:0.11194 85:0.138787 104:0.059955999 112:0.034003999 115:0.064335003 122:0.057557002 124:0.081896998 142:0.133866 239:0.025908999 247:0.090775996 256:0.073498003 267:0.080343999 276:0.047476999 315:0.078792997 370:0.054315999 430:0.120072 433:0.16717701 458:0.090309002 498:0.106718 508:0.095516004 569:0.173169 592:0.081969999 595:0.115268 596:0.237368 597:0.139403 623:0.166104 632:0.165438 671:0.085078001 723:0.063362002 787:0.097409002 837:0.085317001 858:0.072995 859:0.43083501 1012:0.089575 1013:0.096505001 1014:0.208469 1468:0.097524002 1651:0.25948101 2338:0.161375 3065:0.179092 3155:0.234614 7727:0.22328299 12881:0.288816 #
0.10000000000000000555111512312578 35:0.016995 70:0.136374 87:0.032365002 90:0.133081 123:0.063020997 150:0.078828 174:0.093980998 187:0.113596 199:0.079421997 208:0.082377002 212:0.069659002 219:0.089801997 226:0.054404002 231:0.114342 232:0.091836996 236:0.064356998 239:0.034527 284:0.15413301 315:0.062015999 410:0.072047003 435:0.091820002 442:0.151089 443:0.056848999 452:0.052526001 464:0.072122999 508:0.075179003 723:0.049871001 783:0.067088999 805:0.20423201 887:0.088521004 979:0.092303 1061:0.157369 1069:0.086485997 1178:0.105789 1284:0.21209501 1355:0.13233399 1501:0.092961997 1583:0.095959 1926:0.19052701 2143:0.12701499 2191:0.116672 2210:0.162158 2945:0.244168 3804:0.300273 3938:0.429454 4152:0.166287 4502:0.16908 5743:0.18466 5744:0.190575 5745:0.227321 #
0.10000000000000000555111512312578 10:0.051621001 22:0.087903999 35:0.02423 94:0.24436 113:0.094973996 126:0.037517998 142:0.057567999 163:0.42048699 172:0.114687 202:0.108672 246:0.129568 290:0.076525003 292:0.147733 303:0.159453 322:0.094416998 350:0.063694 385:0.069411002 440:0.17787901 448:0.131329 483:0.114985 485:0.31492499 523:0.104263 559:0.111288 661:0.21301 668:0.152 731:0.103154 752:0.23164199 759:0.233835 1056:0.178597 1057:0.131368 1060:0.148946 1146:0.103927 1477:0.28491101 1818:0.209042 4905:0.21702801 #
0.10000000000000000555111512312578 6:0.053957999 10:0.031936999 11:0.034710001 18:0.048863001 44:0.030238001 56:0.057009999 59:0.048264999 61:0.072667003 112:0.023607999 146:0.061567999 162:0.071512997 164:0.047279 169:0.052521002 184:0.072866 192:0.071047999 194:0.071232997 195:0.088385999 197:0.054249998 198:0.066923 207:0.088579997 208:0.072663002 226:0.047989 239:0.017988 241:0.035275001 251:0.094042003 276:0.032962002 285:0.088973001 313:0.053155001 317:0.082148001 336:0.070145003 338:0.065940998 355:0.113126 395:0.16182099 474:0.060605999 499:0.088192999 532:0.082295999 568:0.081276 592:0.056908999 761:0.090193003 906:0.061691001 977:0.071796 993:0.052521002 995:0.083206996 1044:0.142417 1255:0.137199 1317:0.073469996 1339:0.109522 1351:0.108586 1475:0.086708002 1578:0.106821 1784:0.108586 1863:0.092151999 1919:0.12933201 2142:0.122606 2344:0.149143 2841:0.178084 3065:0.124339 3716:0.130473 6201:0.16810299 6268:0.35278401 7647:0.18431 8817:0.29601201 9473:0.17483 11906:0.42080599 11907:0.200516 11908:0.200516 #
0.10000000000000000555111512312578 9:0.115415 11:0.038798999 12:0.084628001 16:0.091259003 31:0.063928001 43:0.072595 54:0.123825 75:0.057383999 105:0.096364997 113:0.048082002 115:0.061884001 126:0.032159999 150:0.096337996 156:0.041694999 197:0.075163998 207:0.207794 214:0.070536003 232:0.040203001 241:0.116626 337:0.093699001 341:0.088895001 356:0.085729003 357:0.108183 371:0.122998 384:0.26471901 386:0.136269 390:0.094934002 394:0.100138 450:0.091463998 452:0.064193003 457:0.087499999 464:0.14924 474:0.083968997 491:0.096577004 617:0.103536 719:0.092192002 723:0.060949001 806:0.137952 807:0.055978 838:0.10767 894:0.073174 916:0.1436 952:0.117965 962:0.112608 978:0.113407 1171:0.112215 1240:0.13545901 1272:0.18603399 1289:0.13838699 1403:0.132046 1490:0.124388 1552:0.297176 1623:0.114021 1693:0.198562 2129:0.168733 2166:0.16987 2279:0.182431 2396:0.140187 2401:0.145725 2845:0.192324 4905:0.18603399 5436:0.21045201 #
0.10000000000000000555111512312578 10:0.037005998 11:0.045731999 32:0.075067997 35:0.029410001 38:0.056168001 50:0.055328 87:0.03308 98:0.091528997 109:0.058015998 111:0.103556 136:0.098852001 142:0.041269001 148:0.107577 156:0.034869999 169:0.060856 171:0.090911001 206:0.065766998 214:0.058990002 227:0.084778003 232:0.056926999 322:0.067685999 370:0.043694999 383:0.053316999 389:0.074583001 430:0.096593 443:0.058104001 452:0.053684998 559:0.079779997 668:0.064356998 701:0.083411999 778:0.17264199 780:0.101908 807:0.046815 811:0.071841002 812:0.091353998 817:0.093684003 852:0.098269001 931:0.103791 974:0.091353998 1026:0.182124 1028:0.112625 1073:0.126903 1146:0.074502997 1171:0.093846999 1415:0.118427 1435:0.099648997 1518:0.104266 1523:0.123286 1600:0.109836 1755:0.31449401 1903:0.13044199 2273:0.160843 2513:0.229008 2515:0.202576 3458:0.15558299 3711:0.141114 4009:0.152569 4543:0.188737 8695:0.202576 9501:0.194782 9502:0.39338499 9503:0.23233899 #
-0.10000000000000000555111512312578 23:0.068058997 45:0.107382 105:0.054885 112:0.048613001 198:0.233325 205:0.089698002 236:0.06904 354:0.099889003 383:0.160427 394:0.148828 491:0.243027 540:0.43350101 806:0.34714201 967:0.168851 1018:0.22752801 1122:0.27995801 1125:0.234955 1309:0.21824101 1398:0.20835 1693:0.29510701 2077:0.199002 2824:0.232943 #
-0.10000000000000000555111512312578 9:0.085321002 12:0.077544004 13:0.10194 15:0.073807001 19:0.080008999 22:0.180163 24:0.099445 43:0.066517003 48:0.075410001 75:0.052579999 89:0.125908 90:0.14902601 99:0.050946999 104:0.089473002 105:0.071013004 112:0.029971 113:0.074594997 121:0.057624999 205:0.055300999 218:0.121659 232:0.036837 239:0.022836 256:0.109682 282:0.069856003 352:0.049430002 370:0.081055999 385:0.092306003 415:0.089846998 433:0.070211999 443:0.063660003 452:0.058819 459:0.25583401 559:0.087408997 649:0.28261399 656:0.083339997 671:0.074987002 740:0.098502003 761:0.114501 832:0.14091399 906:0.13260201 933:0.068250999 1107:0.13903899 1142:0.146053 1149:0.103 1224:0.178423 1415:0.129752 2210:0.181587 2274:0.140276 2354:0.153602 2577:0.159013 2841:0.226079 3978:0.170461 5694:0.18079901 5851:0.20678499 5979:0.34456801 8707:0.25455701 #
-0.021177664244078096833501234641517 23:0.033613 35:0.015245 36:0.030686 55:0.127938 87:0.029033 89:0.100861 104:0.042332001 114:0.040318999 150:0.070712999 156:0.073031001 179:0.069018997 192:0.072253004 219:0.047578 232:0.029509 241:0.060738999 271:0.062550001 290:0.048147999 338:0.187215 383:0.122109 459:0.078538001 535:0.34410301 585:0.172556 670:0.084776998 783:0.101897 807:0.041088 810:0.094656996 818:0.077699997 896:0.068856999 956:0.081800997 1020:0.16688199 1108:0.192577 1111:0.14690199 1209:0.128673 1311:0.123851 1317:0.208591 1321:0.218896 1346:0.121511 1415:0.10394 1446:0.168347 1604:0.086416997 2038:0.105404 2116:0.13952699 3768:0.14690199 3769:0.144833 3770:0.39447501 3771:0.345263 3772:0.170955 3773:0.187436 #
-0.10000000000000000555111512312578 6:0.044764999 11:0.060625002 15:0.048232999 18:0.068637997 35:0.021058001 44:0.071915999 50:0.067073002 51:0.24143399 55:0.104371 59:0.067796998 70:0.070811003 91:0.119263 98:0.065535001 113:0.102304 114:0.055690002 138:0.077165 145:0.069398001 163:0.30965701 164:0.066412002 171:0.110211 172:0.209171 203:0.129765 217:0.068588004 219:0.065716997 239:0.025266999 248:0.067120999 256:0.121361 322:0.082055002 328:0.10882 370:0.089686997 393:0.118111 396:0.105123 429:0.109335 559:0.096717 561:0.105428 668:0.132098 778:0.178896 791:0.30029699 855:0.091202997 952:0.1196 993:0.073775999 1004:0.079172 1020:0.136142 1033:0.110929 1110:0.112604 1202:0.150653 1368:0.112224 1423:0.135369 1478:0.141664 1826:0.169958 1920:0.161341 2001:0.161341 2008:0.194989 2077:0.13575301 3371:0.14308199 3614:0.20290899 9997:0.281663 #
-0.10000000000000000555111512312578 10:0.041715 50:0.062368002 60:0.062323999 86:0.086813003 87:0.037289001 88:0.068007 94:0.075673997 99:0.052416999 105:0.034814 113:0.095127001 130:0.136866 134:0.079782002 137:0.053360999 149:0.08546 155:0.076158002 156:0.039306998 163:0.28793299 164:0.129595 172:0.092679001 183:0.096773997 205:0.056896001 214:0.066496998 217:0.063776001 240:0.052067 290:0.061840001 292:0.070509002 293:0.078929998 341:0.083802998 353:0.088541001 405:0.088751003 419:0.057045002 429:0.101664 445:0.092440002 491:0.091045998 616:0.099642999 650:0.088646002 654:0.165501 668:0.18930399 671:0.077150002 723:0.057457998 730:0.095697001 752:0.110557 759:0.090040997 760:0.071153 765:0.106158 777:0.089932002 778:0.069709003 859:0.122196 945:0.104351 952:0.111209 964:0.108883 969:0.151629 1008:0.246657 1015:0.139523 1057:0.25332499 1134:0.112787 1171:0.105788 1196:0.116471 1225:0.096501 1238:0.19839901 1296:0.095434003 1340:0.098174997 1353:0.091852002 1374:0.104002 1533:0.120068 1558:0.136361 2375:0.18357199 2598:0.131725 4299:0.170417 9064:0.26190299 9065:0.207185 #
0.10000000000000000555111512312578 15:0.046817001 23:0.076301001 36:0.041140001 87:0.065904997 112:0.054499999 115:0.060899001 119:0.082153998 129:0.31008601 156:0.069472 202:0.091669999 205:0.059392001 208:0.152688 209:0.161726 214:0.069413997 232:0.094408996 236:0.045713998 239:0.024525 247:0.085928999 275:0.104489 276:0.044941001 290:0.064553 341:0.087480001 350:0.053729001 371:0.12104 394:0.098544002 452:0.063170999 453:0.078355998 454:0.114304 458:0.085487001 499:0.120247 517:0.135334 671:0.080535002 723:0.101553 787:0.092207 791:0.098944001 807:0.055087 818:0.104172 855:0.231001 859:0.33285201 933:0.073301002 935:0.093990996 986:0.119218 991:0.142556 1014:0.24459299 1017:0.121854 1027:0.123547 1240:0.133303 1397:0.102184 1694:0.12755699 2025:0.196951 2026:0.150655 2027:0.18706401 2028:0.203348 2029:0.28303701 2030:0.23837 #
0.10000000000000000555111512312578 2:0.082488999 11:0.055534001 15:0.093392 18:0.094296001 23:0.110977 41:0.046882998 44:0.034464002 56:0.064978004 63:0.045324001 69:0.081401996 85:0.064862996 94:0.111807 98:0.053174999 104:0.047444001 115:0.050909001 124:0.15464599 126:0.026457001 129:0.108627 148:0.105819 239:0.020501999 249:0.100557 272:0.103653 315:0.062348999 321:0.081831001 351:0.056728002 383:0.052446 393:0.056602001 419:0.084283002 425:0.135364 435:0.092312999 493:0.060927998 544:0.073206998 621:0.101408 721:0.086689003 723:0.084893003 724:0.114206 855:0.074001998 856:0.096662998 859:0.36232001 933:0.14622299 1004:0.064240001 1014:0.097429998 1026:0.075072996 1101:0.120335 1178:0.106357 1338:0.088297002 1518:0.102562 2184:0.088714004 5667:0.21007 5852:0.402091 9365:0.21007 14511:0.228542 14512:0.228542 14513:0.228542 14514:0.228542 14515:0.228542 #
0.10000000000000000555111512312578 11:0.02658 16:0.062518001 19:0.059819002 36:0.02864 41:0.039043002 62:0.051279999 69:0.040036999 89:0.055597998 91:0.047596 112:0.022407999 113:0.03294 114:0.063712999 126:0.037303999 137:0.038777001 169:0.049851 174:0.078685001 181:0.056327 184:0.117099 195:0.083892003 243:0.061694 244:0.036977999 257:0.191029 271:0.058378998 312:0.063520998 315:0.051922001 338:0.192737 392:0.054841999 552:0.067088999 570:0.078253999 592:0.054016002 775:0.149582 783:0.056169 890:0.122756 933:0.107089 991:0.058612999 1122:0.198882 1125:0.166912 1131:0.12568399 1260:0.105355 1398:0.201546 1441:0.13175499 1445:0.108457 1472:0.128791 1686:0.093923002 1689:0.126177 2056:0.179208 2875:0.139222 3818:0.26176801 4207:0.13175499 4246:0.165941 4599:0.367129 5112:0.15055799 6738:0.154604 7875:0.17493901 9790:0.26176801 10323:0.154604 10507:0.190321 10508:0.190321 10509:0.17493901 #
0.10000000000000000555111512312578 3:0.089753002 10:0.093959004 12:0.085628003 13:0.190595 23:0.120907 31:0.064684004 41:0.097634003 42:0.14006899 49:0.075489998 60:0.066891 80:0.126147 83:0.072990999 99:0.056258999 104:0.098801002 105:0.037365999 113:0.04865 115:0.062615 124:0.079709001 138:0.077009 147:0.109637 156:0.042187002 239:0.025216 245:0.12982699 276:0.12900101 297:0.092441 300:0.073220998 322:0.081890002 323:0.104161 357:0.109462 393:0.069618002 401:0.103428 431:0.24342801 452:0.064951003 458:0.14882 498:0.103866 508:0.092963003 519:0.12732799 555:0.121302 571:0.186359 619:0.147447 634:0.105991 648:0.117974 671:0.1402 825:0.085628003 859:0.31296599 910:0.089091003 933:0.075367004 978:0.114748 1014:0.119834 1035:0.17430601 1149:0.113739 1223:0.132181 1285:0.15937699 1340:0.178406 1348:0.15229 1433:0.117974 1468:0.094917998 1515:0.173664 2026:0.1549 2191:0.144273 4713:0.21293899 7006:0.22834399 #
0.10000000000000000555111512312578 15:0.039917 35:0.017426999 56:0.066272996 61:0.17727999 75:0.048147 85:0.066156 114:0.046087999 123:0.064622 126:0.064391002 127:0.081440002 128:0.117026 134:0.071006998 212:0.071428999 214:0.100205 226:0.055785999 227:0.085054003 232:0.033732001 239:0.035404 243:0.12793399 250:0.081542 293:0.070248999 313:0.061790999 315:0.063592002 338:0.076655999 370:0.043837 383:0.090567999 483:0.082699001 544:0.074666001 697:0.090626001 699:0.16051 719:0.21595 759:0.080137998 782:0.088953003 807:0.046967998 811:0.072075002 825:0.071006998 895:0.093827002 933:0.062497001 1017:0.103894 1126:0.11466 1140:0.083462 1154:0.190762 1288:0.130867 1570:0.105092 1576:0.25680399 1678:0.115032 1811:0.25037301 1896:0.109901 1900:0.119637 1921:0.214257 1965:0.138898 2197:0.13352101 2372:0.29355201 2658:0.116482 2659:0.120058 2875:0.28870299 3021:0.157738 5662:0.214257 6109:0.195417 11972:0.233097 #
-0.057919975033375689643655448435311 11:0.070997998 23:0.16133 35:0.030663 45:0.106668 48:0.20572001 63:0.08134 112:0.048289999 115:0.091362 123:0.113706 134:0.12494 143:0.096165001 233:0.16772801 236:0.068581 247:0.128912 318:0.215958 352:0.079641998 634:0.154651 671:0.12082 785:0.15846001 825:0.12494 859:0.45664799 933:0.18619201 977:0.146856 1309:0.21679001 1424:0.164248 1595:0.277549 2029:0.25078601 2260:0.227044 2920:0.28748 3085:0.25433001 #
-0.053855215600702062428428718021678 13:0.160293 18:0.097540997 23:0.19436701 41:0.082111999 69:0.084202997 87:0.056988999 104:0.083093002 114:0.079140998 115:0.089162 116:0.114208 124:0.192176 142:0.120379 195:0.17643601 232:0.098072998 236:0.066928998 327:0.091980003 370:0.075276002 428:0.15488701 434:0.115029 475:0.166098 504:0.13531899 533:0.163983 595:0.15975 690:0.158683 738:0.112905 859:0.52137297 933:0.10732 1014:0.28891799 1140:0.143319 1218:0.163105 2191:0.205439 4357:0.36792001 #
-0.023778974970124926169301460276984 6:0.054464001 11:0.035036001 15:0.058683999 18:0.049322002 23:0.113363 37:0.045146 55:0.075000003 56:0.057544999 62:0.054535002 69:0.042578001 76:0.032873999 99:0.040509 104:0.042017002 115:0.076335996 116:0.057750002 122:0.068294004 124:0.057393 126:0.023429999 129:0.096201003 156:0.030376 169:0.053013999 276:0.033271 290:0.080916002 315:0.055217002 321:0.122703 351:0.050239 394:0.072954997 419:0.092517003 433:0.055826001 445:0.071438 723:0.044404 767:0.15541799 799:0.077356003 855:0.182965 859:0.329092 933:0.113885 1026:0.066486001 1305:0.080642998 1468:0.068343997 1571:0.34926701 2029:0.123758 2194:0.15647499 2526:0.134185 4710:0.13848799 5852:0.169682 7567:0.31499499 9204:0.17647199 12841:0.2024 12842:0.48298499 12843:0.2024 #
-0.060293755509318557039843966549597 11:0.039978001 45:0.060063001 50:0.093116999 56:0.065661997 63:0.045802001 64:0.082258001 87:0.032882001 112:0.027191 113:0.039971001 114:0.045662999 115:0.051444001 116:0.065895997 119:0.069399998 126:0.056106001 169:0.102422 202:0.077437997 206:0.065373003 219:0.053885002 231:0.116166 238:0.076990999 258:0.063431002 338:0.25082701 340:0.069803998 351:0.057325002 448:0.055272002 493:0.104246 544:0.073977001 671:0.068031996 676:0.064746998 699:0.128305 719:0.18288399 874:0.066191003 933:0.061921 1013:0.215437 1130:0.35095999 1131:0.189036 1146:0.074056998 1341:0.18740299 1342:0.087471001 1353:0.080995001 1399:0.11468 1477:0.096741997 1478:0.116156 1663:0.143209 1760:0.113624 2171:0.114323 2184:0.089648001 2189:0.17494901 2535:0.110683 2925:0.159879 3606:0.13761701 12068:0.50656599 12069:0.230948 #
0.10000000000000000555111512312578 6:0.085337996 8:0.11356 10:0.068999 11:0.044289999 16:0.084046997 35:0.019128 36:0.038502 41:0.052487001 44:0.080972001 50:0.060929 63:0.050742 85:0.072617002 86:0.084810004 87:0.076448999 88:0.066437997 114:0.120719 124:0.122842 126:0.050149001 142:0.045446999 147:0.099793002 164:0.14396 197:0.180636 227:0.093359999 236:0.089782998 239:0.038862001 240:0.050866 272:0.093621999 315:0.069802001 318:0.13472 350:0.050283 370:0.048117999 419:0.055729002 431:0.31228101 453:0.073330998 731:0.081435002 780:0.1391 789:0.107797 914:0.087117001 928:0.26706901 956:0.102637 993:0.11347 1427:0.098088004 1443:0.15644599 1779:0.122282 2009:0.119071 2210:0.22622401 2607:0.49754599 2945:0.162315 3213:0.30919901 7352:0.20240401 #
0.10000000000000000555111512312578 10:0.040835001 11:0.044380002 12:0.078098997 15:0.043903999 18:0.105782 19:0.080582 35:0.019167 42:0.075452998 58:0.088794999 63:0.050845001 70:0.064455003 75:0.052956 76:0.041641001 88:0.112718 89:0.12681 93:0.074078999 98:0.059652001 99:0.051312 108:0.070534997 112:0.030185999 137:0.052235998 142:0.077105001 157:0.105996 163:0.257759 164:0.060451001 172:0.090723999 194:0.091077998 203:0.118117 208:0.054873001 219:0.059819002 231:0.076164998 232:0.037101001 237:0.120242 239:0.022999 256:0.065243997 310:0.11252 328:0.25847101 418:0.108226 419:0.055842001 427:0.100643 429:0.099521004 445:0.278662 459:0.098743998 560:0.081949003 561:0.095964998 668:0.169466 730:0.093679003 778:0.143207 797:0.085175999 803:0.094201997 975:0.093549997 1007:0.108437 1008:0.19480599 1069:0.097542003 1316:0.12853 1396:0.12853 1397:0.095825002 1824:0.182888 2142:0.156764 2485:0.136043 6062:0.173494 6402:0.223538 7560:0.235659 11109:0.25638101 11110:0.25638101 #
0.10000000000000000555111512312578 35:0.018536 41:0.050861999 44:0.037388999 63:0.049171001 65:0.068443999 85:0.070367999 86:0.139148 87:0.074082002 91:0.062004 113:0.090053998 114:0.049022 137:0.050515998 169:0.064942002 212:0.128639 214:0.106584 219:0.121401 226:0.100467 232:0.075296 236:0.098929003 282:0.1152 284:0.099289 294:0.249368 328:0.095789999 370:0.046627998 383:0.096334003 385:0.089905001 393:0.061404999 397:0.076127999 419:0.054003 420:0.15131401 436:0.097171001 452:0.057289001 453:0.071060002 458:0.077527002 485:0.114799 492:0.152548 650:0.083917998 722:0.079164997 778:0.19440401 780:0.064228997 787:0.083622001 794:0.098292001 810:0.11509 858:0.062662996 945:0.235732 1209:0.092400998 1353:0.086952999 1695:0.17163999 1756:0.095789999 2287:0.227897 2312:0.191679 2824:0.139879 3591:0.275664 4505:0.52555901 #
0.10000000000000000555111512312578 9:0.073046997 10:0.034712002 19:0.068498999 23:0.060823999 31:0.05015 44:0.032864999 59:0.052457999 75:0.045015998 76:0.059932999 99:0.043618001 104:0.076601997 113:0.037719 114:0.072958 126:0.025229 127:0.128921 138:0.059705999 142:0.081239 155:0.063372999 232:0.066186003 239:0.019549999 248:0.051934998 267:0.060626 287:0.091292001 383:0.084678002 385:0.046675 433:0.101777 436:0.085413001 447:0.177343 493:0.13864499 508:0.072075002 670:0.090604998 721:0.173485 771:0.078240998 806:0.183231 818:0.083040997 856:0.092177004 887:0.084867001 928:0.07722 935:0.074925996 964:0.21620999 1026:0.121212 1126:0.107202 1450:0.082543001 1517:0.107883 1557:0.105952 1693:0.155766 1724:0.093094997 1767:0.238129 2024:0.121772 2064:0.138257 2272:0.219879 2661:0.122356 3365:0.109973 5020:0.25863701 5021:0.26992601 8600:0.200322 14556:0.21793699 14557:0.368999 14558:0.21793699 #
0.10000000000000000555111512312578 3:0.084902003 6:0.042259999 11:0.061230998 32:0.085913002 42:0.078256004 50:0.107211 60:0.063275002 62:0.071644999 63:0.052733999 76:0.090635002 105:0.059845999 109:0.066396996 147:0.217648 164:0.106153 181:0.13324501 217:0.064750001 243:0.086194001 249:0.0691 267:0.12524199 276:0.091730997 312:0.088747002 328:0.102731 387:0.084363997 456:0.202978 457:0.141799 458:0.083145 483:0.094338 545:0.097292997 592:0.075466998 665:0.246169 730:0.097158998 752:0.267851 791:0.162937 930:0.129651 937:0.089262001 1133:0.090864003 1296:0.164051 1353:0.157893 1471:0.164884 1472:0.179938 1513:0.147194 1666:0.128895 1998:0.128895 1999:0.160447 2182:0.171506 2330:0.14587501 2841:0.139477 4601:0.170064 5967:0.16371401 7015:0.265903 7016:0.244412 7017:0.22292 #
0.10000000000000000555111512312578 2:0.081230998 9:0.075433001 11:0.018564001 17:0.13955601 19:0.070735998 42:0.066234998 44:0.057463001 55:0.175014 56:0.063987002 63:0.044633001 75:0.046486001 94:0.065027997 105:0.029916 112:0.026497999 123:0.062392998 126:0.026053 137:0.045853999 138:0.061657 142:0.039974999 205:0.048891999 212:0.068965003 214:0.057140999 219:0.052510001 232:0.032568 233:0.092036001 239:0.020189 256:0.057273 287:0.15962 328:0.14722 387:0.071405001 420:0.13735101 436:0.149341 447:0.108163 493:0.059999 512:0.097119004 544:0.07209 596:0.120016 665:0.079846002 723:0.049373999 780:0.058302 793:0.11633 804:0.085625 806:0.189217 861:0.110391 926:0.099202998 945:0.089670002 1004:0.107109 1026:0.125172 1125:0.211165 1236:0.108163 1312:0.098348998 1341:0.182623 1512:0.126353 1516:0.227063 1542:0.102676 1616:0.231437 1650:0.174026 1659:0.12760299 1669:0.142423 1693:0.226705 1863:0.10343 2064:0.142773 2329:0.113193 2557:0.196226 2603:0.196226 3797:0.16213 4707:0.188677 6932:0.206866 7924:0.18282101 #
-0.092337755843429722424353656151652 10:0.038860999 11:0.020125 49:0.065522999 57:0.099420004 59:0.058727998 63:0.048386998 65:0.067351997 86:0.080872998 88:0.063354 93:0.070496999 98:0.096115999 99:0.048831001 109:0.187612 112:0.028726 134:0.074322999 139:0.119675 156:0.036617 170:0.17518 194:0.086673997 201:0.09821 212:0.074764997 226:0.058391999 237:0.114428 239:0.021887001 325:0.102008 397:0.074914001 443:0.061016001 465:0.083880998 483:0.181659 560:0.077986002 668:0.114427 698:0.27954701 778:0.18129399 783:0.072006002 802:0.128961 896:0.082386002 974:0.16242801 1069:0.092826001 1198:0.100136 1316:0.122315 1427:0.093534999 1433:0.214894 1523:0.129464 1583:0.102993 1596:0.13444901 1724:0.104221 1973:0.279668 2143:0.136325 2921:0.27126899 3051:0.32482401 3057:0.113255 3462:0.37455299 #
-0.10000000000000000555111512312578 11:0.038373999 26:0.084620997 35:0.020543 44:0.041436002 63:0.092265002 98:0.134168 109:0.202126 111:0.12247 121:0.062201999 124:0.077914998 170:0.094007999 195:0.121118 197:0.074340999 208:0.058809001 212:0.142563 232:0.039763 239:0.024649 241:0.048339002 245:0.12690599 350:0.054000001 385:0.058846999 433:0.075787999 436:0.18233199 483:0.097484998 668:0.076110996 719:0.091182999 752:0.24341799 778:0.233826 780:0.071180999 784:0.160861 787:0.092673004 797:0.091287002 804:0.10454 812:0.108039 855:0.088972002 912:0.11599 1008:0.123309 1110:0.185991 1126:0.079828002 1413:0.148799 1736:0.105339 1824:0.115765 1971:0.170385 1973:0.35813701 2004:0.153529 2077:0.132432 2223:0.197946 3157:0.305502 4670:0.217366 4806:0.185941 6524:0.18216699 #
-0.10000000000000000555111512312578 3:0.073707998 9:0.12757701 10:0.036768001 35:0.017258 49:0.061995 87:0.032867 98:0.090939999 104:0.047922 216:0.108172 221:0.073034003 227:0.142618 236:0.038598999 267:0.064217001 271:0.070808999 283:0.125543 284:0.092444003 290:0.054506 340:0.069771998 350:0.045366999 370:0.043412998 383:0.111172 389:0.074102998 392:0.066519 443:0.097745001 444:0.080753997 447:0.110945 452:0.053339999 559:0.079267003 634:0.087043002 646:0.163957 648:0.096883997 665:0.081900001 679:0.097257003 701:0.140319 719:0.076605 778:0.17153101 787:0.077857003 804:0.087826997 832:0.12778699 878:0.136728 885:0.164557 906:0.149046 935:0.079364002 981:0.099209003 1125:0.077583998 1140:0.139947 1407:0.168865 1422:0.083544999 1682:0.126087 1688:0.116873 1693:0.097446002 1695:0.270578 2949:0.171701 2998:0.139293 4348:0.168865 6324:0.32767299 7937:0.20127299 11600:0.20127299 12333:0.309194 13729:0.23084401 #
-0.032683712125538139092739697844081 3:0.073831998 11:0.040027 18:0.095407002 31:0.053208999 44:0.034869999 62:0.062304001 63:0.045857999 64:0.082359999 76:0.037556998 99:0.046278998 104:0.048002001 123:0.064104997 124:0.111019 128:0.068565004 146:0.070998996 156:0.034704 164:0.114419 191:0.1163 194:0.082144998 199:0.080789 202:0.077533998 205:0.050234001 208:0.083795004 219:0.091347001 221:0.043207999 227:0.084375001 244:0.044927999 248:0.055103999 251:0.28299001 272:0.049973 273:0.182438 300:0.060231999 330:0.094393 453:0.066272996 458:0.072304003 483:0.082038 508:0.076472998 541:0.164949 544:0.074069001 597:0.065918997 665:0.082038 668:0.064051002 722:0.154945 731:0.175625 760:0.062821001 767:0.084608003 777:0.079401001 783:0.068242997 806:0.24096701 895:0.093076997 964:0.096133001 1133:0.079016998 1339:0.213844 1344:0.115551 1433:0.097047001 1578:0.123185 1669:0.086425997 1805:0.18361899 1946:0.127423 2456:0.162076 2517:0.312998 3881:0.162076 3882:0.231234 3883:0.39151299 #
-0.051373189359606469261976258167124 15:0.037904002 19:0.146 22:0.060033999 23:0.036485001 35:0.016548 36:0.033307999 41:0.076880001 42:0.065141998 43:0.057838999 50:0.052708998 59:0.053277999 63:0.043896999 64:0.078837 75:0.04572 91:0.055353999 114:0.043763999 121:0.050106999 142:0.066568002 179:0.074918002 180:0.069211997 199:0.077333003 206:0.062654004 216:0.061259001 232:0.032031 236:0.037011001 239:0.041669998 248:0.052747 272:0.080991998 397:0.115071 426:0.071052998 474:0.113273 508:0.073201999 559:0.076004997 597:0.063098997 632:0.126789 721:0.083958998 722:0.18442 761:0.099560998 778:0.058913 783:0.065324999 787:0.074653 856:0.093617998 889:0.096520998 904:0.11244 910:0.070152998 916:0.114411 927:0.15323099 951:0.086056001 955:0.367466 1026:0.072709002 1033:0.087173 1178:0.103008 1312:0.096726999 1403:0.105206 1540:0.081556998 1756:0.23874 2310:0.203454 2311:0.32675901 2312:0.171121 2313:0.34447801 2314:0.175099 2315:0.159455 2316:0.146745 2317:0.19298901 2318:0.179805 #
0.10000000000000000555111512312578 35:0.054471999 113:0.126104 114:0.24391501 124:0.206607 434:0.209387 885:0.247492 933:0.195354 1014:0.31061399 3606:0.43416601 3955:0.39625001 6282:0.54193699 #
0.10000000000000000555111512312578 10:0.040571 23:0.041986998 36:0.038330998 41:0.052253999 59:0.061313 65:0.070317 69:0.090727001 87:0.036267001 113:0.044086002 115:0.056740999 124:0.072229996 129:0.288912 138:0.069784001 206:0.072103001 232:0.077358 236:0.042592 239:0.047954999 270:0.112775 276:0.041873001 313:0.067524999 323:0.094388999 437:0.172373 561:0.095344998 671:0.075035997 699:0.141514 719:0.084528998 723:0.094618 803:0.093593001 820:0.14747301 824:0.12457 850:0.146681 855:0.21522699 859:0.28360301 896:0.086011998 904:0.129397 933:0.115635 937:0.085510001 945:0.101491 1004:0.121229 1014:0.183861 1103:0.128115 1125:0.085610002 1209:0.094930999 1217:0.078290001 1234:0.099349998 1268:0.082479998 1269:0.123121 1426:0.24507 1433:0.106906 1600:0.203886 1863:0.279349 2182:0.164296 3226:0.159118 5653:0.170573 6606:0.213549 6607:0.254724 #
0.10000000000000000555111512312578 3:0.092634 10:0.046209 11:0.070496999 18:0.070698 19:0.091186002 44:0.043749999 51:0.199999 60:0.069038004 83:0.075333998 89:0.084752001 94:0.083826996 99:0.058065001 143:0.068021998 145:0.15001 181:0.14538001 183:0.181504 199:0.17162099 206:0.172342 223:0.085621998 239:0.026025999 300:0.075571001 351:0.121928 354:0.118836 358:0.159872 369:0.15916 370:0.054561 383:0.158871 387:0.092046998 433:0.080020003 443:0.072553001 453:0.083149999 489:0.15916 750:0.146883 780:0.15772501 799:0.23269799 874:0.140784 904:0.38457099 986:0.12651201 1364:0.31584799 1666:0.140634 1784:0.15710901 1948:0.158462 2062:0.135711 4717:0.17395 7499:0.29011899 #
0.10000000000000000555111512312578 11:0.043981001 35:0.016705001 36:0.033624001 38:0.054017 45:0.151637 49:0.060006998 62:0.060203999 87:0.031812999 99:0.044720002 104:0.078535996 112:0.026307 113:0.038672 126:0.025866 164:0.052684002 171:0.087429002 181:0.066129997 203:0.21603499 206:0.063248001 214:0.056731001 217:0.054409999 238:0.074488997 251:0.21992201 273:0.084003001 276:0.036729999 315:0.060958002 338:0.073480003 340:0.067534998 364:0.123129 390:0.076353997 395:0.085924998 429:0.086735003 505:0.098925002 539:0.07948 621:0.167868 722:0.071344003 741:0.13691799 778:0.059471998 889:0.097436003 894:0.058853 919:0.210394 933:0.059909001 964:0.092894003 991:0.068813004 993:0.122823 1013:0.074661002 1026:0.073398001 1108:0.13691799 1130:0.106203 1227:0.16096599 1339:0.31846499 1413:0.121001 1450:0.084628001 1756:0.086327001 1779:0.106788 1784:0.121001 2037:0.124262 3620:0.181509 3899:0.16619501 4293:0.116336 5290:0.176759 5362:0.258858 5576:0.152886 8349:0.194818 8350:0.223442 8351:0.205382 8352:0.205382 #
0.10000000000000000555111512312578 10:0.067051001 11:0.020509001 12:0.075740002 18:0.060589001 23:0.120735 42:0.073174 44:0.037494 50:0.059207998 56:0.070690997 59:0.059847001 60:0.059165999 69:0.052304 104:0.051615 112:0.061434001 126:0.048733 127:0.086868003 129:0.118177 137:0.050657999 142:0.074775003 195:0.109596 197:0.067268997 205:0.054014001 214:0.063128002 232:0.06092 233:0.101678 236:0.087247998 239:0.022304 256:0.063272998 268:0.11661 313:0.065909997 370:0.079170004 397:0.076342002 556:0.20649 561:0.093065001 595:0.099232003 671:0.073242001 699:0.081582002 726:0.11754 737:0.100429 741:0.089984 780:0.064410001 803:0.091356002 812:0.097760998 813:0.100604 855:0.13631301 859:0.116006 896:0.083956003 935:0.085479997 995:0.103175 1112:0.12673301 1297:0.12898199 1438:0.16036899 1524:0.2737 1542:0.113433 1604:0.105368 1924:0.13959099 2401:0.13042 3340:0.127169 3357:0.24787501 6949:0.181879 7453:0.423866 7727:0.32545599 9126:0.208444 #
-0.012849724596007293733745946440195 6:0.044470999 10:0.044567 44:0.042195 50:0.066632003 82:0.31823501 87:0.039838001 88:0.123019 94:0.080848001 114:0.055323999 116:0.079838 126:0.032391001 129:0.13299499 134:0.085236996 138:0.129792 142:0.104303 149:0.091302998 169:0.073289998 183:0.103391 205:0.060787 224:0.115259 232:0.084976003 272:0.102386 297:0.092018001 315:0.076335996 322:0.081514999 370:0.052622002 383:0.108719 392:0.080628999 404:0.188501 419:0.060945999 434:0.168752 440:0.090701997 441:0.13336 523:0.090015002 724:0.139826 731:0.089057997 780:0.072485998 807:0.05638 978:0.114223 1012:0.086782001 1650:0.17456201 2670:0.189349 2711:0.43739501 3976:0.221351 5897:0.39717901 13033:0.27981099 #
-0.10000000000000000555111512312578 6:0.037147999 8:0.061271001 11:0.01928 16:0.129999 19:0.073464997 35:0.017473999 36:0.073813997 41:0.081184 44:0.073971003 54:0.104179 60:0.055620998 69:0.083251998 75:0.081743002 99:0.046780001 108:0.064305 112:0.027519001 126:0.027058 142:0.041517001 164:0.055110998 206:0.13884801 216:0.109527 232:0.057269 241:0.069620997 272:0.085527003 300:0.060883999 337:0.078832 351:0.058017001 368:0.118735 383:0.053638 415:0.082497999 431:0.119549 443:0.058453001 506:0.11643 671:0.068852998 764:0.157415 771:0.083912998 780:0.102521 803:0.145409 811:0.072273001 863:0.098667003 885:0.134426 903:0.104179 904:0.30983099 1100:0.11643 1171:0.159851 1347:0.112019 1517:0.115704 2077:0.112653 3409:0.184902 4772:0.65157402 10594:0.23373599 #
-0.00098693575419249880004146646683694 14:0.082060002 37:0.117329 42:0.073766001 55:0.092878997 62:0.067534998 65:0.069192998 73:0.107284 86:0.083082996 89:0.073220998 98:0.058318999 108:0.068957999 109:0.192738 112:0.029510999 115:0.055833001 128:0.074322 134:0.076352999 142:0.044521 155:0.072885998 163:0.105602 164:0.141028 171:0.16605601 172:0.088696003 197:0.067814 202:0.084044002 223:0.073973 241:0.044094998 272:0.054168999 290:0.059183002 322:0.123633 324:0.079525001 341:0.080201998 350:0.049259 351:0.062215999 352:0.048671 353:0.084735997 356:0.077347003 383:0.057519 390:0.085651003 393:0.062077001 440:0.137567 457:0.078943998 534:0.154323 629:0.180567 658:0.128199 668:0.117553 721:0.095074996 797:0.083272003 807:0.050505001 899:0.122214 928:0.088811003 1008:0.236059 1196:0.111467 1412:0.135167 1501:0.102502 1558:0.22095899 1704:0.145114 1896:0.118176 1954:0.117864 2257:0.27142501 2691:0.116349 3785:0.161668 4802:0.230391 4803:0.25064901 4804:0.25064901 4805:0.198282 4806:0.169616 #
