SVM-light Version V6.02
0 # kernel type
3 # kernel parameter -d 
1 # kernel parameter -g 
1 # kernel parameter -s 
1 # kernel parameter -r 
empty# kernel parameter -u 
14598 # highest feature index 
2865 # number of training documents 
754 # number of support vectors plus 1 
0.98130824 # threshold b, each following line is a SV (starting with alpha*y)
-0.055022347125368388509603079228327 6:0.036591001 8:0.15748399 11:0.018990001 21:0.094663002 31:0.052978002 36:0.034644999 37:0.086948 38:0.055658001 43:0.06016 44:0.058784001 49:0.061829999 52:0.094150998 58:0.13500801 68:0.10687 76:0.104395 84:0.10061 87:0.078221001 93:0.066522002 105:0.030603999 138:0.063074 150:0.079837002 164:0.091912001 165:0.113271 181:0.068139002 239:0.020653 250:0.080539003 258:0.107063 300:0.059971001 351:0.057147 393:0.057020001 411:0.173354 457:0.122775 484:0.086810999 493:0.061377998 497:0.039558001 538:0.109429 545:0.084239997 777:0.079056002 780:0.059641998 807:0.046390001 839:0.206845 894:0.102674 952:0.16552199 1274:0.107696 1368:0.155314 1601:0.094834998 1679:0.140774 1778:0.12687001 1801:0.338938 2274:0.12687001 2386:0.155797 2560:0.14381699 3395:0.148497 14386:0.54939598 14387:0.23023 #
-0.019553422885328037433838588299295 5:0.064654998 9:0.04349 11:0.018121 16:0.072166003 22:0.059586 35:0.016424 38:0.089923002 39:0.078248002 44:0.033128999 48:0.065081 60:0.088514999 83:0.057046 85:0.062351 94:0.063477002 108:0.102335 112:0.025866 116:0.062684 126:0.025432 144:0.118895 164:0.051800001 169:0.057542998 188:0.126507 192:0.077841997 198:0.073322996 205:0.047726002 232:0.066717997 240:0.104222 276:0.094236001 292:0.059145 311:0.079294004 317:0.090002999 331:0.127892 340:0.066400997 385:0.122775 393:0.054409999 410:0.14612401 577:0.113557 592:0.062351 671:0.064715996 676:0.061590999 682:0.116191 686:0.096837997 731:0.118391 738:0.061967999 759:0.075529002 812:0.086379997 831:0.229018 853:0.117505 906:0.067589998 961:0.124561 1012:0.142992 1028:0.106494 1109:0.184131 1168:0.22822601 1669:0.082111999 1779:0.104995 4893:0.13433 9332:0.20193399 12312:0.64718902 #
-0.029309260077275894190718119602934 5:0.067506999 11:0.039707001 31:0.052783001 36:0.034517001 37:0.051164001 39:0.13833 64:0.081699997 75:0.047378998 98:0.053369999 116:0.065448999 126:0.026554 138:0.062840998 164:0.054083999 178:0.0889 231:0.115378 232:0.033194002 238:0.076468997 267:0.063809998 275:0.087668002 300:0.059749998 357:0.089322999 385:0.049125999 397:0.119249 404:0.124672 429:0.150758 434:0.065918997 457:0.172399 497:0.039411999 588:0.27419299 650:0.077638 676:0.064308003 719:0.076118998 723:0.105609 787:0.077363998 846:0.094143003 859:0.107022 933:0.10413 977:0.082130998 986:0.209916 1014:0.233349 1026:0.075349003 1130:0.109026 1304:0.177334 1374:0.091086999 1424:0.091858 1456:0.14122801 1468:0.077454999 1483:0.118993 1549:0.097208001 1779:0.109627 1944:0.153602 2143:0.12816601 2262:0.26770899 3213:0.13208701 3645:0.27584299 7394:0.210841 7395:0.35804901 7396:0.229381 #
-0.023262723025503157653348651479064 9:0.040615 11:0.016922999 26:0.106982 35:0.015339 36:0.030874001 38:0.049598999 50:0.048858002 70:0.051580001 71:0.085780002 87:0.029211 93:0.059282001 122:0.040888 136:0.208304 137:0.070776999 149:0.066946998 208:0.043912001 221:0.038337 222:0.119283 226:0.049102001 241:0.061112002 248:0.048891999 277:0.162304 278:0.230223 279:0.180866 280:0.091445997 281:0.20354401 282:0.13435601 283:0.11158 284:0.082162 285:0.091036998 286:0.091036998 287:0.085943997 288:0.41045299 289:0.13122 290:0.048443999 291:0.14442 292:0.055234998 293:0.061832 294:0.234641 295:0.10188 296:0.14038301 297:0.067470998 298:0.268592 299:0.087641001 300:0.053443 301:0.120806 302:0.152604 303:0.170908 304:0.099744998 305:0.14780299 306:0.098604999 307:0.11306 308:0.105303 309:0.124612 310:0.090044998 311:0.074052997 312:0.068475999 313:0.092087001 314:0.091862001 315:0.055973001 316:0.075384997 317:0.084054001 318:0.108029 319:0.14038301 320:0.19598299 321:0.073462002 #
-0.0093682608043700304339962414701404 16:0.14922599 23:0.093108997 26:0.066665001 82:0.21651401 86:0.211376 112:0.025486 116:0.1902 127:0.075630002 208:0.110557 221:0.040447999 236:0.036194999 241:0.064476997 244:0.042057998 272:0.046782002 276:0.074676998 300:0.056386001 352:0.071168996 387:0.068680003 430:0.089993998 433:0.059705999 470:0.098672003 546:0.084294997 624:0.179205 637:0.081987001 731:0.116654 818:0.139654 894:0.057016 953:0.094595999 974:0.085112996 1198:0.088843003 1209:0.080674 1549:0.155322 1737:0.20886099 1741:0.095003001 1755:0.139621 1929:0.148114 1987:0.118755 1988:0.122733 2029:0.13236 2136:0.16735099 2526:0.422773 2866:0.146485 3955:0.117724 4710:0.250779 5482:0.399349 5989:0.15834799 #
0.10000000000000000555111512312578 6:0.054272 8:0.089515001 11:0.067215003 12:0.104023 18:0.083214 21:0.140405 35:0.025529999 81:0.108802 105:0.045393001 108:0.093947999 113:0.100067 114:0.067516997 119:0.24486899 122:0.068053 126:0.082958996 136:0.304901 137:0.069574997 143:0.168025 164:0.080516003 212:0.104642 219:0.079673998 221:0.063808002 239:0.051867001 292:0.155656 341:0.109267 350:0.113627 352:0.066307999 354:0.082612 385:0.123826 405:0.115717 419:0.074377999 470:0.091932997 475:0.141702 594:0.14414901 614:0.15655001 651:0.15359899 676:0.162095 701:0.122594 703:0.166014 743:0.136057 770:0.132976 846:0.14015099 858:0.086305998 975:0.124602 976:0.43427601 977:0.122269 978:0.23602 979:0.138658 980:0.203482 981:0.14675701 #
0.10000000000000000555111512312578 35:0.016016001 64:0.076301001 68:0.099440001 69:0.045065001 76:0.034793999 104:0.044470999 108:0.058936998 115:0.047719002 199:0.074845001 208:0.045850001 209:0.074845001 214:0.054391 217:0.052165002 238:0.120917 239:0.019216999 254:0.118586 265:0.106044 269:0.152151 280:0.095481001 290:0.050581999 336:0.19554999 338:0.070448004 339:0.31355101 340:0.064747997 345:0.129263 372:0.23818 373:0.218862 435:0.086529002 561:0.080185004 568:0.147019 578:0.110337 585:0.086378999 697:0.083287999 725:0.097267002 761:0.096358001 807:0.073083997 878:0.126882 928:0.075903997 929:0.081625998 1317:0.078492001 1335:0.14830101 1368:0.085353002 1424:0.14525101 1617:0.090605997 2003:0.13939101 2006:0.10047 2062:0.100209 2251:0.214222 2252:0.179594 2253:0.26627699 2254:0.214222 2255:0.179594 2256:0.214222 2257:0.13701101 2258:0.214222 2259:0.11113 2260:0.118586 2261:0.169466 #
0.10000000000000000555111512312578 11:0.061857998 12:0.081827998 18:0.065459996 31:0.061813001 38:0.064939 43:0.070193 44:0.085010998 49:0.072140001 50:0.063968003 51:0.18517999 58:0.093034998 60:0.063922003 69:0.056508999 87:0.038245998 93:0.077615999 98:0.0625 122:0.053532999 146:0.139649 179:0.090920001 202:0.090070002 208:0.160505 221:0.050193999 226:0.108849 232:0.038872 240:0.090419002 258:0.073778003 272:0.058053002 278:0.265086 279:0.236802 282:0.073716 290:0.063426003 300:0.069971003 322:0.132498 351:0.066676997 383:0.104371 405:0.15412299 410:0.085137002 427:0.105448 457:0.14324801 497:0.046154 510:0.100693 555:0.115919 597:0.076577 651:0.120827 661:0.104272 670:0.111677 685:0.10946 767:0.098288 825:0.081827998 837:0.079351999 838:0.104108 841:0.18595999 885:0.091243997 893:0.16656999 1126:0.078041002 1274:0.125655 1300:0.151549 1368:0.107028 1413:0.145468 1682:0.14672101 1713:0.12910099 2331:0.234211 2332:0.176395 2333:0.165388 2334:0.196499 2335:0.17326 2336:0.196499 2337:0.196499 #
0.10000000000000000555111512312578 6:0.052824002 9:0.092731997 18:0.047837 23:0.067906998 36:0.02954 42:0.057773001 59:0.112756 61:0.071140997 65:0.054191001 81:0.062546 87:0.047322001 91:0.049091998 108:0.091441996 129:0.093304001 133:0.125551 143:0.046025999 144:0.149731 164:0.097135998 180:0.061381999 199:0.068585001 221:0.036681 241:0.082409002 244:0.038141001 383:0.076273002 427:0.077059999 457:0.061827999 466:0.280303 475:0.081459999 651:0.088298999 682:0.128685 705:0.070949003 707:0.077437997 758:0.20087101 759:0.114269 806:0.097478002 807:0.066970997 835:0.085969001 885:0.066679999 987:0.120031 1007:0.083028004 1093:0.072949 1138:0.104997 1142:0.066520996 1217:0.060334999 1298:0.084365003 1317:0.121783 1353:0.068846002 1555:0.14748 1599:0.097478002 1603:0.117701 1617:0.140579 2543:0.19630501 2544:0.171158 2545:0.137593 2546:0.19630501 2547:0.15529101 2548:0.15176301 2549:0.459447 2550:0.305509 2551:0.091590002 2552:0.159465 #
0.10000000000000000555111512312578 11:0.017944001 15:0.037253998 32:0.147508 36:0.032736 37:0.048524 41:0.106494 44:0.032806002 48:0.109115 58:0.075345002 60:0.087650999 69:0.045763999 87:0.065001003 99:0.043540001 105:0.060688 108:0.059850998 112:0.025613001 113:0.037650999 114:0.072826996 144:0.117734 145:0.053599998 147:0.084849 197:0.058858 202:0.153081 212:0.066662997 214:0.055234 216:0.060208 221:0.068825997 226:0.109263 232:0.053302001 233:0.088964 234:0.085398003 237:0.102029 247:0.068375997 250:0.12885199 258:0.059749998 292:0.058566999 327:0.084642 342:0.107689 352:0.042243 385:0.046590999 405:0.073719002 419:0.047384001 428:0.084179997 457:0.191285 458:0.068024002 470:0.058566999 493:0.057996001 497:0.037379 532:0.089285001 539:0.13102099 631:0.129673 634:0.082028002 637:0.082395002 662:0.13394099 682:0.142609 703:0.105761 723:0.047726002 752:0.091831997 785:0.084048003 802:0.114986 843:0.105761 892:0.108711 896:0.073458001 910:0.068948999 976:0.086531997 1014:0.092742004 1269:0.10515 1340:0.081547 1348:0.06961 1351:0.117808 1353:0.076295003 1420:0.087567002 1423:0.104553 1512:0.122136 1674:0.24187399 1945:0.135893 2379:0.13394099 2438:0.115893 2611:0.217545 2612:0.217545 2613:0.40962201 2614:0.18238001 2615:0.159136 #
-0.031668852304193181868008366564027 6:0.055799998 8:0.054358002 15:0.03551 18:0.050531998 21:0.085261002 35:0.015503 37:0.110373 43:0.054186001 54:0.092425004 56:0.058956999 65:0.057243001 87:0.029524 105:0.076954 156:0.081208996 165:0.102021 205:0.076273002 208:0.075144999 224:0.085417002 239:0.018602001 272:0.044814002 276:0.034086999 299:0.088578999 337:0.118415 350:0.068999998 370:0.038998 393:0.051357001 395:0.079742 450:0.068269998 473:0.161754 568:0.084051996 593:0.252929 793:0.107185 829:0.110912 858:0.052409001 930:0.101108 1020:0.100229 1116:0.104295 1119:0.080239996 1435:0.088936999 1444:0.16404 1468:0.070019998 1731:0.082900003 2279:0.136169 2443:0.131549 3401:0.17384399 3612:0.20736399 3613:0.20736399 3614:0.14938401 3615:0.351098 3616:0.168449 3617:0.168449 3618:0.131549 3619:0.41704401 3620:0.168449 3621:0.154236 3622:0.17384399 3623:0.168449 #
-0.10000000000000000555111512312578 10:0.040771 15:0.043834999 21:0.105251 35:0.019138001 41:0.088910997 55:0.094853997 76:0.070395 87:0.036446001 88:0.066468999 99:0.051231999 102:0.110464 120:0.130035 126:0.029633 142:0.095420003 184:0.093020998 195:0.112834 199:0.089435004 238:0.17908899 239:0.022963 240:0.050889999 282:0.070247002 300:0.066679001 317:0.10487 324:0.081216 336:0.089547999 337:0.206021 339:0.33967 340:0.077370003 350:0.085176997 385:0.092822 387:0.081216 555:0.110464 575:0.091899 585:0.174761 597:0.123555 617:0.095399 723:0.056159001 726:0.121013 846:0.10506 914:0.087158002 979:0.10394 1054:0.119127 1142:0.086744003 1146:0.082084 1217:0.078676 1234:0.099840999 1321:0.19575 1368:0.24338099 1491:0.122339 1605:0.144417 1607:0.130035 1610:0.16809399 1617:0.28251901 2148:0.132792 2485:0.13583 3672:0.16239101 3833:0.177209 4230:0.16239101 5723:0.184407 6185:0.223189 #
-0.015941170451714743033777565983655 6:0.037496999 9:0.13038699 23:0.081614003 37:0.089101002 41:0.048399001 56:0.067078002 57:0.096138 59:0.119178 68:0.109516 87:0.033590999 144:0.075411998 164:0.055628002 199:0.082428999 209:0.082428999 221:0.074642003 241:0.087103002 242:0.105157 276:0.038782999 286:0.177249 300:0.061455999 324:0.074854001 327:0.091794997 350:0.078505002 414:0.083704002 466:0.204313 473:0.184036 474:0.120737 493:0.062896997 547:0.14329401 574:0.112756 651:0.106122 682:0.154661 699:0.077413 761:0.106122 809:0.135144 835:0.17493901 837:0.069695003 903:0.105157 1000:0.40273699 1142:0.190782 1158:0.131825 1159:0.27956399 1295:0.118277 1311:0.14329401 1397:0.088180996 1433:0.099018 1617:0.099786997 1906:0.108695 2062:0.110363 2068:0.140586 3869:0.169962 4325:0.123755 4640:0.17872301 4796:0.191653 11530:0.235929 #
-0.10000000000000000555111512312578 6:0.067025997 11:0.046275999 35:0.015024 75:0.041508 105:0.026713001 112:0.02366 115:0.075792 123:0.055711001 134:0.061216 143:0.047116999 144:0.108756 210:0.066687003 240:0.039951 308:0.103141 326:0.077396996 350:0.039492998 385:0.102701 405:0.142911 419:0.04377 427:0.078886002 497:0.058460999 552:0.070836999 577:0.103873 579:0.073528998 588:0.078005999 611:0.071388997 677:0.071203999 690:0.079667002 696:0.109762 703:0.30085099 743:0.080067001 760:0.054595001 807:0.040491 858:0.050790001 887:0.078253999 906:0.061826002 981:0.086364001 1112:0.10243 1142:0.068098001 1152:0.089567997 1225:0.074043997 1332:0.111757 1429:0.101072 1432:0.088005997 1674:0.22342999 1681:0.082929 1686:0.099170998 1699:0.1375 1701:0.126487 1703:0.10243 2486:0.123727 2662:0.1375 2777:0.107055 3759:0.144768 4240:0.155359 4640:0.15222999 8135:0.27639499 8656:0.155359 10663:0.17521299 10753:0.163243 14520:0.200956 14521:0.200956 14522:0.184714 14523:0.200956 14524:0.200956 14525:0.200956 14526:0.200956 #
-0.10000000000000000555111512312578 11:0.064685002 15:0.087136 35:0.022468001 37:0.159961 87:0.102105 94:0.086833999 95:0.089620002 98:0.069923997 108:0.082681 123:0.083315998 145:0.193216 146:0.092275001 199:0.17777801 245:0.13880099 250:0.105131 261:0.121389 322:0.087549999 352:0.139254 385:0.108976 405:0.284311 411:0.318923 452:0.069440998 453:0.086133003 464:0.095349997 555:0.129687 614:0.137775 661:0.116657 682:0.197007 723:0.065931998 760:0.081647001 767:0.109962 783:0.088693999 803:0.110422 825:0.091546997 838:0.116473 895:0.12097 1149:0.121601 1176:0.190651 1218:0.122461 1225:0.18748599 1349:0.13049901 1994:0.131051 2495:0.21345 2582:0.187729 2816:0.178 3733:0.232337 3962:0.208048 4337:0.197346 #
0.10000000000000000555111512312578 2:0.071027003 10:0.031342998 11:0.016232001 59:0.047366999 68:0.091346003 75:0.040647 81:0.062698998 84:0.085995004 105:0.044289999 131:0.109829 150:0.068239003 160:0.073233001 183:0.072711997 214:0.049963001 226:0.047095999 232:0.028477 239:0.017653 282:0.113329 292:0.052978002 294:0.094310999 367:0.27259901 383:0.045157999 386:0.096524 387:0.062435001 390:0.067244999 395:0.075673997 419:0.042862002 420:0.148857 452:0.045469999 492:0.150071 572:0.075673997 734:0.10844 858:0.084209003 914:0.113446 941:0.14884099 967:0.080473997 979:0.135289 1004:0.055314001 1126:0.05717 1212:0.10702 1213:0.177498 1214:0.12922201 1361:0.18088 1362:0.18088 1366:0.13793001 1397:0.073550999 1861:0.115204 2037:0.109437 2299:0.28520799 2351:0.115204 2630:0.13177399 2785:0.133165 3125:0.381937 3127:0.164975 3601:0.146368 4496:0.18088 6086:0.17157599 8536:0.18088 11636:0.196785 11637:0.196785 #
0.10000000000000000555111512312578 10:0.040063001 11:0.061121002 13:0.100729 26:0.131157 28:0.20584901 35:0.031838998 36:0.037850998 39:0.188014 52:0.102863 75:0.051955 87:0.035812002 93:0.072678 100:0.097948998 104:0.124603 113:0.043533999 115:0.094866998 118:0.132441 121:0.056940001 126:0.029118 145:0.21058001 162:0.089707002 208:0.091150001 233:0.102863 272:0.054359999 285:0.11161 296:0.172106 322:0.073276997 328:0.23189799 353:0.143976 369:0.137991 393:0.130734 405:0.203399 419:0.054786 433:0.069376998 462:0.150814 470:0.067717001 555:0.108544 738:0.070950001 783:0.074234001 960:0.272852 1217:0.077308998 1700:0.140543 2089:0.137991 2829:0.29482701 3113:0.137991 4132:0.16843501 4243:0.187088 4272:0.162237 4944:0.31676799 11801:0.25153199 #
0.10000000000000000555111512312578 14:0.155347 15:0.051633999 35:0.010741 36:0.045373 42:0.118046 65:0.039662 77:0.066863 100:0.117414 112:0.016915999 115:0.076370999 123:0.039831001 133:0.091890998 216:0.067325003 260:0.063331001 271:0.044071 276:0.039988998 297:0.047249001 316:0.052790001 325:0.060070001 330:0.058649998 371:0.063610002 397:0.074693002 419:0.052985001 530:0.041437998 539:0.051107001 616:0.054662999 625:0.091890998 677:0.086194001 738:0.119388 894:0.064074002 993:0.063717999 1006:0.16847301 1012:0.093515001 1014:0.061250001 1033:0.056584001 1065:0.16868 1289:0.071569003 1332:0.135286 1353:0.050388001 1426:0.065866999 1428:0.088459998 1429:0.072261997 1491:0.068666004 1779:0.068666004 1964:0.089092001 2121:0.077480003 2199:0.072261997 2508:0.075081997 3473:0.093487002 3508:0.120451 3769:0.172778 3955:0.078137003 4190:0.096210003 4272:0.241817 4316:0.120451 4453:0.093487002 4749:0.20873401 5040:0.111075 8740:0.12526999 11633:0.132063 12514:0.132063 13248:0.143675 13249:0.30151901 13250:0.143675 13251:0.143675 13252:0.143675 13253:0.143675 13254:0.37491199 13255:0.27714899 13256:0.143675 #
0.10000000000000000555111512312578 35:0.039264001 87:0.074773997 104:0.109025 115:0.116987 131:0.139671 137:0.181173 142:0.093286 144:0.28422701 147:0.20483901 162:0.18730401 304:0.43230101 522:0.26414499 550:0.21325099 671:0.154708 728:0.232006 937:0.176303 1012:0.162885 1033:0.206836 1121:0.249623 1681:0.36695501 2326:0.26678899 #
0.10000000000000000555111512312578 11:0.030578 15:0.037493002 36:0.032947 56:0.105398 76:0.060210001 105:0.029104 128:0.064920999 137:0.044608999 172:0.162595 207:0.25238699 229:0.077179 231:0.110129 238:0.07299 249:0.056896999 260:0.096509002 281:0.091023996 389:0.16771699 450:0.072081998 523:0.18379501 544:0.118745 560:0.069982998 592:0.062139999 723:0.048034001 738:0.061758 787:0.073844001 874:0.062751003 937:0.073499002 962:0.088745996 967:0.089537002 1077:0.22831801 1420:0.088131003 1511:0.12745801 1586:0.38860801 1589:0.106442 1955:0.395513 1961:0.177663 2006:0.173861 7060:0.165857 12049:0.47896999 #
-0.08787214589838300560220574197956 6:0.038614001 9:0.100936 11:0.033932 15:0.041606002 23:0.067808002 35:0.018164 41:0.049841002 45:0.063188002 62:0.065463997 84:0.179768 94:0.070201002 105:0.032295998 112:0.068260998 170:0.083125003 213:0.096966997 236:0.068784997 241:0.072369002 272:0.088903002 297:0.079898998 313:0.064406 328:0.093868002 336:0.084992997 337:0.081944004 342:0.12027 410:0.183755 426:0.077992998 448:0.098451003 518:0.25175899 537:0.16441301 554:0.23318399 697:0.246491 721:0.092159003 723:0.053303 784:0.14223699 835:0.180153 837:0.071772002 880:0.24512701 914:0.082725003 970:0.172563 1013:0.137455 1040:0.187677 1151:0.189054 1258:0.13511799 1296:0.088532001 1348:0.077743001 1423:0.116768 1490:0.108784 1496:0.14756501 1618:0.11548 1623:0.099716 1728:0.26407 1900:0.1247 2086:0.19220001 2144:0.110315 2852:0.16819599 2937:0.148559 3512:0.148559 3736:0.156709 #
-0.10000000000000000555111512312578 8:0.073999003 10:0.044962 18:0.068791002 36:0.042479001 63:0.133595 64:0.100545 99:0.056497999 100:0.186123 113:0.116588 114:0.094502002 124:0.080048002 126:0.055330001 137:0.120703 142:0.050142001 144:0.235452 156:0.042367 226:0.067560002 231:0.200121 239:0.025324 287:0.11825 350:0.055477999 352:0.092809997 353:0.095434003 405:0.095660001 415:0.168699 433:0.077861004 470:0.075998001 525:0.146442 542:0.13764299 550:0.24055199 567:0.124432 568:0.273047 682:0.088179 703:0.232365 765:0.114423 771:0.101345 978:0.115236 991:0.14719699 1038:0.169258 1120:0.305691 1344:0.141066 1397:0.10551 1443:0.172608 1680:0.17033701 1821:0.148074 2211:0.172608 3113:0.154866 4152:0.206499 5436:0.213844 #
-0.06292697157328427937095227662212 10:0.034715001 11:0.017978 32:0.070421003 35:0.038883999 50:0.051902998 60:0.051865999 91:0.054506 125:0.088973001 126:0.042720001 137:0.044406999 138:0.059711002 156:0.055385001 186:0.092731997 214:0.055337999 239:0.019552 240:0.043329999 259:0.13826901 261:0.088036999 266:0.1139 297:0.071676001 337:0.19182 341:0.069741003 351:0.054101001 353:0.073683999 383:0.050016001 385:0.079034001 399:0.169596 428:0.084339 434:0.062636003 448:0.052163001 623:0.074033998 650:0.073771 653:0.157014 660:0.116578 707:0.085979 760:0.059214 793:0.11266 843:0.105961 894:0.057408001 1012:0.199138 1133:0.074478999 1355:0.126882 1374:0.086549997 1425:0.140581 1547:0.103314 1765:0.115653 1919:0.140581 2142:0.133269 2154:0.134194 2436:0.296119 2724:0.172419 2777:0.116111 7734:0.165108 8500:0.182724 12025:0.52010697 12026:0.20034 12027:0.21795601 #
-0.10000000000000000555111512312578 6:0.042826999 8:0.070637003 11:0.073406003 59:0.15478 60:0.108571 63:0.053440999 112:0.031725999 113:0.046638001 137:0.054901998 142:0.047864001 143:0.06318 146:0.082739003 180:0.176828 186:0.27358499 194:0.16208 202:0.090354003 205:0.058540002 212:0.082574002 226:0.109192 231:0.19103 234:0.10578 256:0.068573996 281:0.112028 298:0.14783099 304:0.13100401 352:0.088593997 389:0.086502001 405:0.269003 460:0.112878 493:0.15076099 550:0.109417 757:0.248127 777:0.092528999 821:0.21316899 824:0.13178 833:0.120105 991:0.082987003 1008:0.28856999 1138:0.14413001 1211:0.115572 1326:0.292308 1495:0.17694999 1514:0.153559 1682:0.147183 1926:0.225852 2548:0.208325 #
-0.048492854332360432745296918710665 6:0.064668 11:0.0416 28:0.116157 35:0.017966 38:0.121921 52:0.098275997 59:0.057845 104:0.104696 105:0.054087002 112:0.059379 113:0.099252 126:0.047102999 131:0.211072 137:0.048962999 143:0.056345001 156:0.036067002 165:0.118233 219:0.094935998 241:0.042277001 257:0.078328997 316:0.088298999 321:0.14568999 336:0.200611 352:0.046664 354:0.058138002 383:0.055148002 405:0.081436001 417:0.24712899 559:0.082519002 575:0.086274996 595:0.095911004 701:0.086274996 738:0.067786001 771:0.086274996 851:0.189843 855:0.131752 978:0.098099999 1217:0.073862001 1240:0.117176 1268:0.077815004 1418:0.117176 1427:0.092129 1477:0.100666 1824:0.101248 1872:0.166365 1961:0.300538 2153:0.28888801 3113:0.223221 4800:0.470249 10196:0.220893 #
0.10000000000000000555111512312578 10:0.036828998 11:0.019073 23:0.064533003 31:0.090089001 35:0.017286999 71:0.096675001 76:0.037556 83:0.060040999 88:0.060040999 99:0.046278 108:0.107709 112:0.027224001 113:0.067759 126:0.026767001 142:0.041071001 156:0.034703001 180:0.072301999 184:0.142268 232:0.033461001 236:0.038663 239:0.020742999 243:0.074954003 272:0.049970999 273:0.086929999 300:0.101979 317:0.094728999 328:0.18747801 337:0.163663 338:0.198423 339:0.30682299 352:0.044899002 453:0.066271 530:0.066689998 614:0.106005 650:0.078263 682:0.072228 697:0.089899004 794:0.091668002 810:0.107333 846:0.094899997 1108:0.083683997 1142:0.078355998 1321:0.084256001 1368:0.092129 1397:0.086424001 1432:0.171452 1494:0.121749 1496:0.14043801 1605:0.220874 1606:0.11952 1818:0.25251701 1954:0.108731 2054:0.182918 2056:0.128592 2147:0.15329701 2163:0.115919 2184:0.089757003 2414:0.12685201 2456:0.162071 2485:0.122695 2486:0.14236499 2784:0.13864 3036:0.139524 4132:0.154838 4160:0.175161 4671:0.171985 5723:0.166575 9205:0.231227 #
0.10000000000000000555111512312578 19:0.074313998 35:0.017677 36:0.035579 41:0.048503 42:0.069583997 75:0.082689002 87:0.070646003 88:0.10395 98:0.055011999 137:0.048172999 199:0.13986599 232:0.057930999 238:0.18809199 248:0.056343999 261:0.095503002 265:0.117041 280:0.105383 327:0.091992997 337:0.190292 338:0.13165 339:0.31373799 340:0.071462996 345:0.14266799 350:0.097515002 353:0.135337 429:0.091779999 452:0.092501 554:0.10813 697:0.155643 743:0.094205 848:0.14266799 893:0.146614 1142:0.080122001 1169:0.123559 1317:0.086631998 1605:0.225852 1607:0.120108 1615:0.18090899 1617:0.100003 1647:0.103323 1976:0.134056 2062:0.110601 2498:0.18704 2580:0.17910901 2758:0.16368 3073:0.12697899 3165:0.141764 3450:0.146614 3459:0.129142 3878:0.170329 4365:0.159999 6499:0.23643801 6500:0.23643801 6501:0.17910901 #
0.10000000000000000555111512312578 35:0.017112 36:0.034444001 41:0.046955001 60:0.054467998 63:0.045394 64:0.081525996 75:0.047279 87:0.032589 138:0.062706999 142:0.040656999 151:0.082615003 164:0.053969 184:0.083177 209:0.079970002 238:0.182088 239:0.020532999 248:0.054545999 265:0.113306 327:0.052598 337:0.16201 339:0.30372399 347:0.24786399 385:0.049020998 557:0.13902 562:0.12557 585:0.156267 595:0.091352001 613:0.147634 623:0.13164 725:0.103927 743:0.091197997 1033:0.090144999 1127:0.080684997 1218:0.093271002 1317:0.142 1349:0.099391997 1368:0.091197997 1494:0.20405801 1542:0.104426 1544:0.133249 1605:0.129134 1607:0.196869 1615:0.246832 1617:0.096810997 1780:0.16043399 1956:0.135571 2039:0.111605 2163:0.114749 2298:0.140927 2430:0.181759 3076:0.124481 3459:0.12502 4230:0.145206 5328:0.153274 5723:0.27918699 6256:0.167436 6501:0.173392 #
0.10000000000000000555111512312578 5:0.074308999 9:0.049982999 14:0.082663 16:0.082941003 37:0.118191 44:0.038075998 48:0.126643 50:0.060127001 53:0.109411 69:0.053114999 73:0.108073 83:0.065563001 134:0.076913998 136:0.107425 137:0.087102003 139:0.123848 164:0.100799 179:0.08546 231:0.075010002 232:0.061864998 239:0.02265 242:0.236175 292:0.067975 322:0.073555999 327:0.058021002 352:0.049028002 405:0.085561 458:0.078951001 543:0.111787 637:0.095631003 699:0.27361199 700:0.18762299 703:0.122751 723:0.055392999 820:0.14618 861:0.209693 1057:0.102344 1142:0.223267 1170:0.123848 1349:0.10964 1553:0.144631 1555:0.112035 1583:0.106584 1653:0.14618 1703:0.128699 1778:0.139137 1843:0.161486 2176:0.162856 3238:0.19973899 4012:0.25795901 4362:0.17276201 7635:0.19520099 12882:0.252491 12883:0.252491 #
0.10000000000000000555111512312578 5:0.048188001 10:0.044156 12:0.049878001 21:0.067323998 35:0.012241 60:0.038964 76:0.026594 83:0.042516999 87:0.039471 95:0.048827998 112:0.032641001 121:0.037066001 123:0.045394 124:0.046429999 125:0.06684 142:0.069403 169:0.042888001 199:0.057207 206:0.046348002 208:0.059335001 210:0.054336 217:0.067509003 239:0.014689 269:0.116295 282:0.044932999 290:0.038660999 300:0.089507997 311:0.059099 313:0.043405 328:0.107109 337:0.131781 339:0.239659 340:0.138163 343:0.100812 350:0.032179002 387:0.05195 395:0.062965997 429:0.063559003 459:0.063063003 513:0.078473002 585:0.138556 590:0.129529 597:0.046677001 810:0.076006003 846:0.113782 858:0.070068002 914:0.055751 969:0.094797 979:0.11257 1013:0.054712001 1101:0.086213998 1110:0.065458998 1127:0.121128 1146:0.052505001 1164:0.095320001 1268:0.053018998 1317:0.21832401 1321:0.14237601 1338:0.063259996 1368:0.110459 1397:0.061198998 1490:0.073311999 1496:0.099448003 1552:0.083460003 1557:0.079603001 1607:0.14083099 1650:0.060330998 1902:0.066023 2085:0.091058999 2148:0.178258 2265:0.116295 2278:0.119776 2345:0.110802 2380:0.095857002 2387:0.103061 2485:0.086883999 2738:0.124036 2780:0.095320001 3030:0.100118 3032:0.107521 3036:0.098801002 3076:0.089047998 3450:0.101533 3610:0.110802 3832:0.253979 3833:0.270491 6068:0.114767 7377:0.225205 10043:0.25482601 11020:0.15050399 11249:0.142763 #
-0.10000000000000000555111512312578 15:0.032173999 18:0.045784 35:0.023782 45:0.082731001 48:0.055656999 61:0.068088003 94:0.054285999 112:0.022120001 137:0.038279001 214:0.047702 221:0.035106 234:0.073752999 236:0.053190999 238:0.106048 276:0.030884 284:0.075237997 292:0.050581001 294:0.090043001 312:0.062706001 328:0.122901 336:0.111281 337:0.107289 338:0.147438 339:0.263069 343:0.115676 385:0.068127997 392:0.054138999 452:0.073503003 465:0.064591996 482:0.126321 510:0.070427001 591:0.091339 617:0.118553 654:0.070120998 697:0.073045999 737:0.075888999 782:0.071696997 811:0.058093999 846:0.161823 852:0.079464003 885:0.063818 910:0.100821 937:0.063069999 1125:0.063143998 1133:0.064202003 1135:0.208113 1399:0.093294002 1459:0.087434001 1478:0.094494998 1493:0.122251 1501:0.076831996 1526:0.14524999 1552:0.095765002 1615:0.14375401 1665:0.090552002 1994:0.081928998 2045:0.130064 2191:0.096428998 2577:0.34573799 3036:0.23791499 3377:0.38040799 3384:0.172695 3385:0.20517799 3386:0.163812 3387:0.095121004 3388:0.18787999 #
-0.00910977526985602692466414964656 14:0.12891699 36:0.059255 76:0.090139002 108:0.063983999 110:0.092353001 116:0.066358 122:0.046348002 160:0.18163399 182:0.088216998 184:0.084513001 188:0.226751 208:0.049775999 239:0.020863 240:0.046234999 249:0.060437001 258:0.063876003 267:0.064696997 272:0.050260998 290:0.054912999 292:0.062611997 308:0.119366 327:0.053443 337:0.164612 338:0.076481998 370:0.043738 399:0.106882 434:0.113161 470:0.062611997 611:0.082618997 671:0.068508998 685:0.247293 731:0.074022003 740:0.089993 741:0.084169 780:0.102009 783:0.068636999 838:0.090135001 895:0.093615003 935:0.079956003 993:0.060915999 1004:0.065371998 1012:0.072130002 1014:0.099146001 1040:0.106103 1125:0.078162998 1130:0.110541 1136:0.1249 1317:0.28142801 1506:0.147539 1507:0.147539 1561:0.094938003 1728:0.096868999 1765:0.123407 1773:0.132532 2639:0.13321801 2651:0.25857699 3832:0.122456 4211:0.167541 4352:0.33012 4353:0.202776 4354:0.202776 4355:0.151329 4356:0.176177 #
-0.024742039426072521407506954460587 5:0.067071997 6:0.061326999 9:0.045115001 11:0.031829 23:0.063605003 31:0.052443001 35:0.017038001 36:0.034295 43:0.059553001 44:0.034368001 45:0.059271 57:0.092868 63:0.045198001 65:0.106521 87:0.068095997 95:0.11507 108:0.062700003 119:0.115955 143:0.053435002 202:0.076416999 206:0.064511001 229:0.080335997 231:0.067704998 232:0.055840001 238:0.075975999 239:0.020445 240:0.045308001 276:0.037464 290:0.053812001 316:0.233776 327:0.052370999 351:0.056570001 370:0.042860001 385:0.082640998 397:0.069976002 452:0.05266 464:0.122428 477:0.23537099 478:0.251809 499:0.100239 518:0.21596 635:0.096964002 637:0.14614899 659:0.15109301 708:0.112469 780:0.059039 903:0.101579 1156:0.25573301 1268:0.073794998 1275:0.125028 1348:0.072924003 1494:0.119999 1570:0.10275 2182:0.14699601 2306:0.101809 4608:0.59469801 4609:0.159741 #
-0.10000000000000000555111512312578 11:0.021248 13:0.103158 30:0.093865 36:0.114193 45:0.066993997 70:0.10965 87:0.036676001 112:0.030329 119:0.077408001 122:0.051336002 124:0.073045 126:0.029820001 142:0.045756001 202:0.086374 205:0.055961002 219:0.060102999 226:0.061650001 237:0.120813 238:0.23974501 239:0.023108 245:0.118974 273:0.16397201 276:0.071695998 317:0.105533 337:0.086879998 338:0.084712997 340:0.20316701 350:0.132103 352:0.104972 385:0.055169001 413:0.116684 426:0.082690999 434:0.074028 470:0.069349997 474:0.077858999 554:0.117807 557:0.156455 697:0.27959999 723:0.056513999 728:0.113796 741:0.093227997 799:0.098453 828:0.099059001 995:0.106894 1012:0.135271 1317:0.15980799 1435:0.110482 1613:0.132678 1617:0.18447199 1788:0.110707 2582:0.16091301 2777:0.13722999 3832:0.28464401 4690:0.18295901 5077:0.375862 8348:0.25759801 #
-0.10000000000000000555111512312578 11:0.074279003 35:0.047768001 36:0.056786999 65:0.104174 123:0.104619 208:0.16949999 240:0.075021997 278:0.177452 282:0.103559 304:0.183461 327:0.086718 341:0.31509 347:0.241355 385:0.080820002 448:0.090314001 468:0.232343 470:0.101595 517:0.18680499 530:0.184282 623:0.12818301 650:0.127727 665:0.133885 761:0.169742 803:0.13865601 837:0.111477 846:0.26223499 1374:0.149854 1494:0.198698 3147:0.216162 7909:0.50545001 #
0.10000000000000000555111512312578 6:0.045908 9:0.096816003 10:0.077896997 11:0.066515997 31:0.066468 41:0.100328 50:0.068784997 63:0.057285 68:0.22702099 83:0.075005002 87:0.041126002 105:0.080580004 114:0.057112001 123:0.080078997 151:0.176522 164:0.068107001 186:0.293266 217:0.147613 226:0.069130003 227:0.105399 232:0.070773996 236:0.048299 239:0.025912 256:0.073508002 385:0.104742 389:0.092724003 392:0.083235003 405:0.31295401 430:0.120087 443:0.072236001 470:0.077765003 508:0.161744 575:0.1037 579:0.17895 874:0.082786001 906:0.088868 933:0.131128 1268:0.093530998 1296:0.105254 1333:0.13655201 1475:0.124907 1751:0.199965 1945:0.180436 2396:0.145757 2582:0.55564302 #
0.10000000000000000555111512312578 6:0.057032999 8:0.22447699 11:0.0296 50:0.085455999 63:0.071167998 70:0.090217002 99:0.071822003 126:0.041542001 205:0.077958003 240:0.071341 281:0.31309301 291:0.14918999 299:0.15329 325:0.15003601 351:0.15081599 357:0.139742 370:0.067488 385:0.076854996 419:0.078162 510:0.134517 703:0.36612499 722:0.114581 760:0.232648 890:0.23146001 1164:0.20890699 1570:0.16179 2304:0.15329 3774:0.329851 3778:0.329851 5277:0.31288499 #
0.10000000000000000555111512312578 6:0.034373 11:0.030205 23:0.03565 35:0.016169 36:0.032545 38:0.052283999 44:0.032614 45:0.056247 64:0.077031001 69:0.045496002 97:0.078377999 98:0.050321002 99:0.043285001 102:0.093328997 113:0.063377 114:0.042762 126:0.025036 138:0.059250001 142:0.080619 143:0.050708 198:0.122216 232:0.031296998 240:0.072797999 272:0.046739999 287:0.090594999 291:0.089914002 313:0.057332002 315:0.059002999 336:0.22288001 392:0.062321 411:0.162846 426:0.069426 433:0.059652001 497:0.037160002 576:0.21561299 581:0.132241 617:0.080601998 668:0.12572099 702:0.123885 778:0.097464003 855:0.118571 859:0.100907 896:0.073028997 933:0.098180003 945:0.086171001 993:0.095913999 1168:0.18126801 1172:0.20364501 1418:0.105453 1422:0.078272 1805:0.101432 2430:0.101432 4510:0.53413498 4511:0.18131401 4512:0.15159 4513:0.21627399 4514:0.17108899 4515:0.140726 4516:0.160864 4517:0.18131401 4518:0.175687 #
0.10000000000000000555111512312578 9:0.054740999 11:0.038619999 19:0.14715999 23:0.045582 35:0.020674 69:0.058171999 75:0.096709996 93:0.079899997 95:0.082463004 97:0.100215 98:0.064340003 122:0.055109002 131:0.073541999 145:0.115358 156:0.041501999 164:0.065200999 181:0.22848199 186:0.199204 202:0.092721999 231:0.139094 239:0.024807001 240:0.093079999 244:0.053727999 249:0.121672 297:0.153973 307:0.152384 373:0.16686 389:0.088768996 393:0.068487003 405:0.22361299 457:0.087095998 497:0.080447003 525:0.143452 526:0.146164 542:0.13483299 550:0.112284 570:0.1137 655:0.111119 806:0.13731401 838:0.107173 991:0.085161999 1077:0.120843 1149:0.111891 1234:0.107855 1374:0.10981 1500:0.14242899 2081:0.162824 2113:0.170257 2332:0.18158799 2693:0.27899501 2928:0.205681 3374:0.160097 4457:0.205681 4792:0.21875501 4865:0.19143499 4996:0.19382399 #
0.10000000000000000555111512312578 11:0.020617999 44:0.037694 45:0.065007001 63:0.049571 76:0.040598001 83:0.064905003 97:0.090585001 99:0.084702998 144:0.079896003 234:0.098122001 307:0.137741 327:0.057438999 345:0.15082601 350:0.049123 385:0.090637997 405:0.221027 410:0.18904699 417:0.31859899 419:0.054443002 429:0.097026996 452:0.057755999 544:0.080067001 614:0.194021 635:0.106347 655:0.100441 682:0.240439 703:0.388524 743:0.099591002 771:0.089736998 837:0.073839001 964:0.103917 1109:0.123734 1217:0.076825 1275:0.137127 1331:0.20226499 1439:0.177532 1900:0.128291 2027:0.171029 2199:0.125717 2330:0.232177 2572:0.13593701 3073:0.134239 5141:0.203049 5838:0.173039 8570:0.229755 #
-0.10000000000000000555111512312578 5:0.130695 9:0.041889999 11:0.036630001 48:0.062687002 60:0.050354999 63:0.041965999 100:0.082402997 108:0.058217999 114:0.041839 136:0.152437 147:0.082534 181:0.062628001 232:0.030622 234:0.083067998 236:0.035383001 237:0.208276 272:0.045731999 275:0.080876 280:0.094316997 291:0.148954 292:0.056968998 293:0.063772999 304:0.102876 307:0.325544 352:0.069571003 405:0.121412 483:0.127114 491:0.073563002 512:0.091316 530:0.15925901 556:0.103796 568:0.085772999 570:0.087007001 585:0.14446899 665:0.075075999 682:0.15773401 738:0.059689 739:0.083751999 812:0.083203003 874:0.060648002 976:0.14251401 1001:0.097979002 1217:0.065039001 1316:0.106085 1424:0.177839 1549:0.089676999 2268:0.126094 2304:0.153047 2551:0.098731004 2914:0.15244301 3073:0.113645 3516:0.141701 3824:0.194507 6978:0.141701 9717:0.30037001 12558:0.21161 12559:0.329328 12560:0.21161 #
-0.10000000000000000555111512312578 6:0.052039001 11:0.056680001 36:0.049272001 51:0.107558 60:0.077917002 69:0.068879999 83:0.085023001 91:0.081883997 93:0.16018599 98:0.12898999 109:0.195107 112:0.038550999 113:0.056669999 123:0.090774998 162:0.116776 172:0.24315999 222:0.112433 232:0.123643 244:0.063617997 281:0.136127 290:0.077312 307:0.43056801 345:0.33452299 347:0.209416 370:0.061578002 405:0.110957 428:0.126701 523:0.105335 668:0.090696998 743:0.13045999 803:0.120308 820:0.189568 846:0.227534 900:0.243542 1142:0.110957 1217:0.100637 1296:0.119312 1412:0.17657401 1888:0.157812 1979:0.20159701 2191:0.168054 #
-0.10000000000000000555111512312578 9:0.047003001 11:0.041102 23:0.093396001 26:0.073123999 48:0.070339002 52:0.097099997 63:0.047088999 69:0.084570996 99:0.047522001 113:0.041095 124:0.067328997 134:0.072329998 190:0.097805999 206:0.113798 221:0.044367 232:0.034359999 234:0.15781499 237:0.11136 276:0.039030999 280:0.179186 307:0.130843 323:0.087984003 337:0.080081999 350:0.046663001 352:0.096758001 405:0.136233 410:0.075254999 493:0.107176 533:0.164701 550:0.096412003 614:0.108853 634:0.089529999 635:0.101022 703:0.195446 704:0.19905899 707:0.093666002 722:0.075814001 770:0.092462003 807:0.047843002 846:0.097451001 874:0.068052001 933:0.107789 937:0.079708003 1100:0.118276 1109:0.117538 1142:0.080461003 1226:0.14236499 1236:0.114115 1305:0.094604 1429:0.119422 1475:0.102675 1605:0.22680999 1611:0.42921799 1640:0.131439 1853:0.157416 2401:0.124548 2919:0.143273 3073:0.127517 3113:0.13026001 4800:0.166426 8417:0.187833 9485:0.237441 #
-0.020174500653603346517206418297974 2:0.099964999 10:0.044112999 11:0.054515 44:0.041765999 112:0.055211 126:0.032062002 143:0.064937003 144:0.14989001 146:0.085040003 147:0.108024 156:0.070377998 170:0.160437 197:0.074933 212:0.084871002 217:0.067442998 221:0.051752001 232:0.111892 239:0.024845 248:0.066000998 276:0.045527998 290:0.065394998 370:0.052085999 383:0.063556999 442:0.303525 452:0.16699301 456:0.21142 457:0.183065 466:0.23984601 508:0.091596 597:0.078953996 623:0.094076999 676:0.077647001 722:0.088432997 780:0.071748003 806:0.137529 861:0.135851 906:0.085210003 964:0.115144 1057:0.235595 1146:0.088812001 1268:0.089681 1296:0.170874 1427:0.179774 1484:0.14874101 1560:0.214119 1731:0.110724 1847:0.170523 1973:0.15127601 2040:0.17863899 2069:0.132367 3104:0.183617 3227:0.16214199 7010:0.34879199 #
-0.021888861897482094626132820280873 10:0.029268 11:0.015157 22:0.04984 23:0.03029 37:0.040987 43:0.048016999 50:0.043759 61:0.066593997 89:0.053679999 104:0.038146999 105:0.041358002 112:0.036630999 128:0.092254996 131:0.048870001 151:0.066324003 156:0.046693999 169:0.081492998 180:0.097286001 197:0.104335 227:0.140714 233:0.075147003 238:0.061259001 239:0.016484 250:0.108839 299:0.078493997 315:0.050131999 321:0.065794997 326:0.070773996 340:0.055539999 466:0.093985997 490:0.104187 525:0.095325999 526:0.097126998 545:0.067235999 577:0.16082001 631:0.064691998 810:0.14442299 818:0.070018001 836:0.113138 967:0.075147003 1450:0.069597997 1547:0.147479 1696:0.14206301 1741:0.169247 1855:0.112359 3091:0.263863 3144:0.125732 3213:0.31172201 3491:0.091247 3529:0.103671 3583:0.33319101 4113:0.121826 4488:0.168905 4529:0.154053 6608:0.132378 8907:0.168905 8914:0.160217 10488:0.18375701 10489:0.18375701 10490:0.336234 10491:0.18375701 #
0.10000000000000000555111512312578 9:0.047754001 14:0.078977004 15:0.069944002 35:0.018035 44:0.061593 77:0.112263 100:0.093938001 124:0.068405002 126:0.027926 208:0.087417997 221:0.045076001 226:0.057732999 232:0.034908999 238:0.080420002 245:0.111415 248:0.057487 276:0.039655 315:0.065811999 322:0.207028 327:0.055434 331:0.140433 336:0.24860001 341:0.130693 354:0.098811999 392:0.069513001 411:0.107279 426:0.077437997 588:0.093640998 597:0.068769 615:0.128005 738:0.068044998 760:0.065537997 827:0.301667 846:0.099007003 910:0.076456003 935:0.082934998 1004:0.067806996 1146:0.077354997 1329:0.115291 1491:0.115291 1600:0.114041 1601:0.099367 1970:0.154286 2551:0.236203 3113:0.389864 4316:0.20223799 4329:0.156966 5179:0.195961 5643:0.179427 12240:0.221735 12242:0.221735 12524:0.24123301 #
0.10000000000000000555111512312578 2:0.067256004 3:0.059496999 11:0.01537 42:0.130863 45:0.048461001 67:0.098113 76:0.030265 80:0.083622001 82:0.088809997 100:0.072562002 102:0.080410004 109:0.046528999 147:0.072677001 205:0.040479999 231:0.055357002 266:0.097377002 271:0.057156999 276:0.051863 282:0.051135 293:0.095081002 307:0.102682 383:0.042761002 434:0.053548999 483:0.06611 512:0.080410004 556:0.154752 567:0.082135998 568:0.075529002 578:0.095973998 634:0.070261002 638:0.199324 679:0.078506 682:0.058205999 686:0.082135998 736:0.116399 771:0.066895999 846:0.076476999 855:0.060336001 914:0.063446 1014:0.079437003 1065:0.091675997 1120:0.119176 1131:0.123053 1142:0.106912 1435:0.079919003 1484:0.100072 1486:0.113174 1488:0.10315 1500:0.095973998 1600:0.088088997 1608:0.116399 2169:0.214531 2438:0.099266998 2578:0.15136801 3460:0.36947799 3461:0.34081 4154:0.213498 5105:0.132346 6154:0.141156 6262:0.13060699 6312:0.171277 6770:0.156216 8008:0.147406 10590:0.18633699 10591:0.171277 10592:0.18633699 #
0.10000000000000000555111512312578 10:0.03328 37:0.078910999 41:0.042863999 43:0.054598998 44:0.053350002 45:0.054342002 49:0.056113999 51:0.116212 54:0.09313 63:0.041437998 75:0.043159001 76:0.057461001 86:0.069260001 87:0.05037 91:0.052253999 97:0.075723 98:0.048616 99:0.041818999 105:0.027775001 112:0.024600999 138:0.057243001 143:0.04899 145:0.051481001 169:0.054729 209:0.073002003 232:0.030237 239:0.018743999 248:0.049793001 250:0.073094003 256:0.053173002 314:0.093553998 321:0.074814998 387:0.066294 419:0.045511 426:0.067074001 434:0.060047001 459:0.080475003 465:0.121628 474:0.063153997 494:0.073372997 497:0.035900999 714:0.120321 719:0.069338001 977:0.074814998 1012:0.064804003 1131:0.081496 1140:0.074814998 1202:0.111759 1307:0.114126 1326:0.108003 1461:0.098514996 1468:0.070555001 1679:0.216318 1797:0.094204001 1801:0.28130201 1842:0.14645401 1857:0.150525 1947:0.12528101 2274:0.115142 2478:0.15284701 2560:0.130522 2624:0.16529299 3395:0.228186 3908:0.133637 4221:0.158283 6029:0.14645401 6044:0.175171 10528:0.208947 10529:0.438499 10530:0.208947 10531:0.208947 #
0.10000000000000000555111512312578 9:0.041317001 11:0.017216001 15:0.035741001 56:0.05934 81:0.066500001 83:0.054195002 91:0.052195001 94:0.060304999 98:0.048560999 99:0.041772 109:0.052117001 121:0.047247 137:0.042523999 145:0.051424 181:0.104587 197:0.056467999 208:0.075634003 236:0.034899 244:0.085101999 273:0.078465998 276:0.034309 321:0.074731 324:0.066219002 330:0.144255 337:0.070393004 341:0.066784002 351:0.051805999 352:0.040527999 387:0.066219002 426:0.066999003 445:0.124728 460:0.087428004 530:0.101921 560:0.066711999 561:0.078121997 611:0.074143998 637:0.13384201 657:0.10907 716:0.126197 730:0.076261997 735:0.31557101 738:0.058871999 792:0.093879998 797:0.069339998 1056:0.115013 1083:0.118937 1114:0.113025 1211:0.089515001 1299:0.089697003 1509:0.109895 1571:0.097129002 1578:0.111187 1647:0.091206998 1724:0.089155003 1824:0.148884 2091:0.158106 2408:0.161356 2551:0.164877 3182:0.13705499 3903:0.18197601 3975:0.296258 3978:0.139762 4814:0.161356 6691:0.169544 6699:0.18197601 11926:0.191844 14507:0.35338101 14508:0.208713 #
0.10000000000000000555111512312578 26:0.068608001 36:0.033523999 45:0.057937998 76:0.036184002 83:0.057847001 99:0.044587001 105:0.029614 113:0.065283 126:0.043664999 142:0.066999003 183:0.082317002 236:0.063070998 238:0.074267998 239:0.019985 312:0.074353002 331:0.12968899 336:0.21756899 337:0.075135998 350:0.043781999 354:0.053895 355:0.12568501 356:0.116397 364:0.207856 392:0.064195 413:0.100912 415:0.078630999 419:0.048523001 448:0.053316999 453:0.063849002 459:0.145276 498:0.082317002 623:0.075672001 627:0.082906 649:0.094783999 650:0.075402997 738:0.062839001 828:0.085669003 914:0.075852998 1013:0.074438997 1020:0.225977 1026:0.174629 1146:0.071437001 1154:0.107679 1211:0.095546998 1296:0.081177004 1317:0.194786 1321:0.081177004 1339:0.29036599 1427:0.085405 1446:0.183916 1450:0.084376998 1468:0.075225003 1469:0.097147003 1717:0.112047 1805:0.104483 2111:0.13357399 2147:0.147695 3032:0.146291 3340:0.113944 3603:0.150755 3832:0.1173 3880:0.31487101 5722:0.204772 6737:0.186766 7074:0.19423901 7624:0.204772 #
-0.10000000000000000555111512312578 9:0.087687999 11:0.051495001 33:0.074713998 35:0.019559 43:0.068363003 44:0.039452001 45:0.068039998 50:0.062300999 63:0.108885 70:0.065771997 93:0.075593002 112:0.030802 115:0.058277 169:0.068526 182:0.099237002 232:0.037859 236:0.043745 272:0.118655 293:0.078845002 322:0.12904499 325:0.109382 336:0.269611 353:0.14975099 497:0.132423 505:0.115828 668:0.231695 716:0.093428001 725:0.118787 751:0.167325 778:0.14613301 791:0.160313 794:0.103717 852:0.187353 896:0.088340998 916:0.13523 1054:0.121751 1065:0.12871499 1069:0.168529 1125:0.087926999 1131:0.10204 1168:0.27178499 1289:0.130321 1687:0.22810601 1688:0.13245501 1693:0.110438 1695:0.181113 3113:0.37452099 4515:0.170233 4880:0.181113 5250:0.20225801 #
-0.10000000000000000555111512312578 1:0.067335002 10:0.037687998 12:0.072080001 15:0.040520001 18:0.057661999 35:0.017689999 45:0.12914599 51:0.077726997 65:0.110597 76:0.038431998 105:0.031454001 112:0.027859 123:0.065599002 126:0.027392 143:0.055479001 145:0.0583 154:0.16655999 156:0.035512 184:0.22437499 221:0.044213999 239:0.021227 241:0.041627001 273:0.088958003 276:0.065857999 336:0.173713 338:0.203052 364:0.384123 370:0.075345002 387:0.075074002 392:0.068184003 414:0.083949998 427:0.092886001 532:0.097115003 544:0.075795002 569:0.141874 576:0.13932601 583:0.089353003 597:0.067455001 671:0.14628001 699:0.077641003 723:0.051911999 764:0.094120003 810:0.109837 835:0.103625 910:0.074995004 929:0.090161003 1004:0.13958099 1118:0.24021401 1127:0.083410002 1146:0.075875998 1209:0.088184997 1321:0.22499 1326:0.122308 1932:0.112775 2060:0.123654 2278:0.17309099 2551:0.110401 4168:0.15396599 5335:0.175998 6068:0.39577201 #
-0.027811498436188106936350905584732 128:0.15432701 156:0.128795 227:0.112165 238:0.102476 239:0.027574999 258:0.084426999 290:0.072581001 383:0.070541002 389:0.098676004 491:0.106861 518:0.122066 628:0.135794 720:0.150327 731:0.097837999 1274:0.401434 1489:0.17428701 2190:0.210329 2305:0.52843398 3481:0.210329 3491:0.152641 4953:0.20801499 5797:0.22863799 8384:0.243172 13145:0.307394 #
-0.076350327800077402717882080196432 2:0.126361 10:0.032933 18:0.050386999 69:0.043497 86:0.068538003 104:0.072677001 105:0.046537001 107:0.076838002 114:0.040881999 124:0.099273004 138:0.056646999 170:0.148461 180:0.064654998 194:0.124369 197:0.117402 199:0.122316 204:0.071879998 221:0.038635999 227:0.075447999 276:0.057549998 341:0.066161998 352:0.067979999 393:0.051210001 394:0.074529998 422:0.146651 458:0.064654998 556:0.17172199 595:0.082523003 682:0.109358 721:0.078431003 771:0.125686 794:0.081972003 817:0.083374001 860:0.236909 952:0.087798998 957:0.23443399 1033:0.081432998 1375:0.111046 1482:0.20991001 1493:0.134542 1501:0.084558003 1570:0.093222 1779:0.235815 1780:0.14492901 2007:0.14685901 2169:0.37462699 3057:0.095981002 3458:0.13846099 3459:0.112937 3460:0.30819899 3461:0.34584299 3462:0.151254 #
-0.04366185078526615276350852923315 11:0.026427001 23:0.022131 28:0.064893998 32:0.043379001 33:0.112953 38:0.032457002 44:0.034279998 45:0.059119999 51:0.044103 57:0.054708999 70:0.033753 76:0.074096002 80:0.060252 98:0.031238001 105:0.017847 108:0.036936998 121:0.030393001 133:0.085868999 144:0.102407 164:0.066435002 181:0.039735999 194:0.047695 206:0.038004 208:0.048652999 222:0.046101999 240:0.045192 241:0.023619 244:0.044167001 278:0.063134 279:0.069903001 282:0.036844 286:0.059574001 290:0.053675 291:0.055817001 292:0.036145002 300:0.034972001 405:0.095480002 440:0.091334 443:0.033576 450:0.044202 470:0.075855002 497:0.023068 521:0.184661 530:0.038722999 536:0.073985003 588:0.052117001 649:0.057123002 650:0.045442998 705:0.101834 710:0.070424996 713:0.055610001 764:0.053404 799:0.051313002 812:0.052790001 956:0.053858001 1007:0.056786001 1150:0.062481001 1268:0.043474 1299:0.121091 1342:0.050850999 1352:0.179829 1432:0.099552996 1517:0.066460997 1544:0.078158997 1600:0.063469999 1604:0.096336 1623:0.055103 1662:0.063988999 1682:0.073333003 1808:0.085868999 1928:0.089010999 2442:0.088164002 2807:0.084507003 2812:0.186638 3170:0.176006 3449:0.088164002 6014:0.169081 6093:0.101706 6176:0.219217 7056:0.109064 13499:0.29449001 13762:0.13426 13763:0.13426 13764:0.37482199 13765:0.29449001 13766:0.28176001 13767:0.13426 13768:0.13426 13769:0.13426 #
0.10000000000000000555111512312578 11:0.047251001 14:0.089365996 35:0.020407001 36:0.041076001 49:0.073307 87:0.038864002 98:0.063510999 136:0.38354999 143:0.064000003 197:0.073852003 198:0.091104001 213:0.108942 214:0.069305003 226:0.137097 243:0.088482998 352:0.053004 385:0.098981 433:0.075289004 448:0.137097 530:0.27435899 597:0.077815004 617:0.21348999 668:0.12801901 723:0.101394 759:0.093843997 764:0.108576 770:0.106295 782:0.104167 791:0.098788999 807:0.055001002 976:0.108576 993:0.121056 1276:0.135544 1349:0.24875 1435:0.117073 1477:0.114343 1680:0.164709 1708:0.124835 2100:0.19664299 2379:0.168062 3473:0.177614 4734:0.188967 4735:0.27296501 4736:0.25090301 4737:0.27296501 #
0.10000000000000000555111512312578 6:0.096304998 42:0.074731998 56:0.072196998 59:0.061122 87:0.061214 91:0.063502997 97:0.092024997 98:0.14098801 108:0.069861002 109:0.195262 115:0.056564 134:0.077353001 143:0.059537999 145:0.062564999 151:0.091652997 164:0.059873 171:0.099359997 197:0.068701997 202:0.085143998 206:0.121701 208:0.054347999 217:0.104695 232:0.062217999 239:0.022779999 241:0.075635999 245:0.11728 248:0.060513001 249:0.065989003 312:0.084751002 323:0.159317 348:0.120367 386:0.124555 390:0.086773001 411:0.191201 418:0.107192 428:0.16636901 441:0.253986 442:0.20919301 445:0.089625999 452:0.099344999 457:0.167843 460:0.10637 464:0.16907699 490:0.143975 499:0.111687 627:0.094499998 682:0.079319999 687:0.141884 716:0.090682 721:0.096320003 906:0.078124002 961:0.143975 962:0.174271 968:0.17004199 974:0.099844001 1267:0.161091 1284:0.13993099 1638:0.13421901 1671:0.135277 1826:0.321558 2304:0.108471 4325:0.13319799 10570:0.221402 #
0.10000000000000000555111512312578 6:0.040583 11:0.035661001 15:0.043726999 35:0.019090001 36:0.038424999 37:0.056954999 44:0.038506001 81:0.137752 94:0.07378 98:0.100593 105:0.057470001 114:0.050487 115:0.056880001 126:0.02956 136:0.183944 156:0.038323 164:0.101939 188:0.24896 224:0.105182 226:0.061110999 229:0.090010002 234:0.100237 240:0.106533 275:0.097592004 292:0.068743996 307:0.14071099 314:0.114329 337:0.086121 351:0.063382 352:0.083950996 354:0.061774001 385:0.13049801 419:0.055617001 445:0.090126 457:0.168779 458:0.079843998 470:0.16404399 585:0.102961 699:0.083784997 716:0.091187 722:0.081532001 1217:0.078481004 1331:0.122037 1367:0.145513 1422:0.092413001 1426:0.117063 1449:0.13105699 1495:0.437545 1500:0.13151801 1501:0.104423 1520:0.108857 1648:0.157215 2304:0.109075 2438:0.136031 3235:0.189926 3978:0.17099001 7092:0.222636 8469:0.342013 #
0.10000000000000000555111512312578 38:0.052719999 41:0.044737 57:0.088863999 61:0.079031996 70:0.054825 87:0.031049 89:0.107864 94:0.063010998 112:0.043473002 113:0.037742998 126:0.025245 157:0.189211 169:0.119874 194:0.077471003 208:0.097952001 221:0.040748999 272:0.04713 286:0.23091 290:0.087182999 337:0.154356 340:0.138327 350:0.042858001 390:0.074520998 510:0.195072 545:0.079793997 550:0.27268401 560:0.069706 585:0.27078599 686:0.096127003 688:0.110044 758:0.18003599 780:0.095652997 903:0.164574 914:0.074253 1333:0.103094 1353:0.076481998 1640:0.25334501 1756:0.084253997 1842:0.152854 2024:0.206311 2104:0.12767 2297:0.126257 5519:0.19014101 5520:0.19014101 5521:0.19014101 7739:0.168596 10980:0.182826 11445:0.200452 11446:0.200452 11447:0.218078 #
0.10000000000000000555111512312578 6:0.062812001 9:0.046208002 10:0.037177999 11:0.032598998 30:0.202969 35:0.017450999 44:0.059599001 48:0.069149002 83:0.060610998 85:0.066248 88:0.060610998 92:0.087756 95:0.069608003 99:0.046716999 112:0.046532001 113:0.040399 123:0.064712003 126:0.027022 155:0.067877002 169:0.061140001 175:0.119804 200:0.113814 208:0.049959 217:0.056841001 248:0.055624999 276:0.080526002 315:0.107821 327:0.053638998 385:0.049991 405:0.079099998 410:0.073981002 419:0.050841998 430:0.164308 448:0.094586 470:0.1064 477:0.29537401 576:0.13744199 624:0.092079997 634:0.088014998 635:0.16815101 636:0.16159301 671:0.068760999 723:0.051210001 741:0.084477998 846:0.095801003 863:0.166834 874:0.0669 896:0.078818999 908:0.17383 909:0.12485 1064:0.114842 1142:0.18875501 1296:0.085055999 1309:0.123379 1670:0.150557 1731:0.093318 1902:0.094121002 1933:0.116274 3078:0.16159301 3173:0.154752 3174:0.233422 3175:0.233422 3176:0.157958 3177:0.159715 3178:0.18961699 3179:0.233422 3180:0.176824 3181:0.18961699 #
-0.046567467503328754951930079641897 1:0.102585 35:0.015918 38:0.051472001 59:0.051249001 65:0.099515997 174:0.088025004 175:0.18502399 198:0.071061 216:0.099770002 276:0.035 291:0.088517003 356:0.065701999 397:0.065374002 404:0.115722 410:0.16102999 419:0.046374999 465:0.073198996 477:0.278301 588:0.19722199 594:0.089877002 627:0.079235002 635:0.090586998 689:0.22353999 705:0.076952003 722:0.067983001 758:0.103815 759:0.255092 800:0.107086 852:0.090053 855:0.068942003 974:0.083715998 1013:0.071143001 1397:0.189899 1533:0.097608998 1549:0.090230003 1638:0.112539 1688:0.28128499 1757:0.117862 1900:0.109278 2024:0.118965 2164:0.120718 2304:0.28007299 2665:0.19521999 3371:0.183127 5179:0.172957 5180:0.195705 5181:0.212914 5182:0.212914 5183:0.178497 #
-0.066657054021662692777638881125313 5:0.070082001 9:0.079815 23:0.039252002 32:0.07694 35:0.017803 38:0.057567999 44:0.075361997 53:0.103188 60:0.056667 69:0.050094001 85:0.067584999 89:0.069564998 95:0.071013004 98:0.093810998 104:0.049433999 112:0.028037 131:0.063330002 139:0.116804 142:0.042298 156:0.035739001 239:0.021361999 276:0.039145 315:0.064965002 318:0.125385 385:0.050999999 386:0.116804 393:0.058977 402:0.117879 404:0.21340799 410:0.12778801 448:0.096493997 470:0.064108998 477:0.263118 543:0.105429 544:0.076278001 623:0.080886997 627:0.08862 634:0.089790002 635:0.171543 648:0.099941999 699:0.078135997 822:0.112878 906:0.073262997 961:0.13501599 1004:0.066936001 1012:0.073856004 1014:0.101518 1121:0.113185 1140:0.085263997 1142:0.080695003 1144:0.152302 1198:0.097733997 1296:0.086772002 1418:0.11611 1515:0.086891003 1553:0.13640501 1604:0.100916 1615:0.18220399 1670:0.45247301 2304:0.17222901 2332:0.15637299 2385:0.121797 3992:0.35154101 4167:0.140214 #
-0.034508194035686404199658738889411 5:0.074699998 6:0.105265 11:0.054632001 15:0.043465 27:0.104553 41:0.052069001 65:0.070068002 76:0.069801003 105:0.057126999 106:0.1245 112:0.050597999 115:0.056538999 137:0.051713999 142:0.076334998 143:0.100762 238:0.084615998 239:0.038552001 241:0.075603001 250:0.15033799 290:0.059930999 313:0.067285001 321:0.15387601 327:0.058327001 383:0.058247 497:0.043611001 544:0.13766 550:0.103063 556:0.1245 579:0.092872001 616:0.163504 686:0.111882 738:0.071594998 757:0.13803799 787:0.085606001 874:0.12317 930:0.12376 1199:0.13416 1202:0.13576099 1635:0.234732 1708:0.19654 1732:0.13863599 1797:0.114435 2003:0.16515701 2358:0.16102099 2486:0.264597 2493:0.141822 3957:0.18878999 4714:0.185672 11750:0.25382099 11751:0.42975599 11752:0.23330601 #
-0.00482665722442199296438047895208 11:0.018625 12:0.116463 13:0.090425998 19:0.070972003 24:0.088211998 42:0.066454999 44:0.034051001 48:0.066891998 59:0.054352 70:0.056768 76:0.036674999 114:0.044645999 121:0.086548001 137:0.046006002 148:0.104552 154:0.093875997 160:0.084031999 175:0.115894 181:0.066829003 202:0.075714 223:0.066641003 239:0.020256 241:0.039724 248:0.05381 282:0.104917 338:0.155838 340:0.068249002 370:0.042466 387:0.071641997 452:0.052175 505:0.099972002 535:0.36109799 570:0.092843004 592:0.064085998 650:0.076426998 676:0.063304998 719:0.074933 914:0.076884001 1108:0.081721 1215:0.174569 1317:0.173631 1321:0.172674 1478:0.113569 1589:0.109777 2647:0.183429 2812:0.120293 3030:0.138069 4696:0.33334401 4960:0.167952 5652:0.183429 6305:0.16037799 7556:0.382321 7557:0.167952 7558:0.225805 7559:0.196879 #
-0.064011323132129774315934866990574 21:0.181026 36:0.039129999 75:0.053711001 89:0.075962998 116:0.074193999 121:0.058865 150:0.090172 202:0.087190002 205:0.05649 208:0.055654 209:0.090850003 216:0.071966 232:0.037629999 240:0.152289 276:0.102003 280:0.1159 340:0.078593999 415:0.091779999 452:0.060084 457:0.081900001 470:0.146915 508:0.085997 589:0.33367401 651:0.116964 807:0.052395001 933:0.23025399 935:0.089397997 1013:0.207339 1109:0.217944 1137:0.129123 1268:0.084198996 1297:0.134894 1331:0.124276 1348:0.083205 1353:0.091196001 1398:0.13121501 1401:0.226722 1514:0.148183 1569:0.14329299 1615:0.11751 1632:0.15494899 1954:0.122276 2253:0.154016 2332:0.170755 2579:0.25089499 4133:0.17239401 4134:0.239016 4135:0.201031 4136:0.226722 #
0.10000000000000000555111512312578 1:0.069825999 9:0.135608 15:0.071144998 35:0.018345 36:0.036924001 45:0.063814998 55:0.090925001 65:0.067736998 87:0.034936 88:0.063715003 98:0.057092 105:0.032618001 115:0.054657999 142:0.043584999 150:0.085088998 162:0.087511003 197:0.066386998 200:0.119643 223:0.122613 232:0.035509001 236:0.041028999 256:0.062442999 272:0.053029001 292:0.066059999 323:0.090925001 336:0.204834 414:0.087054998 422:0.102786 428:0.160763 433:0.067679003 530:0.070770003 617:0.091447003 665:0.087054998 682:0.076646999 725:0.111411 783:0.072416998 830:0.297447 902:0.14712299 952:0.104191 974:0.096479997 1057:0.099459 1065:0.120722 1142:0.083149999 1276:0.121845 1340:0.091978997 1533:0.190464 1555:0.108878 1700:0.13710301 1765:0.13020299 1987:0.321228 1988:0.33199 2829:0.16986699 2831:0.16604701 3113:0.351266 5729:0.18970001 7604:0.18587901 #
0.10000000000000000555111512312578 9:0.15949599 11:0.035193998 23:0.087173998 35:0.01884 36:0.037921 44:0.064342998 59:0.060658 63:0.049977001 91:0.132256 98:0.099275 100:0.098131999 105:0.033498 114:0.049825002 126:0.049392998 149:0.082227997 192:0.08929 219:0.058797002 221:0.047088001 241:0.093037002 272:0.12996 273:0.226078 275:0.096313 300:0.111141 312:0.084106997 322:0.073413998 336:0.088155001 418:0.106377 422:0.105561 493:0.067181997 527:0.13319901 530:0.12306 544:0.080720998 560:0.080549002 572:0.096906997 720:0.20866001 792:0.113351 801:0.167069 805:0.133719 928:0.08929 953:0.110124 1065:0.26019001 1107:0.137642 1172:0.140145 1209:0.093915999 1612:0.167069 1653:0.247024 2282:0.13169099 2645:0.190898 2868:0.13319901 3113:0.23407499 3227:0.14752901 5491:0.18154 13469:0.42667499 #
0.10000000000000000555111512312578 5:0.056848001 11:0.033436999 18:0.047070999 55:0.121189 59:0.078722 60:0.045965001 70:0.048560999 114:0.038192 205:0.041963 212:0.141248 216:0.053459 231:0.057383999 232:0.027953001 261:0.078022003 290:0.045609001 347:0.12354 350:0.079666004 352:0.037508 370:0.036325999 405:0.110827 415:0.068177 417:0.117318 454:0.080758996 465:0.112438 509:0.33205801 561:0.072301 568:0.078295 638:0.098457001 651:0.086883999 670:0.080305003 964:0.080305003 1054:0.188648 1069:0.124429 1120:0.209172 1257:0.110075 1403:0.091810003 1485:0.313391 1491:0.092316002 1640:0.106927 1711:0.16841599 1817:0.12684201 2184:0.074979998 2298:0.118927 2475:0.300616 2656:0.16841599 3385:0.124588 3512:0.118108 3633:0.209172 3859:0.32738101 5727:0.32704899 #
0.10000000000000000555111512312578 2:0.213009 15:0.038729001 25:0.121963 36:0.057622999 42:0.06656 64:0.080554001 65:0.062433001 76:0.062194999 87:0.032200001 93:0.065347001 102:0.34011501 108:0.062222 114:0.044716999 119:0.067961998 131:0.060146999 184:0.082185 206:0.064019002 222:0.077659003 232:0.032728001 236:0.064029001 237:0.10607 272:0.048877001 276:0.037177999 292:0.060887001 300:0.058910999 345:0.38098601 370:0.042532999 419:0.049260002 536:0.124629 560:0.072290003 708:0.188972 726:0.181025 740:0.087514997 800:0.29682201 807:0.045570999 837:0.066808999 1147:0.223186 1268:0.073232003 1917:0.31959 1929:0.15474799 1964:0.140242 3450:0.140242 3463:0.162927 3709:0.17484599 4325:0.118632 5525:0.171325 6933:0.189604 8347:0.197191 #
0.10000000000000000555111512312578 2:0.057705 7:0.113609 11:0.044808999 26:0.049237002 31:0.062290002 35:0.025084 36:0.040734001 38:0.081110999 42:0.047052 56:0.076963 63:0.031707 77:0.156142 86:0.052994002 88:0.041514002 91:0.039981999 99:0.031998001 104:0.033188999 105:0.021252001 108:0.043985002 109:0.039921999 126:0.018508 134:0.082460001 142:0.059595998 165:0.078658 181:0.047316998 183:0.059075002 205:0.034731999 217:0.065917 221:0.029874001 226:0.038263001 232:0.039173 236:0.026733 241:0.028125999 267:0.044475 271:0.049040999 293:0.048181999 336:0.133462 342:0.133999 405:0.054177001 450:0.052636001 459:0.104257 497:0.02747 527:0.084504999 562:0.087709002 611:0.056795999 668:0.074980997 719:0.053055 723:0.035075001 743:0.063699998 789:0.067358002 807:0.054544002 811:0.049435001 825:0.048702002 846:0.111099 892:0.079893 907:0.077275999 919:0.23201001 995:0.066343002 1116:0.168751 1122:0.064024001 1168:0.133999 1169:0.083549 1374:0.063487001 1396:0.080150001 1420:0.064354002 1542:0.153072 1552:0.081491999 1645:0.089759998 1700:0.089331001 1721:0.080943003 1771:0.091108002 1804:0.11206 1984:0.123601 2069:0.076408997 2929:0.095268004 3113:0.184067 3512:0.097756997 4515:0.176137 4800:0.11206 5492:0.146955 5769:0.13403299 5797:0.201342 5979:0.10312 7155:0.115175 7604:0.33811399 11814:0.270695 11815:0.159877 11816:0.159877 11817:0.270695 11818:0.146955 #
-0.10000000000000000555111512312578 6:0.033160001 9:0.041303001 11:0.041067999 18:0.050843999 39:0.074313998 45:0.054262999 56:0.059321001 63:0.041379001 71:0.087233998 75:0.043097001 83:0.054177999 87:0.029705999 105:0.046959002 112:0.024565 126:0.024153 156:0.031314 205:0.045327 214:0.052974999 231:0.061983999 236:0.034887999 239:0.018717 271:0.064000003 292:0.056171 293:0.062880002 312:0.069637001 324:0.066197999 336:0.123581 414:0.074023999 424:0.102966 508:0.069003001 703:0.101435 725:0.094733998 741:0.075511001 806:0.103606 807:0.042041 846:0.085633002 1026:0.068538003 1054:0.097098 1131:0.170782 1140:0.156781 1217:0.064127997 1316:0.104599 1458:0.124328 1477:0.087399997 1478:0.104939 1515:0.076131999 1640:0.195557 1806:0.105284 1816:0.139717 1964:0.12938 2016:0.12757701 3113:0.337199 3795:0.15519001 3880:0.20923799 4132:0.139717 4691:0.15805499 4947:0.141192 5491:0.254493 5967:0.128461 6961:0.208646 6962:0.208646 6963:0.208646 6964:0.208646 6965:0.208646 6966:0.208646 6967:0.191782 #
-0.050125180230664916070093539701702 11:0.031166 18:0.05438 31:0.051351 35:0.016682999 37:0.084276997 99:0.044663001 105:0.050225001 112:0.026273999 126:0.025832999 135:0.128502 142:0.039638001 143:0.109803 145:0.093093 156:0.033491999 219:0.109267 244:0.043358002 272:0.048227001 278:0.104935 313:0.059156001 316:0.081993997 336:0.24958999 452:0.051562998 454:0.0933 523:0.071788996 622:0.101809 805:0.118412 806:0.110811 837:0.065921001 941:0.099688001 978:0.091095001 979:0.090612002 980:0.132974 1131:0.227119 1140:0.235385 1477:0.093478002 1478:0.112237 1513:0.123531 1515:0.081427 1641:0.106949 1816:0.149433 1969:0.16324 2928:0.16598199 3113:0.29213899 3170:0.13939799 5491:0.419494 6245:0.18127701 6754:0.43257901 #
-0.10000000000000000555111512312578 5:0.063717 27:0.18715499 62:0.058334 87:0.052191 105:0.028779 115:0.048227001 126:0.042435002 149:0.070644997 183:0.16788401 202:0.072594002 206:0.103762 213:0.086406998 226:0.051814001 231:0.064318001 236:0.036201 244:0.042064998 304:0.178211 314:0.096936002 337:0.073019996 340:0.110795 356:0.066808999 383:0.13870201 389:0.117672 397:0.066476002 405:0.15396599 444:0.075737 479:0.107172 528:0.134251 597:0.12952401 611:0.16140699 665:0.076811001 677:0.076711997 693:0.27781501 694:0.188767 725:0.098301001 807:0.073862001 858:0.130574 899:0.105564 951:0.084174 962:0.087756 976:0.145808 1025:0.102076 1026:0.071117997 1321:0.078890003 1583:0.091392003 1640:0.20292 1650:0.079772003 1686:0.106842 2388:0.127479 3050:0.15175 3500:0.155967 4369:0.175871 6907:0.161033 9759:0.18150499 11313:0.216502 11314:0.216502 11315:0.216502 11316:0.216502 11317:0.216502 #
-0.057788682639624742998218920320141 6:0.057762001 8:0.118085 9:0.071946003 10:0.034189001 11:0.017704999 31:0.049394 35:0.027171001 41:0.074556001 54:0.228304 56:0.061028998 62:0.097925 68:0.099638999 95:0.064011 105:0.028533 112:0.042789999 113:0.062900998 134:0.065388002 160:0.079882003 180:0.067119002 202:0.071974002 208:0.045942001 217:0.052269999 219:0.050082002 231:0.063767999 239:0.019255999 321:0.076857001 337:0.151931 350:0.042185001 351:0.05328 453:0.061519999 491:0.126343 544:0.068758003 550:0.087159 585:0.14654601 676:0.060178999 679:0.090435997 699:0.070432 728:0.094824001 767:0.078541003 896:0.072480999 914:0.073086001 945:0.144805 993:0.056224 995:0.089073002 1130:0.102025 1202:0.273972 1219:0.091325998 1448:0.10796 1947:0.128702 2210:0.189789 2861:0.139671 3028:0.159657 3723:0.122322 3908:0.13728499 4154:0.24594 4903:0.143739 5795:0.363437 5796:0.214652 5797:0.38098899 5798:0.214652 #
-0.065781361758986342525012958049047 14:0.095877998 50:0.069738999 105:0.038929 137:0.12522 210:0.097184002 226:0.070087999 231:0.147306 236:0.048967998 238:0.097630002 239:0.026271001 272:0.06329 282:0.13607199 383:0.067204997 679:0.123384 1054:0.230755 1234:0.193397 1284:0.16138101 1542:0.28039199 1581:0.25534099 1582:0.29285601 1583:0.123624 1584:0.38334 1585:0.25534099 1586:0.217825 1587:0.30318701 1588:0.30529001 1589:0.14237501 1590:0.22640701 #
0.10000000000000000555111512312578 1:0.057686001 6:0.032217 9:0.040128998 15:0.034713998 23:0.033413999 35:0.015155 36:0.051647998 43:0.05297 44:0.064153001 65:0.094747998 85:0.120739 104:0.042082001 105:0.026946001 114:0.04008 115:0.045155 155:0.123706 156:0.030423 240:0.0403 249:0.052678999 270:0.089748003 300:0.052802999 306:0.097424999 326:0.078074001 337:0.20141 404:0.181667 405:0.068692997 410:0.064248003 414:0.071919002 470:0.054574002 477:0.19145299 494:0.071183003 543:0.089748003 588:0.078688003 615:0.107565 635:0.086246997 668:0.056150001 677:0.071826003 726:0.095830999 780:0.052514002 869:0.093392 874:0.058098 888:0.14545199 1171:0.081880003 1609:0.094580002 1866:0.109776 1868:0.112215 1976:0.114935 2304:0.086592004 2728:0.16036101 2729:0.153561 3371:0.102976 3990:0.56125802 4138:0.13190199 4640:0.153561 5199:0.16036101 6359:0.16467001 6881:0.169945 7712:0.143977 10065:0.156717 12640:0.202713 12641:0.202713 #
0.10000000000000000555111512312578 9:0.091026001 16:0.071975 23:0.036116999 30:0.079839997 35:0.027735 37:0.116624 44:0.033041999 69:0.046092998 80:0.166485 83:0.056894999 104:0.045485001 112:0.025797 136:0.093222 145:0.053985 156:0.032884002 180:0.116002 189:0.123014 206:0.062022001 216:0.06064 247:0.068866998 300:0.057073999 327:0.050349999 346:0.105604 350:0.043060999 410:0.11758 412:0.13056301 433:0.060433999 448:0.088785999 458:0.068512999 477:0.277262 518:0.242906 536:0.120741 543:0.23148701 577:0.19175901 635:0.093222 656:0.071734004 690:0.086863004 741:0.079297997 764:0.087154001 794:0.086863004 858:0.055376999 874:0.062798001 993:0.057390999 1054:0.172646 1130:0.17633 1142:0.074248999 1144:0.29409099 1209:0.081657998 1321:0.079839997 1805:0.102762 3173:0.145263 5113:0.26725501 8175:0.18369 11074:0.459824 #
0.10000000000000000555111512312578 11:0.032384999 35:0.017336 41:0.047568999 60:0.055179998 85:0.065811999 91:0.05799 102:0.100066 112:0.027301 115:0.087457001 121:0.052492999 123:0.108846 126:0.026843 147:0.090442002 164:0.142671 231:0.068888001 239:0.020802001 241:0.040794 247:0.072883002 259:0.14710499 276:0.038118001 285:0.102892 346:0.111761 399:0.106568 405:0.205046 440:0.075167 448:0.093962997 454:0.096950002 470:0.162902 493:0.061818998 568:0.093990996 570:0.095343001 614:0.106307 634:0.087435 658:0.118602 702:0.132827 730:0.084729001 810:0.107639 846:0.095170997 852:0.098076999 1125:0.077933997 1196:0.103122 1217:0.071269996 1223:0.10904 1468:0.078299999 1517:0.114787 1607:0.117795 1608:0.144851 1635:0.126655 1829:0.16469599 1850:0.156918 1896:0.109329 1924:0.130187 1994:0.101118 2077:0.111761 2437:0.130823 2579:0.13214201 3155:0.18836799 4135:0.17927 4322:0.34232101 4712:0.231885 4713:0.297418 4714:0.169626 4715:0.231885 #
0.10000000000000000555111512312578 9:0.073280998 33:0.105718 48:0.064768001 49:0.058715999 50:0.052065 65:0.060355 75:0.045159999 83:0.096123002 99:0.043758001 114:0.043228999 126:0.066044003 136:0.093020998 143:0.086793996 149:0.120791 170:0.074801996 197:0.059153002 221:0.040854 222:0.075075001 238:0.17393 239:0.019613 276:0.035939999 300:0.056951001 311:0.078913003 385:0.130722 410:0.16535801 477:0.146512 583:0.082562 627:0.081364997 706:0.26282501 707:0.27575299 708:0.30121899 780:0.056639001 794:0.086676002 799:0.141482 807:0.044054002 863:0.15626501 894:0.057587001 904:0.111065 906:0.17552499 933:0.058619998 1173:0.24308699 1348:0.069959 1405:0.146512 1490:0.097892001 1665:0.105376 2260:0.20491999 2304:0.30844 2329:0.109964 2929:0.130281 4730:0.172957 10209:0.37018299 #
0.10000000000000000555111512312578 10:0.032218002 11:0.02825 23:0.033342998 35:0.015123 44:0.030503999 60:0.048136 83:0.052524999 87:0.0288 88:0.052524999 104:0.071098998 120:0.102757 121:0.109272 123:0.056079 126:0.023417 143:0.080302 209:0.070672996 233:0.082722001 238:0.067434996 239:0.018146001 248:0.048204001 276:0.033252001 280:0.090158999 351:0.085013002 404:0.064934 413:0.091628 493:0.053927001 543:0.089557 568:0.081992 589:0.123685 656:0.138981 678:0.13840701 777:0.069458999 811:0.062546998 846:0.083021 1066:0.150456 1138:0.108194 1142:0.068547003 1148:0.30152899 1152:0.090158999 1217:0.062171999 1299:0.207449 1331:0.096675001 1583:0.085389003 1670:0.273808 2111:0.121285 2144:0.091844998 2163:0.101409 2298:0.124543 2829:0.140035 3073:0.108635 3076:0.110009 3387:0.173399 4787:0.16958299 7871:0.34484401 9722:0.18593299 12246:0.48270401 #
-0.0095502824246951212999734437403276 5:0.065952003 11:0.018485 15:0.038375001 44:0.033794001 45:0.058281001 50:0.053365 52:0.091642998 105:0.029789001 111:0.099881999 113:0.065669 115:0.049918 126:0.054442 134:0.068264998 184:0.081433997 216:0.062020998 229:0.078993998 232:0.032428999 236:0.078636996 239:0.020103 243:0.072641999 251:0.105101 290:0.052912999 303:0.110253 336:0.20456401 338:0.124778 350:0.044041 433:0.061810002 454:0.093694001 492:0.081433997 544:0.071782999 559:0.076949999 563:0.14216401 570:0.092141002 676:0.062826 706:0.26938999 807:0.045154002 825:0.143261 855:0.12286 914:0.076301999 933:0.060084 983:0.26938999 986:0.097722001 993:0.058697 1122:0.25053799 1125:0.12752099 1219:0.095344998 1422:0.081102997 1441:0.155136 1445:0.12770399 1447:0.113457 1489:0.127059 1540:0.13980401 1681:0.092478 1924:0.21302199 2039:0.109267 2455:0.163929 2456:0.15707301 6363:0.161438 7456:0.195389 7457:0.18787199 7458:0.205984 7459:0.224097 7460:0.195389 7461:0.195389 #
-0.031791865122119518372034718822761 10:0.035615001 11:0.054335002 15:0.038291 22:0.060648002 44:0.080466002 49:0.060051002 50:0.053247999 51:0.124365 59:0.091130003 89:0.065321997 105:0.029724 108:0.061517999 123:0.061990999 145:0.055093002 158:0.116853 164:0.052723002 184:0.081256002 187:0.26664299 236:0.037388999 240:0.075266004 241:0.066604003 282:0.061363 312:0.07463 320:0.12615301 337:0.075415999 338:0.226445 351:0.055503 354:0.054095998 355:0.12615301 411:0.168367 419:0.048703998 443:0.055920001 481:0.11819 499:0.098348998 545:0.081817001 564:0.29403901 566:0.120584 570:0.15566701 706:0.128085 933:0.101509 983:0.128085 1103:0.112464 1122:0.187922 1125:0.179333 1217:0.116363 1268:0.072403997 1317:0.081931002 1422:0.080926001 1450:0.084691003 1897:0.123781 1998:0.108392 1999:0.13492601 2094:0.229946 2380:0.130906 2388:0.131662 2929:0.13324299 3065:0.23476601 7804:0.19496199 8063:0.18164299 11068:0.22360601 11069:0.22360601 #
-0.05521136420667487054725341977246 30:0.157931 31:0.168864 36:0.065220997 45:0.11272 64:0.15437201 71:0.181209 72:0.23372801 143:0.10162 308:0.222451 338:0.14253201 340:0.130999 350:0.144219 410:0.137367 453:0.124219 723:0.095086001 731:0.13794801 1012:0.134423 3832:0.386392 4690:0.307834 9355:0.43341601 9356:0.43341601 #
-0.045086074289840877282742326315201 3:0.145723 11:0.062070999 31:0.062026002 44:0.096997999 45:0.070101999 51:0.088544004 57:0.109838 76:0.043779999 88:0.069991998 97:0.097685002 98:0.106188 99:0.091342002 112:0.031736001 131:0.071686 142:0.047878001 174:0.11144 183:0.099598996 209:0.094175003 216:0.074600004 221:0.105701 241:0.047419999 262:0.142474 272:0.058253001 292:0.072567999 315:0.073537 322:0.078525998 354:0.06521 370:0.050691999 385:0.121149 387:0.17947599 410:0.144648 429:0.104632 518:0.25542501 592:0.076502003 614:0.322458 761:0.121244 874:0.077253997 906:0.082929 910:0.085431002 941:0.120413 1033:0.106158 1093:0.100168 1109:0.133432 1133:0.092110001 1147:0.33074901 1517:0.133432 1669:0.100747 1932:0.12846901 2306:0.120413 2309:0.175392 2929:0.16061901 4277:0.167146 8446:0.43732601 #
-0.10000000000000000555111512312578 35:0.017309999 38:0.055973999 75:0.047825001 81:0.073771998 100:0.215156 102:0.169173 114:0.045779999 123:0.06419 126:0.026803 131:0.061577 136:0.27501801 137:0.047175001 164:0.054593001 194:0.082253002 210:0.076834999 212:0.070951 219:0.054021999 239:0.020771001 248:0.055176001 249:0.060169 292:0.130816 299:0.098904997 307:0.127591 340:0.069982 356:0.071448997 405:0.078460999 426:0.074326001 544:0.074166 568:0.158903 650:0.078368001 655:0.15752999 682:0.072324999 743:0.092252001 770:0.090163 825:0.070532002 894:0.060984999 976:0.092097998 980:0.137969 1005:0.13555001 1006:0.129371 1017:0.103199 1120:0.148085 1221:0.118019 1334:0.104389 1412:0.124861 1429:0.116453 1484:0.124347 1485:0.179002 1486:0.140627 1487:0.148085 1488:0.26898199 1489:0.13127799 1490:0.103669 1491:0.232227 1492:0.231538 1493:0.150658 1494:0.121913 1495:0.152043 1496:0.140627 1497:0.115336 1498:0.172217 1499:0.231538 1500:0.119255 #
0.10000000000000000555111512312578 15:0.035489 18:0.050501 30:0.127858 33:0.059184 35:0.015493 36:0.031184999 42:0.060991 45:0.053897001 75:0.042806 89:0.102503 94:0.059879001 137:0.071491003 146:0.063631997 173:0.116918 197:0.056069002 212:0.063505001 214:0.089088999 226:0.104086 239:0.018591 244:0.068175003 249:0.053854998 313:0.093015999 388:0.260986 394:0.074699 419:0.076425999 448:0.138464 482:0.082295001 493:0.055248 530:0.059771001 544:0.066382997 560:0.066241004 622:0.094547004 655:0.083274998 760:0.056302 806:0.32901701 894:0.092421003 910:0.065682001 931:0.092578001 1015:0.110402 1151:0.095241003 1217:0.063694999 1268:0.067103997 1478:0.176479 1561:0.084597997 1601:0.085364997 1642:0.116918 1728:0.086319 1736:0.079448 1772:0.110845 1816:0.427347 1961:0.099320002 2042:0.110402 2163:0.175907 3723:0.118097 4208:0.277576 5508:0.36460999 7555:0.207238 #
0.10000000000000000555111512312578 5:0.069793001 23:0.03909 45:0.061675999 50:0.056473002 60:0.056433 87:0.033764001 112:0.027921 139:0.24411599 144:0.197799 198:0.079149 205:0.051518999 216:0.065632999 218:0.113339 219:0.055330999 222:0.13787501 231:0.070451997 239:0.021274 241:0.041719001 291:0.098591998 307:0.13068201 310:0.10408 336:0.082960002 337:0.135424 389:0.076127 443:0.100414 483:0.084137 568:0.096124999 578:0.122145 585:0.095623001 594:0.100108 633:0.092201002 648:0.27786201 1033:0.093396999 1057:0.096124999 1142:0.080362 1297:0.123023 1484:0.12736 1640:0.31326601 1715:0.154309 2075:0.267279 2145:0.147054 2385:0.121294 2551:0.110646 3073:0.267279 3076:0.128971 4609:0.16622099 5126:0.198814 6361:0.35009 10085:0.192643 #
0.10000000000000000555111512312578 23:0.083513997 61:0.076944001 95:0.151088 102:0.155129 112:0.05246 113:0.036747001 144:0.067864999 216:0.058761001 226:0.050813001 232:0.030725 236:0.060109001 244:0.041251998 276:0.091073997 284:0.085024998 336:0.074272998 370:0.039928999 448:0.050813001 462:0.12730201 464:0.067363001 493:0.056603 637:0.136154 725:0.25155401 895:0.085463002 899:0.103524 933:0.148545 975:0.077472001 978:0.086671002 1037:0.092390001 1234:0.14021 1542:0.16400599 1606:0.185816 1913:0.101192 1926:0.105101 1970:0.135792 2009:0.098807 2171:0.105101 2193:0.29540199 2306:0.094847001 2919:0.128114 3480:0.243265 4230:0.228053 4794:0.16083699 6005:0.155312 6251:0.24597099 6823:0.405278 7049:0.185119 7050:0.152953 7051:0.167959 #
0.10000000000000000555111512312578 63:0.071852997 216:0.100272 222:0.124408 256:0.092200004 276:0.10084 336:0.126743 370:0.068136998 401:0.13330901 454:0.15147901 725:0.345229 803:0.133122 1109:0.37638399 1147:0.170369 1348:0.196288 3480:0.41511801 4230:0.229844 5925:0.56385899 #
0.10000000000000000555111512312578 11:0.04366 41:0.087604001 50:0.060061999 76:0.040966 88:0.065491997 98:0.140038 114:0.049869001 124:0.071520001 132:0.130371 142:0.044799998 144:0.225068 156:0.064090997 214:0.064038001 216:0.069803998 223:0.074437 226:0.102203 231:0.074928999 239:0.038309 249:0.065544002 281:0.220056 290:0.059553001 304:0.29260501 341:0.080705002 389:0.080964997 405:0.085469 419:0.054935999 443:0.063074999 444:0.088232003 668:0.069863997 701:0.090549 705:0.091158003 732:0.14850999 807:0.050820999 978:0.10296 1008:0.191644 1077:0.231309 1150:0.117377 1736:0.163715 1910:0.113713 2165:0.107524 2237:0.43358499 2830:0.191064 3112:0.19499101 4103:0.160005 6305:0.179139 8530:0.37233999 #
-0.10000000000000000555111512312578 9:0.126265 23:0.044059001 80:0.119951 95:0.079708003 102:0.300984 126:0.030942 139:0.131107 142:0.080385998 209:0.093386002 241:0.047022 245:0.12345 276:0.043938 296:0.182888 297:0.087899998 304:0.220017 328:0.103267 337:0.090149 340:0.080788001 350:0.052530002 352:0.051902 392:0.077021003 452:0.104571 469:0.13767 493:0.071258001 568:0.183439 650:0.090469003 682:0.083493002 830:0.28494999 846:0.109702 858:0.067555003 880:0.159273 915:0.26494399 1342:0.101236 1583:0.112831 1987:0.14663599 1988:0.151549 2579:0.319657 3073:0.143548 3076:0.145364 3473:0.173922 3817:0.415984 #
-0.10000000000000000555111512312578 9:0.049462002 11:0.020609999 56:0.071038999 60:0.100671 100:0.31108299 102:0.257296 108:0.068741001 139:0.122557 144:0.079864003 182:0.094775997 202:0.083779 232:0.061220001 248:0.059542 275:0.095495 284:0.100059 307:0.137687 393:0.061880998 405:0.08467 415:0.088188998 428:0.096684001 452:0.057734001 492:0.153732 499:0.109896 568:0.241676 571:0.16565 648:0.25023699 710:0.131062 725:0.113447 734:0.137687 846:0.173628 919:0.138954 1134:0.107601 1142:0.08467 1297:0.12961701 1805:0.117184 2075:0.28160599 2081:0.24909601 2463:0.153837 2508:0.13057201 3105:0.17297199 3397:0.13831399 6262:0.17513099 6770:0.20947 7162:0.24986 #
-0.10000000000000000555111512312578 5:0.21271101 9:0.044751 11:0.018646 44:0.034090001 48:0.066968001 70:0.056832001 75:0.046693999 85:0.064158998 87:0.054494999 89:0.111813 94:0.065318003 100:0.088030003 121:0.051174 147:0.088170998 151:0.081592999 155:0.065736003 194:0.080306999 202:0.075799003 208:0.048383001 216:0.105931 232:0.032713 241:0.039769001 280:0.170598 287:0.094695002 304:0.186079 383:0.051876001 385:0.048413999 405:0.16076399 428:0.087475002 452:0.088440999 465:0.077719003 492:0.082148001 568:0.091629997 589:0.32984599 634:0.085239001 638:0.115227 725:0.102642 783:0.066716999 846:0.15708999 881:0.103134 887:0.088030003 893:0.14017899 915:0.13234299 976:0.089919001 1057:0.091629997 1075:0.111904 1206:0.128823 1276:0.112253 1342:0.085620001 1423:0.108646 1485:0.174767 1495:0.14844599 1640:0.211879 1669:0.084492996 1700:0.126311 1815:0.15297601 2253:0.133894 2330:0.124017 3073:0.205557 3880:0.133894 4362:0.154678 4405:0.17124701 4748:0.144582 5436:0.17124701 7667:0.20779 9113:0.18363699 #
-0.063301048569660761655697456262715 10:0.040835001 11:0.044380002 12:0.078098997 15:0.043903999 18:0.105782 19:0.080582 35:0.019167 42:0.075452998 58:0.088794999 63:0.050845001 70:0.064455003 75:0.052956 76:0.041641001 88:0.112718 89:0.12681 93:0.074078999 98:0.059652001 99:0.051312 108:0.070534997 112:0.030185999 137:0.052235998 142:0.077105001 157:0.105996 163:0.257759 164:0.060451001 172:0.090723999 194:0.091077998 203:0.118117 208:0.054873001 219:0.059819002 231:0.076164998 232:0.037101001 237:0.120242 239:0.022999 256:0.065243997 310:0.11252 328:0.25847101 418:0.108226 419:0.055842001 427:0.100643 429:0.099521004 445:0.278662 459:0.098743998 560:0.081949003 561:0.095964998 668:0.169466 730:0.093679003 778:0.143207 797:0.085175999 803:0.094201997 975:0.093549997 1007:0.108437 1008:0.19480599 1069:0.097542003 1316:0.12853 1396:0.12853 1397:0.095825002 1824:0.182888 2142:0.156764 2485:0.136043 6062:0.173494 6402:0.223538 7560:0.235659 11109:0.25638101 11110:0.25638101 #
-0.10000000000000000555111512312578 1:0.060671002 11:0.017586 27:0.087820999 38:0.087266997 39:0.075937003 44:0.032150999 52:0.087187998 76:0.034628 85:0.060509998 93:0.061602999 112:0.025102001 142:0.098819003 150:0.073932 197:0.057682998 315:0.058164999 336:0.12627999 351:0.089602001 353:0.072076999 356:0.065791003 366:0.112691 383:0.102676 405:0.072247997 415:0.075250998 504:0.072076999 627:0.079342 673:0.129491 677:0.075543001 685:0.14709599 701:0.076540999 725:0.231001 761:0.095899001 807:0.042959001 840:0.091627002 846:0.087503001 858:0.053885002 863:0.089998998 958:0.10365 1064:0.104893 1163:0.253685 1397:0.079686999 1446:0.103955 1490:0.095458999 1491:0.101895 1494:0.112259 1596:0.117487 2616:0.111005 2812:0.192306 2824:0.120283 2829:0.147595 2830:0.161507 2831:0.14427499 2832:0.14427499 2833:0.151427 14536:0.36098301 14537:0.50876403 #
0.10000000000000000555111512312578 11:0.054552998 28:0.114506 31:0.092298999 33:0.067654997 44:0.085249998 95:0.070644997 98:0.055119999 113:0.069421001 114:0.046840001 126:0.027424 154:0.098489001 169:0.062050998 190:0.232862 221:0.044266 232:0.034281999 239:0.021252001 240:0.047095999 279:0.123343 316:0.18267199 323:0.087784 340:0.121234 352:0.096538 354:0.057312001 405:0.080278002 426:0.076047003 442:0.092996001 456:0.106806 493:0.106933 518:0.26262999 532:0.097228996 637:0.089725003 651:0.106559 681:0.188614 780:0.06137 822:0.19013099 881:0.10808 903:0.105589 909:0.126711 1151:0.108873 1156:0.23378199 1213:0.126204 1217:0.072811998 1583:0.100003 1604:0.100395 1717:0.201739 1728:0.098673999 1824:0.099808998 1826:0.142947 1902:0.095523 1944:0.378555 3071:0.263394 5363:0.17620499 10649:0.192442 12955:0.236901 #
0.10000000000000000555111512312578 1:0.103816 5:0.063412003 6:0.057980999 11:0.049617 14:0.070542 15:0.036897998 35:0.033806 60:0.051274002 70:0.054168999 75:0.044505998 95:0.064254001 109:0.053803001 115:0.100726 123:0.101139 131:0.057303 137:0.043900002 146:0.066157997 148:0.099765003 162:0.076844998 206:0.060991 216:0.059633002 220:0.121561 231:0.064011 244:0.041864 272:0.046565998 316:0.079168998 326:0.082987003 354:0.052127 385:0.096841998 393:0.053364001 414:0.076444 419:0.046930999 518:0.238869 552:0.075952999 579:0.078838997 597:0.061423998 615:0.114333 624:0.084997997 662:0.132662 690:0.085419998 786:0.109827 789:0.090778999 800:0.10837 825:0.065636002 976:0.085704997 981:0.092601001 1121:0.102413 1169:0.190648 1217:0.066224001 1484:0.195925 1587:0.13174801 1607:0.109455 1681:0.18660299 1700:0.120392 1703:0.109827 2073:0.1126 2111:0.129191 2141:0.16657799 2388:0.214809 3050:0.151025 3491:0.181155 3661:0.17503101 4063:0.17503101 4193:0.160264 5563:0.16657799 5908:0.17503101 8443:0.215468 8444:0.17503101 8445:0.215468 8446:0.16657799 8447:0.198053 #
0.10000000000000000555111512312578 1:0.053328 4:0.098672003 5:0.093379997 6:0.029784 10:0.050537001 16:0.061558999 21:0.077051997 26:0.097716004 32:0.060548 36:0.028200001 44:0.02826 49:0.050326999 51:0.104228 58:0.064903997 71:0.078350998 89:0.054745 98:0.043602001 99:0.063504003 105:0.024910999 107:0.069640003 138:0.051339999 145:0.046172 154:0.13191199 155:0.054494001 208:0.040109001 238:0.062474001 239:0.016811 244:0.061648998 248:0.044658002 276:0.030804999 335:0.116205 354:0.045336001 357:0.072975002 387:0.059457 405:0.13327 450:0.061696999 457:0.059023 465:0.064427003 484:0.070661001 545:0.068568997 555:0.080868997 675:0.12681399 780:0.048547 858:0.047363002 892:0.093645997 914:0.063807003 1133:0.064038001 1164:0.109094 1219:0.079731002 1588:0.11538 1731:0.074919 1800:0.12424 1837:0.21965501 1839:0.232104 1902:0.075562999 1924:0.105211 1933:0.093349002 2064:0.118884 2274:0.103268 2288:0.206459 2293:0.27565601 2388:0.110343 2390:0.15223099 2444:0.113819 3076:0.101916 3860:0.148247 4576:0.201288 4797:0.276649 7010:0.42923301 10611:0.16339301 10612:0.187399 #
0.10000000000000000555111512312578 10:0.059544001 11:0.018212 36:0.056256 82:0.105234 105:0.02935 116:0.150336 142:0.066404 154:0.091793999 195:0.346962 205:0.047967002 208:0.047256999 210:0.073270999 229:0.077831998 313:0.058531001 327:0.050737999 370:0.041524 419:0.081427 443:0.055217002 454:0.092313997 484:0.083254002 518:0.148453 530:0.063681997 538:0.177689 552:0.077831998 611:0.078437999 613:0.142414 624:0.087099999 720:0.107979 723:0.101657 742:0.12518901 929:0.084132001 933:0.154478 951:0.20485 980:0.131569 1013:0.073778003 1196:0.166252 1199:0.19760001 1200:0.136915 1234:0.086117998 1420:0.150481 1450:0.083627 1549:0.158429 1602:0.167261 1756:0.14443401 1769:0.103554 2464:0.16422801 2711:0.117161 3034:0.23530699 4138:0.14366999 4629:0.161516 6140:0.140072 7701:0.202952 7751:0.220798 7752:0.192513 7753:0.220798 #
0.10000000000000000555111512312578 11:0.050923001 12:0.061069999 23:0.092256002 35:0.014988 62:0.091458 95:0.101223 112:0.023604 204:0.069692999 205:0.043552 213:0.080011003 239:0.017983999 245:0.092592001 290:0.047336001 352:0.038927998 390:0.068507001 393:0.049651001 410:0.13334499 453:0.057457998 458:0.062687002 470:0.053971998 611:0.071218997 614:0.19287901 635:0.085294999 682:0.062623002 737:0.080977 738:0.056549001 863:0.1776 881:0.238666 885:0.068097003 954:0.097180001 961:0.113667 967:0.17205299 1109:0.168028 1421:0.196518 1491:0.16222499 1601:0.08258 4801:0.29595399 7974:0.31200299 8213:0.174795 9332:0.58916497 9333:0.184274 #
-0.068128990234761044320066503132693 11:0.042916998 14:0.100607 23:0.13217799 35:0.022973999 60:0.073126003 69:0.109454 87:0.043752 94:0.088790998 98:0.071500003 99:0.061503001 113:0.053185999 190:0.126582 205:0.066757999 212:0.094168 223:0.090692997 226:0.124523 231:0.091292001 238:0.102445 239:0.027566999 324:0.097498998 349:0.170111 387:0.097498998 427:0.120632 429:0.119287 470:0.082731001 493:0.21377601 539:0.185078 578:0.158277 614:0.14088 637:0.324931 654:0.114691 723:0.067418002 731:0.097808003 741:0.111215 770:0.119666 825:0.27576801 894:0.080940999 933:0.230021 974:0.120828 1001:0.24091101 1166:0.170111 1422:0.111215 1481:0.16934 1605:0.173371 1778:0.16934 2486:0.18920299 2926:0.196541 3473:0.199956 3736:0.198208 #
-0.025487196880366297380149376294867 6:0.034963001 11:0.030723 23:0.036261 31:0.050620999 33:0.062824003 35:0.016446 44:0.033174001 60:0.088633999 63:0.043628 69:0.046277002 75:0.045439001 85:0.062435001 98:0.051183999 112:0.025900001 208:0.047083002 232:0.0539 236:0.036784001 240:0.091779999 276:0.094362997 313:0.058316 315:0.060015 327:0.050551999 340:0.066490002 350:0.043233 352:0.042716 354:0.090108998 387:0.069796003 414:0.078047998 418:0.092863001 482:0.087357 546:0.145043 627:0.081867002 671:0.064802997 676:0.061673999 701:0.078977004 767:0.080491997 831:0.353432 1012:0.11552 1100:0.109581 1103:0.110643 1217:0.067612998 1424:0.088096 1496:0.39360499 1549:0.093226999 1570:0.099180996 2163:0.26317 2304:0.093970001 2656:0.40252501 3509:0.13361099 4417:0.15624499 5858:0.21998601 5859:0.37246901 5860:0.15624499 #
-0.020372483817566195557491326439958 6:0.080950998 11:0.076412 63:0.059659999 104:0.105736 154:0.125066 156:0.076443002 164:0.16926099 180:0.094065003 226:0.071996003 238:0.100287 239:0.056634001 387:0.095445 624:0.11867 1025:0.14183401 1037:0.130904 1544:0.175126 1557:0.430839 1705:0.244372 1713:0.14457899 3902:0.27651301 3942:0.223754 3990:0.25219899 5648:0.27651301 5649:0.300827 5650:0.300827 5651:0.300827 #
-0.023283358343206658064294956034246 31:0.086824 37:0.17661899 44:0.096337996 76:0.103761 80:0.16932499 104:0.078327 105:0.084921002 114:0.074602 164:0.088964 214:0.20104399 239:0.033847999 337:0.127257 348:0.17885201 481:0.199433 538:0.17933799 539:0.134214 585:0.15214001 783:0.111355 912:0.269676 1199:0.33767 1288:0.211834 1983:0.53583598 4021:0.25816801 7418:0.29170001 #
-0.054536346209236939708286939776372 10:0.065894 11:0.020155 19:0.076800004 68:0.113423 69:0.087030999 75:0.050471 83:0.063447997 85:0.069348998 86:0.080992997 105:0.032481 115:0.054428998 121:0.055314001 128:0.072453 137:0.104478 149:0.079731002 150:0.084732004 162:0.087144002 178:0.094700001 194:0.086802997 205:0.053082 212:0.074876003 213:0.097520001 227:0.089158997 232:0.035360001 256:0.062182002 276:0.040167 281:0.29925901 290:0.057693999 291:0.101584 327:0.056150001 389:0.078437001 399:0.112295 443:0.103462 450:0.080444999 452:0.095595002 458:0.076403998 550:0.167988 552:0.086133003 594:0.103146 702:0.139965 721:0.092684001 759:0.084004998 807:0.049235001 810:0.19204199 882:0.111477 937:0.082025997 1064:0.28687099 1098:0.14744 1256:0.114598 1403:0.116139 1450:0.194217 1470:0.188904 1524:0.217011 1583:0.103146 1588:0.150442 1681:0.100835 1784:0.132322 1917:0.132322 2166:0.149406 2255:0.20484801 2396:0.123299 3078:0.169155 4447:0.173547 7019:0.20484801 11388:0.22459701 #
0.10000000000000000555111512312578 5:0.105955 19:0.066831999 23:0.059344001 36:0.031996999 69:0.044730999 87:0.051258001 97:0.077059001 114:0.042041998 151:0.076747 194:0.127896 205:0.046193 239:0.019075001 275:0.081267998 297:0.118395 304:0.103374 309:0.129145 340:0.167704 411:0.160105 429:0.082539 497:0.061859 499:0.15834799 523:0.068405002 535:0.1218 561:0.07959 737:0.14542 765:0.086188003 811:0.065747999 825:0.064773001 835:0.093120001 915:0.26124099 937:0.071379997 1054:0.20766699 1540:0.078346997 2116:0.145491 2148:0.26322201 2321:0.115639 2672:0.274744 2833:0.255705 3073:0.114195 3076:0.115639 3101:0.236414 4405:0.42031899 4456:0.168209 4457:0.15815599 4458:0.155544 4459:0.17273 #
0.10000000000000000555111512312578 6:0.066082001 37:0.092742004 48:0.072747998 75:0.085882999 87:0.059199002 100:0.228196 104:0.050979 107:0.154512 121:0.055590998 123:0.11527 156:0.077345997 170:0.084017001 217:0.059799001 239:0.037299 299:0.17761 327:0.056430999 328:0.094875999 352:0.080737002 354:0.059409 414:0.087125003 428:0.095025003 450:0.136889 559:0.084324002 669:0.11904 682:0.200166 686:0.108246 758:0.33428001 759:0.084426999 783:0.072475001 1142:0.140898 1146:0.078745998 1159:0.31819901 1276:0.121942 1397:0.091784999 1449:0.351872 1468:0.082921997 1515:0.089606002 1517:0.205823 1938:0.151196 2401:0.128813 3397:0.13594 5070:0.189851 5880:0.214113 8019:0.199486 13439:0.245571 #
0.10000000000000000555111512312578 5:0.068736002 6:0.037119001 32:0.23237801 38:0.056462001 63:0.046319 75:0.048241999 99:0.046744 105:0.031045999 172:0.082647003 197:0.13260999 202:0.132594 205:0.085906997 214:0.059299 219:0.054492999 231:0.069384001 232:0.033798002 239:0.020951999 272:0.120447 280:0.104099 300:0.060837001 304:0.192248 340:0.070592001 383:0.15789001 384:0.106045 385:0.084691003 405:0.188862 410:0.176641 419:0.050871 428:0.090374999 443:0.098893002 452:0.053966001 614:0.107072 624:0.155995 671:0.068800002 775:0.183561 794:0.092591003 810:0.108414 915:0.136731 1127:0.082328998 1590:0.180562 1638:0.123449 1815:0.331682 1842:0.16370299 2034:0.119872 2220:0.140036 2253:0.13833299 3101:0.259675 3449:0.153368 3494:0.14185201 3525:0.30571699 3876:0.14589401 4251:0.158048 4277:0.14482599 5169:0.180562 #
0.10000000000000000555111512312578 3:0.082511 6:0.041069999 11:0.036090001 15:0.044252001 41:0.089755997 45:0.067207001 74:0.117054 75:0.053376999 83:0.067101002 87:0.096006997 97:0.093649998 105:0.034350999 121:0.058499001 134:0.078718998 145:0.063669004 146:0.079345003 156:0.065665998 172:0.19190601 174:0.106836 178:0.100152 244:0.050209001 248:0.061581001 264:0.24933399 276:0.042479001 352:0.050179001 354:0.062515996 385:0.055344 396:0.096446 397:0.079345003 402:0.12792 420:0.093145996 428:0.099995002 448:0.061845001 470:0.069569997 570:0.106251 597:0.073666997 655:0.103839 743:0.102961 824:0.126375 838:0.100152 846:0.106059 858:0.065311 894:0.068065003 916:0.133573 1196:0.11492 1309:0.13658901 1316:0.129549 1342:0.27324101 1501:0.105677 1623:0.106059 1653:0.14961 2073:0.135043 2195:0.19978 2260:0.39935899 2329:0.129971 2432:0.14579 2448:0.16393501 2579:0.14726099 3098:0.16969199 3509:0.156951 4514:0.20442501 7859:0.20991901 #
0.10000000000000000555111512312578 6:0.033884 9:0.071459003 11:0.045889001 23:0.059502002 32:0.116632 35:0.015938999 44:0.067472003 51:0.070033997 59:0.051318001 63:0.071589999 64:0.128572 83:0.055360999 87:0.030355001 89:0.062282 92:0.080153003 94:0.061602 99:0.04267 105:0.028341001 112:0.025102001 121:0.048262998 138:0.058409002 164:0.050269999 202:0.071487002 208:0.045630999 239:0.019126 240:0.042385001 274:0.123433 279:0.111004 315:0.058164001 354:0.051578 370:0.040095001 396:0.079571001 404:0.068438999 405:0.072246999 410:0.141808 443:0.053316999 470:0.057397999 477:0.201359 482:0.084661998 518:0.084661998 545:0.07801 560:0.068147004 562:0.116962 637:0.080748998 676:0.059772 687:0.119126 757:0.196316 780:0.055231001 846:0.087502003 1017:0.199423 1274:0.099730998 1300:0.120282 1349:0.092579 1510:0.140002 1615:0.163129 2812:0.27103099 3088:0.195969 3335:0.16482501 3336:0.41328299 3337:0.44358701 3338:0.213201 #
-0.016584123875866003949841598341663 8:0.103552 10:0.037161 35:0.017442999 50:0.055558998 59:0.056159001 61:0.084553003 63:0.046270002 105:0.031013999 124:0.112016 126:0.027008999 127:0.081514999 137:0.047536001 207:0.103068 214:0.100297 217:0.096193999 219:0.142048 223:0.144504 225:0.223721 226:0.055838 232:0.033762999 248:0.055599 267:0.064903997 281:0.096997 287:0.097732 322:0.067969002 350:0.077633999 370:0.074290998 371:0.103295 389:0.074895002 393:0.057783 504:0.078874998 562:0.127995 691:0.14265899 698:0.157883 761:0.104944 782:0.089034997 892:0.24467599 962:0.16012 975:0.085133001 1077:0.101957 1098:0.29544601 1306:0.223976 1731:0.093273997 2169:0.127995 2235:0.338577 2672:0.143648 2864:0.14170399 2865:0.42690799 2866:0.26731899 #
-0.071779772113724424342784402597317 5:0.091421001 6:0.103608 9:0.16046301 10:0.049477 11:0.025622999 23:0.051204 31:0.071480997 36:0.111546 44:0.079314001 50:0.073973 68:0.14419401 87:0.105539 97:0.112575 104:0.064485997 112:0.061923999 127:0.10853 181:0.091936 236:0.087944001 321:0.111225 340:0.158968 351:0.077105001 354:0.12724 370:0.058419 453:0.089029998 457:0.097837001 512:0.226965 517:0.40125501 538:0.147646 628:0.137226 682:0.16429 700:0.13633201 707:0.12254 740:0.120202 896:0.104892 977:0.111225 991:0.095665999 1342:0.280754 1954:0.38116401 2551:0.144933 3795:0.39120001 #
-0.0088586745078269128750303451624859 35:0.012511 44:0.042727001 57:0.115457 69:0.035202999 70:0.042071 85:0.047494002 86:0.055468999 99:0.033491999 112:0.019703001 121:0.064140998 144:0.090565003 156:0.042523999 162:0.059682 286:0.074253999 324:0.053094 351:0.041538 366:0.088451996 368:0.237324 385:0.035838999 410:0.053038001 419:0.036449 469:0.145935 486:0.163158 499:0.073602997 517:0.082837999 627:0.062275998 631:0.058913998 635:0.071198002 651:0.127446 682:0.1097 686:0.19248199 701:0.060077999 705:0.102404 709:0.089506999 731:0.053261999 758:0.212917 784:0.165875 809:0.095857002 857:0.087779 863:0.070641004 901:0.103769 1156:0.205338 1159:0.083097003 1279:0.100976 1467:0.103769 1555:0.074253999 1611:0.12676799 1662:0.079756998 1728:0.069701999 2063:0.201241 2145:0.103769 2444:0.101638 2515:0.145907 3101:0.230615 3822:0.113242 4478:0.097967997 4576:0.106161 4602:0.109889 6074:0.12676799 6599:0.145907 6805:0.12676799 6806:0.49298 6807:0.167344 #
-0.029492485227853439816447789212361 3:0.131046 9:0.047986001 13:0.097071998 42:0.071338996 50:0.057723999 87:0.034511998 88:0.062942997 105:0.032221999 113:0.041953001 114:0.081147999 121:0.092909001 197:0.065582998 213:0.096744001 232:0.059393 248:0.057765 297:0.13496999 354:0.058642998 356:0.074801996 414:0.086000003 443:0.102638 464:0.076908 546:0.094393 655:0.097405002 656:0.079360001 741:0.087728001 758:0.32996401 759:0.174891 771:0.087024003 811:0.074951999 835:0.106156 858:0.10373 861:0.118899 880:0.37691301 885:0.13941 903:0.108041 952:0.102929 954:0.117503 1104:0.119259 1218:0.098775998 1299:0.218624 1367:0.23388299 1422:0.087728001 1481:0.133577 1756:0.196538 1900:0.124412 2011:0.141113 2516:0.229322 2595:0.15142 3835:0.15503301 4688:0.172166 6820:0.1874 12348:0.242401 #
-0.011066695184453807787594570299916 8:0.059604999 31:0.052322999 50:0.054148 56:0.064649001 64:0.080987997 103:0.097130001 116:0.181126 122:0.076724 200:0.341416 208:0.048666 214:0.057732001 217:0.055369999 219:0.053052999 231:0.114373 239:0.020398 257:0.074114002 325:0.095068 370:0.089741997 384:0.103242 390:0.077701002 393:0.095348999 449:0.114739 723:0.104689 818:0.146695 933:0.12794299 1027:0.245205 1130:0.31838199 1198:0.093323 1221:0.115901 1268:0.124661 1368:0.090597004 1397:0.084987 1549:0.16315401 1571:0.25251299 1897:0.30036601 1942:0.15741199 2124:0.26984799 2129:0.23382901 2165:0.096936002 3415:0.139998 12827:0.227383 12828:0.227383 #
0.10000000000000000555111512312578 11:0.037776999 15:0.037370998 30:0.079521 31:0.050216999 35:0.016315 58:0.075581998 63:0.043280002 69:0.077729002 75:0.045077 84:0.095367 112:0.025694 119:0.065577999 126:0.065922 128:0.064709999 137:0.044463001 150:0.075676002 156:0.078157 164:0.051456001 180:0.068237998 208:0.046707999 209:0.076246001 210:0.072419003 212:0.066873997 226:0.052228 236:0.036490001 239:0.019577 240:0.073457003 257:0.19858 276:0.035874002 350:0.042888001 392:0.062885001 405:0.073951997 414:0.077425003 458:0.068237998 468:0.227497 470:0.15331 517:0.108029 539:0.185241 634:0.30512401 723:0.047876999 825:0.066477999 846:0.187966 933:0.058511999 976:0.086805001 1653:0.301498 1686:0.107696 4947:0.435047 5255:0.21823201 5256:0.36949801 5257:0.21823201 5258:0.21823201 #
0.10000000000000000555111512312578 10:0.033581 11:0.029445 12:0.064225003 16:0.069256999 23:0.034752999 24:0.13945501 33:0.16809399 37:0.047026999 41:0.043251 44:0.031794 48:0.062456999 63:0.041813001 75:0.043549001 76:0.071864001 83:0.114891 84:0.092134997 85:0.059838001 89:0.061590999 94:0.060919002 99:0.042197 105:0.028026 149:0.068796001 217:0.051339999 354:0.051006 383:0.048381999 394:0.075994998 450:0.069412999 457:0.112432 470:0.056761 493:0.095167004 504:0.071276002 546:0.082101002 561:0.078916997 566:0.271314 593:0.151885 686:0.092933998 740:0.081583999 765:0.085459001 771:0.075691 780:0.054618001 858:0.053286001 898:0.154228 908:0.092731997 912:0.089000002 969:0.122063 1218:0.085913002 1517:0.104367 1561:0.086066 1650:0.077684 1669:0.078801997 1682:0.115158 1814:0.121408 1932:0.100485 1983:0.142673 2330:0.115665 2393:0.142673 2624:0.35001901 2864:0.12805299 3646:0.183827 3835:0.13484401 4365:0.142673 4386:0.156818 4387:0.154228 8949:0.183827 9369:0.183827 10688:0.21083499 10689:0.21083499 10690:0.21083499 10691:0.21083499 #
0.10000000000000000555111512312578 23:0.094324 50:0.048811 52:0.141923 57:0.083524004 63:0.040649999 64:0.073005997 112:0.024133001 114:0.068618 127:0.071612999 137:0.041762002 142:0.036408 156:0.030762 216:0.056728002 226:0.049054999 239:0.031133 250:0.071704 256:0.052161001 272:0.044296999 276:0.033693999 294:0.098233998 383:0.047037002 392:0.059064001 393:0.050763998 452:0.113019 453:0.099464998 498:0.075737 544:0.065656997 560:0.065517001 561:0.12990201 624:0.080857001 648:0.086025 725:0.157575 783:0.060493 803:0.075313002 812:0.080592997 813:0.082937002 833:0.15468299 928:0.072626002 1014:0.087382004 1348:0.065586999 1349:0.089005999 1375:0.28724599 1439:0.14558101 1694:0.095633999 1949:0.110999 2300:0.152457 2351:0.119997 2444:0.124492 2485:0.108764 2784:0.208084 3387:0.103774 3462:0.31466299 4391:0.250011 4411:0.149939 4989:0.152457 5283:0.162148 8746:0.18840501 8747:0.43015599 8748:0.204972 #
0.10000000000000000555111512312578 3:0.071574003 6:0.092964999 15:0.038387001 41:0.077858999 44:0.033803999 51:0.073634997 54:0.23841999 56:0.063732997 58:0.077637002 67:0.11803 99:0.044863999 100:0.087291002 112:0.026392 114:0.044321001 126:0.02595 138:0.061411999 160:0.083420999 206:0.063451998 231:0.112753 232:0.032439001 250:0.078417003 272:0.048445001 282:0.061515 312:0.126674 336:0.132772 337:0.158663 339:0.106546 350:0.044054002 396:0.083662003 426:0.071957998 493:0.059760001 497:0.065213002 556:0.109953 564:0.123527 579:0.082020998 705:0.137174 738:0.06323 839:0.118947 846:0.155772 1004:0.063009001 1181:0.13706499 1202:0.119898 1217:0.116653 1225:0.082594998 1271:0.11803 1311:0.13614801 1368:0.089313999 1397:0.141858 1423:0.182409 1459:0.10432 1608:0.237086 1679:0.287646 1694:0.104588 1708:0.102516 1797:0.101064 1890:0.161486 1977:0.112378 2163:0.112378 2868:0.118484 3076:0.121909 4006:0.148614 4158:0.163977 4392:0.308314 5166:0.195447 5276:0.163977 5300:0.166731 #
